2708 100
625 -0.15813583 0.17944662 0.11279511 -0.29133123 -0.12096079 -0.23051117 0.19640996 -0.40314028 -0.2199808 0.13576025 0.21640642 0.36051393 0.07527186 -0.455959 0.03287227 0.023141146 -0.25334272 -0.041094493 0.29322 -0.08639607 -0.17312506 0.16347626 0.289369 0.102308415 -0.080183536 -0.099007204 0.5640863 -0.15601955 -0.12288204 -0.05303694 0.05183034 -0.118192464 0.16420834 0.13119458 -0.21926646 0.037802782 0.16393232 -0.27088496 0.35839656 0.0108815525 0.021554144 0.09325038 0.5204124 0.38046908 0.04576857 0.0014695353 -0.28459737 0.07536882 -0.098741956 0.1303574 0.1460635 -0.08541453 -0.16587822 0.4145533 0.2602622 -0.43900192 -0.0072809216 0.19639882 -0.005212894 0.045029312 0.19527757 0.0662174 -0.2333154 0.21423364 0.23195069 0.2360299 -0.28943807 -0.029620325 0.033478927 -0.49398616 0.055442363 0.012583519 -0.053438738 0.17327449 0.04048802 -0.19904894 0.07991691 0.11582049 0.34159115 0.35094586 -0.4938761 0.2553943 -0.3627613 -0.47012603 0.21273234 -0.100367144 -0.40064025 0.1052475 -0.3553082 -0.49456778 0.12817031 0.4112046 0.114960365 0.1851928 -0.43333435 0.00040995586 -0.36077318 -0.10180302 0.28607112 0.47523084
1834 -0.42107713 -0.03938706 0.08584988 -0.006951754 -0.3139848 -0.21025826 0.24993883 -0.48673525 -0.012721738 0.43132845 0.16583532 0.047867645 0.20092593 -0.13643293 0.23420806 -0.047270615 -0.22770622 0.03199821 0.41483837 -0.020325795 -0.15832865 0.35310772 0.26132724 -0.24084109 -0.27451417 -0.19363402 0.106047615 -0.05786293 0.104585186 0.1092333 -0.07844744 -0.17956793 0.039570697 0.0630632 -0.04757381 0.3174338 0.3448449 -0.29397973 0.17973611 0.0056560887 0.06683969 -0.11319158 0.3375978 0.3401636 -0.23456974 -0.21866322 -0.20063807 -0.12440152 -0.16396593 0.2112307 0.074649684 -0.080747746 0.013624585 0.8208131 0.0945528 -0.2125695 0.18991283 0.067244515 0.033307247 -0.12894815 -0.0760994 -0.12822635 -0.21315636 0.23015548 -0.0794743 -0.012159179 -0.069825634 -0.123358436 0.15552634 -0.59652233 0.08970392 0.11530293 -0.004877356 0.41286212 -0.5540978 -0.5692719 0.24290611 0.18733197 0.41839713 0.21886301 -0.21841507 0.22342071 -0.34817988 -0.36921203 0.14657103 0.15213121 -0.34081355 -0.07061067 -0.16658932 -0.23699224 -0.13028848 0.083543934 0.14427067 0.11124657 -0.734161 0.18284309 -0.049376797 -0.24460763 0.09873295 0.30963558
2232 -0.36435246 -0.06652264 0.070001625 0.20508415 0.12751453 0.22444512 0.12773943 -0.50210345 0.012690203 -0.22828719 -0.21421257 -0.16237617 -0.18473616 0.09974356 -0.23802508 -0.091367476 0.17980196 -0.19516103 -0.066147126 -0.028305715 -0.5694595 -0.22085735 0.14657971 0.24034043 -0.19933629 -0.13730052 -0.11626632 0.03628625 -0.13622902 0.22736786 0.062111754 0.26327372 0.37825742 -0.064014755 -0.2151949 -0.06327077 0.09348503 -0.37814233 -0.11260668 -0.31765303 -0.36206886 -0.20865777 0.5535277 -0.03052409 -0.14793977 0.29712126 -0.29505268 -0.10559746 -0.27941784 -0.031949215 0.031184275 0.09196768 -0.23579895 -0.18034549 -0.21691965 0.09050429 -0.26408118 0.22144195 -0.19630398 -0.18860066 -0.33802658 -0.46751428 0.15628925 0.053935517 -0.27057326 0.20208988 -0.27622262 -0.33437747 -0.040709578 -0.37435925 0.36897576 -0.5402971 0.016949955 -0.41204134 0.60746056 -0.2962558 0.16496909 -0.44154176 0.043914936 -0.071110845 -0.091820695 0.13713917 -0.1441693 -0.08475537 -0.10537361 0.14121215 0.51229954 0.5182022 -0.46093887 -0.4451591 -0.5532353 0.03521003 0.5843443 0.23904938 -0.54235184 -0.32033682 0.13315159 0.19174969 0.04005488 0.44574618
1030 -0.3814014 -0.054871224 0.11998211 0.22907384 0.08305354 0.2128874 0.1316859 -0.45694745 0.061480977 -0.13372454 -0.18664916 -0.08530966 -0.17355828 -0.009119093 -0.25491416 0.027641982 0.262497 -0.1643871 -0.08987044 -0.0092619145 -0.48392034 -0.24419458 0.108978495 0.309112 -0.110923 -0.12077316 -0.13617387 0.019545035 -0.17951338 0.1511313 0.0043920116 0.2733503 0.36925173 -0.028542647 -0.2668117 0.02930014 0.09056869 -0.32589632 -0.050616298 -0.36591187 -0.4634251 -0.15652281 0.5736794 -0.050034046 -0.29596582 0.25736815 -0.29877347 -0.0831107 -0.2709997 0.030995961 0.04410612 0.14330022 -0.17399271 -0.15823936 -0.13706018 0.12128004 -0.26912612 0.30122247 -0.3536347 -0.21724652 -0.25714064 -0.5571808 0.15354225 0.18662977 -0.41301224 0.16624483 -0.32237157 -0.2956191 -0.05790257 -0.40686437 0.42498454 -0.5003731 0.11355601 -0.48166907 0.65828973 -0.14475812 0.2719265 -0.38313743 -0.038685154 -0.08185926 -0.008118833 0.18236654 -0.20593087 -0.066318095 -0.09684836 0.27287784 0.49949178 0.48998362 -0.3839728 -0.34938955 -0.54893 0.12055667 0.49485785 0.37666175 -0.5618092 -0.1278778 0.13502923 0.17258982 -0.108316675 0.4715704
1558 -0.375086 -0.03202279 0.113218665 0.24707851 0.19321784 0.17751192 0.07457853 -0.489244 0.04626491 -0.17117842 -0.06527815 -0.14486006 -0.15583253 -0.037783604 -0.26479703 0.054489993 0.28974724 -0.2617696 -0.05521983 0.022774387 -0.5591188 -0.14596087 0.13141026 0.2928209 -0.15411273 -0.16966222 -0.04309315 -0.013761729 -0.17567614 0.20166114 -0.024925997 0.23282358 0.30174762 0.0363085 -0.37096426 -0.056910977 0.012903111 -0.30944157 -0.07656175 -0.4273994 -0.36764252 -0.22201502 0.6214598 0.010395349 -0.15504658 0.32846692 -0.23818004 -0.15848514 -0.29839554 -0.021515284 -0.008476591 0.08826829 -0.31375945 -0.23829186 -0.25538394 0.22803853 -0.25412157 0.3671542 -0.2200069 -0.27751714 -0.28324628 -0.37994528 0.12999746 0.060640756 -0.3620404 0.06435232 -0.36666477 -0.3296121 0.04650144 -0.46090525 0.4284771 -0.50308347 0.059179857 -0.5359812 0.6093217 -0.26100993 0.27254415 -0.18356511 0.03209903 -0.03893112 -0.0583945 0.1813684 -0.2538798 0.008030362 -0.15884805 0.12163134 0.5476119 0.55080086 -0.51890224 -0.2304254 -0.53399754 0.07998647 0.5005875 0.35048607 -0.5500727 -0.17976815 0.1372381 0.1750602 -0.045266703 0.50178003
781 -0.43355155 -0.17514935 0.0012831651 0.13904665 0.08796955 0.20399313 0.11971703 -0.52644706 -0.0052957744 -0.13846092 -0.11776639 -0.07639176 -0.15500979 -0.08719343 -0.11921442 -0.088404655 0.26741916 -0.21511759 -0.088651195 0.0415383 -0.53761613 -0.23689826 0.12405233 0.28715038 -0.11951505 -0.0671332 -0.08503988 0.06767845 -0.09116278 0.25946757 0.06744586 0.25816372 0.42171273 -0.11693797 -0.1704637 -0.15996186 0.05319395 -0.40864685 -0.048039153 -0.24798754 -0.37322092 -0.207119 0.6206416 0.07472337 -0.107268915 0.2525034 -0.22958414 -0.22246292 -0.24558733 -0.0076492485 -0.09583572 0.060982443 -0.31307098 -0.22570586 -0.22151752 0.12356822 -0.22332206 0.38645768 -0.22502923 -0.22195648 -0.3701633 -0.50955874 0.11387938 0.09478326 -0.24380092 0.05750856 -0.3641799 -0.30784437 -0.07238842 -0.39340928 0.32368916 -0.5011457 0.0456045 -0.43897328 0.68025523 -0.13982429 0.30774173 -0.37204173 -0.07470406 0.019162195 -0.042439617 0.20975453 -0.051828388 0.072796226 -0.12172686 0.17310004 0.47667098 0.5596144 -0.48087263 -0.41796482 -0.64003235 0.07532844 0.6184237 0.20774631 -0.59140706 -0.043142233 0.18304679 0.26832893 0.012707873 0.41482776
1572 -0.3226414 -0.16195713 0.116599984 0.18013601 0.09404577 0.13450713 0.08727308 -0.44801426 0.045543905 -0.14428997 -0.1871466 -0.10999263 -0.20754051 0.024095079 -0.18354437 -0.061606593 0.15679856 -0.23529652 -0.10897131 0.019201435 -0.58672774 -0.18946463 0.11325615 0.28689754 -0.15006688 -0.10770909 -0.119633146 -0.005857529 -0.10086857 0.26438063 0.050223567 0.23698588 0.42814356 0.055556875 -0.21644986 -0.092444696 -0.08376784 -0.37383264 -0.044192024 -0.29512602 -0.33030948 -0.17790778 0.52408016 -0.040542457 -0.030042706 0.22700506 -0.29157797 -0.081898116 -0.20603542 -0.039525624 0.022663979 0.09663867 -0.32561204 -0.14828116 -0.2561243 0.15047327 -0.20374134 0.3230696 -0.19422935 -0.21734405 -0.4498569 -0.5175383 0.1968082 0.21090703 -0.27377298 0.13037764 -0.36489093 -0.28484917 0.044661794 -0.41136283 0.3227211 -0.64807206 0.10653742 -0.3972138 0.6340071 -0.21993431 0.21704906 -0.46333236 -0.0012001635 -0.10559776 -0.16016203 0.17066169 -0.09698497 -0.023348633 -0.1545653 0.14713912 0.5307101 0.48660207 -0.4601285 -0.33212227 -0.49480668 0.15732329 0.55125993 0.2002161 -0.6286172 -0.0328448 0.29843655 0.22322272 -0.022929441 0.5006667
813 -0.48833236 0.24772188 0.3504498 -0.8586053 -0.18081923 0.06514251 0.2550301 -0.3265165 -0.080745496 0.12080106 0.31350407 -0.06942831 -0.044019144 -0.37046456 0.14152493 0.2612791 0.066875875 -0.20963034 0.30619234 -0.07786033 -0.17540531 -0.068486154 0.4126464 -0.17409262 -0.20576547 -0.20000498 -0.015397384 -0.4306054 0.03332731 0.21637556 -0.22736563 -0.24760795 0.123340994 0.130224 -0.040849708 0.49188712 0.19799717 -0.38862434 -0.013247015 0.03242458 0.16604389 0.21609645 -0.012521224 0.47914046 -0.05967036 0.00604777 -0.26783782 -0.033319075 -0.17791696 0.047697578 0.104178496 -0.3325056 0.18182376 -0.10578661 0.14279518 -0.39977604 0.005898653 -0.01346531 -0.091323875 0.09524961 -0.054788675 -0.07377304 -0.04535679 0.39831257 0.25087348 0.07513616 -0.40365237 -0.07262015 0.27872565 -0.39791033 0.088045664 0.07339051 -0.06429737 0.25374442 -0.34516802 0.028190766 0.079292834 -0.12651636 0.19654487 -0.0625631 -0.2375925 0.099938795 -0.16375066 -0.34177804 0.09740383 0.017503636 -0.614225 0.09505911 -0.7723693 -0.30115446 -0.05881504 0.34535125 0.056865543 0.14617078 -0.46324372 -0.0208951 -0.10995633 -0.17313991 0.2480467 0.41117498
1379 -0.13571815 0.17024076 -0.37633714 -0.0062014703 0.07017045 -0.04092049 0.5745888 0.120901264 -0.21335174 -0.1900395 0.15352027 -0.100360684 -0.24366218 -0.1315055 0.08743113 -0.00832645 0.5720604 0.10847311 0.37774467 0.13809393 -0.11151091 -0.20150492 -0.21035108 0.06707778 -0.0035134298 -0.1612334 -0.38523826 -0.30513304 -0.31537622 -0.2488193 0.47159627 -0.21273321 -0.34113657 0.63983023 -0.1041658 0.3074339 0.35931268 0.25110248 0.073950894 -0.6037945 0.06452257 -0.017426057 0.37136036 0.120853856 -0.022124149 -0.6968751 0.36307138 -0.20654039 -0.47043282 -0.06212253 0.26913616 -0.0250333 -0.046206363 0.26912084 -0.11143121 0.1406117 0.083084665 -0.19685878 0.3252904 0.11322575 -0.18849705 -0.5612327 0.07293077 -0.21408969 -0.2700917 0.19875138 0.17080563 -0.24493961 -0.08616981 0.123248994 -0.23253004 -0.183768 -0.20732597 -0.25511378 -0.0890158 0.04242562 -0.42104033 0.070435524 0.14521277 0.024650037 0.16125324 0.14740592 0.42933324 0.12899587 0.07357188 0.011882084 0.3684489 0.35168302 -0.3530837 -0.44323614 -0.06672371 0.42895532 0.27294156 -0.20929426 -0.33004424 0.065124705 -0.10347725 -0.16145341 -0.006123565 0.37869072
1650 -0.15315698 0.116014436 -0.28939378 -0.12529628 0.08115558 -0.05475408 0.5898901 0.22556165 -0.13686764 -0.17933995 0.0899369 -0.0026965013 -0.28975743 -0.08361608 0.09898065 -0.019222805 0.5967728 0.013892967 0.36979944 0.13949552 -0.1413822 -0.18782759 -0.1637037 0.1366164 -0.028451188 -0.20492063 -0.3254766 -0.26606745 -0.3167986 -0.33969733 0.48142394 -0.2240714 -0.31917825 0.60493565 -0.078349195 0.19260006 0.2546629 0.2577089 0.17893419 -0.6148828 0.044868894 -0.019948205 0.32035407 0.12692177 0.019780165 -0.7126746 0.40447354 -0.31062612 -0.4452286 -0.030551502 0.2713225 0.01438183 -0.02167904 0.3201933 -0.198523 0.19846055 0.0403238 -0.15810308 0.3028073 0.104698755 -0.24361008 -0.48426372 0.041584905 -0.19718835 -0.16528669 0.09958867 0.14612062 -0.30613965 -0.053670596 0.0792826 -0.35697132 -0.22608161 -0.24276091 -0.3053447 -0.13806237 0.11434709 -0.39357066 0.12571858 0.20563689 0.014522597 0.20402542 0.21084543 0.4749774 0.072484426 0.0435939 -0.031025598 0.34442845 0.3537525 -0.3495415 -0.29584363 0.012666956 0.40048212 0.33082107 -0.18654244 -0.40623814 0.109287664 -0.085899964 -0.123610176 0.12117075 0.42366898
940 -0.4968067 0.17972964 0.39005536 -0.69906783 -0.10634159 -0.1229116 0.26156068 -0.35005394 -0.19639692 0.11418464 -0.04895017 0.055482008 0.09398691 -0.22681156 0.3468057 0.2102157 0.0044628116 -0.09270315 0.34906378 0.101437114 -0.18076849 0.2339157 0.37393582 0.012482408 -0.32594743 -0.3452526 0.072642736 -0.22394857 -0.0029767146 -0.021860346 -0.074403025 -0.4147011 0.046249226 0.37361342 -0.17488045 0.4043858 0.19235116 -0.26857582 0.11484421 0.18924998 -0.03985496 0.14544159 0.065009296 0.5312697 -0.15981379 -0.034274094 -0.32081974 -0.17731993 -0.1472509 0.09561956 -0.010350856 -0.15668003 -0.020986244 -0.029802838 0.23325333 -0.20542671 -0.095427364 0.20698474 -0.09905406 0.11393973 0.11527921 -0.16897231 -0.16724919 0.22916816 0.05908537 0.2992103 -0.2522872 -0.04639996 0.32676762 -0.36206633 0.062445246 -0.12797704 -0.20481735 0.22010572 -0.39698038 0.091526225 0.2261685 0.22167376 0.26316324 0.19431183 -0.3461781 -0.050297745 -0.16811886 -0.45817372 0.14650753 -0.043917764 -0.4853627 -0.0344359 -0.554756 -0.23373416 -0.100810595 0.33774745 0.057911266 0.15431607 -0.37985063 0.053719632 0.023114594 0.024173679 0.25148204 0.36268306
2518 -0.12272972 0.09906222 -0.30154613 -0.038391814 0.053233877 -0.05899712 0.660428 0.16339405 -0.11487818 -0.17608897 0.04223588 -0.03344228 -0.32545653 -0.058023024 0.091413505 0.048856504 0.5611558 0.0442299 0.44930166 0.0781756 -0.09701075 -0.21021134 -0.18288055 0.12849852 0.015324901 -0.13833766 -0.23999597 -0.28229842 -0.3249598 -0.37056404 0.46228805 -0.24164379 -0.32787797 0.5935769 -0.04685377 0.21582381 0.30966252 0.26147807 0.10308443 -0.54198104 0.11993376 0.047001746 0.3810267 0.20266046 -0.02914701 -0.6987123 0.37233946 -0.27050254 -0.4364059 -0.11508154 0.27826872 -0.043356612 0.016048852 0.28242597 -0.16820392 0.17154863 -0.01853513 -0.21207677 0.27673027 0.12869163 -0.20384786 -0.66355056 -0.12652117 -0.31257114 -0.18744658 0.09260516 0.21958153 -0.32785884 -0.18904072 0.091882534 -0.2642606 -0.19376421 -0.18692744 -0.35463795 -0.14665018 0.104923055 -0.50701344 0.031885304 0.14798608 0.05704274 0.17049043 0.22909835 0.45449522 0.089952 0.03575684 -0.02752205 0.3764938 0.38797286 -0.33725378 -0.418347 -0.02196234 0.40229386 0.28487763 -0.104174204 -0.41868535 0.10636768 -0.16359586 -0.035443045 0.085091434 0.357535
2298 -0.13716374 0.08989228 -0.37793827 0.030487573 0.15877648 -0.101086676 0.6114033 0.07836449 -0.1705075 -0.19147216 0.048520528 -0.07441501 -0.23453753 -0.07771421 0.094797134 -0.018085256 0.63643074 0.0066855503 0.42922887 0.1159887 -0.08466901 -0.22116739 -0.13412647 0.13439055 -0.01020173 -0.27391332 -0.3499836 -0.27872235 -0.31253716 -0.30671093 0.48491114 -0.20817716 -0.30412823 0.6283458 -0.06636122 0.2448463 0.24330367 0.30171007 0.113213874 -0.56343436 0.17682596 -0.018067332 0.38631067 0.14291182 -0.01623401 -0.74536276 0.35997453 -0.26951185 -0.35224968 -0.0020615614 0.28709444 -0.01942027 -0.12390225 0.25478446 -0.18848458 0.1554112 0.044525277 -0.20387705 0.34268588 0.13578121 -0.19809867 -0.5891595 -0.0057359478 -0.21611075 -0.16616596 0.15760148 0.21633916 -0.2357489 -0.06550958 0.12537117 -0.3576305 -0.13763855 -0.13308804 -0.34171835 -0.06457064 0.059244525 -0.49500722 0.031829234 0.11333045 0.07384791 0.14229444 0.17568335 0.41623592 0.028519347 -0.049758688 -0.0020581211 0.34248146 0.49350995 -0.36411858 -0.32694188 -0.063903876 0.48162478 0.28105575 -0.13704123 -0.41735476 0.19252542 -0.15224531 -0.15507267 0.060512412 0.38596272
1850 -0.13526371 0.18320659 -0.36202422 -0.03798091 0.053866602 -0.043581903 0.602276 0.11237385 -0.2362662 -0.16064522 0.082275465 -0.08757356 -0.3039911 -0.025701806 0.0376455 0.010983092 0.5648812 0.025709666 0.42975968 0.0588443 -0.116483964 -0.21606705 -0.15448317 0.1070089 0.0063025444 -0.21100435 -0.30438617 -0.26275972 -0.3716942 -0.2913865 0.44341305 -0.18745904 -0.3300967 0.62096536 -0.005211465 0.23709385 0.38449553 0.34490746 0.12051857 -0.5541056 0.07401735 0.0905277 0.35271844 0.16546737 0.02919493 -0.72720915 0.37988824 -0.24809086 -0.4218778 -0.025406003 0.31764123 0.016399182 -0.017230028 0.33081716 -0.14529763 0.07859212 0.039151456 -0.14644375 0.36420867 0.14203008 -0.16376042 -0.6322353 0.023528827 -0.23286013 -0.1740197 0.15781467 0.23592688 -0.2466628 -0.05051031 0.13326293 -0.36049315 -0.19698194 -0.114290155 -0.22606361 -0.11667619 0.09937627 -0.5316614 0.02403033 0.1039998 0.005207319 0.16623645 0.12749603 0.46853366 0.068837136 0.004043518 -0.033844475 0.40876868 0.44349 -0.3946546 -0.41301686 -0.08687905 0.4241984 0.34814733 -0.077630825 -0.40498254 0.0320095 -0.091325976 -0.10216965 0.029473841 0.36081502
1729 -0.13504283 0.11294451 -0.25305784 -0.03446711 0.09242278 -0.10820006 0.5695014 0.2026091 -0.18520173 -0.16647035 0.20665954 -0.003310782 -0.21206005 -0.08870729 0.09770144 -0.048059665 0.6248099 -0.0065795025 0.361832 0.12793878 -0.16452008 -0.14709648 -0.20224166 0.09596686 -0.022426564 -0.13418193 -0.35677454 -0.31174976 -0.25875258 -0.30664992 0.50398016 -0.19813786 -0.25662768 0.6695996 -0.08422792 0.24600191 0.348475 0.20000406 0.17679693 -0.60759616 0.013346612 -0.027452653 0.2829555 0.17291884 0.03486426 -0.63238436 0.42255086 -0.23395209 -0.5226686 0.019395476 0.25358367 -0.042548936 -0.004208902 0.24152932 -0.17963961 0.20030527 0.029917177 -0.19896802 0.39379877 0.07917979 -0.19796897 -0.4601514 0.056840863 -0.24465309 -0.23918316 0.06764976 0.19965614 -0.2745643 -0.0045796 0.03636633 -0.26100934 -0.16950127 -0.24394141 -0.3513379 -0.11168952 0.101773895 -0.38104463 0.056484006 0.23293631 -0.0136337895 0.23603542 0.1459176 0.4891427 0.07125137 0.00892179 0.022462342 0.4046949 0.26975507 -0.34381747 -0.35594147 0.016662674 0.37477008 0.2270484 -0.2084905 -0.39394334 0.119134605 -0.10112571 -0.19890498 0.11491509 0.52866703
1831 -0.16884282 0.14622653 -0.34587264 -0.13483493 0.17812108 -0.18404104 0.621649 0.20964396 -0.16345948 -0.21518187 0.17351367 -0.023327569 -0.20189202 -0.11853413 0.00091354107 -0.090841405 0.56756186 0.057791788 0.3565902 0.17037754 -0.12846844 -0.1862599 -0.23612632 0.041037146 -0.002033112 -0.12931542 -0.3371543 -0.33199745 -0.2789312 -0.30769894 0.4987789 -0.28653318 -0.26286528 0.5649581 -0.16075197 0.26955467 0.3636816 0.27720347 0.12914391 -0.7006241 0.01470439 -0.065343596 0.37258777 0.12199518 -0.05894069 -0.65944093 0.3463896 -0.31385913 -0.5441272 -0.049728468 0.27736744 0.06445534 -0.06756082 0.30736262 -0.1741083 0.20457965 0.05097513 -0.26909646 0.2817838 0.19208671 -0.14243472 -0.5055971 0.08230739 -0.17832597 -0.27091396 0.08368186 0.13231504 -0.2771233 -0.032506905 0.15088312 -0.27775863 -0.22590725 -0.22949664 -0.26195443 -0.18955556 0.089105085 -0.3074753 0.095561355 0.12410301 -0.042869683 0.13403511 0.1530654 0.4479743 0.045100003 0.09390694 0.024311261 0.38621587 0.2811842 -0.3712642 -0.339154 -0.10262449 0.43236628 0.22763705 -0.18011317 -0.40222463 0.17143159 -0.1467289 -0.08913143 0.0979825 0.37677544
2274 -0.1582509 0.10823439 -0.31214684 -0.00044579207 0.076670885 -0.117693976 0.5907144 0.10321904 -0.20116225 -0.1750073 0.018763227 -0.03400774 -0.29314637 -0.0645481 0.053009357 0.009750703 0.59004307 0.05856836 0.43718055 0.09229271 -0.09786779 -0.16696392 -0.12039835 0.080728665 0.024612105 -0.20546287 -0.37045887 -0.2271844 -0.32656163 -0.3242075 0.47084054 -0.252696 -0.30577213 0.60360205 -0.09847657 0.21170597 0.3233368 0.27890447 0.15070362 -0.60126096 0.16804853 0.06778016 0.37723342 0.12443165 -0.0055493596 -0.7507472 0.36160162 -0.262115 -0.4456635 -0.011620068 0.30759707 -0.071606115 -0.029325785 0.31129974 -0.19786602 0.08686566 0.018325035 -0.21590418 0.3397168 0.1560234 -0.19108948 -0.6593983 -0.054173302 -0.22078207 -0.20229742 0.076660536 0.20159808 -0.2619406 -0.12301275 0.09956071 -0.31273305 -0.17330883 -0.18247601 -0.31155097 -0.12012364 0.11678795 -0.45846575 0.044395626 0.062875815 -0.0048576538 0.11821707 0.21462795 0.42509446 0.11452926 0.014437731 0.03087593 0.37990817 0.40279767 -0.35017085 -0.3655132 -0.044727203 0.43719158 0.25462815 -0.12048055 -0.39967108 0.114223614 -0.14415687 -0.100442424 0.06766445 0.35927904
606 -0.119278215 0.12706873 -0.3195529 0.005847278 0.15810655 -0.096362084 0.61866945 0.07204317 -0.1835396 -0.14119524 0.09228481 -0.048350845 -0.30956528 -0.041784223 0.10653556 0.02026143 0.58301 0.05036194 0.41849372 0.08581181 -0.15146318 -0.19163829 -0.121465355 0.10370844 -0.005821522 -0.1759137 -0.3191854 -0.22568455 -0.31881762 -0.32201046 0.49926582 -0.22640277 -0.31581908 0.59997964 -0.10024291 0.23162755 0.28888127 0.27429765 0.103125244 -0.5818096 0.16581222 0.026012322 0.37713856 0.17533022 0.0014024012 -0.73235935 0.36755008 -0.2794581 -0.41866407 -0.031644598 0.3399818 -0.03707778 0.0041127605 0.22798978 -0.17690898 0.13098322 0.0691855 -0.13909343 0.3163124 0.13420753 -0.1069396 -0.5998061 -0.045449644 -0.26226526 -0.18670337 0.0976221 0.20181236 -0.2846756 -0.11992044 0.07045676 -0.31032303 -0.17432168 -0.22120586 -0.31712708 -0.1584058 0.0746506 -0.4850304 0.059349507 0.18380186 0.030737722 0.096482806 0.19268206 0.46958596 0.09694886 -0.022388268 -0.06310969 0.35678148 0.39792466 -0.2722313 -0.39148483 -0.08786426 0.40175596 0.30941114 -0.11850725 -0.41026393 0.09427443 -0.16518182 -0.11536985 0.03474428 0.38670653
2248 -0.34693962 -0.15832902 0.0749164 0.21879625 0.21016607 0.11993989 0.09457175 -0.49410498 0.057798788 -0.1422358 -0.0934684 -0.045891393 -0.23606552 0.07578014 -0.2127111 0.01584565 0.26756853 -0.24076414 -0.13345434 -0.04229119 -0.47293946 -0.27984363 0.12828475 0.21018785 -0.18129446 -0.075796746 -0.109631576 -0.021895485 -0.12287861 0.19815907 0.0025481472 0.28367501 0.35560185 -0.029212158 -0.31233665 -0.15601307 0.05050887 -0.4458357 -0.029317044 -0.30368432 -0.45608753 -0.19497213 0.5203977 -0.00015875403 -0.2678267 0.2812436 -0.18818639 -0.21186726 -0.27591968 0.036030833 0.06182494 0.12717307 -0.34749624 -0.23783685 -0.25736362 0.14801006 -0.24628548 0.2759408 -0.23905036 -0.16047996 -0.29218456 -0.49830505 0.15783948 0.19221039 -0.39334133 0.12890205 -0.3093577 -0.32072854 -0.038612407 -0.4632341 0.45049822 -0.48895136 0.12577286 -0.4946372 0.5904228 -0.27013206 0.29308188 -0.31167117 0.0035818093 -0.026820056 -0.026298072 0.16462034 -0.14403771 -0.044586238 -0.15574242 0.17529915 0.4943166 0.5327806 -0.4880095 -0.3754402 -0.58378416 0.07334837 0.54637325 0.32080045 -0.66340315 -0.21939176 0.16710493 0.16597463 -0.0791476 0.49021715
395 -0.16855988 0.11082565 -0.32653803 -0.09068639 0.11337189 -0.1348058 0.5966284 0.18217261 -0.15675096 -0.18712479 0.1647109 0.01611229 -0.26247343 -0.13270304 0.020860631 -0.06256006 0.63190293 0.10705033 0.4129554 0.18321414 -0.15241332 -0.16355065 -0.24366055 0.055450328 0.0338591 -0.06837402 -0.38926554 -0.2942398 -0.24465585 -0.30129245 0.4848652 -0.1653497 -0.31465495 0.5584081 -0.04295437 0.23282254 0.4482318 0.23684181 0.19038597 -0.6213006 -0.006474348 -0.04786563 0.33614886 0.1246442 0.057544716 -0.59296316 0.42186454 -0.2909002 -0.5461728 -0.064944655 0.25425965 -0.0036598737 -0.0003667675 0.28496397 -0.13501832 0.08169732 0.010312918 -0.21727602 0.34060806 0.14511436 -0.23929559 -0.51175404 0.117476076 -0.17390749 -0.24965857 0.16316767 0.13734579 -0.24510416 -0.05079078 0.090415806 -0.2650123 -0.22720803 -0.2782055 -0.19608046 -0.17319606 0.10152145 -0.3485889 0.07308609 0.16647176 -0.080722414 0.21085502 0.16385667 0.46426418 0.09963203 0.102339886 0.06597906 0.43516356 0.21797411 -0.33753923 -0.44030103 -0.0037911807 0.36569956 0.27068737 -0.20441051 -0.40410754 0.124680534 -0.09726581 -0.17331266 0.091904394 0.3952065
982 -0.20449328 0.089434154 -0.33582798 -0.18246178 0.10819999 -0.2008799 0.5205505 0.20959106 -0.18891145 -0.10327086 0.21698348 0.019121422 -0.21674311 -0.14560196 -0.034265935 -0.046324953 0.68104774 0.05273823 0.28922668 0.114115186 -0.15207596 -0.23858814 -0.20388179 0.05343884 -0.0150131015 -0.08498294 -0.43214914 -0.22567065 -0.26211622 -0.28863776 0.56285733 -0.2265417 -0.2892578 0.56345206 -0.036461744 0.2791543 0.39501798 0.17824447 0.2483337 -0.6110401 -0.011538426 -0.0326559 0.2717733 0.11549484 0.06008242 -0.63694215 0.44405365 -0.29995722 -0.5628783 -0.09075904 0.21845542 0.016379135 -0.0062401704 0.23524886 -0.12107738 0.12783499 0.04570586 -0.2131802 0.3220875 0.15894845 -0.18375108 -0.43855408 0.13900001 -0.19326441 -0.22872096 0.13742414 0.14816569 -0.28243667 0.04300048 0.12128578 -0.16659997 -0.21583278 -0.3296273 -0.32003003 -0.2160906 0.069687076 -0.29819918 0.064744346 0.18474323 -0.05318878 0.25854257 0.10814119 0.33972424 0.07567135 0.15491977 0.03988071 0.42709953 0.15422936 -0.33150524 -0.32849962 -0.059590716 0.42207247 0.31468105 -0.15951109 -0.39583793 0.17778876 -0.08712963 -0.21413909 0.10927783 0.43817717
141 -0.35633254 -0.12971132 0.085205816 0.34199196 0.1700286 0.10893673 0.12445282 -0.452896 0.02097839 -0.12044048 -0.10131874 -0.05641445 -0.22572786 -0.029695021 -0.20341529 0.036055222 0.35687703 -0.20424356 -0.13769132 0.02800341 -0.53091055 -0.14377356 0.106919214 0.27393335 -0.113098525 -0.1896045 0.041688614 0.058755126 -0.20795196 0.114299595 -0.0049199145 0.16414592 0.45265508 -0.059491403 -0.19275849 -0.10207692 0.17854142 -0.35270765 0.065402135 -0.29831496 -0.4920947 -0.18258457 0.45541778 0.0034564575 -0.26366556 0.27269933 -0.30346298 -0.19273876 -0.3109846 0.009940796 -0.056506142 0.08886589 -0.24024884 -0.26247856 -0.269112 0.062390015 -0.22417091 0.3937167 -0.2231647 -0.11375773 -0.24290471 -0.5843048 0.15500437 0.14333217 -0.35965103 0.014770221 -0.33247536 -0.33513466 -0.03335576 -0.41565546 0.3832549 -0.44738007 -0.045004327 -0.5679565 0.60574603 -0.24057513 0.23240106 -0.4621204 -0.13565019 -0.022093788 -0.06397221 0.189198 -0.22609854 0.08866777 -0.0541795 0.18241107 0.38555878 0.56730247 -0.4646718 -0.33256307 -0.6243704 0.029266378 0.5832264 0.3809797 -0.6175706 -0.15723579 0.20502058 0.2643938 -0.06896254 0.47944248
530 -0.27452835 0.060386516 -0.3540218 -0.123172656 0.17058192 -0.19368051 0.5494908 0.22493179 -0.19263126 -0.081541024 0.27811915 0.017798543 -0.1808229 -0.15148808 -0.01946112 -0.13702092 0.6109921 0.09443454 0.34267503 0.16041544 -0.1973513 -0.1570832 -0.33038944 0.01275402 -0.04971009 0.003899072 -0.38920227 -0.26487124 -0.2772994 -0.2911931 0.5135827 -0.06774245 -0.31072867 0.4788174 -0.09144862 0.29708907 0.44537646 0.18177152 0.23044968 -0.6146131 0.049753975 -0.03143077 0.25039703 0.107917875 0.0678684 -0.63072723 0.37469316 -0.23480864 -0.63934153 -0.1501169 0.20981225 -0.034150895 -0.013316876 0.19074316 -0.20308135 0.08362743 0.045109216 -0.20660669 0.29839605 0.100574166 -0.10017177 -0.4001729 0.11910585 -0.17467855 -0.26994127 0.119312756 0.07309223 -0.24331567 0.11591965 0.05817285 -0.21728757 -0.18380636 -0.31299698 -0.26367825 -0.24656752 0.0877732 -0.25439706 0.114185214 0.2011924 -0.08009899 0.29202145 0.10228573 0.36192212 0.17725492 0.11755021 0.06843086 0.4196197 0.10466547 -0.32177562 -0.4870276 -0.026535287 0.3773019 0.37058628 -0.22530833 -0.3818004 0.109340325 -0.046124734 -0.2112918 0.056938868 0.4774091
1611 -0.410601 -0.028644973 0.10279377 0.26009992 0.21072714 0.14886676 0.08471317 -0.55276555 0.11972662 -0.15679891 -0.17678301 -0.1216782 -0.2179137 0.06730031 -0.18837883 0.14043772 0.30022028 -0.1828479 -0.10911759 0.017794356 -0.44556588 -0.21683253 0.10135199 0.3371595 -0.14184777 -0.1583239 -0.10594048 0.020673817 -0.1799033 0.18014961 -0.01387063 0.2582541 0.35107735 -0.09686655 -0.3127166 0.050276484 0.02213394 -0.33039105 -0.0597975 -0.4105291 -0.47861883 -0.13823996 0.6418615 0.10692832 -0.17040391 0.238896 -0.22609475 -0.17340569 -0.20614319 0.038664367 0.014058477 0.1674177 -0.23059447 -0.18380788 -0.2174303 0.10653821 -0.21890813 0.36586276 -0.27416506 -0.18141656 -0.29375345 -0.37430224 0.14483675 0.09175124 -0.38671708 0.08814961 -0.21718283 -0.3333005 0.011017709 -0.39688423 0.4760094 -0.5293864 0.06907896 -0.46807775 0.5313934 -0.18186565 0.33101436 -0.35551342 0.006548406 -0.13663104 -0.14223173 0.20968519 -0.21845311 -0.11348509 -0.14179401 0.20800273 0.64486575 0.4948998 -0.44368908 -0.30463955 -0.45178366 0.13941565 0.539648 0.2868017 -0.5500354 -0.18675154 0.1577343 0.17860378 -0.07738367 0.4606806
1404 -0.105839424 0.107706435 -0.41819447 -0.08973877 0.09644985 -0.15015256 0.595931 0.21875335 -0.16680332 -0.16207322 0.184612 0.0034352187 -0.18419069 -0.12798925 0.064886965 -0.115891404 0.6814315 0.13162623 0.4410142 0.09126698 -0.11471913 -0.15436848 -0.18578495 0.12921631 -0.028309057 -0.14929266 -0.3569761 -0.2290753 -0.37172386 -0.33910552 0.47833946 -0.27269843 -0.327359 0.53538036 -0.1149864 0.17765503 0.38544574 0.23086925 0.1905326 -0.6233157 -0.029112197 0.026277157 0.34658152 0.18777174 0.061813492 -0.70683193 0.4600085 -0.3934365 -0.48690444 -0.05402044 0.28493807 0.0049656047 0.08363877 0.20972547 -0.15588222 0.11704066 0.036166597 -0.20447 0.3112772 0.10882204 -0.24550235 -0.45808947 0.06682053 -0.18607958 -0.23412089 0.12193891 0.14488916 -0.23380151 0.0025556425 0.085559614 -0.20981953 -0.18443266 -0.21226026 -0.30603856 -0.15224612 0.013579128 -0.336866 0.041120727 0.14216767 -0.05783615 0.16665937 0.06624171 0.45725882 0.059059385 0.08444425 -0.010271981 0.3964165 0.3284601 -0.37380496 -0.4377702 -0.029170338 0.39255902 0.30663675 -0.24143286 -0.3805382 0.09532701 -0.19609612 -0.20581253 0.105033144 0.4232522
390 -0.28259584 0.12690808 -0.32814413 -0.16116528 0.17040858 -0.2825551 0.45478263 0.28402758 -0.08006256 -0.12819217 0.3424317 0.00048100328 -0.09567563 -0.17856455 -0.10474869 -0.07677714 0.6383899 -0.02162865 0.30816776 0.22491051 -0.22943732 -0.19348179 -0.31007788 0.049585868 -0.0006783274 0.033961248 -0.4417411 -0.2973422 -0.2633066 -0.33147424 0.47689757 -0.067716315 -0.25014013 0.4756863 -0.04283189 0.3133309 0.564414 0.094998516 0.2912412 -0.6364699 -0.0061295778 -0.015515926 0.13939324 0.08162211 0.1447881 -0.6245331 0.43511286 -0.24231018 -0.70969296 -0.12770206 0.103440285 -0.015166791 0.044586807 0.14813821 -0.16037887 0.016023122 0.006768531 -0.32858497 0.29565543 0.1691656 -0.2630689 -0.44452718 0.105715126 -0.20374347 -0.20694065 0.09144282 0.12389064 -0.28978196 0.12116034 0.08272402 -0.2508091 -0.21763393 -0.40887144 -0.27655208 -0.22448467 0.096894935 -0.18220945 0.13145968 0.2204987 -0.17352091 0.3127423 0.03430961 0.32144672 0.13561963 0.09468723 0.030068498 0.39330408 0.026927866 -0.2809544 -0.47826704 -0.11744224 0.30953267 0.34010506 -0.16415554 -0.38658518 0.15013485 -0.104754165 -0.17593138 0.120511755 0.51097465
448 -0.33023727 -0.04489711 0.1098233 -0.18403412 -0.020291561 -0.18285672 0.07390266 -0.30562863 -0.33352485 0.21757711 0.17098129 -0.18126686 -0.16891499 -0.17268015 -0.097425856 0.42705303 -0.066641755 0.0003337572 0.67747635 0.26379216 -0.45619297 -0.08045937 -0.12399154 0.041217506 -0.33788815 0.015303622 0.09721301 -0.10837668 0.12418394 0.2786311 -0.3524376 -0.20455082 -0.02835862 0.2203708 0.04131866 0.06276999 0.25793105 -0.19097528 0.49221206 0.043544073 0.04396882 0.09583878 0.031308867 0.18703756 -0.31676462 -0.02005193 -0.10442101 -0.31033775 -0.054498978 0.124727726 -0.21310791 0.19357109 0.19910166 0.5084662 0.5399281 -0.26156515 0.21708031 0.062289663 -0.26734352 -0.14184842 0.3514506 -0.10762927 -0.4310544 0.3021375 -0.02365918 0.47191167 -0.18986706 -0.04237031 0.37706307 -0.41340515 -0.023208668 0.18885677 -0.35913092 0.088234045 0.06940576 -0.2111079 -0.10006591 -0.049538657 0.45996368 0.18465403 -0.037389938 0.07050483 0.17405592 -0.44274732 0.3156066 0.1640962 -0.3078338 0.24177893 -0.37128022 -0.054618932 -0.06629333 0.2970024 -0.13836566 -0.331437 -0.49053887 0.20992951 -0.42253214 0.17468134 0.25235263 0.3637035
2205 -0.38209745 0.047322337 0.13612433 -0.18302952 -0.09651491 -0.19933765 0.15440187 -0.35936555 -0.264712 0.17411862 0.197395 -0.12756024 -0.22852851 -0.17617823 -0.039246988 0.27224138 -0.012522524 -0.08936616 0.572397 0.278533 -0.4724556 0.007855604 -0.17690867 0.1473897 -0.32110363 0.07206667 0.07862956 -0.13739046 0.04147434 0.3718905 -0.33743936 -0.11660811 -0.07822038 0.29737422 0.19298519 0.10804876 0.18192852 -0.046759505 0.50091404 0.11996775 0.049159583 0.09222223 0.13540046 0.077022575 -0.3801466 0.017367173 -0.010499007 -0.26915157 -0.11403588 0.06749053 -0.056725007 0.2660439 0.26246458 0.53240055 0.45711398 0.010943777 0.008635919 0.080006704 -0.15384537 -0.20505601 0.36555254 -0.14312518 -0.4597059 0.39483967 0.15903147 0.45821053 -0.19859132 0.01534844 0.39993572 -0.4662385 0.17678317 0.19217215 -0.29338402 0.20340078 0.108436845 -0.16062482 -0.0872447 -0.04788573 0.4793271 -0.010905453 -0.087014034 0.09965452 0.2044923 -0.4529011 0.3148203 0.14124297 -0.47716567 0.22030185 -0.39769697 0.020574033 0.07818739 0.21389906 -0.086619176 -0.30693674 -0.52879417 0.19684397 -0.447943 0.18384655 0.17941567 0.40386012
1286 -0.31271797 0.16841489 -0.40132004 -0.18650259 0.16724889 -0.39845097 0.32953835 0.33590782 -0.09301082 -0.08456629 0.340533 -0.020249773 -0.093943864 -0.15220499 -0.24568973 -0.11450125 0.6122356 0.04333361 0.30950296 0.13210428 -0.21843907 -0.2360439 -0.33218178 0.056802258 -0.0035525083 0.024811925 -0.43837526 -0.34395906 -0.2730091 -0.31580105 0.55488396 -0.08209803 -0.2992694 0.37531006 -0.06730665 0.33803272 0.4850363 0.0872054 0.32524407 -0.5972391 0.011466089 0.0010679301 0.0815178 0.13350439 0.15662245 -0.55794376 0.4963631 -0.29950538 -0.7805944 -0.17223555 0.11313926 0.015568653 0.10797952 0.071231015 -0.11280062 -0.0125333555 0.059689008 -0.3633943 0.26292288 0.15921393 -0.23147474 -0.4744382 -0.021625143 -0.22921753 -0.17466663 -0.052178916 0.038054798 -0.22690582 0.16083993 0.074627005 -0.20252489 -0.23028582 -0.4127486 -0.28621343 -0.29121676 0.00873837 -0.21641156 0.06768437 0.23432462 -0.20671456 0.3909979 0.11725111 0.27716774 0.07448943 0.07176205 0.019076971 0.4002346 -0.007534852 -0.3199688 -0.50087243 -0.07611432 0.3053582 0.31928492 -0.1732663 -0.4478161 0.20419164 -0.11195468 -0.15268092 0.076036796 0.55425537
1457 -0.3664096 -0.14450741 0.0791496 0.24543257 0.13265152 0.2216504 0.15169454 -0.39591223 0.037977435 -0.13428529 -0.11738912 -0.06390605 -0.102220014 -0.082395494 -0.20737629 0.16349363 0.34535465 -0.15724589 -0.1741277 -0.019048657 -0.46225983 -0.11172635 0.116052754 0.25573248 -0.11388724 -0.17978127 -0.10404061 0.019779285 -0.16319078 0.16358255 -0.05544614 0.19079621 0.3179705 -0.052888688 -0.195702 0.035731748 0.094346665 -0.35709214 -0.0041756635 -0.38280714 -0.41443813 -0.23485373 0.5550512 0.09211891 -0.2746991 0.31647322 -0.15458143 -0.09331323 -0.30797818 0.022123167 0.029368866 0.1323963 -0.25711355 -0.27339536 -0.14923243 0.1384496 -0.23291658 0.36714688 -0.31753814 -0.18059091 -0.26638648 -0.59109616 0.16626522 0.12234764 -0.40595713 0.0033599809 -0.30521628 -0.33781067 -0.02276044 -0.42256588 0.4899909 -0.45171398 0.06780917 -0.46476847 0.6499207 -0.18013309 0.30925825 -0.31806397 -0.09575521 -0.016689923 -0.0012315754 0.15605085 -0.22386363 -0.004848986 -0.14218235 0.21318899 0.51082927 0.555661 -0.41075167 -0.29890534 -0.5042911 0.14874488 0.5874911 0.37238583 -0.62456983 -0.14977436 0.11609472 0.20667295 -0.07493534 0.46169427
800 -0.31515872 0.13165697 -0.36720264 -0.11259894 0.24649979 -0.35276648 0.3791761 0.26879808 -0.13586524 -0.13727725 0.2722619 -0.0017242813 -0.12596288 -0.25668427 -0.2132402 -0.16148895 0.70262 0.03629695 0.2523645 0.18069825 -0.27918565 -0.21319567 -0.35030648 0.033069022 -0.030994946 0.055712745 -0.5061264 -0.2223038 -0.27589813 -0.2965883 0.515447 -0.046707004 -0.35846147 0.3683006 -0.07277375 0.2987383 0.51947266 0.028807906 0.37795034 -0.5465766 0.10405755 0.023139417 0.11271925 0.1139486 0.18221039 -0.612469 0.5129451 -0.2338479 -0.67117155 -0.13647431 0.080287404 0.038693562 0.12657648 0.098103926 -0.15493782 0.009511118 -0.0646621 -0.36130044 0.31628585 0.15765826 -0.1889917 -0.46890917 0.025527205 -0.2205043 -0.20016642 0.041111164 0.101180196 -0.1899866 0.19755007 0.0024420707 -0.15361045 -0.19972365 -0.41273987 -0.25634593 -0.29130197 0.11889114 -0.13050045 0.016014045 0.14221162 -0.22713235 0.29484823 0.090588875 0.30061492 0.03880681 0.13621782 0.08486248 0.35915264 -0.0031642276 -0.2423308 -0.4800574 0.0045795483 0.2879459 0.34041464 -0.13709326 -0.4145687 0.14008398 -0.10957233 -0.19197688 0.07516733 0.5757288
1575 -0.27813548 0.15734096 -0.33100176 -0.12413027 0.12696712 -0.36809745 0.39346904 0.3151093 -0.0015814188 -0.07712204 0.3722894 -0.04308718 -0.092677176 -0.18534762 -0.2381294 -0.13381734 0.698406 0.06477708 0.30127814 0.17200765 -0.30242708 -0.17034832 -0.44267797 0.027461804 -0.029779263 0.007170956 -0.41838327 -0.24617226 -0.23565553 -0.2915714 0.6241184 -0.07273794 -0.35624537 0.43749693 -0.029510297 0.33796805 0.53482187 0.05214279 0.29781765 -0.59730357 0.06474977 -0.023628082 0.19300544 0.103187725 0.1664484 -0.5349449 0.4128936 -0.29220292 -0.76525414 -0.21776189 0.071431525 0.019291518 0.15083309 0.08534461 -0.18171532 -0.08183691 0.0034187825 -0.29133788 0.34280726 0.21862604 -0.15835297 -0.41667414 -0.0034785755 -0.24349517 -0.15260524 0.08059602 0.0970188 -0.26645917 0.20358555 0.08651544 -0.19943535 -0.21667358 -0.43624842 -0.30001312 -0.22914654 0.043436542 -0.17023839 0.063390456 0.16365582 -0.17212635 0.37019557 0.07368816 0.23403297 0.1639096 0.104036234 0.079986416 0.33954364 0.0125194695 -0.35829484 -0.38082337 0.016780749 0.32238498 0.37004635 -0.14915556 -0.44155216 0.058975093 -0.09688201 -0.24693157 0.016751349 0.5607298
935 -0.30860093 0.06885273 -0.4026673 -0.1509099 0.22568184 -0.28092065 0.4744025 0.26893353 -0.1959898 -0.20593 0.31934723 -0.02339225 -0.094906874 -0.12890013 -0.19644119 -0.08222282 0.64277947 -0.025706105 0.30062997 0.15765485 -0.22124489 -0.21771036 -0.30320352 0.0081180995 -0.043568607 0.0671107 -0.5157661 -0.31529438 -0.29301336 -0.3757659 0.47367504 -0.008164772 -0.3475021 0.36699638 -0.0010352775 0.31667665 0.4955225 0.050476067 0.40335935 -0.5588008 0.09017868 0.04047733 0.050105266 0.096218206 0.24204788 -0.66364694 0.48640838 -0.27632982 -0.7104585 -0.12837328 0.1457651 -0.034515116 0.09916507 0.076006964 -0.1316362 -0.057454713 0.0029576537 -0.36186305 0.28000656 0.14943996 -0.2124892 -0.3923192 0.06131804 -0.17670476 -0.15326494 0.042533275 0.06458304 -0.24873593 0.20927079 -0.009472228 -0.15751462 -0.25170717 -0.40414008 -0.28941226 -0.33025423 0.051744986 -0.19793588 0.044484608 0.13928507 -0.19663724 0.35976234 0.082045265 0.25679457 0.05666902 0.104750946 0.112719454 0.34519643 -0.031231921 -0.24596564 -0.50249106 -0.06309256 0.29765785 0.40292323 -0.19011158 -0.42099923 0.17691123 -0.07267224 -0.07538501 0.072796136 0.5583948
1571 -0.02743452 -0.3673487 -0.82420015 -0.012656515 -0.0578321 -0.08167514 -0.09064905 -0.1653097 0.12348732 0.3205292 -0.30560827 -0.09131422 0.1321419 0.042127483 0.20386021 0.2371301 0.062340368 -0.15430461 -0.24836883 -0.5292375 -0.08028931 -0.14866637 -0.24712391 -0.04431031 -0.48798335 -0.08456759 -0.11673751 0.06454419 0.08002024 -0.17674851 -0.3457029 -0.14718391 0.3701654 0.26413083 -0.35831052 0.37745196 0.036677815 -0.12281154 0.36504954 -0.14779831 0.5193816 0.4612111 0.32432985 -0.3620428 0.22854134 0.2222841 -0.20169932 -0.42439398 -1.0612408 0.27031028 -0.11732052 -0.022851758 -0.10275933 -0.13124162 0.58668023 -0.41415957 -0.3513974 0.2310032 0.14496155 -0.42128456 -0.100580595 0.16095282 0.8946974 -0.045537278 -0.12273753 0.15845443 0.31588095 -0.69221246 -0.6092471 -0.0032415362 0.33420667 -0.2518795 -0.07008783 -0.052620977 0.30279022 -0.10380193 -0.18804765 0.12063949 0.21176432 -0.17419654 0.12802592 0.54677933 0.23326677 0.014180181 0.2579837 -0.37305835 -0.24789166 0.21297133 -0.7346989 -0.29153427 0.15049118 -0.030128516 0.4327685 0.37659448 -0.38238662 0.032460243 -0.08916283 0.29360747 0.01774139 0.4174061
2265 -0.5499335 0.00034475786 0.021448033 -0.18522887 -0.28642303 -0.50516725 0.4515337 -0.1447562 0.027434595 -0.20542178 0.095577806 0.48794445 -0.16259386 0.35462493 -0.09676061 0.24705133 0.39593413 -0.12952958 0.51838076 -0.027191602 -0.54743105 0.09222612 -0.16101423 -0.43167487 0.0035539616 0.26526973 0.5790827 -0.3302361 0.094576865 0.1728468 -0.0941458 0.43592384 -0.2692643 0.3059762 -0.40860504 0.14035963 0.053892266 -0.4842557 0.91318554 -0.071994394 0.43668967 -0.12027274 0.1890274 0.0139054 -0.33844417 -0.23657937 -0.11379032 -0.41215196 -0.0789 0.2462093 0.19224195 -0.49098754 0.24669535 0.3200486 0.8199012 -0.22365394 0.3774948 0.023786256 -0.11056225 0.22645095 -0.010010815 -0.06254028 0.1337296 0.30333614 0.061921086 0.18192631 0.20636445 -0.67028517 0.07380529 -0.49079603 0.101807095 0.6108703 -0.11168264 -0.009137986 0.05441106 -0.21853182 0.49104676 0.259003 0.23175187 0.20472926 -0.39066756 -0.5333304 -0.5493735 -0.89163744 0.26168135 -0.32252494 -0.41040403 -0.034270488 -0.89581543 -0.4733968 0.16355358 0.06980589 0.32270467 0.42523265 -0.20446368 0.4386113 0.12658598 -0.25553486 0.24244232 0.2533049
765 -0.49851707 -0.073274195 0.0591672 -0.21969408 -0.29392445 -0.5072355 0.43864816 -0.083083846 0.028056959 -0.100830436 0.14958535 0.5137648 -0.18851662 0.21011524 -0.12846535 0.17698638 0.45803654 -0.2002752 0.5152337 -0.019031156 -0.47519442 0.13085423 -0.18097039 -0.35723957 -0.11403212 0.25872496 0.5893419 -0.3413043 0.124591745 0.14889424 -0.04056017 0.47047558 -0.20788051 0.24389057 -0.40187523 0.070595615 0.015071095 -0.48651376 0.79294306 -0.16155083 0.4579297 -0.016463127 0.12850194 0.092672125 -0.4349222 -0.25036085 -0.16463009 -0.47724453 -0.08454562 0.21087626 0.2523545 -0.53753406 0.27254552 0.3792236 0.8540599 -0.22989832 0.38632023 -0.027296156 -0.15021428 0.16457133 -0.039346073 -0.062969744 0.27413368 0.35144 0.018958345 0.24621403 0.1698758 -0.65665764 0.13720721 -0.53116673 0.12336295 0.620264 0.027369557 -0.015351382 0.04204979 -0.2048061 0.51791316 0.31119978 0.16406125 0.12973778 -0.41617507 -0.484075 -0.47527367 -0.8329632 0.19933558 -0.20404479 -0.4717067 0.007355953 -0.80849844 -0.50560176 0.10418226 0.18017381 0.34736717 0.31566155 -0.19453242 0.37938175 0.04472973 -0.18005577 0.3145288 0.22254586
1675 -0.5569842 -0.08771988 0.00036815924 -0.18020113 -0.2974002 -0.47653785 0.35077906 -0.12724699 0.049262952 -0.19700089 0.13849032 0.50631 -0.20340385 0.27323684 -0.0008310345 0.24824965 0.3963449 -0.18171424 0.5793862 -0.010789152 -0.46778402 0.1032685 -0.16042471 -0.36635706 -0.07355411 0.27772975 0.6221581 -0.31249994 0.07816909 0.25398466 -0.07108706 0.3973193 -0.26251948 0.33933565 -0.34355986 0.09848288 -0.028530281 -0.44843513 0.8649018 -0.076250814 0.44252878 -0.06331321 0.12527929 0.097686104 -0.417103 -0.31726757 -0.10918315 -0.4309137 -0.15475404 0.2180265 0.29481143 -0.5262786 0.25523072 0.3310258 0.80351925 -0.16344413 0.3590813 0.024720816 -0.10493361 0.2829795 -0.014420565 -0.0099319285 0.13250805 0.32465518 0.072814964 0.15400547 0.11552858 -0.6533588 0.103941135 -0.605653 0.1463282 0.58234036 0.0062034754 0.0065317065 -0.007713506 -0.20299982 0.45211172 0.24739802 0.21303776 0.10490537 -0.34642634 -0.5182983 -0.4911316 -0.91597193 0.29993045 -0.25476858 -0.40889812 -0.088207915 -0.7954492 -0.5785846 0.12836072 0.13913131 0.335912 0.44954053 -0.22089249 0.34159255 0.1078732 -0.17118232 0.25437975 0.20648165
309 -0.5324645 -0.021698115 0.053124003 -0.2438918 -0.32516438 -0.45236123 0.4188081 -0.030388532 0.073737614 -0.1661939 0.12405544 0.46373525 -0.1549733 0.2876442 -0.1104964 0.17970642 0.35941717 -0.13116257 0.42832807 0.010953623 -0.5590057 0.11721652 -0.2603912 -0.39174417 -0.16936255 0.24985133 0.54623145 -0.33796552 0.06568266 0.08942673 -0.026304921 0.42263502 -0.21637076 0.2427826 -0.37956843 0.17302528 0.0130665125 -0.5012359 0.8420768 -0.055806078 0.4275503 -0.07895376 0.22119807 0.046479717 -0.45676112 -0.18699788 -0.11739537 -0.5050515 -0.078284435 0.20658347 0.2766305 -0.52235633 0.32246023 0.3789464 0.8223331 -0.19206138 0.3045147 -0.081261 -0.06401933 0.25669518 0.1162597 -0.044009097 0.15240696 0.31489646 0.06577638 0.16211623 0.14498456 -0.613338 0.123297326 -0.49469316 0.14353165 0.60066336 -0.021405771 0.015523348 0.057246435 -0.21577433 0.50143445 0.27113658 0.20978045 0.18325523 -0.3572293 -0.52615595 -0.44762206 -0.9127093 0.265702 -0.28082415 -0.4136602 -0.00026837035 -0.87666214 -0.5244695 0.17392504 0.13818495 0.31254765 0.3894051 -0.22469272 0.30592299 0.051124394 -0.18292622 0.24500969 0.20455553
546 -0.5325078 -0.034359418 0.027631778 -0.1623499 -0.30626482 -0.46845403 0.44712427 -0.087950006 0.045159735 -0.091026805 0.14381325 0.48585463 -0.16910705 0.30945522 -0.060941175 0.26056322 0.40033272 -0.16250889 0.54296845 0.059519555 -0.4744306 0.09556951 -0.25735286 -0.3491303 -0.053509768 0.20781721 0.5744761 -0.38025877 0.13447818 0.10857605 -0.06370499 0.4215682 -0.29435563 0.27093795 -0.36313507 0.14941965 0.021977672 -0.44079039 0.80146474 -0.13425358 0.4612269 -0.0637057 0.19347899 0.0476025 -0.48884127 -0.18833381 -0.11883974 -0.47484344 -0.11687676 0.20376065 0.20353378 -0.57195634 0.32488018 0.37040907 0.80144227 -0.1797151 0.3779886 0.03440003 -0.038286995 0.14458936 -0.089053884 -0.04094157 0.2640205 0.24420223 0.10454898 0.18523268 0.107984215 -0.7462631 0.1574793 -0.5328948 0.18421532 0.6152687 -0.073675066 0.032687996 0.07817419 -0.24475832 0.45913807 0.259068 0.21157582 0.23859254 -0.4034722 -0.5321499 -0.5831842 -0.8914547 0.20395431 -0.32786927 -0.4116841 -0.048301384 -0.91483665 -0.51441586 0.19366603 0.14676155 0.2821419 0.34083146 -0.15736048 0.41994363 0.10709015 -0.15708277 0.225305 0.2530276
1219 -0.2908693 0.12396057 -0.34119594 -0.12864645 0.19295488 -0.34744832 0.4222071 0.29909873 -0.124356724 -0.08407322 0.33199257 -0.009348896 -0.03492389 -0.2194018 -0.20746219 -0.12522046 0.673829 0.05402406 0.29949045 0.18875366 -0.21844256 -0.22253321 -0.3454824 0.026934654 -0.049913388 0.03950094 -0.4925012 -0.29612097 -0.29945135 -0.3142722 0.537275 0.018457131 -0.35445002 0.43545002 -0.07164644 0.37879404 0.5593969 0.03327487 0.27716693 -0.57783735 0.10390272 0.032364834 0.12945917 0.056261793 0.16303022 -0.5867806 0.45517728 -0.28561 -0.7481182 -0.11339516 0.12708698 -0.0028189947 0.07392081 0.08537124 -0.11779347 -0.0111380415 -0.007839303 -0.33168474 0.28510192 0.22973335 -0.19745022 -0.3992209 0.04665315 -0.1773618 -0.17350212 0.10425968 0.08473961 -0.19338119 0.17349492 0.00787323 -0.18630202 -0.22166897 -0.40683752 -0.33020958 -0.25963384 0.07503191 -0.20359756 0.0419296 0.162186 -0.15111305 0.26777625 0.07059556 0.3231734 0.09221074 0.078348875 0.08694838 0.38461128 -0.047337368 -0.24994817 -0.41331056 -0.004686456 0.2881601 0.39512035 -0.22177951 -0.44750926 0.10832423 -0.12985145 -0.15773836 0.0400017 0.55425274
1410 -0.32323667 0.1048207 -0.4265501 -0.17258385 0.20950447 -0.39923996 0.42447665 0.2385954 -0.15514961 -0.12407889 0.33889842 -0.044464715 -0.12299162 -0.25224423 -0.20722727 -0.098290905 0.6400792 0.06385133 0.25505522 0.1519963 -0.19337963 -0.2047237 -0.34280804 0.07768591 -0.062245928 0.06455853 -0.5014613 -0.30885255 -0.2522469 -0.30372536 0.5286376 -0.07720613 -0.4253678 0.38128918 -0.033086333 0.29864493 0.5010065 0.07240439 0.312344 -0.58239764 0.01906277 -0.007620983 0.11333129 0.10291286 0.15011372 -0.5544363 0.43393788 -0.24629539 -0.744688 -0.17770925 0.090592414 0.0052155266 0.10780961 0.052759692 -0.13354495 -0.009054154 0.01923243 -0.3304996 0.35952756 0.21714897 -0.19871596 -0.41668284 0.016099762 -0.21119304 -0.16247226 0.068125114 0.065798536 -0.24455582 0.18059911 0.041989293 -0.17813453 -0.21478693 -0.3744841 -0.319042 -0.3107901 0.11737561 -0.20554039 0.07932869 0.1670817 -0.19057411 0.3501139 0.12141195 0.31225315 0.12807766 0.14973328 0.067847356 0.33366477 0.022166701 -0.2557019 -0.5617824 -0.05411688 0.25440016 0.38139272 -0.106078714 -0.480532 0.124580175 -0.088350825 -0.23157543 0.10207203 0.5876583
1890 -0.32859588 -0.118429706 0.0468032 -0.14390117 -0.03223346 -0.17037944 0.08780979 -0.2484996 -0.40967643 0.18373714 0.20606227 -0.21614833 -0.13919148 -0.23216406 -0.047100615 0.4025543 -0.13206749 -0.020112729 0.7320398 0.23667273 -0.3776619 -0.103225045 -0.10456798 -0.042834055 -0.27606013 0.041209046 0.16313826 -0.15954344 0.099373475 0.26102778 -0.35236678 -0.1571224 -0.10751089 0.22902209 -0.038743716 0.07030148 0.20365095 -0.21388827 0.44189787 0.038658045 0.14914387 0.054297812 0.02368372 0.16669595 -0.36268187 -0.040592812 -0.17608146 -0.20914191 -0.14867578 0.12200451 -0.17650253 0.18832357 0.116862826 0.48244908 0.5487514 -0.2671699 0.16115792 0.081204526 -0.30658823 -0.12320586 0.3956094 -0.009277787 -0.48847216 0.38812646 -0.035020526 0.49199155 -0.12975948 -0.034632213 0.34392747 -0.52096814 0.035091385 0.041637544 -0.40263402 0.013351145 0.041168034 -0.15559661 -0.17299986 0.0045745927 0.36140633 0.17655261 -0.025928153 0.02394389 0.124186344 -0.5242916 0.20692442 0.15656711 -0.2900259 0.2196612 -0.3504705 0.057271425 -0.053823058 0.31139356 -0.14911631 -0.38440472 -0.6006394 0.2420659 -0.38195738 0.122218736 0.23438263 0.3516255
1971 -0.069516174 -0.33652335 -0.8825778 0.09695278 -0.093236305 -0.098201275 -0.071356826 -0.12933934 0.09591366 0.3290899 -0.4198498 -0.13511822 0.15382388 0.021901699 0.23239638 0.08016232 -0.02677409 -0.07588401 -0.2538534 -0.49471503 -0.13520908 -0.05112763 -0.3115087 0.038244776 -0.48232567 -0.13991307 -0.060816534 -0.014202441 0.01810211 -0.16613363 -0.3915898 -0.1523992 0.32227293 0.31142658 -0.50667846 0.30982727 -0.010480753 -0.09928591 0.45114037 -0.2243829 0.41227648 0.41969153 0.35998473 -0.28882763 0.18589276 0.1554271 -0.15595378 -0.38631445 -0.92144084 0.34583426 -0.093571156 0.04257326 -0.10823501 -0.11946356 0.65442145 -0.39287347 -0.26926795 0.21685885 0.097914405 -0.40909946 -0.06316227 0.05531706 0.8113283 -0.050295174 -0.061391473 0.13036855 0.3590569 -0.6099732 -0.54508895 0.0036506203 0.34635657 -0.230231 -0.13026547 -0.07962103 0.38024658 -0.123175375 -0.17492476 0.10143594 0.2735037 -0.24837855 0.108437985 0.52805966 0.25055733 -0.016291227 0.1443964 -0.45788658 -0.28670692 0.15459184 -0.732206 -0.39979348 0.24200526 0.021889398 0.3151872 0.38761157 -0.3733058 0.054005444 -0.023529485 0.33015162 -0.02584744 0.31781358
1530 0.0022891914 -0.36353913 -0.8978297 0.07353341 -0.15720455 -0.10655629 0.022913646 -0.1653006 0.1733144 0.3330505 -0.3684014 -0.1037675 0.14708264 0.03319725 0.2054958 0.085228875 0.015842726 -0.09159966 -0.2103204 -0.51496404 -0.096487075 -0.1125306 -0.19451529 0.077675276 -0.43420377 -0.15982649 -0.13227248 0.008201236 0.046981886 -0.22459443 -0.40929005 -0.114221685 0.32875928 0.31677192 -0.48076347 0.32985508 -0.0040453086 -0.19034624 0.37148777 -0.26802665 0.42489552 0.52514434 0.3319325 -0.26021016 0.26950184 0.14979503 -0.2062474 -0.48205522 -1.0194817 0.29785073 -0.11027342 -0.010074751 -0.05403774 -0.05768378 0.62528753 -0.35394555 -0.31645 0.21238104 0.09072228 -0.3539382 -0.01956755 0.13428195 0.80872303 -0.06382764 -0.053568754 0.20686053 0.30918866 -0.6546363 -0.5228448 0.01741617 0.34433475 -0.30518085 -0.038343053 -0.034560215 0.38922745 -0.14921612 -0.15016533 0.09903947 0.23945995 -0.25889885 0.13478696 0.5237389 0.23138651 -0.03433859 0.11081796 -0.48827732 -0.2405984 0.13331531 -0.74086684 -0.3117458 0.20083895 9.4142495e-05 0.31921354 0.40817475 -0.37517542 0.121077366 -0.049814653 0.28406772 -0.04522174 0.32702786
2259 -0.106221944 -0.34810832 -0.86894166 -0.0098525025 -0.05094542 -0.09667589 -0.09176877 -0.117118225 0.054505393 0.34298527 -0.3424318 -0.094797105 0.22498254 0.009710359 0.21556212 0.10260518 -0.0011483697 -0.12540288 -0.29187018 -0.5871896 -0.12690672 -0.17666616 -0.32999673 -0.008036911 -0.5244781 -0.09579123 -0.100007616 0.014133871 -0.0062051187 -0.20376293 -0.2855766 -0.12124003 0.32857025 0.28137794 -0.47110924 0.30849233 0.012138303 -0.1477568 0.40842777 -0.27388042 0.42453158 0.41051745 0.28276938 -0.28353435 0.20655295 0.16567424 -0.22296834 -0.49475327 -1.0996017 0.19698885 -0.121291295 -0.09638436 -0.08097005 -0.04662179 0.5875842 -0.356016 -0.30114165 0.25214747 0.12807931 -0.37479648 -0.055257212 0.1954139 0.89381456 -0.11884782 -0.030443987 0.15344591 0.26071241 -0.6642269 -0.5450716 -0.020962294 0.3731715 -0.29141498 -0.057933513 -0.08692944 0.3986226 -0.16319157 -0.15632077 0.1113868 0.23258606 -0.19942667 0.15572488 0.48224342 0.23090164 0.053255305 0.25376707 -0.41857985 -0.32768756 0.11787208 -0.7401789 -0.33033016 0.1458079 -0.028011922 0.36709905 0.41481462 -0.43086416 0.06341379 -0.04155389 0.30251747 -0.008661562 0.3188889
1334 -0.4111698 -0.116706036 0.04646184 0.24835992 0.19113496 0.21743967 0.16092496 -0.39579156 0.08196458 -0.13959111 -0.061573643 -0.119916394 -0.08254933 -0.07444763 -0.23372017 0.09920624 0.37479314 -0.12870145 -0.22315818 0.0005059299 -0.5568892 -0.044376016 0.050084688 0.2124728 -0.15054311 -0.14441414 -0.09508489 0.051052943 -0.1356426 0.09795832 -0.02415699 0.2398358 0.26768646 -0.019768992 -0.27880046 0.04645107 0.09509886 -0.29700154 -0.04103058 -0.41974637 -0.48630527 -0.15956447 0.49853674 -0.0097090015 -0.1644671 0.34474638 -0.15876412 -0.11246375 -0.25211877 -0.07026287 -0.018290391 0.13103884 -0.2153359 -0.28919455 -0.1735868 0.13896011 -0.33929685 0.33744064 -0.21122402 -0.20402509 -0.3482728 -0.51201916 0.13841903 0.13188054 -0.31942827 0.09143626 -0.4087954 -0.29355568 -0.037239432 -0.5037787 0.5144269 -0.4609257 0.045697756 -0.4595503 0.63543564 -0.1260821 0.23358262 -0.26334238 -0.03543852 0.029934108 0.03880738 0.14904407 -0.24312365 -0.016681092 -0.071989134 0.3144121 0.44272998 0.46354237 -0.45927227 -0.2934717 -0.5796935 0.11960002 0.5529393 0.33855268 -0.6138172 -0.21193959 0.14343487 0.2733556 -0.09286656 0.52882576
2296 -0.0023701624 -0.3139261 -0.86498284 -0.049368624 -0.09386154 -0.12308672 -0.046735425 -0.19065773 0.09329587 0.25445497 -0.45351797 -0.15962367 0.07369581 0.0780945 0.20149425 0.16091724 -0.038269743 -0.13682175 -0.32416654 -0.40971348 -0.10559369 -0.10037671 -0.18737984 0.022470435 -0.44183576 -0.07444495 -0.022068052 -0.006956074 0.04859172 -0.15207587 -0.40044725 -0.29346687 0.36387965 0.31557015 -0.37356073 0.36870906 -0.08841061 -0.1697463 0.49207282 -0.27010083 0.43369392 0.4254967 0.37683573 -0.36941352 0.2833994 0.060021043 -0.19280778 -0.42825297 -0.9825252 0.32602274 -0.18002196 0.014583762 -0.0795256 -0.021344125 0.63081205 -0.42949903 -0.28184915 0.3019898 0.1648351 -0.38521448 -0.109926805 -0.046561804 0.7948559 -0.043438565 -0.055118155 0.13284686 0.34996626 -0.61856604 -0.5537105 0.04560051 0.4104707 -0.29933047 -0.04753607 0.0026720385 0.26800734 -0.074573435 -0.22651136 0.20564921 0.21371505 -0.21346146 0.14487009 0.5899712 0.25745624 -0.058891296 0.18351181 -0.39127153 -0.1748936 0.16809958 -0.6577212 -0.3367633 0.17632537 0.003915652 0.4060879 0.35801795 -0.31700435 0.13161223 -0.032983046 0.46441954 0.037970062 0.34472317
769 -0.207838 0.067884654 -0.338588 -0.12640518 0.11556255 -0.19541006 0.563992 0.2617765 -0.18490456 -0.2537031 0.22076513 -0.05290909 -0.1514293 -0.13669401 -0.050998397 -0.07966729 0.5977508 0.040721 0.2835422 0.22160281 -0.17638265 -0.17229551 -0.29749522 0.033699665 -0.037425708 0.0031658097 -0.40983492 -0.25810334 -0.31234267 -0.2430903 0.5666335 -0.1614199 -0.332657 0.49630895 -0.0819681 0.27398875 0.43609554 0.129275 0.1979287 -0.5885625 -0.02987493 -0.018297903 0.25775254 0.03396694 0.097137295 -0.59291786 0.33522275 -0.24778031 -0.5242716 -0.100377925 0.123222336 0.0050112423 0.015741682 0.22555986 -0.14986204 0.021564161 0.049671542 -0.2826501 0.3181371 0.14296375 -0.1502746 -0.41896045 0.11050653 -0.16354409 -0.22339696 0.11537253 0.1176903 -0.28696907 0.10355798 0.07298404 -0.24082805 -0.2384539 -0.34585312 -0.26888165 -0.22857049 0.16241859 -0.27804303 0.13299039 0.21753614 -0.12856665 0.2686877 0.12712315 0.36235467 0.09643429 0.049251977 0.04820936 0.37286082 0.10049167 -0.31652635 -0.43281576 -0.057743285 0.4109867 0.35106537 -0.2579468 -0.40098172 0.12718521 -0.15023637 -0.22247025 0.051748905 0.5090077
237 -0.050553113 0.12342229 -0.32304654 0.108173355 0.07597898 -0.19475609 0.5463211 0.09559342 -0.09558309 -0.13782091 0.13210858 -0.12713829 -0.31970462 -0.07180086 0.099115536 0.008366882 0.5437235 -0.007822016 0.36337358 0.115242966 -0.112745345 -0.13017581 -0.15461546 0.0722761 -0.010332085 -0.27523926 -0.23529504 -0.24376114 -0.27582985 -0.23998019 0.42149374 -0.24968417 -0.32596916 0.68577075 -0.12210638 0.17435244 0.19985504 0.4426548 0.2598372 -0.60158414 0.13803336 0.16413705 0.355042 0.172722 0.07825597 -0.8187312 0.25767657 -0.28438747 -0.4426975 -0.037060816 0.3524523 -0.0021350852 -0.063109696 0.24440522 -0.23197867 0.13824701 0.1528747 -0.19421145 0.33310595 0.08299291 -0.1443802 -0.72323567 -0.08208056 -0.22809829 -0.19134007 0.08726899 0.1352862 -0.21995074 -0.1237993 0.059565507 -0.30727676 -0.23291291 0.06659319 -0.36860394 -0.16845462 0.19543731 -0.60883135 0.0011976698 0.07645519 0.07157109 0.091009155 0.2783384 0.3856745 0.1287056 0.0815256 -0.0022790942 0.36033463 0.41819668 -0.3962396 -0.39881825 -0.08258203 0.5730383 0.31605437 -0.1367761 -0.3806896 0.14843424 -0.016248556 -0.11998779 0.07770977 0.3972854
1943 -0.09566824 0.2119641 -0.3747566 0.063719794 0.17327808 -0.10108455 0.6740333 0.010788371 -0.11633812 -0.19044796 -0.07017065 -0.1065579 -0.2979074 0.059349287 0.049061984 0.00045871176 0.534278 0.040926993 0.37706938 0.15575959 -0.06544597 -0.20228086 -0.15098783 0.098180965 0.034372635 -0.19618051 -0.2961791 -0.22239164 -0.46294424 -0.2740532 0.4686887 -0.17497015 -0.2396562 0.6619255 0.017181423 0.21258192 0.3961442 0.24198742 0.078446455 -0.49195063 0.18735115 0.166073 0.41256592 0.118792474 -0.03624606 -0.77804095 0.35268033 -0.19963412 -0.36897317 -0.03487968 0.3261655 -0.06860731 -0.017885555 0.21458809 -0.12055625 0.052951273 0.072005734 -0.23473316 0.25195706 0.027723702 -0.11214976 -0.6578892 -0.07162631 -0.32374024 -0.19993514 0.12565339 0.26961637 -0.31924108 -0.052367404 0.123231106 -0.3734093 -0.11558966 -0.04006128 -0.34743813 -0.12198396 0.15680031 -0.52045274 0.07612459 0.11946693 0.07509048 0.1635947 0.27904543 0.38042614 0.10160702 0.034397297 0.07429597 0.34791288 0.4800638 -0.37068784 -0.28483182 -0.002215511 0.38721058 0.4163804 -0.10531223 -0.4086116 0.0933915 -0.21655877 -0.15236089 0.10182008 0.39046478
744 0.012756422 -0.38458958 -0.8034598 -0.022436693 -0.07156325 -0.17911568 -0.033034403 -0.20435452 0.08143758 0.23901653 -0.3949153 -0.07179828 0.1457575 -0.029057223 0.1627132 0.18097606 -0.019251956 -0.094890215 -0.34533107 -0.53767437 -0.110271744 -0.11409879 -0.26852947 -0.009721548 -0.4624304 -0.1331149 -0.058224466 0.062797 0.05004584 -0.10551264 -0.31132936 -0.1376443 0.4065468 0.28031 -0.42365828 0.35004973 -0.03583179 -0.20638749 0.35982168 -0.20718984 0.527634 0.41779876 0.398561 -0.34837 0.20488748 0.19345719 -0.20948705 -0.46114284 -1.1322715 0.20010519 -0.17995667 -0.0599934 -0.07580888 -0.058443204 0.54009414 -0.36569533 -0.21411784 0.3164865 0.17545207 -0.36537704 -0.03629844 0.07458094 0.8695181 -0.1563838 -0.056971565 0.22887515 0.2738069 -0.6458498 -0.5222866 0.046730544 0.33655667 -0.24419375 -0.08597644 -0.12171856 0.29740745 -0.16370268 -0.13388716 0.16492967 0.17787355 -0.16415492 0.18311737 0.514308 0.2828586 0.012274685 0.24391837 -0.35447928 -0.2758569 0.15396461 -0.68129957 -0.341545 0.21172269 0.005056763 0.3986579 0.39218646 -0.41886 0.084083736 -0.06997004 0.35796982 -0.02781487 0.30466384
1936 -0.40525764 -0.04707885 0.026311371 -0.09207839 -0.2959872 -0.11718844 0.16867444 -0.15594728 -0.1991031 0.69224125 0.55562663 0.27288768 -0.09648303 -0.0021010046 0.5535516 0.49010444 -0.28143007 -0.098202325 0.28866574 0.14105263 -0.30238974 -0.122411236 -0.18526898 0.2537616 -0.4982968 -0.048431076 -0.035439953 0.046944536 0.09262848 0.33554584 -0.0213313 -0.031388342 0.2039862 0.17268609 0.29943156 0.23575617 0.25765783 -0.20200714 0.19860673 -0.31717128 0.1664479 -0.20603822 0.5058175 -0.21556287 -0.0042074444 0.22315471 -0.1813597 0.1882075 -0.16976158 0.23317257 -0.37095088 -0.079956345 0.2066425 -0.004989979 0.67156386 -0.1583916 -0.0059984773 -0.26314965 -0.36713597 0.25787827 -0.0030883192 -0.28123778 -0.2966247 -0.014890422 0.026265513 -0.14817154 -0.04870379 -0.07302969 0.2884533 -0.63634825 0.23888104 0.03323548 -0.06115968 0.13628168 -0.2589764 0.05357382 -0.028895438 0.32638493 0.02470203 -0.27399412 -0.62833536 -0.04608369 -0.15350977 -0.89934015 0.47465265 0.20797053 -0.56246156 0.10227583 -0.5576504 -0.20246197 -0.1033113 0.2966782 -0.038577035 -0.5972804 -0.6670161 0.107117884 -0.18766691 -0.067427635 0.5447335 0.3758327
2286 -0.4669115 0.012038502 -0.023517322 -0.06447488 -0.35880673 -0.12864442 0.19496562 -0.1323072 -0.25280288 0.6568031 0.5194808 0.22356208 -0.16722019 0.03369531 0.5205228 0.4299995 -0.32329458 -0.10341938 0.22102672 0.10811613 -0.19176127 -0.09620899 -0.0883197 0.37146208 -0.43301246 -0.02463261 -0.05913963 -0.047507215 0.11057079 0.25027412 -0.015555514 -0.0032627452 0.25142717 0.18573302 0.26389086 0.20011194 0.20333408 -0.2688958 0.21971254 -0.25604293 0.10580061 -0.27552113 0.5031475 -0.24828175 -0.050718024 0.2113281 -0.28422946 0.083372876 -0.1972583 0.08721391 -0.3517924 0.0025545815 0.22014071 0.15776588 0.67833203 -0.106989875 0.024687856 -0.26545182 -0.39876276 0.31847176 0.05193132 -0.28425136 -0.39986292 -0.10999472 0.07141044 -0.15237929 -0.026309071 -0.17332765 0.27657706 -0.6519897 0.16274555 0.026318057 -0.15454522 0.11987981 -0.23442535 0.0013926689 0.049751297 0.32672372 0.02440593 -0.40317005 -0.63815486 0.08626543 -0.15114799 -0.95041466 0.38543132 0.14943258 -0.600379 0.11198991 -0.5050611 -0.23069361 -0.1110813 0.1675632 0.018803753 -0.6271197 -0.5996573 0.01415207 -0.2139303 -0.09296769 0.6146656 0.35488254
727 -0.08487489 -0.3535854 -0.92969567 0.095883146 -0.10020537 -0.14688656 -0.06418412 -0.16768149 0.10338439 0.28177482 -0.49564794 -0.083060704 0.15427516 0.07386807 0.22316314 0.14161278 -0.008942828 -0.09223869 -0.19921666 -0.4774036 -0.0963802 -0.0096903425 -0.2814924 0.0071199615 -0.45229396 -0.21317068 -0.01913612 -0.041061882 0.023225708 -0.2178616 -0.40133777 -0.17865098 0.30897453 0.36481357 -0.5027019 0.29018116 -0.019069232 -0.053199627 0.3847693 -0.24900144 0.4162212 0.33583474 0.22446936 -0.22004466 0.27869874 0.17015478 -0.19648945 -0.42360806 -0.90203977 0.2517887 -0.1158062 0.07148952 -0.14708109 -0.10325538 0.7148851 -0.5024594 -0.33449292 0.08837894 0.14567207 -0.3978693 0.02650092 -0.016077949 0.81772906 -0.07559951 -0.18675818 0.013772461 0.29936117 -0.6218035 -0.5515613 -0.05196717 0.3896508 -0.22621427 -0.09421264 -0.05670039 0.2877844 -0.078576766 -0.17723233 0.12998666 0.28584644 -0.30913928 0.10779364 0.44790587 0.26994702 0.060766805 0.18422465 -0.50385803 -0.21148027 0.15800343 -0.79143053 -0.3791029 0.14722474 0.023303173 0.32938805 0.36619186 -0.41866386 0.07329017 -0.016822029 0.38534313 -0.037715733 0.31180197
1225 -0.3694854 -0.22505414 0.04261961 0.2698004 0.07889234 0.17861657 0.12065707 -0.39746723 -0.05623369 -0.17676514 -0.09898321 -0.069439456 -0.1708048 -0.07963461 -0.17884761 -0.025256883 0.25728622 -0.15355733 -0.12681666 -0.03509693 -0.551794 -0.09168681 0.09653437 0.18454349 -0.019901302 -0.20476858 -0.05257542 0.056129597 -0.25777233 0.25834745 0.10674319 0.21081823 0.27355328 -0.121304765 -0.29888272 -0.021873983 0.09522465 -0.29689592 -0.030045075 -0.25047967 -0.3951978 -0.24645506 0.49501258 -0.025860468 -0.08775225 0.3335202 -0.20205495 -0.11635364 -0.256354 0.023606038 -0.09747213 0.04301147 -0.25985897 -0.25218898 -0.06622898 0.14699534 -0.307222 0.34745198 -0.24193078 -0.21336627 -0.35635 -0.5773394 0.21126564 0.20970923 -0.27918676 -0.025322258 -0.36734185 -0.2790636 0.010760035 -0.3082649 0.3559421 -0.44310635 0.010379862 -0.41942608 0.5680392 -0.29833326 0.2588473 -0.49985012 -0.08052702 0.07496837 -0.065081805 0.19036856 -0.0951154 0.042764734 -0.077685654 0.25995195 0.41047066 0.6394751 -0.5431567 -0.3066064 -0.6127898 0.09699471 0.5688811 0.2318425 -0.632219 -0.14893432 0.19046828 0.23662236 -0.0058555137 0.48145202
942 -0.6591142 0.43088725 0.055194166 -0.052210726 -0.15438275 -0.39161044 0.25508404 -0.25331244 -0.06443069 -0.23538396 0.30298084 0.010023383 -0.49506506 -0.31970835 0.31521836 -0.3531939 0.02058515 0.004985126 0.28950417 -0.18962565 -0.20564377 0.21324831 -0.03674772 -0.027433725 -0.81447184 0.18768713 0.25616878 -0.30161256 0.07907703 0.085856155 -0.3392801 -0.4870899 0.24995288 0.044411145 0.23548052 0.518124 0.028164808 0.3429163 0.18650986 0.16754761 0.104335 0.37375626 -0.24862772 0.006840339 -0.20383453 -0.020660916 -0.23140347 -0.28271458 -0.056174085 0.69113183 -0.10677279 0.11458613 0.17786145 0.3571968 0.14652257 -0.24396728 -0.19748509 0.27490923 -0.04831864 -0.42018902 0.4377191 -0.45836523 -0.44436446 0.3699131 0.13585594 0.6148078 -0.18027897 -0.5932416 0.28115547 -0.32985213 -0.06480933 -0.37648103 0.024539545 0.027613059 0.22756313 -0.21244535 0.18276684 0.21671882 0.18171431 0.0771883 -0.5045106 -0.42658243 -0.2697919 -0.121506535 0.11213481 0.3337708 -0.1996727 -0.13563447 -0.51667446 -0.20246097 0.3069545 0.27837893 0.18008986 -0.2329886 -0.2881168 0.22364648 -0.6445545 0.15966955 0.71759313 0.31959182
191 -0.48546687 0.072445735 0.21040037 0.19340098 0.26157472 0.086262435 0.18550882 -0.57856315 0.10389296 -0.07375409 -0.39913678 -0.20696269 -0.3117004 0.11996387 -0.08873115 -0.2787122 0.13223617 -0.05291237 -0.11599849 0.14650692 -0.68159336 -0.40637252 -0.018167252 0.30938214 -0.15534705 -0.17487186 -0.18981433 -0.1611385 -0.052560218 0.1277531 0.019227052 0.33229864 0.42796135 -0.052365743 -0.30766094 -0.024382835 -0.09635193 -0.4425869 -0.22271186 -0.46883833 -0.41539842 -0.0665823 0.5107496 -0.01732125 -0.041336443 0.36711803 -0.5297552 -0.096163176 -0.17485882 -0.058475852 -0.037989717 -0.11984102 -0.22195 0.09471008 -0.11739146 0.2164066 -0.25002733 0.3435506 -0.23359664 -0.19041076 -0.4912114 -0.3578427 0.15629658 0.09761519 -0.32711533 0.14686513 -0.052745815 -0.1418806 0.07244413 -0.35663772 0.26024172 -0.6910453 0.14896807 -0.2193981 0.52923733 -0.29039344 0.10174372 -0.4287397 0.10179162 -0.23325518 -0.23939748 0.18748997 0.07412835 -0.19519043 -0.2214625 0.16727102 0.65128994 0.370854 -0.4762064 -0.2617977 -0.26433635 0.04755474 0.5794706 0.2748011 -0.56932616 -0.17688496 0.11531326 0.19407889 0.08856527 0.29455286
2077 -0.2789812 -0.14116853 0.029817436 0.22775707 0.06752453 0.13556908 0.04156735 -0.5053322 -0.09509858 -0.11132834 -0.0603213 -0.051553983 -0.14579384 0.022147683 -0.19954571 -0.06658298 0.20280473 -0.15330422 -0.19096667 0.0118145645 -0.6368789 -0.21388245 0.10485694 0.280112 -0.1307229 -0.13257313 -0.033394683 0.13205874 -0.17625126 0.20793365 0.13326693 0.025392205 0.43017238 -0.0544006 -0.19288252 -0.16381162 0.08210754 -0.2921977 -0.032408576 -0.18043567 -0.32118908 -0.3105894 0.44662148 -0.06010968 -0.071482986 0.37126297 -0.15700464 -0.18937705 -0.3137164 -0.06621526 -0.07393181 0.16432126 -0.3397662 -0.17190795 -0.12384467 0.16582796 -0.19722947 0.31555632 -0.22257842 -0.16300449 -0.4680733 -0.6002235 0.17879245 0.16466135 -0.14657865 0.17756233 -0.37718675 -0.28632554 -0.01511102 -0.41951498 0.2840084 -0.41461122 0.083109036 -0.43965518 0.7117767 -0.4116187 0.23480937 -0.5606826 -0.14017276 -0.00071141444 -0.10516251 0.011968543 -0.03643387 0.08485908 -0.12815371 0.18319455 0.285369 0.6412584 -0.5189962 -0.38700986 -0.6682081 0.13094649 0.59691447 0.18516329 -0.68841136 -0.1345992 0.21853931 0.16720288 -0.12443258 0.5569565
174 -0.37292922 -0.30707076 0.09855107 0.11715884 0.20495719 0.15442795 0.14784877 -0.36378494 -0.012678384 -0.23261479 -0.19659166 -0.20918265 -0.24089555 -0.043241058 -0.1574299 -0.23335719 0.17465468 -0.19341192 -0.0985438 0.009544338 -0.6202303 -0.10901904 0.17753802 0.24850686 -0.10751142 -0.28542835 -0.056012787 0.06936164 -0.17325898 0.31419834 0.15094225 0.2148718 0.24315967 0.03507175 -0.17606978 -0.08655312 -0.008691008 -0.463149 -0.07166752 -0.2962047 -0.36975947 -0.20313919 0.5166618 -0.109427504 -0.17927451 0.30285382 -0.42165226 -0.043116465 -0.21827817 -0.0061871028 -0.036041923 0.1343666 -0.1767086 -0.07013897 -0.27334264 0.08507799 -0.1374485 0.11055967 -0.31397972 -0.28644344 -0.56703156 -0.49084455 0.27779526 0.08656839 -0.2543557 0.04221186 -0.33111477 -0.26411748 -0.08175767 -0.39433572 0.33763584 -0.6928619 -0.0067460695 -0.23218273 0.5617003 -0.20134266 0.20107284 -0.38837034 -0.00055246754 -0.10821784 -0.08868137 0.10077886 0.019538319 -0.11704583 -0.20900127 0.25112703 0.46880752 0.43785205 -0.34082416 -0.46438664 -0.3302957 0.13435082 0.5757618 0.36701196 -0.51989245 -0.22867793 0.07073341 0.28078794 0.05570426 0.39879158
290 -0.47359458 0.084753826 0.20040216 0.20848656 0.29567134 0.19196713 0.11193577 -0.4873335 0.14266539 -0.0674038 -0.34521335 -0.1847662 -0.2488267 0.1912039 -0.22201864 -0.012554691 0.1164598 -0.17672661 -0.11107645 0.109526046 -0.64787465 -0.27843568 0.005843405 0.3437595 -0.071069054 -0.1753006 -0.18434264 -0.19784349 -0.08309078 0.13170002 0.039697174 0.3701664 0.33604458 -0.032660734 -0.19216532 0.02246005 -0.112665944 -0.3860051 -0.1645032 -0.45544857 -0.30854496 -0.19876592 0.59431785 0.046156853 -0.061801393 0.2834262 -0.48626727 -0.032027252 -0.23097232 -0.045208633 0.11051884 0.026241075 -0.19975314 -0.032134827 -0.16344044 0.10846946 -0.35166013 0.30043495 -0.19738236 -0.3117242 -0.3380808 -0.49050012 0.117217906 0.118746676 -0.43586543 0.11074321 -0.14096096 -0.19628544 -0.035356905 -0.4086942 0.323566 -0.6238493 0.008626589 -0.32205027 0.490098 -0.33984122 0.23280454 -0.3171098 0.083722666 -0.17520837 -0.19864547 0.2946572 -0.14541997 -0.108562246 -0.18315995 0.19298433 0.619565 0.47750604 -0.48116323 -0.2323485 -0.41332537 0.10664696 0.5414037 0.2670692 -0.5045743 -0.15677817 0.12268235 0.24004251 0.030827248 0.4004517
2204 -0.35486856 -0.24101162 0.057356674 0.07039881 0.23454559 0.092443414 0.17895114 -0.24181949 0.020060467 -0.10669314 -0.17648706 -0.019988192 -0.1682229 -0.06650541 -0.25831825 -0.026885089 0.25256953 -0.17516531 -0.20777169 0.0050184685 -0.6106711 -0.037138566 0.11366703 0.1322194 -0.010204738 -0.24994706 0.00010597565 -0.025606725 -0.23402701 0.18429351 -0.063796364 0.18340649 0.22022896 -0.066111505 -0.1941543 0.009367691 0.07358572 -0.3665933 0.0027735604 -0.3478447 -0.53453904 -0.2523018 0.48527446 -0.037071846 -0.23352996 0.327331 -0.2529835 -0.1691069 -0.21448183 0.040635873 -0.11836231 0.09213082 -0.3268806 -0.23887397 -0.18183441 0.0072108405 -0.27741823 0.2681309 -0.2005029 -0.25351 -0.47271404 -0.50770974 0.19315155 0.09641689 -0.2883241 -0.017676946 -0.4616798 -0.24495414 -0.041110564 -0.3806362 0.37624004 -0.62504935 0.009594472 -0.284934 0.51850265 -0.27128768 0.08753471 -0.4405908 -0.037537582 -0.090253785 -0.023931298 0.16619438 -0.13560303 -0.09076429 -0.10974913 0.24248376 0.47940192 0.55728394 -0.39448595 -0.39914444 -0.48364335 0.14300062 0.6004487 0.32983002 -0.4678933 -0.11948263 0.16534811 0.3123617 0.032684293 0.4771269
38 -0.29547837 0.041399293 -0.026898747 0.5284852 -0.04729045 -0.42230392 0.940483 -0.08669742 0.4506891 -0.19657204 0.13691399 0.56528413 -0.22808321 -0.48532504 0.037066557 -0.56439734 -0.7280085 0.23691161 0.642991 -0.2411975 -0.18285607 -0.7186108 -0.23475626 0.37600285 -0.9801743 -0.37616485 -0.45737734 0.053369805 -0.15800223 0.079631396 0.16742827 -0.33052737 -0.1124105 0.36388204 -0.095874466 0.546249 -0.3198575 -0.602379 1.0727693 -0.22127883 0.5176279 0.2596575 0.08303853 -0.08592537 -0.08700637 0.2506062 0.31526804 0.5210732 -0.43426308 -0.42391038 0.18797714 0.23309645 0.05242694 0.37298378 0.18445729 -0.59394294 -0.33535147 0.44785023 -0.038873747 0.044226643 -0.7639527 0.3347747 0.43684644 -0.084071584 -0.24610858 0.061179735 -0.46809295 -0.00075160206 -0.011217917 -0.44410485 -0.3710257 -0.11399013 -0.17296588 0.1376829 -0.44382134 0.46530238 0.0017365549 -0.102579854 -0.051241376 -0.3353781 -0.035641074 0.15907325 0.02887983 0.09578132 -0.18808188 -0.054429498 0.6013244 0.5072603 -0.61568683 0.04567897 -0.97269404 -0.17997174 -0.1294079 0.052311193 0.19638593 -0.103522316 -0.5681072 0.0073709567 0.3228209 0.6761015
37 -0.48285177 0.03258885 0.19034761 -0.18832868 -0.04848526 -0.28559953 0.23123677 -0.34877422 -0.2888138 0.099363394 0.19153921 -0.14622077 -0.26733962 -0.25991935 0.08485703 0.2354122 -0.07860385 -0.1156535 0.54530704 0.16960578 -0.419443 0.004016544 -0.20827004 -0.039662093 -0.25821522 0.06663252 0.17218585 -0.046229288 0.14873733 0.30555183 -0.36435384 -0.107115485 0.012567521 0.31207052 0.089980714 0.1358515 0.17163876 -0.105957314 0.48602906 0.114934094 0.037545193 0.06999983 0.14171457 0.23475547 -0.41292933 -0.11468196 -0.041345403 -0.3414309 0.025868103 -0.06076917 -0.21810716 0.22364102 0.196695 0.39914918 0.35719612 -0.24139406 0.011448486 0.08277967 -0.11923021 -0.21682258 0.34973076 -0.075057685 -0.46264312 0.38094443 0.17727831 0.4127221 -0.22974843 -0.07867036 0.19073625 -0.32522294 0.11352931 0.13277201 -0.31786847 0.19461527 0.056550827 -0.04054251 -0.020676274 0.0031179353 0.38308412 0.012916091 -0.1963208 -0.027292736 0.15757893 -0.31909063 0.31656665 0.14766191 -0.33014715 0.1335775 -0.34956378 -0.12906015 0.19373703 0.23614357 -0.033105914 -0.3285509 -0.6068904 0.082689434 -0.27260605 0.22918648 0.36325422 0.3173142
1685 -0.27363813 -0.2239977 0.105966605 0.09019231 0.12982205 0.16028833 0.12522708 -0.53264695 -0.028972011 -0.23431654 -0.26026466 -0.1742648 -0.24519314 0.04752892 -0.15130755 -0.15463871 0.13726687 -0.12678659 0.071220405 0.02222502 -0.63454217 -0.22385594 0.27862763 0.29699656 -0.19459777 -0.09942167 -0.045563888 0.103086196 0.07686 0.30368707 0.2756579 0.1641859 0.39695778 -0.04156502 -0.29275036 -0.066837646 0.046414003 -0.4453401 -0.11575268 -0.30353162 -0.12553293 -0.2582731 0.41331398 -0.0012162555 -0.061073903 0.33900502 -0.15022299 -0.003668191 -0.15392801 -0.1315707 0.027964689 0.25956222 -0.41169798 -0.1922926 -0.02651858 0.18485874 -0.21420431 0.23484613 -0.35626304 -0.31970486 -0.65796304 -0.41128287 0.1959318 0.13149048 -0.22826618 0.21346702 -0.51675713 -0.27063194 -0.04798657 -0.18624832 0.20587693 -0.58688796 -0.061116606 -0.34601322 0.6519187 -0.3294893 0.23172331 -0.5445412 0.04995402 0.009894179 -0.1983662 0.006949098 0.08816435 0.020267319 -0.121408224 0.13372579 0.42198133 0.564111 -0.42569304 -0.3988539 -0.36623406 0.029124117 0.6401631 0.17623703 -0.66792274 -0.091571845 0.24459979 0.279498 0.045359723 0.4441637
1380 -0.041386824 -0.2849159 -0.90914476 0.072045706 -0.19455378 -0.02325045 -0.13737084 -0.21902946 0.09410297 0.29528135 -0.48605973 -0.14301121 0.120137535 0.09070821 0.15263142 0.0691026 -0.031858057 -0.17465861 -0.057987157 -0.40646085 -0.21574703 0.05228405 -0.32781112 0.14684597 -0.39454657 -0.037806973 -0.008507514 -0.018869823 -0.057590347 -0.2730906 -0.38728556 -0.24147373 0.3495951 0.3359398 -0.5121704 0.23651408 0.12293532 -0.12747882 0.49249205 -0.29124236 0.44697368 0.35186487 0.25722712 -0.16299877 0.16961636 0.1823653 -0.14370067 -0.2562243 -0.8813284 0.43528587 -0.09423872 0.05124083 -0.079461455 0.0013532254 0.705256 -0.44396034 -0.41770154 0.17595445 0.08954267 -0.39193073 0.014693318 0.019256776 0.83413696 -0.11888955 -0.20465742 -0.06401011 0.41421127 -0.7424473 -0.53977937 -0.0135301715 0.20521475 -0.3012375 -0.15741323 -0.09584281 0.2785417 -0.16185534 -0.24926081 0.13586159 0.41037446 -0.32020268 0.01918896 0.48762614 0.18322268 -0.0015237839 0.18036757 -0.49702364 -0.2757211 0.20094502 -0.72753763 -0.47828084 0.11862987 -0.0062080715 0.41373375 0.4305723 -0.17096615 0.09299569 -0.025014665 0.5088309 -0.067511715 0.21878788
2361 0.012838726 -0.36328503 -0.845349 -0.042707738 -0.16170359 -0.119196944 -0.062117264 -0.17458332 0.23183995 0.29071233 -0.4113038 -0.09823951 0.012553411 0.17081498 0.25976333 0.14179035 -0.01878235 -0.19522978 -0.2673512 -0.45970067 -0.18200558 -0.08677235 -0.17522475 0.09098614 -0.3675573 -0.085089795 -0.14549755 0.09353383 0.07745623 -0.22636794 -0.39220363 -0.26848006 0.39400917 0.38913378 -0.39219698 0.39919016 -0.008131598 -0.10986905 0.42924595 -0.22301711 0.361093 0.45306215 0.4223181 -0.2835015 0.16864975 0.21561728 -0.08843888 -0.29407582 -1.0468019 0.34348956 -0.014729616 0.019875603 -0.009144502 0.049406644 0.6868628 -0.37020594 -0.33803675 0.25017914 0.14971991 -0.33779436 -0.004689656 0.022316808 0.8138201 -0.055860672 -0.19769949 0.11522961 0.36405474 -0.6637965 -0.5337741 0.06659911 0.3078599 -0.22878146 -0.1309703 -0.11349431 0.36583102 -0.17151031 -0.16593951 0.11615446 0.31107572 -0.1620086 0.15782632 0.48131695 0.21362749 -0.056140386 0.12124604 -0.42966518 -0.16045977 0.20883009 -0.731683 -0.42678502 0.16561855 0.014241777 0.2187009 0.46076518 -0.24994975 0.121715635 -0.12767419 0.41541445 -0.0641274 0.27489248
1113 -0.41823584 -0.16137059 0.06419452 0.25669432 0.21144357 0.15630458 0.07351272 -0.5229256 0.0981319 -0.096723296 -0.055374924 -0.08838448 -0.2040377 0.032675344 -0.25330362 0.11041461 0.381809 -0.20668958 -0.12973766 0.025132997 -0.48486224 -0.17922239 0.13864766 0.27053624 -0.1824886 -0.020368809 -0.11194848 -0.04798433 -0.10331425 0.16550203 -0.05026971 0.3408499 0.3229496 0.0034151874 -0.19635983 -0.07598601 0.10901922 -0.38940984 0.008644558 -0.36766326 -0.4460067 -0.17414322 0.5235974 0.00086175033 -0.26459563 0.32323885 -0.23690067 -0.14518508 -0.3314004 0.03316515 0.08435915 0.09570839 -0.31197366 -0.30402988 -0.24844621 0.12828691 -0.27548382 0.3024986 -0.23725586 -0.18956591 -0.30210605 -0.50987357 0.10877589 0.20378867 -0.4794391 0.094795376 -0.31454116 -0.26654163 -0.07056246 -0.4882155 0.4396756 -0.5041989 0.124836884 -0.46015683 0.591496 -0.1610501 0.36049107 -0.22947122 -0.090531595 -0.01967048 -0.050684273 0.19797777 -0.17852786 0.03192558 -0.14164555 0.23811871 0.51005816 0.5378982 -0.5195993 -0.32752383 -0.54584146 0.059360284 0.54087573 0.3824474 -0.6953152 -0.25150982 0.12565914 0.16100469 -0.084600255 0.47138855
2564 -0.4108677 -0.13074654 0.28074807 0.1398625 0.33403984 0.029608727 0.14811525 -0.45399934 0.016440224 -0.08528511 -0.53919274 -0.24515732 -0.3705182 0.069854744 -0.056240458 -0.28975847 -0.0070321327 -0.0720971 -0.08446692 0.0051983446 -0.67227286 -0.34712636 0.06566581 0.30321112 -0.12637785 -0.058702353 -0.113269486 -0.063932635 -0.15163843 0.2688016 0.14091717 0.24588396 0.448968 0.066390604 -0.19051799 0.06985982 -0.03566816 -0.4326129 -0.21333905 -0.5058255 -0.27376333 -0.11963049 0.4515102 0.20494539 0.01821688 0.4315969 -0.45668608 0.030888163 -0.11201836 -0.111337736 0.06846148 0.04318658 -0.17276002 -0.08259923 -0.078323595 0.20021859 -0.10235263 0.19556151 -0.21300042 -0.17178336 -0.5477124 -0.38810152 0.15776387 -0.03182519 -0.33084464 0.23169631 -0.07337846 -0.14974786 -0.07138564 -0.42758602 0.27247906 -0.7265312 1.14051145e-05 -0.28053322 0.51100624 -0.3403111 0.23233394 -0.31720987 0.11595413 -0.22146836 -0.24573763 0.052889645 -0.06265845 -0.17997634 -0.20974089 0.08560248 0.6718304 0.35705918 -0.4079645 -0.20668277 -0.22237757 -0.0047391825 0.69804156 0.1908744 -0.621737 -0.13784109 0.18677858 0.31935927 0.06341366 0.4371873
1224 0.010210756 -0.37496337 -0.9540177 0.023925308 -0.21651608 -0.16265118 -0.10618996 -0.20089488 0.055152513 0.37216762 -0.433921 -0.09508002 0.097713575 0.0131741585 0.35262653 0.1236216 0.0326084 -0.015660413 -0.33918107 -0.4816458 -0.14005904 -0.11716883 -0.2439912 0.10446087 -0.31330028 -0.045572206 -0.038367353 0.08215353 0.121561535 -0.19854161 -0.40660703 -0.30615315 0.3784789 0.41738394 -0.61766726 0.45115986 -0.085935004 -0.20044903 0.40578762 -0.21759968 0.24653646 0.52875966 0.43300757 -0.32545602 0.16811486 0.14455949 -0.055473942 -0.47677478 -0.9476327 0.3633972 -0.017794942 0.040655516 -0.10089469 -0.07288135 0.6260615 -0.423304 -0.15888369 0.36923218 0.18282254 -0.22867954 -0.18826579 -0.01872295 0.7887548 -0.102563836 -0.078052714 0.14323951 0.40812796 -0.62146515 -0.46876922 -0.029956933 0.37494394 -0.2568882 -0.10158958 -0.080038935 0.22140425 -0.18997832 -0.20421271 0.087467775 0.2360241 -0.2234025 0.17521748 0.5047072 0.17515746 -0.08340154 0.035163987 -0.48549443 -0.11333223 0.16548218 -0.684025 -0.26537454 0.2644143 0.004378246 0.19976822 0.3456093 -0.3474285 0.05138863 -0.0058099898 0.41335723 -0.020133944 0.36351496
1734 -0.059027832 -0.24467605 -0.88686526 0.07233755 -0.16683172 -0.13394453 -0.1175115 -0.09434894 0.111440934 0.26378542 -0.49600968 -0.1236255 0.049991082 0.09408153 0.21310157 0.060339026 -0.032404102 -0.16053237 -0.21972851 -0.43042973 -0.12616193 0.075238906 -0.23446383 0.104408644 -0.42620015 -0.071889676 -0.09368237 -0.038500357 -0.054624695 -0.1610881 -0.44561428 -0.21220946 0.35398605 0.39558557 -0.4514507 0.21497963 -0.00913682 -0.09690171 0.45845652 -0.25395894 0.41774157 0.338037 0.27974722 -0.09123173 0.2368677 0.14834371 -0.08692367 -0.39461192 -0.83205575 0.3303335 -0.027780594 0.13300769 -0.12623297 0.022524541 0.6880976 -0.44739243 -0.5386148 0.106209636 0.094893 -0.37793624 0.011766774 0.016033854 0.7546218 -0.13873668 -0.25167447 -0.02514706 0.41230306 -0.6038508 -0.5771171 0.05940257 0.42893234 -0.2104657 -0.112392835 -0.0433889 0.26256794 -0.12039357 -0.36629832 0.10058219 0.4915836 -0.22772254 0.045726467 0.49287778 0.20161854 -0.0957714 0.16397282 -0.49282017 -0.31260473 0.23977 -0.8433023 -0.47159007 0.07461347 -0.077577494 0.33848494 0.44617122 -0.2656468 0.13670148 0.0210469 0.47314832 -0.13175395 0.2593304
1106 -0.3768105 -0.26859358 0.03713443 0.20074756 0.072236575 0.13558328 0.08115893 -0.3626079 -0.01689005 -0.1883101 -0.019428873 -0.047362726 -0.26916325 0.08624011 -0.16328846 -0.019512754 0.2400613 -0.25286305 -0.17206743 -0.1325093 -0.5039564 -0.124258764 0.22160919 0.23833613 -0.19666377 -0.122472174 -0.016064094 0.052180164 -0.09256806 0.209401 0.061985422 0.3256547 0.33677244 -0.12541902 -0.30145207 -0.2170046 0.049507365 -0.35246927 -0.05517237 -0.34084514 -0.5612528 -0.12869537 0.48852313 -0.08166826 -0.20951141 0.304308 -0.16492972 -0.118775755 -0.33730742 -0.0022230402 0.051887687 0.048764464 -0.3374877 -0.21633713 -0.16336885 0.06773695 -0.28180876 0.363115 -0.25040486 -0.12900266 -0.3531707 -0.5640806 0.10617411 0.18951805 -0.30898964 0.15715691 -0.30088907 -0.26831904 0.0361189 -0.43627596 0.34826526 -0.52553344 0.049107507 -0.41856134 0.57828325 -0.32139966 0.2699002 -0.4733272 -0.055343576 -0.0035169753 -0.004992806 0.13056083 -0.02702367 0.04936483 -0.21885242 0.17067266 0.41997465 0.66572666 -0.5648292 -0.35821253 -0.6655554 0.09231626 0.54039496 0.20136951 -0.6639709 -0.14592105 0.19496661 0.21683234 -0.030307058 0.5353489
2396 0.0764791 -0.34504563 -0.714034 -0.041782748 -0.10140951 -0.17467454 -0.13355827 -0.23336616 0.09571382 0.29131007 -0.3419524 -0.04680675 0.13794978 0.044082846 0.1466628 0.21897945 -0.020449243 -0.1391923 -0.25184736 -0.54401785 -0.049875144 -0.09183988 -0.1759578 -0.043141983 -0.5418029 -0.1735263 -0.085556656 0.05667119 0.1051434 -0.124900386 -0.23823471 -0.12791766 0.48002928 0.2719628 -0.36591467 0.41751695 -0.06951987 -0.17025328 0.4104763 -0.2582117 0.4698284 0.39869782 0.29740715 -0.32948768 0.17993353 0.20305374 -0.21796903 -0.46061623 -1.1116446 0.22281629 -0.0906886 -0.06936891 -0.07365215 -0.037399225 0.45217633 -0.34674963 -0.26574957 0.25688124 0.2356101 -0.34473675 -0.090061985 0.0868854 0.9315093 -0.15217191 -0.10284457 0.23158045 0.28490797 -0.6147128 -0.6290616 -0.008061595 0.25543904 -0.26499903 -0.16596447 -0.11876668 0.31100795 -0.12773374 -0.09249388 0.14014181 0.24112467 -0.11007487 0.18306027 0.4668013 0.32256842 0.03369305 0.27246535 -0.36127844 -0.29257512 0.23530312 -0.6664678 -0.24764019 0.2798888 0.0041025206 0.4142361 0.4501903 -0.37726402 0.08801227 -0.04421916 0.3446651 0.13861856 0.35431042
602 -0.28411034 -0.28245595 0.064108044 0.21425407 0.07073891 0.11325164 0.15314533 -0.42765117 -0.033431325 -0.20925498 0.0074041975 -0.0596939 -0.21729162 -0.01175592 -0.1905113 -0.052496534 0.23106936 -0.23598471 -0.17094629 -0.08297937 -0.47192398 -0.13751821 0.1930645 0.23146959 -0.1906771 -0.099072516 -0.0680304 0.07805699 -0.12281136 0.16447768 0.029784605 0.29528728 0.3908487 -0.12434091 -0.31227946 -0.18867877 0.10049818 -0.35642275 -0.046679962 -0.29084533 -0.54220146 -0.19669099 0.48529437 -0.061311916 -0.16958112 0.29242358 -0.18464102 -0.232443 -0.36202717 -0.07102017 0.051806957 0.029503282 -0.38397965 -0.2719666 -0.17497008 0.11327689 -0.26348665 0.331853 -0.26029152 -0.16464274 -0.31212193 -0.5540658 0.11043747 0.14116254 -0.32931337 0.19023599 -0.3039417 -0.31769648 -0.03585228 -0.4537418 0.36820158 -0.5005169 0.11311416 -0.40271452 0.55649424 -0.29515183 0.3140073 -0.41801766 -0.10069923 0.10647049 -0.026320351 0.08649622 -0.0113164 0.03287721 -0.18861265 0.12936756 0.43275356 0.6147987 -0.5564656 -0.3487205 -0.63421273 0.055513073 0.5073652 0.2736343 -0.69378436 -0.1776367 0.1510312 0.1789225 -0.013175764 0.5553393
2164 -0.48628703 -0.3593521 -0.7988591 0.60259396 -0.009507129 -0.2824208 0.8608165 -0.11250691 0.395028 0.31820083 -0.023265276 0.7703506 -0.77517796 -0.09774282 -0.54695886 -0.05251407 -0.45371288 -0.51578534 0.2965638 -0.5104956 -0.72773767 -0.38331783 -0.38659045 0.19824736 -0.39207163 -0.6511783 -0.5146427 0.2423734 -0.70146096 -0.090745896 0.41079697 -0.34087387 -0.09965564 0.70582217 0.2841581 0.6619034 -0.5926469 -0.58679104 0.6558176 -0.41944596 0.4056445 -0.037154682 -0.24370825 -0.38182583 -0.4398638 0.33320755 0.31448948 0.018516544 -0.62670225 -0.091862716 -0.2710653 0.2185915 0.38480714 -0.1690302 0.5678305 -0.40758625 0.202277 0.42990884 -0.0036198518 0.13755478 -0.11860559 0.5287518 0.3741923 -0.52730167 -0.13024165 -0.40162197 -0.12618135 0.4961799 0.047763426 -0.47429702 -0.5357995 -0.5547799 0.0073465933 0.595731 0.046057068 0.5170457 0.16469215 0.09373977 0.3812989 -0.24625023 -0.57485247 0.37704006 0.072018474 -0.18633579 -0.29980356 0.5811184 0.2867774 0.106964804 -0.6497644 -0.22195132 -1.0551795 -0.24503049 0.109215654 0.05534831 -0.3053055 0.01759228 0.67628103 -0.038348917 0.9460375 0.308312
1206 -0.24187292 -0.2531125 0.247151 0.08887712 0.28327078 0.15596749 0.20136814 -0.39858392 0.11466743 -0.16224296 -0.4747103 -0.1472954 -0.29487416 0.029425472 -0.1875663 -0.3796312 0.05862918 -0.11446946 -0.041701216 0.059907865 -0.72972083 -0.19242175 0.24502856 0.21608953 -0.24842452 -0.19429219 -0.09069897 -0.12870817 -0.06320278 0.26261353 0.069781646 0.22720565 0.2346473 0.056108307 -0.09481546 -0.08003247 0.023586113 -0.5071616 -0.225064 -0.42926103 -0.21365519 -0.12647422 0.46279323 0.03824289 0.029789897 0.3452851 -0.418686 -0.041029613 -0.09213687 -0.09570096 0.11107033 0.1577167 -0.19926703 -0.099172935 0.0115511 0.15030146 -0.22745995 0.27127033 -0.18225197 -0.2858225 -0.6670496 -0.41731384 0.263872 0.12089476 -0.21569245 0.105170496 -0.4006269 -0.23723881 -0.008271423 -0.2965855 0.19764651 -0.6962187 0.02498358 -0.20350589 0.5530668 -0.38246587 0.11042211 -0.49759123 0.108844206 -0.21509269 -0.26460755 0.15125309 0.12142032 0.07089312 -0.08226414 0.15806276 0.53896934 0.46488047 -0.35458034 -0.36587074 -0.13068755 0.13152367 0.6519336 0.11561119 -0.55118793 -0.13048488 0.18881866 0.20406823 0.15621631 0.42500776
1205 -0.23071429 0.08702292 -0.35652396 -0.056754805 0.34255612 -0.49404606 0.33183032 0.34323722 -0.07025782 -0.17317307 0.3479074 -0.006889685 -0.1231907 -0.22768293 -0.32651863 -0.08278746 0.631885 -0.03644782 0.22311756 0.18539992 -0.1495621 -0.21419604 -0.3321117 -0.029276641 -0.09335236 -0.025016768 -0.45107812 -0.2965684 -0.24995491 -0.32855612 0.4593107 0.009156669 -0.27742803 0.4250453 -0.106136456 0.34911993 0.6456699 0.004979563 0.30165505 -0.5526259 0.03816516 0.037837267 0.078087114 0.07014978 0.19044714 -0.64782745 0.39426363 -0.23165345 -0.7284214 -0.18106532 0.07294588 0.0039778883 -0.021531759 0.12499754 -0.092586465 -0.04900773 -0.157002 -0.2910321 0.38975328 0.34080178 -0.23473808 -0.35177517 -0.06790175 -0.17001751 -0.10014088 0.0056608017 0.1608485 -0.18697712 0.20995052 -0.01691953 -0.23853117 -0.20199856 -0.49598956 -0.30112043 -0.251909 0.05578509 -0.17111705 0.11766339 0.11487336 -0.19910806 0.37199292 -0.0021952372 0.31890464 0.03981358 0.11173551 0.09563086 0.28522697 0.011168223 -0.1635727 -0.43300152 -0.080946855 0.3117799 0.393926 -0.13465661 -0.5204998 0.136029 -0.031590525 -0.098929405 0.059627984 0.63372886
1717 0.07918129 -0.45975643 -0.6678793 -0.108264 -0.09199615 -0.35635963 -0.1955084 -0.27611673 0.18596756 0.20175608 -0.27927622 -0.09607408 0.034514364 0.047275174 0.20564148 0.19932835 -0.06156371 -0.23314065 -0.3555291 -0.5606107 -0.09158955 -0.10834263 -0.18375042 0.095794 -0.54515386 -0.15728915 -0.089706175 0.23866366 0.005515963 -0.007822914 -0.14748473 -0.28560206 0.57294744 0.11017706 -0.20934944 0.39380246 0.016629204 -0.1683103 0.43751258 -0.2445873 0.45905796 0.439256 0.35020247 -0.3783944 0.13522848 0.1841013 -0.10332235 -0.4749573 -1.0943002 0.24086656 -0.21870379 -0.047619145 -0.042468406 -0.0014402797 0.5323736 -0.3409327 -0.19517213 0.34716785 0.35813454 -0.29662827 -0.08295887 -0.10195974 0.9042987 -0.2997437 -0.0007986559 0.25476232 0.32586586 -0.58830035 -0.653766 -0.0959561 0.36507902 -0.20635349 -0.12999494 0.03268382 0.26157615 -0.22130403 -0.18019353 0.06408027 0.07215364 -0.07697835 0.1962338 0.42693585 0.4883943 -0.08951381 0.3056919 -0.17341153 -0.3291321 0.23993178 -0.61592025 -0.33371603 0.18980113 -0.035395123 0.47925144 0.52795106 -0.24299057 0.21972619 -0.09588669 0.32945886 -0.00057229924 0.3956296
2604 -0.35702962 -0.40839842 0.12391057 0.14565125 0.1004795 0.04638729 0.14879458 -0.5792085 0.15300505 -0.27661273 -0.2637264 -0.21666935 -0.23344114 0.09580725 -0.05363318 -0.3485231 0.074639305 -0.082190104 -0.04394381 0.036802214 -0.58510375 -0.31974036 0.22108673 0.28653678 -0.21205488 0.019515796 0.029451823 -0.028409204 0.05965722 0.32893655 0.22741586 0.10423572 0.38130298 0.14380766 -0.12938505 -0.13012709 0.076680966 -0.4684788 -0.08291625 -0.2894328 -0.1342505 -0.1602647 0.43128076 0.14189494 -0.072048016 0.38579813 -0.29510432 -0.06524726 -0.016041467 -0.20633627 0.030733543 0.3590614 -0.25945315 -0.1776717 -0.044837803 0.30866897 -0.078490146 0.19750707 -0.41648325 -0.3663432 -0.7211671 -0.27680233 0.055169832 -0.045468066 -0.17905639 0.31988466 -0.42924762 -0.27212268 -0.06111399 -0.24676412 0.18630531 -0.7099049 0.045352202 -0.24710554 0.67763746 -0.35906014 0.15870875 -0.6061758 0.09622917 -0.06417518 -0.25267485 -0.06477103 0.1172615 0.056359462 0.018425016 0.13272817 0.45539108 0.57216465 -0.38365382 -0.45927078 -0.2553587 0.087894455 0.78088874 0.06515345 -0.6518738 -0.13043444 0.27571842 0.26284733 0.006234388 0.4094176
714 -0.31150606 -0.2151307 0.15924498 0.070698515 0.17774676 0.09845574 0.13386916 -0.49329853 0.09020025 -0.026068736 -0.15417175 -0.13711041 -0.2332877 0.20590636 -0.27538803 -0.25262696 0.061618797 -0.18536559 -0.043765474 0.035518404 -0.6309444 -0.31857026 0.2337924 0.20114395 -0.29939237 0.020355953 0.08405812 -0.039435282 -0.06762911 0.25160944 0.22316259 0.22939838 0.4350439 0.043215405 -0.19693328 -0.13358776 -0.010704601 -0.48614696 -0.13580978 -0.27591416 -0.16172138 -0.1446868 0.48900238 0.027039107 -0.19070037 0.35516518 -0.2950202 -0.14782901 -0.21499467 -0.020469751 0.09158793 0.20932455 -0.3526267 -0.18859471 -0.20857765 0.33847448 -0.17610393 0.17586192 -0.32096568 -0.3321806 -0.58663136 -0.43124872 0.15202829 0.13865228 -0.29254237 0.31259316 -0.34114385 -0.2833259 -0.09862888 -0.36858985 0.24848902 -0.65487856 0.109741256 -0.423485 0.56736904 -0.28114262 0.20474513 -0.5182661 0.10658786 -0.20452489 -0.19343674 0.021329643 -0.009246047 0.015873633 -0.20866208 0.026167857 0.5421389 0.61006844 -0.5200856 -0.34380624 -0.38703653 0.05731679 0.6106304 0.14191101 -0.6737385 -0.07659868 0.2228537 0.16193956 0.01496671 0.5035061
266 -0.10867848 0.08169496 -0.3401216 -0.10770088 0.045314 -0.15828593 0.561151 0.22597197 -0.15784696 -0.07924598 0.17501703 -0.0051748226 -0.22951403 -0.113474704 0.09086335 -0.07505715 0.60316783 0.082254305 0.45351118 0.023501774 -0.11468318 -0.19657023 -0.18912311 0.007252318 0.034810882 -0.12299677 -0.3384147 -0.27942663 -0.35953468 -0.34121323 0.49828202 -0.26026306 -0.32653305 0.5759499 -0.15690002 0.20039485 0.38269126 0.23657095 0.1649613 -0.60985017 -0.030564573 -0.006787596 0.35931703 0.16927768 0.010940095 -0.7109494 0.45880908 -0.35886803 -0.5246147 -0.000480938 0.30478325 -0.048106052 0.017187085 0.24610005 -0.17264773 0.09690694 0.07456704 -0.18839288 0.37277222 0.106426306 -0.19746462 -0.5252631 0.008865874 -0.17613885 -0.19616964 0.13690443 0.15084088 -0.27593926 -0.023741206 0.09872986 -0.23422681 -0.25315428 -0.17625132 -0.33504006 -0.1381572 0.06268446 -0.36258414 0.017354405 0.08798584 -0.023844358 0.15955667 0.100126505 0.5101338 0.10056819 0.02945487 -0.032978114 0.44371516 0.35537678 -0.39683792 -0.41820344 -0.015920712 0.4212213 0.3130513 -0.2899879 -0.38796368 0.09467621 -0.14251281 -0.14672205 0.08933468 0.41661462
846 -0.3632007 0.004825521 -0.045556355 0.6074745 -0.14476807 -0.38166326 0.93526936 -0.17905916 0.4682317 -0.17423701 0.07102817 0.41743731 -0.23636678 -0.5060758 0.17120261 -0.4901232 -0.7523822 0.3603266 0.5493675 -0.33917618 -0.18440494 -0.5686127 -0.15382428 0.34177512 -0.8056299 -0.46319255 -0.41574124 -0.0061442144 -0.26238683 -0.018533673 0.28630468 -0.27429187 -0.12881094 0.311603 -0.0014429608 0.47434336 -0.295114 -0.58154386 1.0866438 -0.21127272 0.3566058 0.19154839 0.13274793 -0.13916239 -0.016825812 0.23871171 0.2801779 0.28019777 -0.3147799 -0.37881467 0.33564076 0.2799126 0.104217686 0.25175777 0.30689222 -0.6462159 -0.25076538 0.4861059 0.02409175 0.07089405 -0.6214697 0.46577072 0.35634565 -0.16913678 -0.033705156 -0.005481032 -0.47028878 0.03673367 -0.006664359 -0.39053127 -0.32557383 -0.2275761 -0.18593985 0.22020988 -0.34524655 0.4354402 0.045559492 0.0029692058 -0.03130322 -0.3378176 -0.1518477 0.031905033 0.18358676 0.2557859 -0.19639403 -0.09369494 0.5248602 0.61375755 -0.5554311 0.20268998 -1.0405025 -0.06590852 0.037441924 -0.0046254178 0.069224894 0.01690684 -0.4531895 0.018134093 0.27750638 0.6792889
2039 -0.1398235 0.07880399 -0.3348066 0.0035454796 0.036406636 -0.1928504 0.59711915 0.18243665 -0.17545228 -0.0718608 0.16857964 -0.04944433 -0.25205913 -0.069655016 0.097604685 -0.08893855 0.6488767 0.052241787 0.3957914 0.06229608 -0.06940631 -0.2052064 -0.16248809 0.034256477 -0.01699927 -0.25851455 -0.30941156 -0.3065449 -0.3813274 -0.3110558 0.4906437 -0.24407868 -0.32743144 0.6557712 -0.09460947 0.1964968 0.29606912 0.24164012 0.1558205 -0.5747415 0.0825116 0.08082601 0.3935687 0.12112431 -0.025431266 -0.72701496 0.44854054 -0.35241565 -0.40846428 0.046829086 0.35861963 -0.044241242 -0.05941252 0.23704198 -0.20311432 0.15940072 0.09731541 -0.09926517 0.35672623 0.1349698 -0.20633999 -0.54740286 -0.09960924 -0.25841576 -0.19428986 0.09812692 0.22194749 -0.2882654 -0.111136936 0.0880771 -0.25969797 -0.25702515 -0.071770966 -0.30347404 -0.111406684 0.02194916 -0.38660005 -0.011331903 0.0618316 -0.0036383783 0.12182627 0.22123307 0.4712081 0.14445567 -0.010042111 0.00015960273 0.37103152 0.4634421 -0.3998488 -0.33729842 0.017079083 0.4501749 0.30222914 -0.23409493 -0.39776337 0.104253076 -0.17764959 -0.21817347 -0.027634028 0.44725332
2554 -0.08144537 0.0585721 -0.29017577 -0.009436024 -0.045618653 -0.1663349 0.583139 0.17401119 -0.121203825 -0.164234 0.12089561 -0.039159477 -0.30078784 -0.050989173 0.075642176 -0.054312825 0.6172813 0.09517708 0.39625743 0.032930482 -0.08327745 -0.24053605 -0.14401725 0.045695327 0.01931258 -0.23655346 -0.31269625 -0.2747596 -0.31749502 -0.33967754 0.48590937 -0.29146078 -0.33193946 0.6616907 -0.13049725 0.1606214 0.26258498 0.2978363 0.112352595 -0.5612403 0.02425314 0.13005462 0.39416337 0.19673263 0.007077961 -0.74523246 0.43891641 -0.35374674 -0.4535691 0.0069726445 0.3327666 -0.016193978 -0.036274686 0.22874673 -0.23236689 0.122140065 0.09021389 -0.19220494 0.33162746 0.11926523 -0.20832315 -0.57188004 0.016687425 -0.21535486 -0.19713584 0.076632194 0.14288224 -0.29540423 -0.13342266 0.07458257 -0.274592 -0.19984223 -0.12814432 -0.33123514 -0.1389745 0.075887844 -0.42057088 0.011974286 0.096139096 0.033706363 0.0647294 0.20153527 0.4214115 0.0954916 -0.025912635 -0.014720975 0.39729825 0.43724546 -0.41447428 -0.37912005 0.039995227 0.4109867 0.24294752 -0.30647507 -0.40312627 0.118769705 -0.13842595 -0.0961979 0.019611694 0.46508577
2638 -0.12669545 0.09433091 -0.34944335 -0.069460616 0.13455805 -0.2404253 0.53814447 0.18917786 -0.13357423 -0.12052167 0.28422037 0.05210164 -0.18776831 -0.18166201 0.05310946 -0.06299008 0.65770704 0.09315212 0.438337 0.15307741 -0.17904635 -0.17353354 -0.28646386 0.048976824 -0.017332837 -0.053513456 -0.375743 -0.22705951 -0.40565974 -0.3648989 0.5186908 -0.26635304 -0.3140994 0.5387845 -0.1112152 0.22987951 0.40530562 0.21836658 0.23401695 -0.61314654 -0.00909898 0.05129083 0.3194657 0.15405117 0.06286051 -0.5943637 0.5083238 -0.3867254 -0.54740286 -0.040444605 0.28786796 -0.108056486 0.07958113 0.17768006 -0.1525399 0.14253439 0.05202631 -0.24198934 0.35738423 0.13578728 -0.20255193 -0.48772085 0.05019246 -0.20813851 -0.20565109 0.14113311 0.12916291 -0.23610878 0.07788825 0.10249085 -0.15101174 -0.21093255 -0.23507786 -0.36655015 -0.19142692 -0.030622635 -0.27394673 0.06355878 0.1480006 -0.11890161 0.29280293 0.08464784 0.37013176 0.1260992 0.009028973 -0.04022706 0.36486387 0.23425175 -0.35908458 -0.46823105 -0.047270894 0.39615348 0.3142328 -0.2815107 -0.38276455 0.096589446 -0.13719158 -0.12937838 0.116765276 0.52014714
2659 -0.03652564 -0.29465383 -0.8621676 -0.007919817 -0.09169838 -0.17977789 -0.057110377 -0.106807895 0.013488084 0.2977647 -0.40137973 -0.05605593 0.2042732 -0.0007165435 0.14254923 0.1547179 -0.089733936 -0.04719246 -0.33692423 -0.59043336 -0.10244329 -0.15778384 -0.37574506 -0.051601443 -0.4543651 -0.21358338 -0.054842815 0.03858678 0.05648432 -0.12629572 -0.24216048 -0.13744092 0.27020097 0.23029144 -0.43982935 0.24125005 -0.0037225916 -0.13636172 0.3591821 -0.20013744 0.3442724 0.4648801 0.3288391 -0.33059415 0.21910109 0.2112878 -0.1635052 -0.5098373 -1.073939 0.1878358 -0.10633169 0.01491058 -0.09228078 -0.091966376 0.63215905 -0.2523246 -0.2325333 0.208233 0.12765662 -0.47194526 -0.062189743 0.074371524 0.95254964 -0.10123285 0.039384913 0.18507148 0.39940622 -0.62801284 -0.5869874 -0.019534897 0.31530222 -0.2547961 -0.03437264 0.09051545 0.31734502 -0.24024215 -0.072432905 0.07596682 0.25206313 -0.2071769 0.17651443 0.5263159 0.1741703 -0.04913614 0.20705657 -0.4033645 -0.27762935 0.16942476 -0.7192442 -0.3190845 0.13937755 0.06294896 0.410574 0.31398186 -0.40901327 0.06572349 0.044173785 0.30006236 0.110086754 0.37552416
1594 -0.42668036 0.2952891 0.14561646 -0.34193307 0.16414246 -0.48573643 0.111197405 -0.39688194 -0.19260131 -0.04990389 0.21762154 0.035353716 -0.14313368 -0.44729346 0.37540174 0.060712896 0.2128503 0.2478455 0.58399 -0.26801988 -0.15363875 -0.090163074 0.012215283 0.15174203 -0.4968251 0.11712761 0.1676073 -0.15048552 0.17243019 0.51446825 -0.216229 0.014634739 0.20736603 0.2993637 -0.008885949 0.7189622 -0.032266945 -0.015297918 0.11494421 0.22191542 0.23363979 0.14630705 -0.21284045 -0.12363964 -0.4517357 -0.21183534 0.015649132 -0.3768966 -0.024241474 0.1103373 0.028291365 0.026067736 0.0991495 0.11866499 0.066838056 -0.27342868 -0.30776706 0.26174068 -0.10060436 -0.23707244 0.49326992 -0.46938637 -0.2740607 0.5466832 0.018050343 0.459318 -0.46820182 -0.42986667 0.36456013 -0.126693 -0.080449045 0.12773511 -0.3249602 0.316288 0.2703547 -0.0954906 -0.3120543 0.02250678 0.48871717 0.12717387 -0.49444288 -0.31194583 -0.24031761 -0.32128772 0.20653328 -0.1061389 -0.30887747 -0.11156172 -0.2409617 -0.18799144 0.23252435 -0.031063376 -0.010794472 -0.20587602 -0.6864653 0.026093831 -0.1361644 0.44210482 0.9843285 0.3826753
