2191 100
0 0.200712 0.10481014 0.21116571 0.047439422 0.16841772 -0.22511801 -0.14805253 0.14053796 0.03764805 -0.10005626 0.21984047 0.1851238 -0.24135783 0.060711768 -0.030972185 0.05682098 -0.11781733 -0.19037692 -0.08194755 -0.09370382 -0.01846247 0.03612539 0.17868969 0.1141207 -0.16220836 0.34864405 0.13493116 0.18378088 0.018410519 -0.07616724 0.27979586 -0.28340977 0.02075721 0.12869255 -0.01638704 -0.069814764 -0.15783627 0.013556283 0.15498564 -0.0040714317 -0.12992972 0.23067969 0.0860881 -0.006207489 -0.040559012 0.073044024 0.06720882 0.09557798 0.22106324 -0.20292427 0.113681406 -0.027000943 0.029213527 -0.11281641 -0.25233194 -0.1700485 -0.08954258 -0.07968887 -0.048140444 0.00030850587 -0.22388853 -0.1199265 -0.019856118 -0.01980088 -0.07730629 0.030394727 -0.020430325 0.09632207 -0.12251819 -0.10689714 -0.029566517 0.0887746 -0.32853213 -0.21919496 -0.13228478 -0.07306022 -0.056332223 -0.04611385 0.11845285 0.04085767 0.33192465 0.38887453 -0.13749154 0.21386805 0.04416901 0.12848458 -0.09529072 -0.23845473 0.17838807 0.052141085 0.12175463 0.11101581 -0.16102192 -0.048604865 -0.08607225 -0.03695472 0.0033746404 0.01360475 0.24081247 -0.13753043
1611 0.06522224 0.10669268 0.25654134 0.0032860227 0.07528452 -0.14038727 -0.11595765 0.0580012 0.035686918 -0.3386538 0.23653574 0.20398885 -0.14328085 0.07974575 -0.1523032 0.054717977 -0.15765464 -0.24185494 -0.104168154 -0.15882389 0.2292777 0.19450323 0.25853947 -0.073017396 -0.103636146 0.083861314 0.2317935 0.2414683 -0.22004165 -0.16318645 0.08304514 -0.19309205 -0.052623134 -0.06704191 0.24647285 -0.087418385 -0.07987457 0.029840076 0.297753 0.006788372 -0.034141753 0.19941399 0.15279286 -0.16934124 0.27553445 -0.012088743 -0.04113406 0.15011042 0.10481388 -0.1491948 0.18396974 -0.07431935 -0.061860234 -0.06761589 -0.19187617 -0.07771815 -0.01793363 -0.1890852 0.017775293 -0.074829936 -0.28735232 -0.01795088 0.11356374 0.1981786 -0.013953541 -0.025082823 -0.057847645 0.2456854 -0.06904395 -0.05798088 -0.06945162 -0.00209255 -0.25277653 -0.24415746 -0.16422513 -0.0052012336 -0.011237947 -0.18490614 0.07108453 -0.17797753 0.36594045 0.46398282 -0.09728218 -0.10929829 0.122220404 0.037257664 -0.06322941 -0.30401325 0.04145897 -0.07771903 0.049158037 0.10841098 -0.2480293 -0.18935981 0.017035918 -0.121978365 -0.09435176 -0.032190453 0.062188484 -0.014905124
553 0.07731111 0.084283136 0.07232923 -0.16059144 0.12756711 -0.28440654 0.17010191 0.11719585 0.1343627 -0.14140673 0.10943634 0.14512546 -0.14778468 0.044026274 -0.02759589 0.08384848 0.012864355 -0.0117878085 -0.019828267 0.014144255 -0.10105887 0.06900605 0.27571198 0.0140087 0.062422216 -0.03158428 0.03510985 0.24618997 -0.095028624 -0.114612386 0.23125245 -0.15344045 -0.19308497 0.05115139 -0.014868544 0.096147396 -0.08691013 -0.07460009 0.12586674 -0.15762644 -0.084850445 0.2763747 0.0029175198 -0.11364778 0.108564034 -0.1093906 0.20308028 0.10082975 -0.10289153 -0.13844837 0.22523065 0.14784887 -0.156656 0.085522585 -0.16466793 0.066338 -0.033704925 -0.19128379 -0.12095011 -0.07987298 -0.036675338 -0.08864558 -0.0041904217 -0.028810441 -0.0037770795 0.051766504 -0.21163402 0.12609304 -0.051808782 -0.09143891 0.043297917 -0.040233985 -0.16045873 -0.1394091 -0.09503937 0.20754097 -0.036538076 0.00051916635 0.11262214 0.10628316 0.18681775 0.3775289 -0.017113946 2.6859978e-05 0.06782633 -0.055774067 -0.06532777 -0.15154175 0.04067555 0.07598593 0.06635016 -0.004149377 -0.29452115 -0.34577352 0.021758728 -0.16581082 -0.0368596 0.044433493 0.11665738 -0.08238782
554 0.19509445 0.20328608 0.2861749 -0.0071665654 0.07549198 -0.21913722 -0.11496891 0.25680643 0.11657434 -0.22880901 0.26587468 0.18310755 -0.072146215 0.091470845 -0.19481276 0.20937732 -0.21693334 -0.084623866 -0.01718151 -0.1933011 0.14283071 0.0996718 0.20735765 -0.008164082 -0.08579138 0.12884347 0.27278692 0.18237625 -0.08024978 -0.24849041 0.26540688 -0.26419935 -0.035915725 0.030643893 0.061366957 -0.023859218 -0.10387079 0.10142814 0.23556125 0.097515255 -0.20814244 0.2063748 0.115135916 -0.05722307 0.16854629 -0.034161832 0.025322 0.046982672 0.08799817 -0.1135307 0.30596322 0.18805775 0.04947443 -0.10031888 -0.10252092 0.063472934 -0.028097492 -0.12081333 -0.16695648 -0.061478164 -0.15152912 -0.2285188 0.055952605 0.102354616 -0.10305702 -0.022434033 -0.160634 0.34550244 -0.13679591 0.04402428 0.010584071 -0.089264035 -0.28919178 -0.13513947 -0.20692472 -0.020482741 -0.06147976 0.017779412 0.10784497 -0.19396782 0.26769382 0.42601064 -0.19621697 -0.01001358 0.084813856 0.046662964 -0.041994993 -0.0999165 0.071239 -0.047598798 0.10195115 0.15407157 -0.33202872 -0.18800502 -0.10533968 -0.06084731 -0.18189543 -0.03068693 -0.032826327 -0.11512447
1615 0.090237826 0.14060256 0.23103736 -0.032891817 -0.04425619 -0.2541333 0.23321022 -0.07978543 -0.043390173 -0.29256302 0.05216212 0.23474436 -0.21660507 -0.11759349 0.07810681 0.07955305 -0.03587323 -0.1316043 -0.0035218066 -0.20915061 -0.06890465 0.29324314 0.12826063 -0.04150737 -0.08331727 0.072837465 0.046501808 -0.018883904 -0.12469238 -0.18385406 0.02470427 0.00277271 -0.1780297 0.046659105 0.098215885 -0.0031773995 -0.08991153 0.041014634 0.14469588 0.18234038 0.0982306 0.30310288 -0.1119529 -0.16399942 0.13602965 0.12776694 0.14269571 -0.06393927 -0.02616022 -0.13702375 0.082642026 0.22106306 -0.070852116 -0.12105866 -0.1517613 0.11291224 -0.0552113 -0.06427351 -0.01252594 -0.12815714 -0.2712326 -0.08283405 0.026064457 0.056046832 -0.019295122 0.029128548 -0.030048344 0.09372108 -0.13183415 0.06873277 0.051195353 0.043635443 -0.21412735 -0.042664576 -0.14502674 0.08782046 0.08973953 -0.012542709 0.15148385 0.022830393 0.09049309 0.27491155 -0.15622671 0.06625432 0.11446891 -0.1112616 -0.11456775 -0.17894532 0.1680818 -0.015792249 0.14685963 0.11682205 -0.13933878 -0.27007857 -0.105838686 -0.016531944 0.0045103105 0.006195759 -0.058011856 0.047276765
368 -0.089955755 0.084237 0.22246446 -0.07611279 -0.013839894 -0.20622186 0.014332825 0.10306279 0.095884934 -0.18419138 0.07627196 0.2679609 -0.16635439 -0.04628443 -0.0853203 0.096679844 -0.10809205 -0.10915781 0.15514089 0.033363715 0.06816621 -0.0074539096 0.26582083 -0.17540291 -0.03182343 0.3449632 0.06487446 0.0995339 -0.0067886226 -0.0310323 0.39274895 -0.26168823 -0.048980962 0.23881905 -0.06858531 -0.05912999 -0.21460958 0.03278159 0.19826815 -0.009444335 -0.15104294 0.13691708 0.05139157 0.010464578 0.32012254 0.071041234 -0.06876406 -0.036027167 0.15921937 -0.18339129 0.15991893 0.06825421 -0.1608311 -0.1601349 -0.040633205 0.0014136896 0.056370046 -0.063949935 -0.29826573 -0.0035911812 0.047636025 -0.103961885 -0.024152039 0.16954263 -0.06471083 0.08439505 -0.1512956 0.047556885 -0.016612744 0.038261812 0.026522784 0.040209904 -0.15657148 -0.022392554 -0.08477949 0.027437817 -0.019755756 -0.12271041 0.2882972 -0.19427454 0.17086199 0.26244348 -0.15126775 -0.08404776 0.3583078 0.22962064 0.031197583 -0.054925844 0.19266133 0.011964513 0.016834259 0.12852563 -0.28506264 -0.13349879 -0.11371966 -0.25038356 0.04592884 0.017251987 0.13198389 0.15662673
780 0.19829568 0.24430116 0.2626733 0.02007232 0.062650725 -0.2598599 -0.08293905 0.104972415 0.15210918 -0.16587304 0.27387574 0.22061285 -0.17932856 0.06263713 -0.11815975 0.12006226 -0.106524535 -0.13226539 -0.065823056 -0.22516347 0.09792077 0.08138603 0.0623043 -0.047431804 -0.06796962 0.16175838 0.34633827 0.12916504 -0.2947138 -0.21789089 0.32082948 -0.23094581 0.0050562653 -0.052809875 0.037481513 -0.094254225 -0.067949325 -0.017809222 0.22854094 0.057767965 -0.16709232 0.24794549 0.05791925 -0.013702369 0.04032552 0.053207304 0.0492819 0.19425489 0.16834082 -0.21761295 0.25844884 0.16091503 -0.012823209 -0.021472333 -0.071955144 -0.06728102 0.052063752 -0.10375467 -0.14920701 0.003775429 -0.13225012 -0.156205 0.11992114 0.084227346 0.012121681 0.044657994 -0.12520498 0.18932115 -0.002630247 -0.14599225 -0.033881225 0.15318447 -0.28923655 -0.20290633 -0.21963389 -0.04483355 -0.04408009 -0.16781217 0.25407353 -0.11827916 0.3134305 0.38117957 -0.07617013 -0.06822579 0.0632582 0.10441863 -0.05507112 -0.19885315 0.10689136 -0.022922326 0.08515562 0.1539591 -0.3010469 -0.2060991 -0.12598118 -0.025248379 -0.111780375 -0.0025532327 -0.0060375207 -0.12436616
1622 0.06985877 0.14287673 -0.061691128 -0.04669838 0.13809957 -0.33141318 -0.06289308 0.22531796 0.10595189 -0.19690955 0.13162048 0.21633483 -0.1674847 0.057510324 -0.0062320773 0.12138616 0.019733267 0.08618448 0.00203707 0.0064351554 0.023704749 0.038331836 0.20230281 -0.03893641 0.097267106 -0.11932682 0.17667527 0.14701666 -0.12849829 -0.21493067 0.29524675 -0.28983635 -0.09162606 -0.044223838 -0.014504848 -0.023492007 -0.07268835 0.077623874 0.27311423 0.003645588 -0.20644775 0.12535986 -0.0394672 -0.1127201 0.12967618 -0.16211462 0.17428638 -0.05944009 -0.054964393 -0.14894772 0.11896261 0.22302797 -0.07725036 0.14642891 -0.16713662 0.12899189 0.14647979 -0.113228194 -0.22502537 -0.10293757 -0.1108707 -0.23950309 0.018167896 0.11059936 -0.08988424 -0.014052818 -0.0227383 0.15496016 -0.087355256 -0.120763704 -0.013019123 0.1045295 -0.13813204 -0.22973673 -0.22292458 0.036165014 0.029230751 0.05754324 0.14152712 0.03333519 0.23868155 0.32336277 -0.081720784 0.054853998 0.054828722 -0.026071662 0.0005314889 -0.07496826 -0.06686741 0.07833039 -0.015793012 -0.00885593 -0.19311886 -0.4127159 -0.07421536 -0.07684005 -0.16219096 -0.07693643 -0.00095730746 -0.10072741
1099 0.24420147 0.3176635 0.19280554 -0.0761324 0.16005276 -0.17226048 -0.13529587 0.06489593 -0.0052378625 -0.2104429 0.16465297 0.33479908 -0.15840587 0.027418608 -0.1437974 0.12246496 -0.13259456 -0.16194005 0.081700444 -0.07964931 0.18186691 0.16785917 0.050910752 -0.059178483 -0.12879586 0.060775626 0.2388972 0.17674275 -0.19100988 -0.10100121 0.24288706 -0.13876079 -0.038943093 -0.00713084 0.01808937 -0.021662688 -0.10368053 0.099469945 0.18660069 0.16121446 -0.15025726 0.39362997 0.1868987 -0.018410983 0.1975443 0.041970138 -0.038931422 0.1862355 0.14319712 -0.14909373 0.20341796 0.12297354 0.047214538 -0.10382779 -0.08901823 -0.07217319 -0.023714058 -0.003650852 -0.14266057 -0.09892515 -0.22096568 -0.2748554 0.076400094 0.09874971 0.014892292 0.00036681673 -0.11677483 0.21427852 -0.06462989 -0.21013938 -0.031242015 0.13962401 -0.3031516 -0.16941337 -0.1646502 -0.095474795 -0.027762644 -0.06566694 0.23410282 -0.22802804 0.31326553 0.5283113 -0.16045626 -0.08757809 0.0520754 0.13144128 -0.023948347 -0.1865375 0.09596593 -0.044990607 0.0334264 0.17510542 -0.16074552 -0.23362833 -0.111617185 -0.063708834 -0.08115565 0.03862338 -0.045428883 -0.22018114
1626 0.16126494 0.15482491 0.24639386 -0.062297318 -0.009097987 -0.17581226 -0.2243054 0.19208252 0.15560065 -0.15934943 0.21450196 0.23805127 -0.12209216 0.12805076 -0.13243167 0.10579558 -0.19637619 -0.16604832 0.06108486 -0.069827676 0.10409951 0.09433101 0.13406894 -0.11974836 -0.03633799 0.06939505 0.3109543 0.09875974 -0.16459101 -0.19515195 0.24354577 -0.23300157 -0.074319094 0.07930107 0.04293741 -0.17001954 -0.023285575 0.09282321 0.23044866 0.14372158 -0.2232704 0.30392775 0.16564359 0.016781416 0.1686428 -0.020165926 -0.027782768 0.18685527 0.097738355 -0.20996942 0.2193842 0.14378913 -0.008706077 -0.15426779 -0.14717306 0.0133559005 -0.03652806 -0.15563342 -0.17234732 0.045224726 -0.22689389 -0.097933196 0.08336982 -0.066099316 -0.04484175 0.05050306 -0.04958812 0.25947478 -0.1529756 -0.054196563 -0.055370077 -0.0072679822 -0.2969366 -0.08718591 -0.054182466 -0.15904896 -0.04558077 -0.080005325 0.3189357 -0.2071055 0.28261074 0.4015514 -0.24434155 0.056352537 -0.017313508 -0.021673134 -0.070385665 -0.15411206 0.19568743 -0.02401745 0.044425327 0.14680776 -0.243255 -0.20714907 -0.09141448 -0.12791099 -0.11617744 -0.07977675 0.033114277 -0.05370247
73 0.18404815 0.18925695 0.23780604 -0.0482152 0.09051818 -0.29422694 -0.107899815 0.23142803 0.15749303 -0.17072023 0.12661839 0.2905924 -0.0761075 -0.016409751 -0.015964534 0.05016704 -0.20009999 -0.2458517 0.02308798 -0.17810652 0.13486116 0.098273754 0.12628995 -0.030059569 -0.07744845 0.16138513 0.2949594 0.1991268 -0.20652188 -0.06632844 0.2844577 -0.2971501 -0.05756047 0.007385914 0.058120165 -0.25222537 -0.081425816 0.11818938 0.16873775 0.0589959 -0.23847322 0.33573854 0.0069282656 -0.0017384228 0.07295909 0.0031106016 -0.031126564 0.11712734 0.12074053 -0.17172241 0.3088275 0.12522261 -0.18382236 -0.113653146 -0.015633332 0.03405477 0.15526123 -0.0953042 -0.19283494 -0.09213086 -0.17862579 -0.099638894 0.13633311 0.01433607 -0.08799701 0.005914528 -0.06863017 0.18838875 -0.05154083 -0.06969664 -0.06572843 0.030292938 -0.31125945 -0.3112836 -0.099766254 -0.025749804 -0.14901643 0.067055695 0.1817065 -0.22091755 0.2343382 0.3609098 -0.14451095 -0.05314533 -0.0051650824 0.13962348 0.05897385 -0.1744877 0.1959262 -0.042213842 0.07512688 0.19366108 -0.2621615 -0.21240191 -0.024113564 -0.1006507 -0.11671083 -0.0060145133 -0.011162651 -0.22431473
1353 0.03988206 0.18887147 0.21035865 -0.04354983 -0.042119384 -0.19849864 0.09270148 0.20526476 0.00577079 -0.02503185 0.010587185 0.116873905 -0.39495188 0.17636898 -0.033748977 0.04649362 -0.09331957 0.038731623 0.054758254 0.079787746 -0.0058932756 0.25416926 0.11136321 -0.18317193 0.03549483 0.22475846 0.10943088 0.053399984 0.0062130927 0.058111742 0.029081054 -0.15506138 -0.028440544 -0.06179779 0.057117864 -0.16556734 -0.04149658 -0.28734672 -0.035550524 -0.100877345 -0.06461145 0.310533 -0.092850365 -0.14564055 0.09839953 -0.17691973 -0.09110224 0.17506747 0.09273118 -0.015034879 -0.007746069 0.07492516 -0.06552094 0.046944406 0.038410723 -0.07237978 0.041887183 0.015769774 0.19700791 0.05785156 0.07788399 -0.2860298 0.18043412 0.1316595 0.025019512 0.12822497 -0.07237121 0.059400138 -0.23234633 0.036106456 -0.046061017 0.018253913 -0.10434855 -0.17123811 0.09639299 0.032917514 0.086803876 -0.0076883268 0.13370351 -0.2571826 0.18798798 0.2702235 -0.042614933 0.089667365 -0.07219934 -0.02966509 -0.08240929 -0.09900075 0.1304147 0.038459495 0.14934245 -0.113155246 -0.047469687 -0.10641392 0.02624512 -0.26608193 0.06645279 0.02781264 0.10877366 -0.03880162
1906 0.15179232 0.27115637 0.18407206 0.016057828 0.036552154 -0.2329279 -0.1736474 0.1954486 0.11245658 -0.17673491 0.19389275 0.2328239 -0.15563326 0.06465122 -0.11881914 0.13463126 -0.15337953 -0.1524464 0.06544581 -0.14470044 0.12162597 0.08864782 0.1116169 0.00926733 -0.13082235 0.23465912 0.2502805 0.2329918 -0.044703845 -0.09790266 0.18080856 -0.18610623 -0.041512627 -0.031403255 0.054750707 -0.1114445 0.017206559 0.10377972 0.16319032 0.15482533 -0.13306957 0.4349774 0.21193679 -0.024583504 0.14303462 0.0065199705 -0.006158101 0.18916294 0.16394837 -0.13585763 0.19425723 0.1700438 0.08147396 -0.07191839 -0.17603622 0.0132200485 -0.046666745 -0.13071886 -0.21096106 0.011385252 -0.16771679 -0.23735398 0.119796716 0.14033651 0.028197149 -0.013451675 0.00724245 0.24961644 -0.07830272 0.032799575 -0.15966669 0.0077754725 -0.36876792 -0.14234509 -0.14190824 -0.043909404 -0.17136772 -0.062333107 0.11163755 -0.11490158 0.28299773 0.38097483 -0.1681579 -0.009814362 0.043728307 0.091753386 -0.05715594 -0.14878908 -0.023783216 -0.020215772 0.11903949 0.22727644 -0.16011977 -0.33724496 -0.022715626 -0.10989792 -0.12722325 -0.11009885 -0.010242603 -0.13851456
523 0.11006118 0.21899277 0.20599978 0.049336266 0.04873119 -0.13200232 0.15926562 -0.027913855 -0.02650995 -0.20118536 -0.08610758 0.1821095 -0.3093845 0.00803168 -0.053465653 -0.053292803 -0.23313557 -0.078396805 0.12964423 0.150571 -0.15274915 0.20663515 0.17092772 -0.057691924 -0.05205081 0.1633701 0.06351589 0.020685075 -0.08403701 -0.070490286 0.041987985 0.113742106 -0.10237865 0.058021694 -0.040956378 -0.12494022 -0.17723466 -0.21664362 -0.06061162 -0.0862336 -0.10821173 0.08597535 -0.02719687 -0.36442354 0.09234004 -0.017783323 -0.00936521 -0.04743223 0.061576325 -0.09598077 -0.056309335 0.069238454 0.055131875 0.094683 -0.17255443 -0.17712674 0.036326885 0.08109408 0.19553292 -0.031394903 0.118954286 0.016613092 0.14099634 0.086822174 0.13021745 -0.037092883 -0.022160403 0.09536523 -0.11326036 0.12965348 0.012787885 -0.059996177 -0.18114129 -0.17640738 -0.0050220652 -0.25732496 0.062041566 -0.035736773 0.27528092 -0.28568888 0.16883919 0.173375 0.0022660308 0.07900517 0.06326481 -0.017539674 -0.1464274 -0.01142918 0.15812974 -0.17504 0.109944016 0.1159251 -0.17035435 -0.16057304 -0.11028531 -0.05099572 -0.17968786 -0.19883966 0.034228288 -0.015700728
572 0.050107248 0.12727806 0.25564548 0.10349159 0.08343458 -0.19613045 0.18865266 0.14209299 0.16978073 -0.15854777 0.1979347 0.072491065 -0.18522315 -0.016153757 -0.13245714 0.13374168 -0.08908343 -0.16980474 0.02806629 -0.026000936 -0.16438374 0.119489394 0.16765453 -0.108955406 0.08660147 0.25826767 0.30100942 -0.027893154 -0.22143579 0.04269222 0.08009713 -0.11343554 0.09197369 0.105395354 0.016797582 -0.06114884 -0.100564 -0.012814136 0.09271742 -0.1013503 -0.06059661 0.21938261 0.011110528 -0.19419612 0.22565833 0.14176159 -0.16082852 -0.009876156 0.1117605 -0.23066498 0.18770382 0.17285044 -0.09479844 0.03607577 -0.22385988 0.006539647 -0.066291995 -0.020580065 -0.07952476 0.09162566 0.11313706 -0.073250405 -0.039260425 0.122858256 0.038510237 0.092609845 -0.04198361 -0.004771245 -0.1430782 -0.007699205 0.0012790867 0.022002246 -0.12121475 0.032906845 -0.23631887 0.060427975 -0.15352035 0.06864966 0.14507274 -0.010751041 0.16192187 0.04038389 -0.08916622 0.074370675 0.045670353 0.004217127 -0.0920844 -0.06933697 0.17924222 -0.11969075 0.031961285 0.011124796 -0.025736732 -0.117958635 -0.12495607 -0.15682943 0.06591085 -0.024576264 0.10837296 0.06746952
1107 0.075903095 0.16202669 0.23459812 -0.08798635 0.15007123 -0.07383431 -0.07754345 0.14153318 0.07186716 -0.24879794 0.05379769 0.2800798 -0.14820053 0.042040978 -0.14278613 0.082156725 -0.18835637 -0.2653571 0.10816664 -0.24772663 -0.0635518 0.09066282 0.2692832 -0.12716101 -0.0016985347 0.13650754 0.30484438 0.16115259 -0.10814577 -0.24657229 0.20840359 -0.22243746 -0.074585155 -0.06690505 0.10008439 0.023173805 0.0031634474 0.1594643 0.24119359 0.07433159 -0.12460509 0.39546525 0.006115543 0.033903923 0.25441217 0.0368087 -0.0742521 0.040496722 0.12155264 -0.16454265 0.24806648 0.17390637 0.0072244382 -0.098294616 -0.08914598 0.0041665984 -0.008611403 -0.14403725 -0.17120713 -0.0066104513 -0.09863491 -0.08549691 -0.0020211083 0.1805178 0.0417725 0.08879559 -0.21119858 0.19528607 -0.17749955 -0.06471847 -0.04719938 0.12030611 -0.29568392 -0.1044515 -0.058571566 -0.0689699 -0.0068215835 -0.028727693 0.1544925 -0.13089985 0.21037312 0.33659226 -0.06196737 -0.27370125 0.13515522 0.30825472 -0.06633398 -0.17460096 0.06674411 0.07677702 0.12490172 0.06025171 -0.22488974 -0.2728162 -0.35082817 -0.06400454 -0.17788498 -0.0847111 0.08014233 -0.10368251
1638 0.11804633 0.24630578 0.23729031 -0.14295739 0.16110201 -0.15753846 0.00074142544 0.13006368 0.0880997 -0.17473185 0.12974307 0.21252853 -0.055526506 0.08118894 -0.19760826 0.032225326 -0.22962974 -0.27164385 0.094260626 -0.21013312 -0.020325482 0.04605297 0.23749317 -0.13032113 -0.09783617 0.1401118 0.30747738 0.049123053 -0.06828138 -0.15715024 0.23348567 -0.032304946 -0.083530314 0.08508545 -0.028193379 0.035880964 -0.053387422 0.19325508 0.23826312 0.08807038 -0.20853777 0.35138696 0.11800938 -0.12793133 0.15963085 0.13666007 -0.11483863 0.02377533 0.10756816 -0.045475155 0.1866754 0.28332466 -0.05818829 -0.16543202 -0.22320737 0.06482117 0.13090529 -0.17893131 -0.15979302 -0.021588324 -0.19205943 -0.22938432 0.12492958 0.18881692 0.027083084 0.09780744 -0.19657725 0.22383355 -0.20072521 -0.021792345 -0.029805383 0.17027782 -0.24961297 -0.148842 -0.086288966 -0.14859554 -0.16097999 -0.0470847 0.091423824 -0.11919749 0.31475532 0.41577217 -0.13127689 -0.21658348 0.092150986 0.13072856 -0.077234715 -0.22000428 0.021060279 0.045053326 -0.01312544 0.01875908 -0.15998155 -0.21034321 -0.24871911 -0.037661374 -0.13721155 0.049206503 0.004851275 -0.15199015
1112 -0.12984203 0.14088854 -0.034595955 0.12663768 0.16901818 -0.25952733 -0.12631644 0.061552312 0.07162116 -0.20820005 -0.060522594 0.27398378 -0.15328321 0.13249744 -0.10472517 0.13396929 0.11151575 0.005501574 0.13975285 -0.011916048 0.04602247 0.044284828 0.1547893 -0.0153829 0.0036683818 -0.06464348 0.084649324 0.019481536 -0.071340784 0.15810072 -0.023920745 -0.31192774 -0.12610796 0.091650315 -0.23493068 -0.07877941 -0.04443118 -0.16420904 0.21109886 0.12355269 -0.19876704 0.096088275 -0.35825855 -0.1085957 0.04810095 -0.19509694 0.2631497 -0.08845733 0.16574055 -0.32793027 -0.12042023 -0.006408176 -0.061322067 -0.05308229 -0.15264979 0.006816433 0.037258234 0.02985673 -0.13607463 -0.047928184 -0.120846786 0.019743327 -0.08069212 0.22943008 -0.08573904 -0.060972832 0.09185221 0.101114586 -0.051885825 -0.14913188 -0.005760488 0.0504645 -0.0650062 0.1574923 -0.036802787 0.1561602 -0.066736475 -0.1074268 -0.12631093 -0.10074429 0.24276687 0.1933847 -0.11501754 -0.025454782 -0.05331502 -0.05993295 0.083329014 -0.074728414 0.0021039124 -0.00075282424 0.077929296 0.09772176 0.14467677 -0.16803235 -0.042870764 -0.18034048 -0.13274395 0.037568256 0.25312766 -0.13814138
409 0.014590803 0.13330524 0.3935599 0.11444969 0.10325381 -0.19253524 0.05462089 0.12102753 0.113414906 0.07639099 -0.1630034 0.13860004 -0.2263599 0.14400592 -0.12210587 -0.08686996 -0.23540695 -0.14014642 0.11966791 -0.012860646 0.08803588 0.18885243 -0.040342595 -0.0737162 0.15859695 0.18829079 0.09989036 -0.0062639113 0.01582916 0.06357562 0.1372467 -0.0049170577 0.041979305 -0.08689692 -0.15753835 -0.10574317 -0.09926423 -0.2652544 -0.0041366518 -0.013488092 -0.02549789 0.07348619 0.049170777 -0.28212926 0.16970149 -0.031450845 -0.10126266 0.14280863 -0.01838037 -0.10184254 0.012630177 -0.015210256 -0.040329766 0.009116962 0.06820364 0.0934221 -0.029747589 0.016330333 0.19933364 0.016354099 0.17295958 -0.27815002 0.21007916 0.21117574 0.09679675 0.17226572 0.088544026 0.07600714 -0.25440094 0.025689865 0.033026896 -0.11303052 0.015703293 -0.12526304 -0.009047425 -0.17503016 0.08200554 0.06919909 0.209763 -0.14173341 0.23294048 0.3939092 -0.1447772 0.14675544 0.045145303 0.062371135 -0.24871811 -0.1374917 0.10569142 0.027195724 0.18750213 0.016574644 0.024573293 -0.048303265 0.02048207 -0.29730824 -0.11149343 0.0111498935 0.1494893 -0.060733557
1249 0.25961646 0.20596123 0.33683854 0.03611613 0.20206426 -0.2649796 0.06939948 0.16246943 0.07937792 -0.12584244 0.06477845 0.1888126 -0.23317912 0.038217437 -0.053899135 0.17609014 -0.17199244 -0.1135102 -0.03365284 -0.060179554 0.14721048 0.0634168 0.14694159 -0.023471713 -0.06580298 0.077307194 0.2631337 0.14238003 -0.33104384 -0.1320766 0.250911 -0.1951641 0.03845624 -0.15448469 0.04358878 -0.05880413 0.09176173 0.2729885 0.19452368 0.110113434 -0.06714014 0.42923558 -0.0068992856 0.12752098 0.13335183 -0.04226478 -0.08036484 0.22058633 0.09455616 -0.1402886 0.16879486 0.21080135 0.08071465 -0.020460408 -0.10752247 -0.046293806 -0.010310189 0.0032015922 -0.1755509 -0.014394426 -0.19713724 -0.20537603 0.1104693 0.01798267 -0.075559445 0.06426498 -0.1256095 0.26041442 -0.1500696 0.042388003 0.0047319173 0.042806108 -0.2953921 -0.16505395 -0.06854086 0.032246567 -0.07150464 -0.044820916 0.16003196 -0.18878596 0.3995069 0.3292348 -0.041338988 -0.057199977 0.09790422 0.0974994 -0.077570565 -0.17980614 0.19244462 0.13443363 0.14196603 0.00245738 -0.23289509 -0.16796479 -0.09936438 -0.03133876 -0.1739135 0.08057359 0.103426024 -0.072244585
1263 0.1749203 0.20462984 0.21874526 -0.13261293 0.13744211 -0.25935 -0.2619367 0.11157848 0.11364894 -0.12275381 0.2632084 0.28767976 -0.11552109 0.07883863 -0.0068893144 0.1697154 -0.106993124 -0.19385223 0.09203427 -0.17698734 0.13819191 0.012919342 0.14833558 0.019341635 0.0070535243 0.16575749 0.39030403 0.1045312 -0.19077462 -0.27824062 0.29126436 -0.3020257 0.08019896 0.026272403 0.008963515 -0.08020533 -0.07542709 0.020501934 0.27896786 0.029966159 -0.113731325 0.33678368 -0.009892345 0.046978854 0.16691037 0.015219909 0.00249922 0.092518695 0.17743444 -0.2461405 0.3275273 0.20947447 0.005519523 0.01236158 -0.14574571 -0.03326656 -0.05721749 0.004369953 -0.19110171 0.043578833 -0.16179328 -0.21871515 0.1436104 0.11389484 -0.006235179 -0.008560634 -0.107336715 0.17196645 -0.18723826 -0.048271928 0.0023661628 0.01742907 -0.31367886 -0.13456023 -0.19025166 -0.08582215 0.041453674 -0.15748398 0.11735752 -0.12206836 0.2658683 0.2281195 -0.19505137 0.028658 -0.0039177267 0.039136942 0.078210175 -0.22204113 0.18685326 -0.060593747 0.017113255 0.16893393 -0.33244115 -0.21091114 -0.053808168 -0.16836658 -0.14908056 -0.02737152 -0.015894102 -0.08880215
177 0.21968271 0.20020673 0.20447178 -0.055369493 0.087514736 -0.1402186 -0.12600262 0.2580422 0.09260222 -0.24394467 0.27087793 0.2425823 -0.124357805 0.08409263 -0.12371941 0.14233385 -0.25355116 -0.15906852 0.05999174 -0.096122414 0.1680245 0.16308777 0.21168795 -0.01431849 -0.11350373 0.06343492 0.24606499 0.20331755 -0.20274183 0.019436616 0.25880873 -0.14962538 0.032202482 0.03460399 0.046284825 -0.10485465 -0.036784817 0.12561376 0.25618738 0.0474083 -0.1818776 0.28615475 0.006708953 -0.055250283 0.23209663 -0.017276047 -0.082043126 0.18290155 0.05371206 -0.31352967 0.32527462 0.18479747 0.005715077 -0.10179164 -0.07023918 -0.034111332 0.058359813 -0.083301894 -0.2053417 -0.13229924 -0.2330247 -0.14955933 0.0986847 0.20835316 -0.05468785 0.013673408 -0.03147466 0.15664631 -0.0718057 -0.053814705 -0.054016665 0.13185887 -0.26694477 -0.15826483 -0.09814606 -0.12156441 -0.08278739 -0.0423942 0.1732429 -0.16721825 0.25598443 0.3492791 -0.18322712 0.031137904 0.055634677 0.06322936 0.09209281 -0.16160178 0.19435418 0.046504065 0.03875808 0.20489115 -0.36192396 -0.17313965 -0.082058646 -0.08426342 -0.15049489 -0.028103184 -0.040009715 -0.10961601
1052 -0.0062316265 0.09794673 0.35144168 0.053361364 0.15852253 -0.25645506 -0.001312765 0.084471166 0.07230156 -0.25194767 0.10028883 0.31664547 -0.12750679 0.057821378 -0.093340866 0.118619725 -0.13207018 -0.09320892 0.044972602 -0.091911726 0.07157101 0.2658082 0.25020695 -0.057119075 0.045940045 0.1297608 0.33708307 0.14873819 -0.21391983 -0.18100114 0.27805614 -0.32072878 -0.14088795 -0.04562016 -0.10803362 -0.17074642 -0.040994972 0.1371327 0.28529903 0.1335799 -0.2808201 0.25170708 0.26277345 -0.0055089286 0.14475386 0.021197932 -0.030369537 0.29402643 0.15735237 -0.20763569 0.07087278 0.26137653 0.13790247 -0.08054551 -0.10158989 0.04425812 -0.1011471 -0.24691693 -0.16712864 -0.21338706 -0.06968566 -0.20699653 0.22724284 0.09826505 -0.20569311 0.091443725 -0.09697875 0.20965481 -0.06617509 -0.06314426 -0.11183017 0.04171617 -0.3372397 -0.12725307 -0.098403506 -0.042843703 -0.13417344 -0.116899475 0.100879304 0.024011381 0.28507534 0.20103346 -0.21751913 0.11806551 -0.015122613 0.043022543 -0.011430105 -0.07975508 0.12691961 0.027907267 0.049021628 0.027347876 -0.26870173 -0.23610224 -0.13287532 -0.0893432 -0.09247314 -0.022599665 -0.068536825 -0.15970008
587 0.06942154 0.058352593 0.2389145 -0.02293365 0.054195356 -0.12924506 -0.012594988 0.045669436 0.2561284 -0.06708281 0.081826694 0.28292635 -0.26459315 0.079765804 -0.06118316 0.0902272 -0.033013072 -0.20549886 -0.113288134 0.06424863 0.087438054 0.085820474 0.17251673 0.10416103 0.034817174 0.23713532 0.26373106 0.09960113 -0.34629524 0.10722283 0.20109168 -0.059884515 0.0761296 0.106445774 -0.056825545 0.032727405 -0.0076691005 -0.13367964 -0.18047827 -0.19902375 -0.06907418 0.23249857 -0.065265924 -0.12518002 0.12247463 0.3483358 -0.028621867 0.08400766 0.036221705 -0.09654962 0.055131182 0.052897852 -0.006940003 0.0659435 -0.1642301 0.041624594 -0.1604583 -0.041491352 0.13529459 0.05521438 0.049633823 -0.12786874 -0.13851793 0.13738056 0.12897432 -0.020328132 -0.080701485 0.099153996 -0.056032583 -0.020865219 -0.26500484 -0.1190779 -0.08512154 -0.09316531 -0.09933668 -0.12776867 -0.21971406 0.0011797887 -0.010124936 -0.035039462 0.18863954 0.31807634 -0.28172344 0.0012222663 0.03406853 0.11933419 0.06909895 0.02147604 -0.011481916 -0.039527066 0.22977479 0.059246913 -0.16779986 -0.068002224 -0.03154696 0.010104005 -0.0924254 -0.1460725 0.061018143 -0.0068354234
588 -0.03930365 0.04979974 0.057978693 -0.034883432 0.13465624 -0.07390622 0.005602643 -0.41925898 -0.14640899 0.12946312 -0.042924024 0.30019337 -0.1484495 0.10656916 -0.02048228 0.24047963 0.25475898 0.0028212045 0.11986753 0.014391043 -0.11195785 0.07881565 0.372233 -0.01751757 0.085814804 0.29977667 0.06500806 -0.08127028 -0.21776976 0.21775538 0.09798427 -0.5072358 -0.11645846 0.03997682 -0.2464583 -0.026617086 -0.059105188 0.025219694 0.072176404 0.1699197 -0.07015266 0.086527586 -0.014783149 0.15513314 0.14388944 0.022170747 0.21107304 -0.094591625 0.20632224 -0.18149805 0.21964 0.18392505 0.09164573 0.0955166 0.1635339 -0.05257419 0.18287052 -0.08484789 -0.09801528 -0.17932975 0.0055509205 -0.20018835 0.07108828 0.16480047 0.23612037 -0.05086369 0.034543656 0.078211874 -0.18768857 -0.23785917 0.07844667 0.1405613 -0.06568062 0.0976067 -0.19299401 0.044403043 -0.044343382 -0.12580538 0.1224088 -0.14362353 0.34207663 0.04624562 -0.072789684 0.07914765 0.05724173 0.10729721 -0.19353658 -0.095620446 0.098171614 -0.0017011652 0.20129947 0.23181334 -0.15714046 0.13643202 -0.038670495 0.045037746 -0.04557443 -0.046103247 0.2054414 -0.0069399597
1124 0.2069871 0.120393254 0.2725725 -0.024500275 0.075994864 -0.09364439 -0.27051303 0.15091471 0.15278985 -0.33773667 0.14493072 -0.1237598 -0.098475374 0.04582056 -0.12341509 0.16401668 -0.17774944 -0.20934881 -0.05975992 -0.003432553 0.00830879 0.021870883 0.30192313 -0.116720416 -0.0522221 0.09099819 0.37293455 0.1287357 -0.0641638 -0.16690052 0.2503634 -0.26117626 -0.0069050933 0.07536917 0.10354033 -0.1682274 -0.12982571 -0.024864841 0.14189006 0.19339749 -0.153309 0.20322084 0.08987354 0.024957417 0.11176984 0.0976811 0.039772343 0.07593584 0.024963206 -0.27713472 0.17939614 0.29719067 -0.04920226 -0.100213446 -0.03780381 0.2099376 0.14225759 -0.14375763 -0.24543075 -0.066729434 -0.16981955 -0.04818929 -0.1509494 0.14829598 0.09912594 -0.09020532 -0.08481829 0.23148894 -0.036023602 -0.10592472 0.10677625 0.18975717 -0.15320809 0.13468255 -0.12662344 -0.19620308 0.0041449396 0.11018985 0.17871235 -0.1464717 0.14591305 0.36489102 -0.06694528 0.10598619 0.042067 0.13768443 -0.039420374 -0.2500319 0.0006064309 -0.14600325 0.1904707 0.019844027 -0.39850807 -0.28314668 -0.15359941 -0.19601107 -0.110595085 -0.14321497 0.046871074 -0.20096372
1299 0.19736186 0.12599277 0.29444286 -0.12122904 -0.06262898 -0.26543683 0.014029741 -0.16526626 0.170163 0.039629035 0.047988653 0.2186022 -0.1269783 -0.014120064 -0.043856125 0.28041232 -0.16475348 0.0007907991 0.16707388 -0.082029335 -0.30753112 0.083289705 -0.062891856 -0.034281414 -0.03277379 0.14254609 0.106704384 0.12457656 -0.25152564 -0.018360773 -0.021420037 -0.19552281 -0.16340469 0.11929579 -0.0869215 0.06510183 0.098106384 -0.1104192 0.107588455 0.007574703 0.053646185 0.094040796 0.0043144203 -0.21900903 0.031172395 0.07018608 0.18030927 -0.1475845 0.36162028 -0.11614452 -0.04648378 0.111623965 -0.06430401 -0.041687895 0.04959698 -0.06525041 -0.0044227187 0.11881155 -0.026699312 0.075257644 0.05009303 0.04668302 0.044028357 0.060556345 0.1525582 0.06868894 0.1636378 0.09607735 -0.0413918 -0.19642258 -0.18254219 0.08691308 -0.13587876 0.19637997 0.0100295525 0.10543828 -0.059238657 -0.03957463 0.009991085 -0.22819375 0.31768882 0.25616053 -0.14315495 0.011693979 0.050604545 -0.04033185 -0.081578955 -0.30146194 0.12305101 -0.05190318 0.27078494 0.11159091 0.04352396 0.1378221 -0.03599874 -0.15545473 -0.16211542 0.15364626 0.1219772 -0.07882848
594 -0.008486131 0.16323537 0.21114884 0.17114323 0.071534075 -0.24104953 0.04826703 0.028233217 0.15187834 -0.15243727 0.30115712 0.15252398 -0.10597068 -0.034572087 -0.059008386 0.071510084 -0.21208115 -0.1443289 -0.16084528 -0.12772638 -0.064422145 0.16376753 0.11217587 -0.069455095 -0.11067019 0.14322634 0.20873614 0.14428273 -0.083873734 -0.025669014 0.10424838 -0.24445432 -0.124538675 0.09069016 0.057837058 0.1478495 0.0013380583 0.115058675 0.048502896 -0.05400823 -0.009558435 0.24427342 -0.004913684 -0.143951 0.0801914 -0.00617815 0.0024929063 -0.09449361 0.028307464 -0.0032303429 0.16953789 0.060465742 0.011651993 0.050417185 -0.11609369 -0.09538809 -0.04450561 -0.09244271 -0.1920532 0.18068834 -0.03944895 -0.04635136 0.10387857 0.29124877 -0.12449319 0.17601089 -0.060685363 -0.026171377 -0.10417569 -0.2168374 0.10168223 0.070999585 -0.19133314 -0.118224226 -0.101265594 0.02321407 -0.22757652 0.12449109 0.19768532 -0.09427747 0.16832523 0.38090432 -0.076075226 0.20280361 0.101066306 -0.0259674 -0.0960204 -0.09835752 0.051947385 0.045477483 0.13546877 0.30542582 -0.14255531 -0.11753167 -0.12357056 0.063729465 0.11554748 0.14118862 0.0062251724 0.028526327
1128 0.073859714 0.017548151 0.18627408 0.009074976 0.030196184 -0.083965786 -0.031911902 0.011807252 -0.14288473 0.027871592 0.033306662 0.0065000495 -0.15843466 0.21799597 -0.11594509 0.1216503 -0.05487156 -0.045395184 0.09462374 0.09281188 -0.062230185 0.22230965 0.09156074 0.0035032842 0.0635074 0.17853251 0.098774105 0.08827357 -0.04874649 -0.15810613 -0.10488912 -0.0046627345 -0.084785655 0.036396913 0.10713413 -0.11100691 -0.22953908 -0.015253221 -0.011214351 -0.20835601 0.05721263 0.33666712 -0.094316535 -0.30824354 0.15184347 -0.1037645 -0.15066776 0.05068802 0.071395926 0.020266859 -0.07437731 0.1491188 -0.07409538 -0.043418206 -0.1427311 -0.16191666 0.09246791 0.05832416 0.10716432 0.10325368 0.22102979 0.026513116 0.18235056 0.17812625 -0.026273986 -0.049577784 -0.04653081 0.023688367 -0.22194874 0.05809849 -0.013539408 0.03603278 -0.18179105 -0.12653033 0.027355177 -0.07604274 -0.011295956 0.001039981 0.098538734 -0.21662104 0.31323856 0.2070721 0.03084907 -0.0522454 -0.06599014 -0.06547563 -0.09558724 -0.16056167 0.14936788 0.048498042 0.13523899 -0.08513184 -0.10091049 -0.23194389 -0.11253973 -0.11456272 -0.016455796 -0.20209096 0.046143822 -0.018514758
1658 0.038885355 0.13233604 0.21227111 -0.1651869 0.073823474 -0.20263658 0.004316298 0.0237084 0.02942635 -0.15200335 0.09624604 0.11107249 -0.09495067 0.10775353 -0.3484053 0.06826135 -0.058635928 -0.25178134 -0.04048978 -0.12388229 0.083148666 0.22202112 0.28643274 -0.055380367 -0.0357755 0.109156735 0.21451077 -0.04561242 -0.10017202 -0.046844427 0.21127476 -0.01579058 -0.11480338 -0.027439525 -0.00845863 0.046349723 -0.036680616 0.03641529 0.29328698 0.021683112 -0.278158 0.29103976 0.023750534 -0.09533917 0.1117889 0.08203829 -0.0067312527 -0.10493739 0.14104547 -0.091979876 0.08109873 -0.15740398 -0.10203803 -0.16696313 -0.11250302 0.00501686 -0.024810497 -0.15605846 -0.020919729 -0.063022755 -0.1347022 -0.012994153 0.048498057 0.1283106 -0.036978606 0.089302994 -0.16404442 0.38084802 -0.087041914 -0.033633392 -0.090579 0.17528972 -0.2231536 -0.085970625 -0.1567567 -0.019303355 0.014766328 -0.081677385 -0.0033176602 -0.20753114 0.22770602 0.21162456 -0.13455483 -0.06633747 0.15569998 0.26117626 -0.08002877 -0.4140679 0.07714031 0.05222532 0.19346192 -0.07139001 -0.34190333 -0.24133645 -0.08289958 -0.21145481 0.0009536252 0.02027115 0.010119463 0.0015482211
1659 0.0931993 0.11531135 0.11808614 -0.038041215 0.14427209 -0.19816619 -0.026449014 0.20266545 0.21610282 0.008759659 0.07314647 0.22150977 -0.22425233 0.13441016 -0.06593806 -0.003832715 0.11030261 -0.14555287 -0.06527965 0.034139257 -0.052266087 0.11295753 0.09123552 0.19493568 0.07673754 0.3274661 0.21964125 0.059891433 -0.20238444 -0.029886728 0.14813875 -0.16638458 -0.017629046 -0.09768247 0.0068713715 -0.00995978 -0.037753988 -0.053518645 0.096398965 -0.12247129 0.017025374 0.19996409 -0.04410184 -0.15949903 0.1419977 0.10500853 0.14870462 0.0746214 -0.122529685 -0.0869892 0.05265766 0.043111395 -0.068216726 -0.028146377 -0.10396532 0.10537303 0.020375421 -0.00078275416 0.12476928 0.005133311 0.025479035 -0.28043526 -0.11198679 0.09328 -0.043307036 0.054818094 -0.010665946 0.14998356 -0.014318513 -0.10374596 -0.03718466 -0.04487084 -0.21620351 -0.23543951 -0.077237286 -0.061007652 -0.10434226 0.030792605 0.056907766 -0.0041045453 0.028051846 0.3239629 -0.29420215 0.024410145 -0.055063955 0.028565753 -0.05878358 -0.17227246 -0.011825511 -0.01895019 0.29096752 0.09627489 -0.09403252 -0.12408682 0.0412267 -0.21298243 -0.094267555 -0.073367365 0.10573568 0.02881077
1662 0.17430113 0.09431688 0.16211365 0.059345886 -0.04836428 -0.23992561 -0.076066315 -0.057878174 0.017347243 -0.24134977 0.2640174 0.17380297 -0.098455854 0.044669632 -0.13858694 0.02743829 -0.17219473 -0.13831669 -0.020720566 -0.16902494 -0.059570603 -0.032777544 0.16349304 -0.11982224 -0.0655578 0.19595456 0.1986628 0.08669892 -0.12423474 -0.13145997 0.20780765 -0.11317348 -0.038648296 -0.017831953 -0.024245244 -0.078854896 -0.014829309 -0.030640438 0.1446629 0.08850243 0.05644799 0.26999822 0.027157214 -0.07916141 0.12217716 0.09425645 0.08927981 -0.020143189 0.12090457 -0.11612126 0.09408536 0.2394532 -0.059509486 0.13562877 -0.14507923 -0.12903854 -0.04513124 -0.020756261 0.01211444 0.08164551 -0.11254063 -0.05981766 0.041042928 -0.11992471 0.0023947929 0.16043285 -0.12032037 0.169039 -0.09291317 -0.007952608 0.10184021 0.097204685 -0.28950468 -0.101406 -0.035022452 -0.099379815 -0.00065939786 0.04770862 0.081881866 -0.17655484 0.12911484 0.37408197 -0.14897004 0.11463261 0.08047086 -0.020052655 -0.072767764 -0.13231242 0.15422146 0.06925814 0.22092684 0.17323945 -0.22852516 -0.18682465 -0.16060087 -0.15908358 0.025728729 0.05538523 0.13627091 -0.06544664
267 0.11819857 0.21214658 0.14061125 0.09687169 -0.03374156 -0.21702617 0.062037576 0.0032665757 0.14548965 -0.051424798 -0.11182063 0.28545022 -0.21680196 -0.054896582 0.041449044 0.031508803 -0.23101862 -0.19271943 -0.10634538 -0.04267435 0.004523854 0.12507816 0.19147637 -0.033512753 0.016052509 0.13309345 0.14410216 0.29924774 0.015649425 -0.021043263 -0.0028220445 -0.098555624 -0.05327433 -0.07418708 -0.050087795 0.01620014 0.104144454 -0.019370584 0.13688675 -0.10024822 -0.0849165 0.2738685 0.19583754 -0.09478523 0.29586664 -0.023269465 0.23300393 0.0035246783 -0.050196454 -0.08896634 0.033728737 0.09215496 -0.049816415 -0.02365561 -0.16269217 -0.109239124 -0.056974962 -0.073958844 -0.037383717 0.0140776485 -0.0977651 0.024860112 0.06691559 -0.026286539 0.17130385 -0.06351044 -0.10120604 0.09542203 0.008518001 0.10779492 -0.047687177 0.048678953 -0.20582671 -0.18793419 -0.06940425 -0.13292834 -0.06831778 -0.06557812 0.22755963 -0.17123002 0.24694571 0.4198777 -0.284778 0.10828771 -0.021341534 0.0202174 -0.04211468 0.067371786 0.03821509 -0.010689146 0.045612402 0.14459957 -0.5637001 -0.25069255 -0.1214274 -0.020316854 -0.18115708 -0.20654295 -0.011040842 -0.18083444
1666 0.08516491 0.22296394 0.24284777 0.013312706 0.1266965 -0.15105386 -0.06184619 0.15065141 0.10752853 -0.2814016 0.10849589 0.26612505 -0.13773958 0.087489575 -0.19317852 0.07658794 -0.25034207 -0.24970876 0.0877031 -0.2513278 0.010919999 0.09021162 0.18679169 -0.08180437 -0.083072126 0.08132127 0.21265535 0.07374385 -0.0764583 -0.27577272 0.18777955 -0.1769348 -0.11208986 0.039301082 0.062284753 0.042356733 -0.083698675 0.073361956 0.2594772 0.18237066 -0.16481483 0.32395843 0.042687953 -0.048804466 0.096726835 0.08316449 -0.08644588 -0.004216719 0.16478643 -0.06134035 0.25969568 0.16078518 0.0009737034 -0.17234203 -0.22763775 -0.00349258 0.04151843 -0.22429833 -0.05298834 0.005041568 -0.10064353 -0.17212963 0.070323445 0.17892599 0.051127568 0.058542233 -0.25007376 0.18152541 -0.19104078 -0.016411807 -0.02587109 0.18690915 -0.32630962 -0.14646573 0.04182975 -0.0554182 -0.07539984 -0.18126978 0.18782525 -0.18137388 0.20106032 0.33680993 -0.12494109 -0.2169203 0.009116819 0.30481488 -0.036599252 -0.25049582 -0.0017255809 -0.011908489 0.072940275 0.08443521 -0.21044147 -0.22375384 -0.3715216 0.006597303 -0.116193034 -0.025184818 0.13791823 -0.14725745
1671 0.15293579 0.08790959 0.22578084 0.013771246 0.030113071 -0.038846094 0.07755588 -0.012870801 0.118080765 -0.062084183 0.12528974 0.28940716 -0.23896389 -0.0017792397 -0.14130294 0.34727135 0.056017686 0.07568304 0.22923003 -0.12068839 -0.24086381 0.032073576 -0.08465926 0.033488028 -0.01740515 0.15258658 0.1443231 -0.014831845 -0.1877783 0.023550414 0.17535554 0.0018411444 -0.10717806 0.08317016 -0.011602605 -0.11094766 -0.002982617 -0.14932257 0.052436244 0.113511875 -0.2801263 0.050406355 -0.091168605 -0.33942825 0.1380847 0.07722336 -0.15380338 -0.06743053 0.32531127 0.01895277 0.041786946 0.12401351 0.0785338 -0.054328803 -0.15723726 -0.22467996 0.21780321 0.12822375 0.037781768 0.03222253 -0.18771431 -0.10731167 0.09846843 0.13410178 0.27959144 -0.07039301 0.24478048 0.32087716 0.03693999 -0.005059773 -0.14965552 0.055241086 -0.033445816 0.14397861 -0.11617769 0.057806533 -0.00538079 0.004500358 0.060277503 -0.07691809 0.3945799 0.2333792 -0.20558114 0.062270164 0.20322439 0.103042364 -0.046126753 -0.13032089 0.1989483 -0.18289997 0.14140023 0.21203461 -0.11557824 -0.018492732 -0.2071429 0.019720897 0.039202094 0.12678115 0.09023288 0.071523115
1672 0.21961363 0.24962309 0.1454099 -0.018675277 0.008518923 -0.15019731 -0.17859276 0.11497939 0.03348185 -0.17047691 0.30559137 0.15343617 -0.29243457 0.032743547 -0.07162631 0.18535107 -0.14250694 -0.2830386 -0.07836496 -0.14889634 0.052845415 0.15813406 0.16064306 0.06402959 -0.045313302 0.18074848 0.24516095 0.25510383 -0.080842346 -0.042050805 0.248187 -0.29085615 0.038156107 -0.0316759 -0.019688413 -0.0130435275 -0.16667274 -0.022859573 0.19254358 -0.069631234 -0.08769178 0.30862644 -0.02506536 -0.15874816 0.22804797 0.05293841 0.03922487 0.14988722 0.26965263 -0.2114454 0.18862532 0.029179487 -0.017433843 -0.029415676 -0.086870976 -0.155253 -0.016976703 -0.10785289 -0.16126981 -0.044158768 -0.088559955 -0.02964426 0.045384727 -0.06750431 0.12203619 0.03943884 -0.019779593 0.3542148 -0.13758293 -0.07865404 0.09440067 0.09660821 -0.13891627 -0.18744251 -0.22729386 -0.22136252 -0.14938688 -0.032728884 0.12004462 -0.055981513 0.20460969 0.2853727 0.014127715 0.04227455 0.1603559 0.041400988 -0.11538487 -0.070213206 0.116306454 -0.017789237 0.06277232 0.18779317 -0.16453204 -0.20734693 -0.12982586 -0.14257799 -0.07436125 0.08558667 0.05347161 0.07033191
1141 -0.02347731 0.19086254 0.2449163 -0.0068457713 0.053517688 -0.2646587 -0.024012132 0.09429124 0.16173351 -0.045630984 0.09392096 0.2639516 -0.27821675 0.10537495 -0.08615454 -0.008304282 0.053724043 -0.1914155 -0.015988808 -0.12018298 -0.13199632 0.15775052 0.1352709 -0.13846314 -0.005334004 0.2635646 0.27028173 -0.11367692 0.019148516 -0.01489092 0.11358688 -0.08901645 -0.019262956 0.079294465 0.037173536 -0.08058894 -0.03753665 -0.025992578 0.1136521 -0.11696587 -0.061634716 0.21516274 -0.10814086 -0.1862532 0.19192071 0.053997625 -0.05522912 0.17627977 0.10474729 -0.06130462 -0.018001432 0.1731756 -0.09099404 -0.0023771117 -0.18019827 0.11071307 -0.043215632 -0.051973157 0.20702142 -0.053852577 0.030431548 -0.19764373 0.002702268 0.036356978 0.009935924 0.09412826 0.10393382 0.09209477 -0.23740996 0.016441813 -0.08374659 0.007474469 -0.08192587 -0.13910182 -0.09017111 -0.0044823247 0.021338928 -0.0340643 0.096322335 0.010487828 0.24937491 0.24922748 0.04051409 -0.016854545 -0.18405938 0.14017929 -0.16256282 -0.054034434 0.15541674 -0.05268277 0.15912616 0.08870835 -0.13659716 -0.1689091 -0.08346182 -0.1472741 0.18607317 -0.029737307 0.111597195 0.07644851
1143 0.007661212 -0.02056428 0.06633203 -0.18585603 -0.025865622 -0.09903212 -0.25177494 0.073388375 0.097838275 -0.1729117 0.21996656 0.15894422 -0.12511496 -0.08186449 -0.10427107 0.02759233 -0.17428902 -0.19718416 0.010111874 0.029668495 -0.09023703 0.10280141 0.25153592 0.14980227 -0.054209396 0.35299072 0.23545216 0.11136505 -0.21323219 0.038613424 0.33653036 -0.13611938 0.013913599 -0.13748698 -0.008342264 -0.08370073 0.03871707 0.016475832 0.0025526509 0.02670689 -0.040082816 0.38521764 0.053518448 -0.18175735 0.29071513 -0.06591207 -0.01491322 0.32942274 0.12194367 -0.1127889 0.2824583 0.15752544 -0.04713679 0.09788832 0.09031857 0.015643235 0.06330479 -0.14716123 -0.18386571 -0.035212092 -0.27844578 -0.19906516 -0.1047107 0.049211334 -0.08555127 0.12320611 0.06298579 0.19785245 0.027226634 -0.06989259 0.0044441246 -0.016318401 -0.2622323 -0.21171619 -0.113836735 -0.113923855 -0.06623602 -0.05182597 0.05103214 -0.22089322 0.32950145 0.06904154 -0.33607775 0.06049819 0.15030137 0.088885844 -0.07640627 -0.106590554 0.050758656 -0.026214698 0.07602253 0.12024585 -0.15325376 -0.2623406 -0.1940806 -0.13831112 -0.12599698 -0.09171342 -0.02550772 -0.23000833
1678 0.08187665 0.10708495 0.32151324 -0.008028187 0.096270464 -0.2030018 -0.0920257 0.1279611 0.09204175 -0.029257437 0.109874755 0.060875747 -0.21187209 -0.034059234 -0.14225271 0.088490464 -0.086442366 -0.23397395 0.02750336 -0.059282497 -0.070718974 0.15455246 0.21454017 -0.0077366726 -0.06382159 0.22036996 0.17715316 0.23165874 -0.14837174 -0.06735904 0.22202131 -0.16166806 -0.0739025 0.041399084 0.06789934 0.04650605 0.016363656 -0.03603255 0.1799552 0.027407447 6.919724e-05 0.2757281 -0.0017941548 0.008020916 0.030285079 0.09159946 0.054296333 0.07638253 0.29441413 -0.12147658 0.009232721 0.0025367516 0.024752425 0.037643615 -0.08721566 -0.016113158 0.03797514 -0.029271074 -0.10027045 -0.082820944 -0.13876192 -0.24924111 0.095476426 0.05144667 0.024683965 0.014393944 -0.007518602 0.17469156 -0.033155438 -0.043263506 -0.009293056 0.13299835 -0.18749374 -0.20546508 -0.1203889 -0.10007846 -0.1608865 -0.13219097 0.10508866 -0.20045976 0.44733495 0.40184236 -0.10468743 0.11385835 0.08834684 0.038949534 -0.028680429 -0.16490676 0.12798467 -0.07638639 0.16221084 0.22190838 -0.17698973 -0.075296275 -0.182978 -0.048483692 -0.12243239 0.062394157 0.2201157 -0.004800469
610 0.12466253 0.092059895 0.28402534 0.08352731 0.0091442745 -0.28787228 -0.015018523 0.01952396 0.036617648 -0.01991871 0.13755845 0.08632543 -0.38606578 0.039514326 0.04244179 0.13043354 0.058249168 -0.021096837 0.08367434 0.05889933 -0.06177354 0.052847084 0.21388596 -0.10751189 -0.11270953 0.08358582 0.08283706 0.10106085 -0.0627425 0.09163922 -0.03421932 -0.34073052 0.018489141 8.800048e-05 -0.09811859 -0.0677516 -0.10383806 -0.19209367 -0.07342829 0.022202816 -0.10430571 0.23107351 -0.16350788 -0.2528677 0.17416096 -0.17174815 -0.0023506447 -0.10525506 0.09218605 -0.11266382 0.12838334 0.09561 -0.031632617 -0.013195095 0.07684629 0.050852567 -0.0138659505 -0.051807757 0.060818765 0.047827505 0.08390005 -0.3482041 0.00010763748 0.034675453 0.07055763 0.027545216 0.006656913 0.08044764 -0.27169538 0.03895428 -0.047658656 0.1104838 -0.08820567 -0.09307557 -0.078252755 0.23311785 0.16155481 0.16261125 0.040645476 0.016491685 0.104652554 0.33304513 -0.15380499 0.032875974 0.011923725 0.029536603 -0.09673381 -0.17843631 0.00256008 -0.07344029 0.05919439 0.121119775 -0.036166575 -0.108049564 -0.023052672 -0.024587922 -0.038430348 0.031405628 -0.030280285 0.027650533
1146 0.015418368 -0.030093415 0.15596054 0.102807954 -0.053854402 -0.21313949 0.13522266 -0.14043893 -0.026752127 0.035699863 0.11063934 0.024113294 -0.2094172 0.09043764 -0.058774345 0.253995 -0.012422486 -0.054007057 0.2215784 -0.042450048 -0.12657909 0.0825662 -0.0007026078 0.06654247 -0.14537191 0.10359598 0.09905167 0.09426452 -0.34959826 -0.102069184 -0.12953252 -0.042284 -0.2234549 -0.036081884 -0.017837552 -0.17610079 -0.023020409 -0.12018892 0.10115541 0.010538334 -0.06425073 0.23026264 -0.17558661 -0.27049837 0.08725961 0.029753596 0.069681495 -0.10751068 0.27389824 -0.13259159 0.09868924 0.1428731 -0.14538984 -0.015881417 -0.14056784 -0.18315773 0.10859987 0.016618878 0.031803817 0.06792393 -0.08468151 0.065178975 0.07183492 0.19751541 0.10207132 0.06627175 -0.060273413 -0.14005019 0.08721675 -0.0112024145 0.063125595 0.042724732 -0.1652692 -0.09985724 -0.004560142 -0.17293404 0.12640074 -0.114436686 0.040165655 -0.2905893 0.29185084 0.23319346 0.009079356 0.12547918 0.0014501136 -0.10188129 -0.081651226 -0.1761318 0.05942452 -0.02321317 0.24131118 0.16705579 -0.15150836 -0.0064459676 -0.102020584 -0.12130511 0.036759682 0.040006135 0.13284355 -0.18717742
2126 0.10810571 0.26872078 0.2988533 0.0016892004 0.08683779 -0.20867719 -0.044028632 0.016530382 0.19566314 -0.17773035 0.19568329 0.2675318 -0.100497715 0.07891601 -0.09902482 -0.032205723 -0.17222089 -0.1304516 -0.033530146 -0.14031112 0.06516679 0.09655345 0.12831642 0.00025752926 0.011855601 0.16767739 0.26011544 0.14152357 -0.13579148 -0.26782438 0.19555062 -0.26094836 -0.18751276 -0.017111374 -0.022713246 -0.21232054 -0.099737056 0.14108732 0.21575628 0.16589008 -0.1747219 0.3061694 0.24865937 -0.019896805 0.15312748 0.068421684 0.04386439 0.19615878 0.1702905 -0.07897416 0.22266693 0.18497388 0.024690436 -0.030114679 -0.15369569 -0.034759913 0.0066416594 -0.111223236 -0.15484339 -0.11842448 -0.06596222 -0.19548923 0.06748086 0.023819933 -0.07754982 0.03063396 -0.06245808 0.24008526 -0.14909624 -0.14921993 0.014310574 0.046435308 -0.43624428 -0.22153571 -0.13710777 -0.065998025 -0.10271063 -0.16272132 0.13818589 -0.082813084 0.33785397 0.3380764 -0.13273065 0.009460194 0.019995729 0.060536798 -0.10119468 -0.13178824 0.05049444 -0.047855474 0.013840092 0.10095944 -0.23240255 -0.2680001 -0.102934845 -0.05552062 -0.06341617 -0.08497003 0.06092082 -0.18472464
53 -0.21209909 0.044758603 0.06289172 0.20781739 0.20655178 -0.0597479 0.19852759 -0.10027727 0.20137788 0.32449928 -0.074668646 0.20381476 -0.17745069 0.22848818 0.01482167 0.405534 0.06433447 0.24596174 0.22955215 -0.10955567 0.05962715 -0.11299036 0.2458028 -0.0034952846 -0.03329581 0.2304425 0.3523881 -0.04456009 -0.34943596 0.31997392 0.08848624 -0.1670184 -0.31224248 -0.12155334 -0.1419457 -0.031181648 -0.20608918 -0.18310314 0.05433829 0.080811314 -0.06783524 0.29655653 -0.18490553 -0.08980851 -0.17695457 -0.3501115 0.32175505 -0.18018617 0.39947003 -0.15523718 -0.013632068 0.09617432 -0.046383712 -0.32799977 0.058752 -0.45054144 0.3737941 0.1652006 -0.016612899 0.17562014 -0.15381144 -0.021145081 0.06546944 0.12180443 0.3195528 0.122556046 0.059741218 0.052347496 -0.022646641 -0.1358023 -0.09828538 0.22255658 -0.2340009 0.15698056 0.008014923 -0.033842072 -0.24144772 0.011226796 -0.056467418 -0.29281276 0.2721361 0.032401126 -0.20857863 -0.0154288 0.046678007 0.04564867 -0.119325794 -0.3796562 0.1737462 0.05962127 0.25839338 0.17716813 -0.131438 0.13640751 -0.07858868 -0.02790366 -0.22815952 0.065632194 0.21084918 0.016797572
1151 0.17105804 0.20326656 0.3341126 0.08108665 0.24715026 -0.29173052 -0.2187965 0.21909703 0.06479535 -0.3146542 0.08287236 -0.020301493 -0.05251878 0.05937501 -0.23537174 0.17772976 -0.11385713 -0.22892505 -0.14236312 0.040890213 0.027644506 -0.01083161 0.1844633 -0.06798225 -0.046754107 0.15885374 0.2837368 0.16467535 0.047073923 -0.20677671 0.33165964 -0.29672185 0.010003089 0.06269099 0.15203169 -0.07009804 -0.1636548 -0.0027858606 0.16746591 0.1544788 -0.13650456 0.3000164 0.11595848 -0.07584815 0.17574021 0.06441173 0.024807379 0.16594478 0.0026627677 -0.13625792 0.11446704 0.26749215 -0.039777096 -0.0651304 -0.09858038 0.20310606 0.061996035 -0.066655576 -0.15722322 -0.05475282 -0.2038528 -0.09884152 -0.15717968 0.23268934 0.082698725 -0.12026953 -0.006577531 0.2911207 -0.016086347 -0.12736599 0.16600333 0.21625805 -0.19966468 0.12063734 -0.13573836 -0.10622256 0.04844677 0.011910485 0.17675586 -0.15497069 0.1426972 0.37294748 -0.0638714 -0.015058251 0.07332806 0.16187042 -0.073898956 -0.27154955 0.061407972 -0.21242583 0.15829346 0.07643885 -0.3953055 -0.19847602 -0.034553614 -0.14693433 -0.18494111 -0.039812665 0.02462999 -0.052944392
1686 0.022614095 0.29403305 0.17332058 0.03436863 0.006538009 -0.27995867 0.06731451 0.13602313 0.120860666 -0.37586728 0.17557502 0.09297154 -0.16364928 -0.03099874 -0.1837891 0.07766942 0.029974105 -0.1769457 -0.14885548 -0.29240277 -0.02716366 0.24387029 0.20228949 -0.13643034 -0.15964615 0.17141172 0.25370744 0.15674461 -0.1099914 -0.08572795 0.2057683 0.064282805 0.060546864 0.09480877 0.14424853 -0.1603479 0.01387476 0.01693247 0.08918011 -0.07965642 -0.16546229 0.20380013 -0.027061012 -0.12575491 0.20256881 -0.0424558 0.09277964 0.008447037 0.10560104 -0.03696842 0.020504205 0.052008156 -0.06097331 -0.06703622 -0.14587453 -0.099144526 0.025364114 0.04140765 0.1218897 -0.013902617 -0.30674496 -0.14127144 0.15828153 -0.0105528105 0.081524365 -0.042224806 0.11467022 0.2299182 -0.07572138 -0.06147381 0.0055786646 0.015748264 -0.14905307 -0.20931555 -0.078329735 0.070481256 -0.072514094 -0.16607669 0.17340913 -0.06281616 0.32731688 0.26479903 -0.044896092 0.018574804 0.05781687 0.044630945 -0.031071907 -0.14021897 0.31531993 -0.11398865 0.17279065 0.25863022 -0.15415604 -0.19965953 -0.15088971 -0.1401092 0.0736929 -0.14092028 0.07942022 0.1109781
1734 -0.18215299 -0.06360234 0.23127283 -0.0030131452 0.03689063 -0.25386024 -0.11352762 0.009312321 -0.08617307 0.27472413 0.04030991 0.21327204 -0.009332271 0.16139324 -0.06366899 0.07863916 -0.0075908625 -0.053327452 0.12030175 -0.09650132 -0.097323835 0.25335035 0.017093526 -0.038073294 -0.055324905 0.028844573 0.11970544 0.2407976 -0.03768922 -0.03606735 -0.15844333 0.04524713 0.04292654 -0.00030854775 -0.18816195 0.19913743 0.027892197 0.0227589 -0.13604994 -0.019465543 0.18595368 0.2946642 -0.28748962 -0.14963138 0.29654554 0.017572453 0.17451301 -0.069187924 0.0208092 -0.18631752 0.12108828 0.11256406 0.07663425 -0.026066279 -0.09296702 -0.1144837 0.22945827 -0.10173048 0.03376173 0.07087509 -0.10642988 0.032313164 -0.035764787 0.23531643 0.04106916 -0.020983286 -0.010607055 0.0858281 -0.0536445 0.062774144 0.07384455 0.027952135 -0.14329103 0.20750792 -0.10913818 -0.10627747 -0.093104176 0.07486194 0.24299581 -0.19443071 0.29133216 0.29605895 -0.100945055 -0.015265888 0.042459346 -0.18084587 -0.009091753 -0.32632133 0.15412 0.2103241 0.03115902 0.085455246 -0.044978604 -0.112904534 -0.11934666 0.09197902 -0.09327463 -0.36005953 0.16942474 -0.10041728
1155 0.22870359 0.15987863 0.33087766 0.08302759 0.011542344 -0.22225738 -0.0585197 0.04175992 -0.16106409 -0.07898973 0.19493404 -0.03372589 -0.16320032 0.029856777 0.11406644 0.18464589 -0.06562098 -0.22308306 -0.06692311 -0.024346642 -0.022751808 0.08963808 0.11519064 0.011721915 -0.18523842 0.14862299 0.18238728 0.31420627 -0.1465538 -0.02966434 0.23281644 -0.16710219 -0.0012527168 0.06883306 -0.12955612 0.051261865 -0.18397525 -0.046444077 0.16080205 0.056117363 -0.052722793 0.22935806 -0.14942127 -0.17471087 0.14187682 -0.042953502 -0.09887035 0.014019032 -0.016790817 -0.15767854 0.08508715 0.096873455 -0.012280131 -0.20246413 -0.15485442 0.04386286 -0.12593105 -0.17399219 -0.2743522 -0.00444016 -0.20052886 -0.32041502 -0.031453494 -0.10869052 -0.107925616 0.16524214 0.10562958 0.29749376 -0.092796266 -0.048054926 0.008017048 0.29094556 -0.38302815 -0.22523887 -0.21322586 0.009075103 0.027270848 -0.0195539 -0.01501668 -0.14997107 0.15875252 0.46959344 -0.17700005 0.0100780595 0.09639039 0.018463012 -0.104218885 -0.16685353 0.2455282 0.06647629 0.049753934 0.26473445 -0.10406073 -0.123436 -0.024374478 0.060185507 -0.06732699 0.042502884 -0.033538505 -0.029387316
616 0.1600453 0.2176596 0.30871576 -0.00041092397 0.22638585 -0.21513927 -0.052220576 0.17260082 0.12705271 -0.21774136 0.23432028 0.28943273 -0.19237973 -0.011088865 -0.1778265 0.095681734 -0.16953497 -0.20749046 0.01263685 -0.1234537 0.16888763 -0.010358162 0.11762772 -0.07508526 -0.04736012 0.09685967 0.16053465 0.21849103 -0.16353217 -0.16015744 0.26115358 -0.257943 0.018045645 0.11713823 0.08503514 -0.08289775 0.006202214 0.059978712 0.23387718 0.15461953 -0.23286584 0.35416394 0.12562887 -0.002813967 0.2465799 -0.05303868 -0.027282435 0.10470375 0.16746987 -0.12431537 0.19340725 0.26168677 -0.021545084 -0.10723216 -0.10857228 -0.10582622 0.037190173 -0.094343185 -0.121830545 -0.050271574 -0.16602883 -0.18476224 0.051301643 0.05395498 -0.07702606 -0.02330346 -0.049091127 0.24580526 -0.13518248 -0.063968986 -0.06326219 0.08776853 -0.27198896 -0.18067567 -0.20916305 -0.16018946 -0.05967645 -0.051509835 0.20040686 -0.18111883 0.26568115 0.38230392 -0.16759746 -0.017483702 -0.013883807 0.111589335 -0.059638046 -0.11596729 0.038352538 -0.047200326 0.027418615 0.21534413 -0.31612447 -0.22170292 -0.0910432 -0.027106727 -0.15034594 0.078102745 0.004720112 -0.087655745
1690 0.14645411 0.10555589 0.19949189 0.13441618 -0.07943237 -0.1381084 0.093969345 -0.09499544 -0.05362878 -0.12510893 0.06751451 0.1732373 -0.30631843 0.18153885 -0.06361386 0.16559081 -0.058587365 -0.106484205 0.09611688 0.14536569 -0.034140926 0.18809906 0.0042977394 -0.049993515 -0.105038784 0.19747302 0.06387006 -0.036363248 -0.22504799 0.16444753 0.13351016 -0.15984115 0.0012596971 0.10316156 -0.07186376 -0.038421858 -0.042194396 -0.14386262 -0.13619378 -0.08927475 -0.020758798 0.2739178 -0.09249183 -0.348653 0.08916358 0.09342518 -0.03280515 -0.1438752 0.1318502 -0.12948367 -0.12198745 0.13331537 0.025898715 -0.07336276 -0.050348725 -0.006906712 -0.18924314 0.021280373 0.08181006 0.16720985 -0.054843415 -0.23998266 0.048705444 0.059128422 0.14070348 -0.058420945 -0.023428697 0.18171203 -0.22034399 0.07456688 -0.05687305 0.043549843 -0.047373794 -0.018688552 -0.07177423 0.0038557276 0.01585395 -0.03804135 0.09536692 -0.122456655 0.116250746 0.23924573 -0.21387458 0.13009171 0.00033019463 -0.01574478 -0.077777006 0.0015310721 0.054781158 0.020824742 0.12444035 0.15603101 -0.078239664 -0.056224402 -0.0035482075 0.014069543 -0.1503218 -0.17173626 -0.10719698 -0.16136348
1691 0.076621816 0.14188603 0.21044417 -0.012329569 0.08384188 -0.3090771 -0.11897963 0.12732936 0.027805237 -0.17642069 0.1928708 0.16043779 -0.1816832 0.10486709 -0.14113076 0.09781111 -0.101157546 -0.11451525 -0.11138764 0.039514687 -0.0026706574 -0.024682539 0.22365396 -0.051183663 -0.07926057 0.29679197 0.18409845 0.20629092 -0.0849182 -0.073155396 0.26782483 -0.26044556 -0.025196454 0.049781963 0.030960001 0.0035658807 -0.12115618 -0.023415484 0.14711699 -0.03829616 -0.08443797 0.27550563 0.12753451 -0.042730536 0.15812118 -0.047791295 0.07127575 0.0889288 0.2014502 0.041260827 0.113996014 -0.038243275 -0.05570707 -0.02092936 0.013475914 -0.2011288 -0.043232895 -0.08847332 -0.028246136 0.20121932 -0.30391365 -0.16983253 0.060294837 0.025191296 -0.046381306 0.09121088 -0.056288403 0.19855493 -0.051019415 -0.11455297 0.077113904 -0.01333723 -0.29081252 -0.18022892 -0.016572049 -0.11373631 -0.08943439 -0.11555703 0.025460389 -0.068732776 0.2532969 0.46020424 -0.09744186 0.13614574 0.094346754 -0.0016839675 -0.12623969 -0.22372921 0.20549 -0.024916306 0.11562818 0.22196196 -0.10851468 -0.20624726 -0.14591101 -0.124532014 -0.031522833 0.17021571 0.18312828 -0.037010342
1693 0.060729727 0.17689495 0.11766014 0.027563848 0.08173388 -0.1997415 0.14638038 0.06550006 0.12296054 -0.077893056 -0.009136153 0.16464972 -0.24955204 0.16223477 -0.04183442 -0.012114131 -0.20581387 -0.023886912 0.07566334 0.19308022 -0.034953516 0.141715 0.27873492 0.012911587 0.06030365 0.11766888 0.04506729 0.08408665 0.033330623 -0.0015264545 0.18141207 -0.16841497 -0.12413515 0.07244279 -0.053239077 -0.13463145 -0.15931946 -0.1956714 -0.048849706 -0.12489416 -0.037412103 0.15279385 -0.010656781 -0.15033023 0.09683345 -0.061412774 -0.009583262 -0.067883685 0.09965397 -0.042515542 -0.079428166 0.07777997 -0.056920126 0.017348558 -0.09162574 -0.045150474 -0.06410659 0.0119432425 0.08429569 0.02147772 0.082679376 -0.13711342 -0.111979716 0.072313584 0.022642868 -0.013857111 -0.059597153 0.06720192 -0.1935339 0.058639992 -0.12973058 -0.13926926 -0.15935014 -0.13101748 0.031358313 0.013603959 0.0113884 0.030037533 0.12750949 -0.14632148 0.20541175 0.3126824 -0.026597586 0.05080299 0.06327739 -0.080501355 -0.1361778 -0.08052366 -0.045605395 -0.055860523 -0.019327 -0.05949487 -0.26412708 -0.18675861 -0.082045004 0.060593907 -0.12167203 -0.21646473 0.100198105 -0.1602499
620 0.04973577 0.14627683 0.088661455 0.09045071 -0.03072797 -0.022879936 0.027443111 0.13932401 0.09110298 -0.37910923 0.068890125 0.18799621 -0.12313394 0.0025381537 -0.012874668 -0.074533544 -0.059032578 -0.34715697 0.05940323 -0.32319504 0.19217636 0.08716799 0.0745391 -0.0027546317 0.2256032 0.06448011 0.28834423 0.10477134 -0.043043304 -0.10767496 -0.0035272108 -0.098484956 -0.05003352 0.12956437 0.04170665 0.06956858 -0.038354173 0.07141398 0.1897708 0.024728075 -0.15201342 0.0697189 -0.040098954 0.010922375 0.15196617 0.073533505 0.0793078 -0.18404189 0.07888485 -0.29968253 0.19172606 0.21484959 0.009972008 -0.13705447 -0.19655569 0.0038466796 0.11830658 -0.35377347 0.02146788 -0.0993174 -0.11898167 -0.06587132 -0.16349688 0.3329401 -0.090906546 -0.048005957 0.014687594 0.4095446 -0.09822981 -0.028990403 -0.03937851 0.19643638 -0.20356455 -0.18325336 -0.07262429 -0.15290664 0.2085051 -0.23210539 0.053414505 -0.16058272 0.27561468 0.22593428 -0.09391086 -0.3299574 0.24856675 0.13906682 0.19523592 -0.25034663 0.010233828 -0.0966404 0.032413505 -0.06751985 -0.0131411115 -0.20529462 -0.04990689 -0.068630956 -0.26876464 0.2430605 0.06437897 0.011863616
1483 0.16448711 0.09268658 0.13481727 -0.08038544 0.055646714 -0.23683757 -0.13589385 -0.12538101 0.051394053 -0.3384438 0.015249525 0.16193128 -0.19491662 0.105232865 -0.12250315 0.09488151 -0.22913957 -0.008917906 -0.1597959 0.013699332 -0.17772661 0.039051697 0.15379743 -0.09317697 0.022572877 0.06838736 0.26316103 0.026977526 -0.05560559 -0.18593077 0.18799023 -0.15445478 -0.047471695 -0.075389504 0.33787695 0.10003756 -0.18746892 0.13064663 -0.011149224 0.13766462 -0.0009907942 0.23655517 0.17166404 -0.21240081 0.005747407 0.043900542 0.18803968 0.103204794 0.21643433 -0.2103111 0.0952842 0.065361194 -0.11371281 0.028917637 -0.063313186 -0.039114304 -0.09203486 -0.16180648 -0.12508976 0.06504897 -0.21212773 -0.073145054 0.08665638 2.9102477e-05 -0.031220147 0.03848765 0.012377641 0.053297028 -0.1060403 -0.07702026 0.061177164 0.0022120536 -0.39403954 -0.10053135 0.06560753 -0.035673726 -0.07578507 0.12367313 0.13153285 -0.12983198 0.19452173 0.3925089 -0.12609014 0.19784777 -0.048453946 -0.10269613 -0.22265522 -0.21217495 0.18116772 -0.12424564 0.28399134 -0.013613072 -0.19510916 -0.115853995 -0.11329173 -0.041852824 0.0025012158 -0.06490309 0.07655986 -0.07554066
622 0.052551135 0.16291992 0.24437784 -0.039364558 -0.050773166 -0.26695594 0.16294162 0.021381736 0.08418666 -0.15216497 0.029746454 0.32512078 -0.1045391 -0.07937025 -0.11159672 0.11721914 -0.04249597 -0.041132014 -0.05756087 -0.1868026 -0.1561449 0.13652599 0.15010476 -0.124237515 -0.029800622 0.19886112 0.31596643 0.021423941 -0.1914765 -0.059051115 0.19749591 -0.05616704 -0.056334037 0.09038342 0.09224001 -0.11259051 -0.07360415 0.0668158 -0.015531961 0.008014456 -0.07132934 0.06404389 0.06872138 -0.14329505 0.17436588 0.07906768 -0.03715765 -0.05043056 0.20769121 0.009245379 -0.008539816 0.08797386 -0.10172 0.030074386 -0.1486759 0.04993028 0.16810404 -0.11231108 -0.014055492 -0.16033043 -0.055401143 -0.06789329 0.043671682 0.13530941 -0.101915315 0.050865173 -0.005535555 0.019941168 0.007711615 -0.0013756121 0.12937078 0.13224451 -0.21901713 -0.05583694 -0.116874084 0.041142393 -0.13002592 -0.048832696 0.19349219 -0.106874965 0.18874297 0.18190098 -0.09989896 0.058906503 0.08266515 0.15637186 -0.09801032 -0.20887654 0.19987586 0.028784735 0.15129925 0.20878993 -0.33597878 -0.14277662 -0.09614139 -0.19404158 0.07291634 -0.051829156 0.15678605 0.06741947
1566 0.059317484 0.026046827 0.14905243 -0.05545669 -0.048286203 -0.12318435 0.15001151 -0.059316523 0.06081437 -0.1592586 0.104773544 0.3234222 -0.1335259 -0.123194546 -0.073802516 0.09066646 -0.14278159 -0.17157872 -0.11127897 -0.045788594 -0.082435675 0.11457131 0.20420128 -0.036753025 0.10002876 0.2821989 0.1684003 0.05140315 -0.05179429 -0.14526771 0.01168993 -0.16677941 -0.14369358 0.07782103 0.040350255 0.0027731808 -0.018348634 0.051557425 0.20760807 0.11966998 0.02820035 0.08604473 0.022591801 -0.0037672627 0.25917307 0.08344324 0.056767095 -0.08307821 -0.0155736115 -0.09126658 0.23038189 0.2759572 -0.025141371 0.044682775 -0.27855512 -0.014919775 -0.008814417 -0.049750637 -0.17843115 0.0027092805 -0.07988756 0.060434695 0.18995108 0.036415294 0.09222103 -0.067346185 -0.13912602 0.0624038 0.035779778 0.01826742 0.0462237 0.1604771 -0.11608132 -0.08437018 -0.12841225 0.07975159 0.03642876 -0.23711567 0.1846418 -0.1728931 0.18523863 0.11231351 -0.09322663 -0.08459486 0.060365558 0.031336173 -0.20129327 -0.30588695 0.10478387 -0.038701426 0.13256109 -0.05903758 -0.32549322 -0.34316152 0.055680197 -0.15813401 0.061697725 0.1770226 0.1986421 0.04441673
625 0.15697001 0.25348333 0.1684705 0.16017109 0.0925231 -0.14266872 0.012179925 0.029425764 0.071196556 -0.21842997 0.08953062 0.35784835 -0.1535593 -0.14880207 -0.026046887 0.17840452 -0.20507485 -0.14107518 -0.082600944 -0.0006891132 0.16844058 0.24546088 0.113580234 0.12910415 -0.17985071 0.04987274 0.12545557 0.20635103 -0.18959628 -0.045927312 0.025838546 -0.34990764 0.09330553 -0.19005328 -0.12146668 -0.088452786 -0.008438612 -0.018351408 0.14217442 -0.059156895 -0.23302798 0.26535353 0.26315305 -0.13567518 0.33287498 0.0708177 0.036322236 0.09745735 0.066165976 -0.055134613 -0.0013181964 0.02604887 -0.009680741 -0.069522426 -0.13948436 -0.12052462 -0.047275707 0.050488252 0.045696013 0.1797899 -0.238046 0.0024988584 0.1320624 0.12285579 0.027321499 -0.03850107 -0.09670498 0.29125315 0.04523563 0.071026444 -0.09053588 0.061799623 -0.14881156 -0.30816644 -0.18969972 -0.21899606 -0.14900137 0.046440292 0.21394831 -0.175111 0.2291886 0.3234712 -0.24526869 0.056698278 0.102210246 0.13201903 0.14101282 -0.027154116 -0.041457 0.035375632 0.048566535 0.21120295 -0.49071175 -0.2607108 -0.16704153 0.004630773 -0.35339952 -0.2109097 -0.102529645 -0.16734748
627 0.15875317 0.1651308 0.27417058 -0.05891532 -0.0035924935 -0.36207676 -0.088865 0.20268361 -0.005231558 -0.17391023 0.16775712 0.099249184 -0.22227968 0.06246997 -0.12707251 0.0041079153 -0.14172134 -0.18320113 -0.07283006 -0.15823819 -0.022224242 0.23347433 0.21613699 0.060165178 -0.09968621 0.18234937 0.2162749 0.3046458 0.00782711 0.04861808 0.36079106 -0.09195631 0.048020374 0.014171546 -0.04393739 -0.06462167 -0.19454595 -0.059994515 0.09397848 -0.075405486 -0.090384334 0.260151 0.11146814 -0.010723814 0.3034324 0.120037615 0.14891036 0.15587029 0.2326873 -0.26268542 0.15634722 -0.08697357 0.013998921 0.13543285 -0.011524981 0.0014757125 0.017343843 -0.04024953 -0.030301925 0.062693484 -0.11337068 -0.16201137 0.082338355 0.019280786 -0.028250456 0.056617085 -0.09286434 0.26504448 0.018283773 -0.20358625 0.012505569 -0.0036412962 -0.24851936 -0.12640505 -0.15556023 -0.09937374 -0.05273726 -0.106586754 0.09558893 -0.091956675 0.20087041 0.38369033 -0.043674167 0.105043076 0.24337946 0.033886746 -0.10504711 -0.14800917 0.18170038 0.035035115 0.10173847 0.1245527 -0.14467455 -0.14679985 -0.2855126 -0.01877312 -0.05896916 0.14937638 0.22110827 0.061713316
1730 0.16364278 0.24610342 0.18678904 -0.035653472 0.1098212 -0.19299762 -0.2139337 0.11007511 0.10928451 -0.20134974 0.33441687 0.17736615 -0.18117666 0.04164168 -0.07927229 0.032812856 -0.24564402 -0.21188349 0.049108177 -0.200216 -0.043460667 0.08188024 0.03676321 -0.08081199 -0.13554327 0.05428005 0.23534901 0.1371492 -0.08714797 -0.17138816 0.29028708 -0.16016188 0.030393949 -0.030084549 -0.021834271 -0.13110664 -0.034061536 0.14942418 0.29389223 0.08324615 -0.10877714 0.32749018 0.047195133 -0.012332872 0.13898775 0.085288405 0.07106313 0.14280944 0.073937155 -0.18210879 0.2275069 0.19638182 -0.049104203 -0.12530252 -0.041558605 0.103825785 -0.008597212 -0.020968053 -0.059379615 -0.096321195 -0.21956734 -0.20606005 0.06488012 0.006706046 0.08241739 0.021991186 -0.17895903 0.21387441 -0.16375904 -0.022364125 0.03311282 0.096532315 -0.23691311 -0.2318154 -0.13116448 -0.062413413 -0.074898034 -0.044614162 0.25714502 -0.25221258 0.38232973 0.381021 -0.09439587 0.0631332 -0.097442515 0.086649925 -0.09397069 -0.2067696 0.13499193 -0.077426545 0.14643483 0.15573649 -0.20472777 -0.33705702 -0.036586817 -0.12874407 -0.03174578 -0.11054528 -0.0133667905 -0.1644184
235 -0.096965656 0.11809661 0.188607 0.0058582425 0.11280867 -0.20612603 0.007133727 0.04835023 0.1097813 -0.13084334 0.026109505 0.18835291 -0.27667558 0.16601598 -0.007846594 -0.019858908 -0.095011175 -0.07834721 0.020085283 0.2166491 0.08390448 0.25816262 0.28130218 -0.07684209 -0.06381303 -0.00052083127 0.07584467 0.07593372 -0.13419913 -0.00438236 0.07340693 -0.22884019 -0.23157804 0.007191929 -0.054572403 -0.074044876 -0.18037423 -0.10702024 -0.02491388 -0.23704629 -0.056095105 0.092605196 -0.06698907 -0.27371767 0.12036403 -0.0313973 0.062040053 0.035829294 0.0207471 0.010731039 -0.101954795 0.13421026 -0.045528356 0.11569164 0.001038175 0.016595481 0.08263822 0.029018192 0.16326696 -0.017404726 -0.04328172 -0.21142602 -0.010532704 0.10415676 -7.768425e-05 -0.0007517008 0.055032786 0.047837965 -0.23648697 0.0729299 -0.102511436 -0.15259533 0.045407906 -0.2047414 0.02113775 0.03193101 0.08408204 -0.027208874 0.12575243 -0.107614756 0.06422237 0.2714734 -0.058653425 0.16568218 0.016899513 0.07435596 -0.14771922 -0.13248077 -0.011428434 -0.03731002 -0.053021472 0.079407156 -0.24614519 -0.26860934 -0.0030118125 -0.084337465 -0.24275765 -0.12114104 0.1948569 -0.120287165
475 0.14273539 0.25497496 0.2610299 -0.031412657 0.08304586 -0.23390563 -0.20797572 0.20715049 0.04809495 -0.18284197 0.25102994 0.25215548 -0.047469743 -0.020064056 -0.048698895 0.16891626 -0.13250849 -0.16988415 -0.04419472 -0.01005998 0.055604167 0.092938505 0.18425262 0.036169596 -0.103925124 0.14444967 0.3950698 0.17214164 -0.123958424 -0.18853968 0.16699648 -0.22045748 -0.013688556 0.06428197 0.02218804 -0.14937285 -0.1032901 0.068990365 0.26088065 0.10686873 -0.14041789 0.3528622 0.19250754 -0.021906767 0.15392122 -0.1469813 0.0015187038 0.17192699 0.102261014 -0.1703167 0.27800184 0.1323414 0.024624124 -0.022013424 -0.20054336 -0.004189764 -0.0510179 -0.14893834 -0.13345826 -0.11105902 -0.16173482 -0.08349971 0.043736484 0.099400125 -0.10407656 0.0675317 -0.17650625 0.23472272 -0.11180375 -0.11639142 0.06788759 0.075480804 -0.3951075 -0.15980707 -0.026165966 -0.113599546 -0.012771124 -0.058908064 0.17591411 -0.087039165 0.3297996 0.44561857 -0.10727814 -0.07612675 0.08001746 0.13074698 -0.124641806 -0.1758349 0.1622017 0.11600107 0.110304475 0.20451275 -0.18094811 -0.23241213 -0.02859425 -0.022338562 -0.14355417 -0.061697073 0.05624555 -0.091908075
1537 0.24653901 0.17044829 0.23973837 -0.022915335 -0.0059357653 -0.21082963 -0.15077673 0.23985313 -0.041847657 -0.11527455 0.09652363 0.24858995 -0.1459606 -0.01823726 -0.0011135208 0.1929992 -0.08631071 -0.27378166 -0.02082808 -0.08584846 -0.010067395 0.0029904193 0.19876072 0.088698335 0.022572042 0.19314323 0.2639231 0.12856375 -0.10694674 -0.077682815 0.21836604 -0.19493027 0.0005276224 -0.09450161 0.13552405 -0.06773977 -0.29553372 -0.06765063 0.2787225 0.02445069 -0.073131554 0.2408317 0.09435489 -0.057889972 0.17346181 -0.005054817 0.020673875 0.3064314 0.18633184 -0.20516996 0.18350083 0.03027547 0.039416626 -0.0036269443 -0.18142429 -0.06699886 0.104087345 -0.06543946 -0.13976812 -0.057419505 -0.10117314 -0.13778545 0.08474138 0.051926024 -0.05043646 0.088612065 -0.08243765 0.3801249 -0.05595179 -0.026102943 0.0097635975 -0.022053525 -0.45104703 -0.15693618 -0.090508655 -0.12826617 -0.040456496 -0.0411279 0.02535867 -0.13471453 0.35217384 0.35384732 -0.06877485 0.10949116 0.15999374 0.15227912 -0.029832501 -0.04669534 0.20134914 0.10096889 0.11781023 0.14527147 -0.17988753 -0.104874395 -0.05307281 0.049094923 -0.08954348 -0.09105755 0.0029899972 -0.10143265
1634 0.17660235 0.325743 0.23814043 -0.013709628 0.097231135 -0.3018051 -0.15338138 0.09226019 0.1493509 -0.10792413 0.26860225 0.1858107 -0.03879872 0.08764641 0.009142437 0.117023 -0.15993921 -0.13069306 -0.08510658 -0.080704406 0.13399905 0.14432976 0.19201855 -0.09186364 -0.03690448 0.11361857 0.2950318 0.23911896 -0.20195481 -0.15788753 0.2309678 -0.19554748 -0.06869424 0.074953996 0.04678532 -0.1162236 -0.038533855 0.052518472 0.26207605 0.08805837 -0.1868522 0.29290918 0.10662744 0.0024231186 0.17140962 0.038270555 0.027046507 0.14241031 0.05199773 -0.15646656 0.22125854 0.17915852 0.023009373 -0.0677267 -0.08365077 -0.032718044 0.05999389 -0.15550299 -0.22584525 0.030701403 -0.22185536 -0.1648637 0.03102817 0.07749237 -0.03162679 0.025642058 -0.0792291 0.2909234 -0.14597867 -0.034894332 -0.017147003 0.05363429 -0.32638714 -0.18071957 -0.19305085 -0.07340454 0.027544813 0.0035249763 0.22402442 -0.23725118 0.23892486 0.43581697 -0.18117073 -0.051776785 0.026196046 0.040375225 -0.07969 -0.17248355 0.20073728 0.05734198 -0.06516432 0.18559311 -0.22833799 -0.23668587 -0.08892429 -0.073172405 -0.11308428 0.09533759 0.009050611 -0.19275008
1819 0.2640118 -0.19580846 0.05180943 0.12302371 0.18936718 0.009626035 0.10034704 0.36430383 -0.045229897 -0.17561723 0.4108491 0.09548393 -0.39605528 0.117732145 0.16832247 -0.1481525 0.030157695 -0.078725524 0.29792237 -0.29731783 0.02907153 0.797928 0.07106215 0.041889757 -0.012946461 0.40414083 -0.35837328 0.37446177 -0.110095166 0.45930478 0.06012395 -0.3645337 -0.08530873 0.2727253 -0.1902306 -0.4434129 0.25640878 -0.27872905 -0.12181327 0.019169841 -0.23847112 0.3157178 -0.122648835 -0.034768723 0.1088998 0.17205495 0.5261756 0.14675994 0.34374177 -0.18358196 -0.10413872 0.08092513 -0.042000663 -0.06731397 -0.15314129 -0.4979421 -0.35759294 0.27392 -0.4126129 0.035051547 0.21249929 0.3356404 -0.48233458 -0.0016647166 0.0040756073 0.13890244 -0.32416368 0.37953773 -0.65070087 -0.3589567 0.09417296 0.044935226 -0.26763865 -0.26288995 -0.30966848 0.5763218 -0.5405416 0.4569295 0.3724942 0.4827199 0.15621269 0.11069299 0.49087936 0.43392965 0.40235418 0.37898242 -0.11823008 -0.45219693 0.061118983 -0.39138237 0.17637259 -0.39833465 0.10260781 0.011021296 0.40406966 -0.1641241 -0.037140448 -0.19422154 0.16838987 -0.15996577
87 -0.23386735 0.0759241 0.033744216 0.039797336 0.24459356 -0.22653936 -0.058801334 -0.24145073 -0.09382378 0.1880153 -0.058677226 0.11081017 -0.046371575 0.23004216 0.03897087 0.0544369 -0.008704025 -0.20269439 -0.060178086 -0.114161566 -0.40249774 0.35468414 0.3108831 -0.02797284 -0.0029668703 0.2757751 0.14820386 0.04894617 -0.0948744 0.114371575 0.10711601 -0.31948707 -0.021427011 0.17051417 0.073817335 -0.16296515 -0.26945454 -0.061389618 0.0142962625 -0.06519158 -0.06077788 0.15152436 -0.046005823 0.20021491 0.072531514 0.15033217 0.22644739 0.094890356 0.37991008 -0.26008815 0.052730814 0.28752232 -0.021897025 0.22788617 -0.01909994 -0.053581294 -0.02676302 0.0002817026 0.13426575 0.031848885 -0.08739998 -0.12192806 0.020149399 0.15211397 -0.15696606 -0.043209538 0.09976697 0.09040825 -0.003600468 0.054462727 -0.11855178 0.06488169 -0.09374037 0.18796575 -0.15379652 0.04217031 -0.03922909 0.06325302 0.19314142 -0.10869884 0.3904228 0.10890865 -0.028426703 -0.029530013 0.22285794 0.2718052 -0.07087006 -0.1558914 0.17088847 0.20725788 0.19040336 0.09816328 0.16021308 -0.18150869 0.08863208 -0.07402461 -0.024612578 -0.0392451 0.030331414 0.05223623
2071 0.2352831 0.20988506 0.19729264 -0.1253696 0.109190755 -0.22030193 -0.1665525 0.23008367 0.0897281 -0.29055694 0.3005328 0.40483356 -0.11950029 0.12289449 -0.16611734 0.0907805 -0.28137445 -0.31479847 0.03693602 -0.24425665 0.008817671 0.044668455 0.3303937 -0.09628513 -0.0636672 0.0715873 0.2777599 0.07199203 -0.071820885 -0.21224108 0.2781359 -0.20323011 0.026255308 -0.019409508 0.084624305 0.026066821 0.063979656 0.12692842 0.1707559 0.07200855 -0.17852934 0.37395117 0.09270746 -0.01906897 0.21130416 0.054015193 -0.034928054 0.05718975 0.090654194 -0.13328192 0.1842297 0.07644252 0.041778732 -0.10198867 -0.11076137 -0.04022827 -0.08238263 -0.05970917 -0.21311222 0.0031068248 -0.016193379 -0.13952467 -0.041106693 0.15361175 0.0483382 0.051888328 -0.1707133 0.15713605 -0.12364431 -0.007837363 -0.06435817 0.16000314 -0.26278937 -0.088201 -0.09481006 -0.13715775 -0.028490083 -0.12504964 0.262661 -0.13198705 0.22716168 0.37013352 -0.21152298 -0.13226303 0.086600356 0.18987694 -0.09381323 -0.18996668 0.12083201 0.02813729 0.008867282 0.04553063 -0.11248821 -0.196641 -0.35849965 -0.021507017 -0.02393596 -0.015736941 0.09180769 -0.13100255
744 0.17377813 0.17730659 0.2171171 -0.0009557454 0.11655552 -0.15467384 -0.15479916 0.03904859 0.08917471 -0.20438287 0.16530299 0.233192 -0.11292544 0.041964002 -0.16174755 0.017562289 -0.118058294 -0.17805694 -0.0022130555 -0.10002292 0.005214846 0.04119851 0.09318829 -0.09493093 -0.027199935 0.13466482 0.35085136 0.15887669 -0.14451496 -0.103241794 0.22525077 -0.27761096 -0.019882504 -0.047721095 0.059105273 -0.12672278 -0.14320745 0.096015126 0.28336605 0.030278606 -0.17338142 0.39808315 0.13037613 0.037295204 0.11798429 0.0054478026 0.040862147 0.15789317 0.11937404 -0.24216677 0.27876872 0.14413212 0.040856246 -0.08280597 -0.11852287 0.005726816 -0.03956412 0.028526545 -0.18574205 -0.15000926 -0.25865152 -0.115871646 0.15230066 0.13259478 -0.06497028 0.03649481 -0.08704766 0.2524895 -0.2129031 -0.1191013 0.004248256 0.06368035 -0.3327685 -0.14926271 -0.12687908 -0.14358334 0.08573343 -0.004485732 0.11429828 -0.22151963 0.32550815 0.5097435 -0.14301871 -0.013422388 -0.011175823 0.15475224 -0.028382301 -0.12836844 0.06908918 0.059882645 0.012968838 0.12524399 -0.31665507 -0.18755163 -0.023226129 -0.053062085 -0.18850581 -0.063893594 0.05533277 -0.030045519
1600 0.23614575 0.24114618 0.30076408 -0.05536555 -0.0008110676 -0.17871746 -0.103274144 0.15179093 0.08303384 -0.091331005 0.12748484 0.09111143 -0.17416684 0.062298987 0.0069573624 0.15089966 -0.14359127 -0.13485895 -0.00876904 -0.03623012 -0.07448337 0.0763486 0.1599985 0.1201054 -0.022847038 0.15778916 0.26200736 0.19573934 -0.1778583 -0.08403832 0.30672285 -0.23947553 -0.06570506 0.026389133 -0.03376533 0.098957375 -0.20317897 -0.060146905 0.19216357 0.024698934 -0.10208789 0.36254457 0.13260084 -0.15301529 0.12412356 0.14399008 -0.060315 0.16559705 0.21554835 -0.21683092 0.2787138 -0.024169093 0.049174596 -0.15029831 -0.11357474 0.008268006 -0.03943642 -0.1845764 -0.091043174 -0.0873988 -0.13355774 -0.15355729 0.07851803 -0.07301702 0.016136123 0.06558243 0.036005724 0.34889418 -0.16964856 0.0511894 0.09252896 -0.006182667 -0.37104025 -0.21676047 -0.15014818 -0.10776602 -0.18868062 -0.10539366 0.073067576 -0.19358982 0.24266213 0.3053901 -0.092806816 0.124259986 0.20068881 0.082906544 -0.07437978 -0.10989418 0.048859447 0.013904437 0.059215132 0.12219127 -0.23269749 -0.20425652 -0.06798091 -0.1370165 -0.07115373 0.025926467 0.20618401 -0.08694501
1821 0.1638826 0.12869453 0.34502915 -0.022249183 0.10919147 -0.23216024 -0.06826796 0.09840182 0.14614327 -0.29079044 0.14049366 -0.039351847 -0.1293178 0.06939132 -0.16911246 0.17591116 -0.1824971 -0.21772726 -0.14542365 0.1903214 0.014615715 0.0880818 0.255076 -0.045204192 -0.005898471 0.12254547 0.2992113 0.24947923 0.027971694 -0.039513502 0.21215747 -0.25185105 0.015013793 0.051901296 0.088581696 -0.104740515 -0.1203645 -0.045359347 0.16797964 0.03794566 -0.21294339 0.22540049 0.07804906 -0.043301463 0.053014923 0.07966746 0.070278086 0.23235342 0.10797957 -0.13776484 0.2411132 0.09339976 0.059228208 -0.13619381 -0.17849813 0.17337589 0.08156361 0.0025467288 -0.16892974 0.07408069 -0.124677934 -0.11614766 -0.13518663 0.04912179 0.06937106 -0.09605553 -0.059424438 0.21535112 0.11212681 0.032732386 -0.00920883 0.14738487 -0.19876118 0.14212343 -0.04615781 0.034853853 0.05866119 0.0047385716 0.1050827 -0.08137876 0.14764385 0.3786801 -0.025111098 0.006687744 0.11585289 0.1923124 -0.007517088 -0.2001663 0.123298295 -0.14055347 0.26484287 0.042006873 -0.3956546 -0.21700743 -0.13584907 -0.17285728 0.0053401114 -0.01591076 0.09111195 -0.14116259
1918 0.17009929 0.15939568 0.1753369 -0.11364972 -0.081984736 -0.17604475 0.09329582 0.06709486 0.07286117 0.032685604 0.14598364 0.19418082 -0.18068951 0.06806237 0.043823246 0.07430926 -0.09734128 -0.031542078 -0.08916839 -0.19774325 -0.05320054 0.07263067 0.29157016 0.039378192 -0.0138658965 0.21524799 0.16595308 0.23402037 -0.013635845 -0.18277203 0.1951601 -0.18101458 -0.07212192 0.051508814 -0.0389506 0.035099767 0.08234942 0.05939467 0.046970945 -0.13080436 0.032054257 0.23808566 -0.04877926 -0.010247568 0.21167092 0.10192338 0.11274686 0.1139806 0.04978466 -0.13975282 0.070924476 0.17118202 -0.030269451 0.023198547 -0.25294483 0.01674736 -0.064290844 -0.09362671 -0.027311327 -0.13938548 -0.19817334 0.058527358 0.08040167 -0.0993434 0.03682067 0.063141175 -0.1560206 0.096442886 0.055827282 -0.0149409985 0.04194665 0.008503121 -0.28851467 -0.217305 -0.0432389 -0.17542398 0.027595734 -0.074408054 0.17350599 -0.086685106 0.25035614 0.43785068 -0.2610407 0.21430089 0.038041454 -0.08642229 -0.07062833 -0.19046047 0.16985212 0.081874594 0.08941731 0.1256459 -0.33881262 -0.25098738 -0.042032532 -0.13295645 0.1275372 0.10581659 0.008074252 -0.0021442564
647 0.07112097 0.0643329 0.34270018 0.05743029 0.157627 -0.17452392 -0.17353505 0.22790642 0.112057194 -0.28842938 0.071046665 -0.08435528 -0.0072403275 0.049034774 -0.1605579 0.25640935 -0.12711498 -0.26450768 -0.07774446 0.007407366 -0.035790376 0.024522597 0.17027302 -0.14769202 -0.05354678 0.11943254 0.24230011 0.17402802 -0.030339822 -0.17387155 0.26406595 -0.27283823 -0.021045582 0.008126306 0.18001781 -0.22181441 -0.13703792 0.011682545 0.19762298 0.13449329 -0.12108003 0.26278776 0.13734914 -0.119134985 0.0013272424 0.060084052 0.010416898 0.24346383 0.07677238 -0.23899409 0.2867831 0.23304838 -0.07286133 -0.17927693 -0.11735692 0.19424357 0.13873053 -0.10945006 -0.1962167 0.09202847 -0.11789704 -0.12684284 -0.15242289 0.21799783 0.07656924 -0.07571765 -0.046683107 0.25140733 0.041207734 -0.096292175 0.05312384 0.18989672 -0.22663042 0.13729262 -0.08471365 -0.13529065 -0.08900947 0.012433058 0.24292907 -0.09505251 0.19679272 0.38404334 -0.0664646 0.0390719 0.10557136 0.119440354 -0.054400336 -0.24674232 0.06983274 -0.16613472 0.24221058 0.068715386 -0.41439697 -0.17092766 -0.036814597 -0.2680794 -0.08835617 -0.16557623 0.12958646 -0.0722078
583 0.15227968 0.17480153 0.3614957 -0.16722499 0.026832549 -0.23858733 -0.09183788 0.08165919 -0.040860213 -0.11224874 0.08771443 0.13295147 -0.23117779 0.19278158 -0.13268055 0.17213787 -0.16263936 -0.2192343 0.05193788 -0.07767755 0.043559946 0.1115595 0.16638708 0.011978047 -0.0790132 0.10903689 0.114355884 0.2066056 -0.17070863 -0.11861281 0.23390603 -0.18098705 0.02239209 0.15043928 0.06765945 0.1322215 -0.0020000003 0.061478972 0.20651361 0.0025363832 -0.061999165 0.15273358 -0.009126825 -0.024296386 0.07126623 0.033492252 -0.060445823 0.20279583 0.23553512 0.011767909 0.08043715 0.123596124 0.099830486 0.056243382 -0.15825333 0.06727954 -0.09131769 -0.19255687 -0.049433433 -0.10153891 -0.074600406 -0.2810143 0.09846464 0.041062325 0.018381013 0.11894862 -0.11598149 0.20152374 0.101037234 -0.15240684 -0.038170066 0.11172596 -0.34651417 -0.1918715 -0.19985312 -0.1317428 -0.115498565 -0.12733753 0.031630766 -0.08778295 0.34236243 0.42787275 -0.24777432 0.15119821 0.088090755 0.048073836 -0.05264106 -0.179516 0.13662985 -0.07852263 0.16492826 0.14664865 -0.1616825 -0.061803516 -0.19154271 -0.15834019 -0.068488084 0.049184907 -0.04612802 -0.1094351
651 0.2213198 0.134365 0.124828935 -0.06014991 -0.1758127 -0.1590719 0.090977915 0.12023172 0.0016490092 0.0055708284 0.026305728 0.18180212 -0.16163245 0.123204775 0.008692462 0.17450505 -0.06845005 0.008601131 -0.1098635 -0.022366956 0.04384886 0.15589863 0.22086152 0.030565798 -0.037788104 0.16595212 0.2896414 0.1785404 -0.11102985 -0.17337625 0.2329311 -0.13013476 -0.055226672 -0.050378345 -0.0043655834 0.032778982 -0.026507776 0.07566365 0.040839784 -0.2126085 -0.04624015 0.35599425 -0.13383248 -0.016469229 0.111178234 -0.05568072 0.20443013 0.11328806 0.022937806 -0.05388656 0.16824031 0.26725042 0.029184174 0.02130452 -0.19088833 -0.0857724 -0.046124376 -0.080574825 -0.060596235 0.004944151 -0.13664453 -0.056319177 0.14035507 0.029865587 0.047744162 0.124544315 -0.18793589 0.08582021 -0.05097778 0.0065772636 0.10249801 0.031884886 -0.33193102 -0.17341451 -0.0031693918 -0.17254259 -0.0395045 0.029279154 0.06447061 -0.0018978443 0.21720374 0.31994778 -0.0325629 0.12605944 0.029174646 -0.11809175 -0.019888682 -0.14349443 0.19555844 0.10077202 0.13267472 0.009765312 -0.39337033 -0.15639514 -0.06755922 -0.12714662 0.0120896045 0.08927576 0.010298868 -0.058959205
606 0.10838427 0.18746692 0.11900709 -0.050202176 0.16789673 -0.18196663 -0.05536439 0.1500559 0.06635822 -0.28619185 0.071759365 0.3382018 -0.21078104 0.14795227 -0.11390783 0.049441192 -0.21356767 -0.33178708 0.0784279 -0.1973658 0.009525014 0.12726459 0.20354062 -0.14461124 -0.03764492 0.07222832 0.3223006 0.16099474 -0.054053202 -0.23002738 0.20307599 -0.069368385 -0.13513555 0.09569382 -0.011590736 -0.07624129 -0.104706004 0.18142782 0.19526733 0.1906706 -0.23065627 0.2953074 0.15701474 -0.12292608 0.19138391 0.1677326 -0.020377703 -0.02505879 0.07803972 -0.19499288 0.18471895 0.09439301 -0.028420353 -0.21302162 -0.05575413 0.07388952 0.13711932 -0.109237194 -0.2115334 0.027031302 -0.10258481 -0.19079506 0.061412647 0.12161464 0.04243139 0.033693876 -0.10390982 0.14237694 -0.19690892 0.017104687 -0.0010936903 0.12588422 -0.3256167 -0.21383792 0.027647901 -0.0062500928 -0.06380486 -0.048035096 0.27862492 -0.15302119 0.2974697 0.43542117 -0.0890716 -0.22611572 0.10847042 0.26306483 -0.081308976 -0.129243 0.06113653 -0.046514124 0.04626217 0.0057857023 -0.121049866 -0.15197518 -0.2670995 -0.048657842 -0.11017191 -0.117080785 0.032173254 -0.09696949
1687 0.23069409 0.24459478 0.28495532 -0.13092187 0.06797405 -0.23872909 -0.1464165 0.17224911 0.21143617 -0.10389581 0.26565424 0.16696103 -0.15410691 0.079707205 -0.12965846 0.09273087 -0.21847266 -0.1670663 0.038198043 -0.089316025 0.12356949 0.21818116 0.14494807 -0.01610243 -0.09454636 0.1205375 0.21965595 0.16204953 -0.21346514 -0.18800795 0.22524881 -0.15761955 -0.09267274 -0.031836126 0.026239213 -0.0989048 -0.08085525 0.08511871 0.16422825 0.15124169 -0.17147495 0.24883868 0.09824252 -0.10803638 0.19379872 -0.004314089 -0.06511898 0.18005046 0.10629261 -0.21390148 0.1980836 0.17437345 0.02265166 0.02025004 -0.0412886 0.117399454 -0.034285363 -0.04010437 -0.15184458 -0.11034185 -0.26102912 -0.15449467 0.10012758 0.1472962 -0.048782248 0.11484227 -0.077084035 0.20765364 -0.12051247 -0.12250599 -0.038928535 0.02555656 -0.3107462 -0.20104352 -0.14559105 -0.08193714 -0.17012352 -0.104583964 0.1947683 -0.10560322 0.24841821 0.44704112 -0.11748824 -0.07221522 0.049985465 0.052369338 -0.06843142 -0.27360794 0.18461147 0.024438329 0.068896964 0.22043146 -0.30326253 -0.2416091 -0.13269258 0.042162746 -0.20841901 9.5686235e-05 -0.0044107176 -0.19493443
103 -0.059773687 0.09096685 0.045775715 0.0871821 0.08382083 -0.34229037 0.07670552 -0.07507244 0.022397863 -0.06182006 -0.016690616 0.2780711 -0.12230859 0.056639966 -0.083448075 0.14704022 -0.055088893 -0.09520163 0.13323209 0.17786488 -0.047023863 -0.028674824 0.06514282 0.022901215 -0.073127866 0.05259905 -0.052171983 -0.02178052 -0.046978183 0.04933036 0.015261163 -0.13170658 -0.17346363 -0.07614243 -0.21500222 -0.045112047 -0.09332584 -0.1427746 0.027650453 0.06292026 -0.20355575 0.12677519 -0.104132414 -0.1937886 0.19272594 -0.027398031 0.17777038 -0.11311317 0.13509518 -0.25883183 -0.06868774 0.13935634 -0.04960817 0.040832207 -0.29082906 -0.037703358 -0.029112728 -0.12347903 -0.002782248 0.02922811 0.022850713 0.12542988 -0.13410598 0.19451655 -0.0049283784 0.07810074 -0.02358634 0.03759037 -0.008235287 -0.10440078 0.013831197 0.044400297 -0.118677996 -0.08321153 -0.048193857 0.050307494 -0.021650676 -0.06636996 0.018584695 -0.08731575 0.15794381 0.14630756 -0.108286984 0.13881347 0.05038931 0.022002563 0.024105744 -0.14767346 -0.036766108 -0.033408687 -0.04543568 0.14245497 -0.20193915 0.0022610736 -0.12825699 -0.0876243 -0.21086241 -0.1283359 0.16362986 -0.28220332
1197 0.18349041 0.28422862 0.20231034 -0.058575846 0.13235465 -0.21293035 -0.053460028 0.20593503 0.067089684 -0.1401315 0.22419587 0.2552912 -0.18576647 0.064534366 -0.109970205 0.13782384 -0.1040286 -0.18189995 0.07826915 -0.1616843 0.15094168 0.053606782 0.11040161 0.03941115 -0.110708155 0.14300679 0.2630943 0.22595672 -0.044813212 -0.15078874 0.19868977 -0.26533246 0.051078368 0.050713856 0.0053033084 -0.16969559 -0.09058173 0.110770255 0.2577016 0.17183901 -0.12391594 0.30873382 0.089209385 -0.05834998 0.17369445 -0.0064831465 -0.077793404 0.21027662 0.16318306 -0.10256844 0.13727927 0.10938953 -0.034495898 0.04750764 -0.27513677 0.082515545 -0.058415584 -0.05078833 -0.2676687 -0.019980121 -0.17406726 -0.17083009 0.055242978 0.04219345 -0.027579114 0.0869824 -0.07977838 0.2931154 -0.0608089 -0.10220118 -0.08290182 0.119104944 -0.37470248 -0.23154183 -0.12734674 -0.07322473 -0.14287584 -0.14054662 0.19008519 -0.17687725 0.32403725 0.41408604 -0.13605888 -0.022569692 -0.019571105 0.023315068 -0.064655036 -0.17231299 0.047561824 0.06392723 0.11930376 0.13421796 -0.28016677 -0.19000812 -0.09170976 -0.034741744 -0.093095765 -0.1276312 -0.09522701 -0.13085337
664 0.21556848 0.11445327 0.12152627 -0.04301843 -0.09855266 -0.27552235 -0.039933696 -0.027686985 0.027156975 -0.12358877 0.042741932 0.2253583 -0.11376868 -0.018448507 -0.04815109 0.024944037 -0.20325288 -0.15999843 -0.07492664 -0.16862793 -0.06955652 0.12233017 0.123658955 -0.045492377 -0.05212437 0.17940271 0.10391819 0.029095383 0.00981376 -0.14699781 0.113865666 -0.032732453 0.03873509 -0.047001176 0.1159251 -0.058871094 0.00030459178 0.04192043 0.2043297 -0.026055394 0.034508802 0.36866084 0.023019142 -0.17467296 0.19100519 0.04826354 0.1288782 0.035624053 -0.01489464 -0.1792208 0.11784496 0.22869428 -0.093908034 -0.014692232 -0.22374912 -0.07868413 -0.08786072 -0.106899574 -0.056037515 0.08099384 -0.08829448 0.045421164 0.1219982 0.07417608 0.029260246 0.07029472 -0.042128626 0.04180182 0.014148562 -0.033516396 0.017297562 0.037580572 -0.2593717 -0.1262845 -0.10844198 -0.07051056 -0.057953104 -0.01887561 0.10383887 -0.11885966 0.23900935 0.33737594 -0.13055724 0.0014061858 -0.07662629 -0.12519965 -0.12564763 -0.06248445 0.083104484 0.15051791 0.28500152 0.026816057 -0.27511805 -0.19215131 -0.08518732 -0.15585893 0.123042144 0.025142966 0.06164493 -0.19547354
1707 0.17642002 0.08300173 0.2619068 0.020130765 0.18672417 -0.2760324 -0.18376304 0.032831635 0.11225283 -0.13655868 0.17730947 0.1881899 -0.1930145 0.021911856 -0.08497177 0.04791734 -0.1461061 -0.1394976 -0.05196687 -0.13098742 -0.029807938 0.12233566 0.1466082 0.011253664 -0.114076115 0.20173085 0.104107246 0.21715231 -0.15086651 -0.080371834 0.17077854 -0.22657673 0.044306275 -0.026313182 0.13286509 -0.009587843 -0.14824753 0.0146020865 0.1254434 0.051687043 -0.078207426 0.2393906 0.064964265 0.032800205 0.11772944 0.024892429 0.12134015 0.13859287 0.2014696 -0.096734226 0.08143204 -0.061160102 0.051351283 0.008855276 -0.09251724 -0.019309936 -0.17123958 -0.18139206 -0.11082856 0.030669248 -0.18294203 -0.16065222 0.13769229 0.03812627 -0.10887492 0.1268834 -0.032848474 0.24705748 -0.099164344 -0.0381084 0.15486422 0.05594223 -0.2730095 -0.20234975 -0.07573512 -0.1050411 -0.009288869 -0.18144692 0.1890718 -0.15637498 0.4037012 0.44959322 -0.18368489 0.05582688 0.029345684 0.022652565 -0.10652797 -0.20864946 0.12512287 0.09990862 0.14216784 0.10005915 -0.1586658 -0.12905034 -0.13102895 -0.14235869 -0.032423258 -0.035400145 0.258345 -0.08091119
666 0.048532363 0.05954867 0.26981512 0.04232417 -0.030069962 -0.25548598 0.1256139 0.08655424 0.06535398 -0.18891576 0.08862863 0.11280234 -0.12199728 -0.030283332 0.010191736 0.048771534 -0.09576502 0.0061140605 -0.1243306 -0.1925117 -0.17111717 0.24649253 0.19458836 -0.012136124 -0.117477015 0.22339086 0.22938047 -0.049789544 -0.12668791 -0.06883028 0.002691933 -0.069255374 -0.03443914 0.15377185 0.018001277 -0.00487782 -0.020549752 0.07293324 0.05143483 -0.0548155 -0.065942094 0.19680896 -0.0075458228 -0.18529823 0.19031301 0.14557154 -0.062141985 -0.04554397 0.13525811 -0.054664094 0.19032504 0.032021776 -0.07163798 0.19142865 -0.18531422 0.09262196 0.028762188 -0.104962125 -0.10778412 0.028643394 0.05456505 0.0698834 0.04825078 0.19246408 -0.10857236 0.04719037 -0.15100586 -0.03396319 -0.0713394 -0.0929827 0.024479797 0.114906676 -0.213872 -0.06016717 -0.26690838 0.04168467 -0.069898434 -0.03176405 0.13086967 -0.12506546 0.20213191 0.1581225 -0.12843686 0.16877425 0.16858222 0.03717712 -0.17114629 -0.025217356 0.23373102 -0.09293581 0.15770417 0.11235756 -0.18221788 -0.32054892 -0.02172545 -0.112111226 0.14349194 -0.05684325 -0.008227522 0.089028254
668 0.21481073 0.31763908 0.2501129 -0.04680232 0.09123184 -0.29216328 -0.14020666 0.119655535 0.18938145 -0.17844854 0.2858358 0.31329432 -0.118928544 0.09255369 -0.11103623 0.13217062 -0.24495827 -0.15494421 -0.030121231 -0.16792697 -0.060292173 0.036950644 0.15310264 -0.06902104 -0.047571793 0.07806383 0.35894093 0.24920987 -0.14207058 -0.054019004 0.23824349 -0.20441034 -0.03481509 0.13733487 -0.028374713 -0.16449033 -0.1568733 0.07001522 0.3200952 0.1346404 -0.097599745 0.29509723 0.12165596 -0.01280117 0.105339736 0.049845226 0.04524598 0.10229063 0.061577857 -0.111327276 0.2444339 0.07125441 0.0038079892 -0.008043446 -0.09073767 0.06077198 -0.08428125 -0.043969937 -0.16009064 -0.14577352 -0.19099267 -0.16020541 0.073865145 0.05731926 0.03656688 0.013469642 -0.097752325 0.2092724 -0.09220505 -0.13640015 0.011007105 0.12613827 -0.30128443 -0.13093214 -0.17501768 -0.08399792 -0.040561467 -0.038801145 0.19344176 -0.134066 0.21518387 0.42752135 -0.27264345 0.014783356 -0.020445218 0.08334912 -0.048745785 -0.16494223 0.2003619 0.002647476 0.022242393 0.16288984 -0.21781942 -0.25652754 -0.10088297 -0.05253071 -0.1750237 -0.002580017 -0.024509033 -0.071519226
750 0.109180585 0.22067435 0.21351787 -0.053026903 0.24933909 -0.32056868 -0.101021305 0.20129053 0.07965111 -0.1692764 0.2338281 0.28327692 -0.09501451 0.10087372 -0.09861873 0.066817656 -0.13452218 -0.086686686 0.058539618 -0.11564755 0.1404496 0.10521585 0.10195061 0.07747101 -0.021871313 0.1307042 0.27240977 0.17179106 -0.16127943 -0.0657442 0.19819054 -0.3206211 0.0015170759 -0.058272734 0.081651896 -0.103434846 -0.10146044 0.16924468 0.24230608 0.043214247 -0.17152064 0.42101958 0.07530921 0.07693868 0.111769386 -0.009735969 -0.07332801 0.15864463 0.060502872 -0.21241751 0.1683211 0.06735359 0.07010885 -0.16835389 -0.2302032 -0.0031676115 -0.048882734 -0.065840155 -0.21311432 -0.1865067 -0.1991206 -0.23923382 0.07068854 0.13956626 0.016086962 -0.013846144 -0.08032886 0.161647 -0.13235143 0.0075443513 -0.076628916 0.083937444 -0.32789373 -0.10462087 -0.11817502 -0.19703558 -0.11016756 -0.032050084 0.12109768 -0.1171427 0.32192522 0.38674518 -0.31399038 0.017637713 -0.020553999 0.13891165 -0.057686593 -0.16901709 0.14455506 -0.011227512 0.1631587 0.15134206 -0.28085837 -0.18975617 -0.010711128 -0.14279439 -0.12203771 0.012621203 0.008066298 -0.11802169
122 0.0048277 0.20162968 0.21065494 0.010621027 -0.008183024 -0.17189541 0.03516312 0.01747314 0.053219855 -0.16614218 0.16160369 0.21935779 -0.110134386 0.009863063 -0.14177781 0.0431408 -0.08215323 -0.13795339 -0.070512645 -0.095700674 0.16504289 0.29054326 0.40734002 -0.053422354 -0.035116285 0.06415393 0.33509734 0.06702535 -0.20757419 -0.14721704 0.20473076 -0.078703746 -0.080863185 0.060640525 0.0006698319 -0.07717706 -0.07974269 0.045868196 0.32767606 0.014887517 -0.18218046 0.17671219 0.18010876 -0.11357721 0.20189013 0.014631501 -0.030554526 0.019847896 0.2946001 0.014753885 0.11354993 0.037374824 -0.03228599 0.00017416764 -0.0643212 -0.16360493 -0.07434894 -0.19713071 -0.07413101 -0.2084254 0.03536465 -0.14157031 0.10649707 0.03321606 -0.108923 0.0203097 -0.17282464 0.33813307 0.01707583 0.015162973 -0.07510614 0.1405721 -0.25548968 -0.10925903 -0.20305902 0.09601596 0.056678377 -0.13364257 0.007568822 -0.0921163 0.28214014 0.24371405 -0.21776848 0.026075874 0.22263086 0.094869815 -0.0071441075 -0.29628813 0.14500333 0.020583646 0.1650177 -0.0009983135 -0.2549373 -0.36279425 -0.0081251105 -0.21751615 0.03412144 -0.034950398 -0.03974291 0.008201055
1214 0.0066556246 0.18526644 0.21903211 0.12506121 0.13573296 -0.10539378 0.088898785 0.11221518 0.11158924 -0.15223013 0.13712282 0.060698707 -0.14286563 0.04279406 -0.03838229 0.044403978 -0.024766333 -0.1511779 -0.110228665 0.010009834 -0.21304697 0.18965138 0.13236177 -0.08955998 -0.0538055 0.33316427 0.16491354 -0.12094469 -0.049138643 -0.0046989024 0.052199055 -0.010763495 0.16838671 -0.026394473 0.06575479 -0.1573792 -0.07716352 -0.0933158 -0.03000037 -0.08790219 -0.039727833 0.3237275 -0.114159144 -0.2520597 -0.004368997 0.059369273 -0.09591975 0.15095356 0.043891672 0.13326214 0.29707623 -0.078645974 0.11824069 0.19219415 -0.13595216 -0.11527702 0.09145076 0.10356951 0.033737555 0.050427638 0.13303849 -0.115763895 0.13686794 0.22638454 0.025191385 0.0035020115 0.11860796 0.13310677 -0.24452086 -0.18712105 0.027439786 0.050097585 -0.003687208 -0.22272058 -0.009022558 -0.09079746 -0.14879495 0.08938891 0.18456158 0.070604555 0.22696452 0.27860573 -0.10939247 0.080926016 0.03455299 -0.05932233 -0.12383298 -0.19303422 0.020138867 -0.087010935 0.10558857 0.16063283 0.100261204 -0.30172473 -0.07282121 -0.03267978 0.20491304 -0.042186867 0.052226342 0.099910475
1216 0.13623475 0.08684058 0.13433528 -0.084370255 0.01355782 -0.21625769 0.16543436 0.051548906 -0.034389075 -0.095418416 -0.08123551 0.25924745 -0.32657552 0.04855846 -0.0838199 -0.00783521 0.0031264962 -0.0890028 0.19110948 -0.0103106005 -0.13392524 0.19862773 0.241778 -0.15941438 -0.024327492 0.23773003 0.12145143 0.0021118994 0.0012250585 -0.09190293 -0.0063693146 -0.009094382 -0.13647225 0.15651812 0.16702335 -0.17416088 -0.13701817 -0.00018381173 0.08403636 -0.041658513 0.024730561 0.21261661 0.110166736 -0.23933317 0.09771842 0.066585965 -0.06440536 -0.0075378837 0.22913475 -0.07852226 -0.060557008 0.20860277 -0.04281612 0.04874241 -0.16824453 0.017471196 -0.019109625 0.046852287 0.012945226 0.0059284237 0.061624527 -0.11322507 0.02898675 0.12058435 -0.0028780438 -0.075603545 0.090743706 -0.0687982 -0.089138724 0.113349915 -0.026723979 0.03373146 -0.11318355 -0.15805927 0.04392563 -0.05987541 0.10029634 0.031455867 0.22053318 -0.06943581 0.1823751 0.24743305 -0.03127428 0.07070457 -0.0054541463 -0.037114374 -0.11391373 -0.13902928 0.1618244 -0.16766529 0.106309675 0.03398534 -0.012587129 -0.27756086 -0.09333491 -0.06918837 -0.02118014 -0.083649874 -0.0017181585 -0.0334155
