219 98
3 -6.938893903907228e-18 4.163336342344337e-17 -1.3877787807814457e-17 0.0 -2.7755575615628914e-17 -1.3877787807814457e-17 1.0408340855860843e-17 -1.734723475976807e-18 -2.7755575615628914e-17 -6.938893903907228e-18 1.5612511283791264e-17 -1.3900033857027713e-17 1.3877787807814457e-17 0.0 4.85722573273506e-17 -1.3877787807814457e-17 2.7755575615628914e-17 1.3877787807814457e-17 -0.003302676758832486 -0.0011394310451360054 0.004884206538005975 -0.0003687875108661196 0.016782970823485826 0.02668027791860623 -0.022714446928400484 -0.014228702044397213 -0.021364319329987273 -0.0031943612119962723 0.011197315683082482 0.017949946795742598 0.034016452509633734 0.031570882560788556 0.026319661452542678 -0.010826113819477564 0.013797520512326597 0.04946598290798687 -0.09760244206967744 0.017156313334444364 -0.014797629090620651 -0.08783760279508737 -0.00474267882725882 -0.014556536809138623 -0.011171239646973885 0.0026517930772148313 -0.008695254511474461 -0.035669333870508024 0.011813600974069393 0.041346239191069625 -0.044576486364230505 -0.041075337352255735 0.03211259423019285 0.03976444800438645 -0.09110136314613625 0.03142702298285395 0.0010368382343896418 -0.055948924164871176 0.024167810947024655 -0.09528517386735533 -0.054163149072875845 -0.09528917757660814 0.15363538970175306 0.007045325559796634 0.11839461906479078 -0.09143922421661478 -0.026987487363074065 -9.90730296685643e-07 0.11784772616678926 0.022201147607859534 0.05132025613174776 0.07580153723683415 0.08636245878935017 0.1316379187363095 -0.2296800130219333 0.14235281779885892 0.17631766647006927 -0.07747092925658973 0.033905421767013486 -0.07440432481429275 -0.2127053581754982 -0.15863615506748846 0.22788798518836226 0.11553691969075916 -0.03384206549600721 -0.1005395393803444 0.025405559503860024 0.05564973399691615 -0.022510750186166755 -0.07250303196278168 -3.907600716022953e-17 0.04894887675355641 -0.027966108051924423 -0.13211908718548934 -0.01099096601005694 0.019049403926585228 -0.08320074126715292 -0.175356922682708 -0.07633952516154832 -9.310993269199674e-17
216 -0.09304696163979295 -0.05959313043346846 -0.0313673418988994 0.10774870932576715 -0.05084584996879435 -0.09113048397951613 0.04826563229339781 0.0023526866077018763 0.0034304196637344967 -0.0923606882471075 0.07176868007075046 -0.0244929782890922 -0.029194427880646794 0.11003953425865057 0.018070416372122138 0.07341625542612273 -0.05739007320603459 -0.05892455331897899 0.03601277629798981 0.004898909080487073 -0.01554165957976674 0.0008399161208187092 -0.029125678395940154 -0.04121139348615597 0.03115205392911151 0.016321624926927545 0.023208821832306603 0.0032157663175577593 -0.010112005815700329 -0.015564596386451943 -0.026370650496122354 -0.024171955823064223 -0.01951240207248537 0.007377616820401481 -0.009277240523095798 -0.031389269983095096 0.0577683507387523 -0.009840313403710055 0.008147463987747378 0.0470341877916982 0.0025146493613501814 0.007406114514494602 0.005460142991217988 -0.001266565924530731 0.004039184160529096 0.0162265948024508 -0.005169359430910619 -0.01737693359748167 0.01796756713618039 0.016100005805574524 -0.012485840759876887 -0.015185244775965716 0.034122645790538135 -0.011516601653700248 -0.0003622787713544929 0.018967048164265088 -0.008086843523304176 0.03105864409604162 0.017433066725336184 0.029940608468238407 -0.04734331010339471 -0.0021288731346758554 -0.03471002618699217 0.02637995553715625 0.007713390426193925 2.761482445360441e-07 -0.03251232109436386 -0.0058959815783961355 -0.013370119627023594 -0.019689147935169713 -0.02207158193280701 -0.032858607859613344 0.05660884204019982 -0.034846032702305255 -0.041110328096780765 0.0178167622849941 -0.007600170034823786 0.01658241830010167 0.04720376879803507 0.03472336389090663 -0.048863758404955056 -0.024615225523839736 0.007095386267440028 0.020658921582672827 -0.005157797154047618 -0.011221545408755472 0.004428493076495765 0.014112109245366638 7.361726044023348e-17 -0.009084567295270251 0.005141591107698033 0.023967748137599408 0.00190782522051157 -0.00324891515864013 0.014095597968993389 0.028848255901544034 0.01192606174726392 -2.6026025314822692e-17
178 0.0 -1.3877787807814457e-17 -3.469446951953614e-18 -1.3877787807814457e-17 -1.3877787807814457e-17 3.469446951953614e-17 1.3877787807814457e-17 2.7755575615628914e-17 2.949029909160572e-17 4.163336342344337e-17 0.0 2.2316801844953177e-17 1.1102230246251565e-16 -6.938893903907228e-18 0.0 2.0816681711721685e-17 0.0 1.3877787807814457e-17 -0.0029947641972395424 -0.0028861195035158748 0.002624775967028134 0.010785088825534807 0.006996228065752311 0.003795310110027988 -0.0005806867353942723 -0.02696764201669899 -0.03990761420671967 0.0446753518588628 -0.006001148508299382 -0.08806212535978504 0.0723042474248269 -0.050073362294672234 0.10305784107080555 0.02826921005349684 -0.06870411446290077 -0.09803458017311724 -0.04177354263511891 -0.07204762252531151 -0.11002200937307523 0.002414110334071886 -0.034925156264300566 -0.029220998455384173 0.18967927885991237 -0.01329034734743776 -0.08181471169471087 -0.10765355209698181 -0.15917919885791507 0.03470675441840191 0.06741297112675025 -0.04595021902973539 0.07598639258513327 -0.14621298396130084 0.03556987344528452 0.03427259633919834 0.13964985412130979 -0.26254182465187215 -0.11929838903989241 -0.06997265012065575 0.05787855665553755 0.0105064956377477 -0.11149003667316097 -0.026534066600275037 0.04933012702640974 -0.2286815106524779 0.03592348792602587 -0.09461455998690828 -0.14448578099658538 0.14043372214475575 0.0768704439033606 0.11043211824054965 -0.07284067220272616 0.05358066941675776 -0.029988871344198167 0.14282571462793806 -0.11629073783017889 -0.03866770323334749 0.010198227394482756 0.002068909614380594 -0.01017349280760114 0.06303824341824421 -0.08693850189832969 -0.06632903446548973 -0.040131951242253015 0.0142223858019002 0.01564709575035893 -0.05452479007361718 0.00016929843541285008 -0.009176412526839801 -3.2875983535914443e-16 -0.036921040433473745 -0.012440410952829925 0.006390402718268964 0.007950280093691009 0.0031031477924894275 0.04926664526262984 0.026779376128293522 0.006322336095190446 -4.546052353245416e-17
166 -1.3877787807814457e-17 -3.469446951953614e-17 -3.469446951953614e-17 -5.898059818321144e-17 2.7755575615628914e-17 -1.3877787807814457e-17 -6.938893903907228e-18 0.0 0.0 1.3877787807814457e-17 -2.42861286636753e-17 7.939848973689693e-18 1.0408340855860843e-17 -4.163336342344337e-17 4.163336342344337e-17 -2.0816681711721685e-17 -1.3877787807814457e-17 -2.0816681711721685e-17 0.0059825492321329814 0.0004990952964686894 0.0047683471121215655 0.017262285165796032 0.009174317763229094 0.00025720740749712124 -0.02498244153723587 -0.008228551713080368 0.010048398306247104 -0.019610759949423625 -0.012957216374274414 0.010196415900356581 0.014018213751950812 -0.03867954141009978 0.032232806642290265 -0.015367133745203368 -0.026459353480445296 -0.09407139496311562 -0.043736956385479864 0.04342647132524263 0.16379237646722683 -0.016946350235583368 0.10988685261437452 -0.10178088473126343 0.14389709082702157 0.035338494430138645 -0.06083087140129144 0.11282413826858112 0.1316002924661203 0.010585980606718882 0.30023335673811036 -0.015917514723918058 -0.1206551338007892 0.09196561099739803 -0.2882908870783816 -0.15917371415676437 0.0973041914550443 0.05608636211561456 0.08259697883850785 -0.07214055717248392 -0.001626456772201326 -0.12669161684445943 0.21707000192251347 -0.0045896776087176044 0.036902761402902835 0.02423200926485483 -0.052526118062826296 -0.11451067204622621 -0.002684060446095553 0.02066190093495647 0.0606361156880039 0.058621291936783844 -0.017679437037978783 -0.042718170264030256 0.09222081909051812 0.04763702473351495 -0.09651057142213576 -0.021154695653046163 -0.020203551469954163 0.008548265356351467 -0.01650397124382643 0.036220921544515484 -0.09844532805679272 -0.061292131568902515 0.004189452890698701 0.020126501020018835 -0.019181012908391866 -0.041407618976296745 -0.043224083296426685 0.010123362482063641 -3.0698399070144445e-16 -0.0503323218804887 0.0013564624488081288 0.01880409120556968 0.005711152430326657 0.0036017805346936957 0.01432788973866997 0.01909666393354616 0.005703748564303177 6.864426667151827e-17
165 -3.157196726277789e-16 -1.1102230246251565e-16 -7.337880303381894e-16 2.3592239273284576e-16 -2.914335439641036e-16 1.3877787807814457e-16 -2.0816681711721685e-17 -4.163336342344337e-16 7.91033905045424e-16 -6.661338147750939e-16 8.708311849403572e-16 -6.138287376799793e-16 -6.175615574477433e-16 5.48172618408671e-16 8.049116928532385e-16 -2.1510571102112408e-16 -2.6020852139652106e-16 6.314393452555578e-16 -0.23009485611413966 0.08785913948209476 0.07418099053801647 0.010647069978194396 -0.011476908940599013 -0.17421981457277744 -0.16953283950189102 -0.07756352780394841 0.11451693440411219 0.13991119863210394 -0.07114454886619606 0.17325282412055648 -0.07179127130992959 0.2404871665329211 0.1659771770861643 0.02376260577282432 0.16377848279934065 -0.12185602789675812 -0.06365247115477493 -0.11219639004618051 0.1197032914333131 -0.13721301812105094 -0.09724980284684358 0.0226859184786034 -0.02074066654361983 0.014152351459172345 -0.10666587030577407 -0.12371349206868067 0.023873379928896918 0.01309925307696091 -0.00609430539300494 0.08362238539500554 0.03585791886747693 -0.03338883816454917 -0.05244195746342101 -0.04767846486896062 0.016318276139933963 -0.02520190862238926 -0.10861429698735199 0.09713164075870229 -0.013527632231352577 0.06133794625975044 0.03246906756615933 -0.06092917892067789 -0.07062292119733227 0.08761575743643832 0.01623636639465993 -0.0013433699361068971 -0.04627483551021505 0.03634663243737264 -0.031543552617250274 -0.0551797518523974 0.07342205123356567 -0.006695966373566671 -0.0591647357033656 -0.08799215900954686 -0.08629112284924169 0.0501524227790102 -0.039870525056530284 -0.07998095669240636 -0.039705793765186105 0.04431952250361854 -0.05197869414540565 -0.04797732032697672 0.019141289380419108 0.012165279200870386 0.07258071780435796 0.02200384913548657 0.0039005775799686323 0.0019660193354221196 2.1001409466462467e-16 0.017544247284421517 0.011231260490072555 0.02315658278599054 0.002461932167757672 -0.002184088180172162 -0.0034672271593591303 0.010730258341426185 0.003691969836003279 -1.157197467776806e-16
159 1.1102230246251565e-16 5.551115123125783e-17 1.5612511283791264e-17 1.3877787807814457e-17 6.938893903907228e-17 6.938893903907228e-18 -6.591949208711867e-17 -3.8163916471489756e-17 -3.2959746043559335e-17 -6.938893903907228e-17 6.765421556309548e-17 -1.6376264279821754e-16 -1.8041124150158794e-16 2.7755575615628914e-17 -5.204170427930421e-17 4.85722573273506e-17 -3.469446951953614e-17 3.469446951953614e-17 0.01237789281172939 0.0015554173557045716 0.01170789376742189 -0.05437621313065377 -0.03223823714798099 -0.10123269069796974 -0.054202765945119705 0.027048090336406604 0.1689593595374463 -0.023120928385982484 0.25520240383340065 0.05779943705327848 -0.3085996597190503 0.139998707035026 -0.21621667134221007 -0.12860130533526934 0.09012759239726038 0.15478756430244692 -0.017891363335539333 -0.008894918132514975 0.0008504036836145759 0.15091733389778045 0.12001026745532238 0.04888016928189541 0.03337159536777444 0.0229962534507402 0.1432970229530884 -0.08529865561424081 -0.07928033913120862 0.07418603541123239 -0.05868334741986333 0.0027315332043882944 0.02528241025214128 -0.016574723125396894 -0.015144590925592536 -0.009852355221608421 0.05579410735718084 -0.009318239223826751 0.012145647153404184 -0.014351154071258306 0.042997070782643525 -0.01985171325239638 0.035975444375665286 0.02333180986450284 0.03910456863102044 -0.07753412530922325 -0.07602723774639396 -0.050864204612218376 -0.009463951902320229 -0.01028272736555373 0.02007323176705662 0.005746001879482743 -0.002407142760363224 0.030634866533398697 -0.0006468714182552394 0.11349555809597364 -0.140642574304055 0.029891561684346278 -0.0371753911331719 0.03631951072700757 -0.08745810820965508 0.00999171062115065 -0.10134125223253292 -0.043823220006720405 -0.012658347258686196 0.02327379922100916 0.012045379185370977 -0.05652388720399623 -0.03950384070325942 0.0009427063165612329 -5.665181783828966e-16 -0.036428744721973196 -0.014422220334631418 0.008036417532287137 0.0028065091294151114 0.003831024599826168 0.011719852270289634 0.012487275672728154 0.0035901987174585086 1.388017243075549e-17
158 -0.03511591282145976 0.03037548852235443 -0.11754236151713886 0.011118716102840369 0.08872646405236147 -0.23616962910431094 0.10471112654315115 0.028177585925121554 0.05956054920755485 -0.15150320017477387 -0.024803335370292015 0.0464614002844112 -0.00880413803710568 0.04402327354192212 0.025922009304061813 -0.07105112089907531 -0.007099527096610821 -0.04336394148581304 -0.10995649523760655 -0.047843460787749134 -0.027782585522256698 0.028768936141655464 -0.01668607276031555 0.057450106722251454 0.04788619136186837 -0.053463554053226905 -0.03590707423688281 -0.03910306939413534 -0.140165204925565 -0.013110821183123995 0.15739236102803414 -0.10853142693244419 0.06173664380073185 0.1878330392958225 -0.0942062575414987 -0.06516936546897704 -0.035579725847991545 -0.04094092050572691 -0.016696193368210925 -0.05558830829477891 -0.08949383706551989 -0.030293784778815648 -0.0439684817230248 -0.002208156447517383 -0.09101859864200712 0.07086002340966789 0.05979299001929644 -0.08030312062710797 0.06497809183806619 -0.02512683036038678 -0.005902543111082545 -0.053546418849057385 -0.009241506225560366 0.008047317304133548 -0.08500546534892899 0.010383359994843586 -0.04749862816926902 -0.025388972029198667 -0.08327410001210553 -0.014383806935212982 0.02710467305791676 -0.07691071125237398 -0.03551089718375482 -0.03665296030669836 0.18668129411528636 -0.007434861691891928 -0.029717853980015977 0.08279834937398053 -0.05762678553486847 0.05804046120809204 0.07087254107628367 -0.025256964149888553 0.023403425902471235 -0.07282625434016135 0.070926046468231 0.09778044816620378 0.0023889811885975734 0.01733554780339046 0.14066401883473245 0.016399629659457994 0.013956220001371564 -0.028278446214507435 -0.009710307143423118 -0.0006954229038900182 -0.10970050673191471 0.05573099846513489 -0.007610325145041425 0.017550372367872852 -4.618946756271331e-16 -0.007511562280836294 0.0021354916391437624 -0.017947249949546436 0.013901549561346975 0.002321424419042028 0.004170223379883741 0.010071736050939301 0.00522346690041342 2.026698013910843e-17
157 0.06083018550193993 0.029013213344221196 0.027685221402425717 -0.10445229944760359 -0.12771706457973334 -0.1059637713798567 0.011058334953665566 -0.15800630944231187 -0.10522518596352849 0.06430784779647766 -0.04111985077366313 0.12194359528778977 -0.05079964146983402 0.14271287501854787 0.10939707380533656 0.15551031071938987 -0.07482064309022478 0.07773071885877181 0.0360127762979897 0.004898909080487248 -0.01554165957976681 0.0008399161208187612 -0.029125678395940068 -0.04121139348615606 0.031152053929111426 0.0163216249269275 0.023208821832306718 0.0032157663175577523 -0.010112005815700348 -0.015564596386451876 -0.02637065049612235 -0.024171955823064167 -0.019512402072485346 0.0073776168204014595 -0.009277240523095817 -0.03138926998309508 0.05776835073875229 -0.00984031340371006 0.008147463987747367 0.04703418779169827 0.0025146493613501636 0.007406114514494536 0.005460142991218046 -0.0012665659245306939 0.004039184160529084 0.016226594802450804 -0.005169359430910635 -0.017376933597481676 0.017967567136180373 0.016100005805574517 -0.01248584075987692 -0.015185244775965768 0.03412264579053816 -0.011516601653700243 -0.00036227877135447254 0.01896704816426511 -0.008086843523304205 0.03105864409604164 0.017433066725336167 0.02994060846823838 -0.0473433101033947 -0.002128873134675868 -0.034710026186992204 0.02637995553715622 0.007713390426193935 2.7614824452004115e-07 -0.03251232109436385 -0.005895981578396062 -0.013370119627023636 -0.019689147935169654 -0.022071581932807033 -0.03285860785961332 0.056608842040199815 -0.03484603270230521 -0.04111032809678088 0.017816762284994063 -0.007600170034823808 0.01658241830010163 0.047203768798035055 0.034723363890906626 -0.04886375840495506 -0.024615225523839723 0.007095386267440038 0.020658921582672855 -0.005157797154047668 -0.011221545408755472 0.004428493076495736 0.014112109245366666 4.214847212458576e-17 -0.00908456729527028 0.005141591107698019 0.023967748137599335 0.001907825220511552 -0.003248915158640154 0.014095597968993368 0.028848255901544093 0.011926061747264025 -1.822308610384917e-17
150 -1.0200174038743626e-15 -5.273559366969494e-16 -8.569533971325427e-16 -6.938893903907228e-17 -1.5265566588595902e-16 1.8778381627448937e-16 -5.204170427930421e-16 -3.885780586188048e-16 9.62771529167128e-16 -5.516420653606247e-16 8.018759267702791e-16 -6.010324720522995e-16 -1.2859179866764325e-15 5.967448757360216e-16 1.2698175844150228e-15 -7.216449660063518e-16 -3.400058012914542e-16 1.27675647831893e-15 0.009241537521456185 0.2700042281414856 0.08523655037912423 0.11703185746013166 -0.05130770685682501 -0.015060807939323852 -0.062347029701968947 -0.05285444289149847 -0.055337166854254514 -0.05900011006384713 -0.02005968431859643 -0.023071864487964857 -0.03800879736477263 0.016415277046125783 0.04925225233339223 0.018853608237453325 0.19229231594695995 0.1518855437116983 -0.03900937278525316 0.22011145195503404 0.07197869700565947 -0.14864865614672412 0.041611218127592844 0.14207069231241023 0.034151716919020136 -0.00948726716454607 -0.17308559924676162 0.06454630071243651 -0.13726191467510915 -0.05786386676123486 0.02221224846043954 0.029500038367141854 0.12593371961132405 0.018983793237516446 0.0853731254786175 -0.009710798828088557 0.045433288816372215 0.03286215631990049 0.003916452182256479 -0.13145581688921879 0.1337224116497889 0.09196933408534323 0.05408063670189007 -0.016205475463362595 -0.10296133009142316 -0.062494123463378584 0.015162333742177639 0.0518742080123964 -0.006989490751100418 0.05057442114770594 0.02482707161039168 -0.007019357242223826 0.014882305281879482 -0.07537296232040655 0.09420092657935143 -0.04907252596399497 0.03340267959207943 0.05404227778024053 -0.008551041558265794 0.10104700288066158 -0.05058064174795085 0.025457096021786554 -0.01459566582978805 0.059278629509432045 -0.03637632166419819 0.031117917553927992 -0.14025897756482067 -0.03765236730495091 -0.04981438937124363 0.005359058389345746 -6.018269072890764e-16 -0.031061978624373942 -0.01683303037410271 0.007920093872221094 0.00104612004343467 0.00567727772512834 0.006262733330735507 0.011265076270879979 0.004890629267104314 -6.232201428613292e-17
145 0.02474485198961946 -0.20108022942762074 0.037413575074679545 -0.10641866364304002 0.1774213363118472 0.035312778959168 0.04037298601939142 -0.13184289068013605 0.06276615382478065 0.10326235626231445 0.02337314146002452 -0.022690097185141794 0.17505425806189193 0.03943765686579588 0.015405169545735245 -0.23593296585192547 -0.06666066771536516 0.026406711289189255 0.03601277629798993 0.004898909080487168 -0.015541659579766803 0.0008399161208187675 -0.029125678395940144 -0.04121139348615606 0.031152053929111446 0.016321624926927448 0.023208821832306683 0.003215766317557779 -0.010112005815700311 -0.015564596386451971 -0.026370650496122364 -0.024171955823064188 -0.019512402072485356 0.007377616820401483 -0.009277240523095797 -0.03138926998309508 0.057768350738752354 -0.009840313403710006 0.008147463987747352 0.04703418779169818 0.0025146493613501515 0.007406114514494535 0.0054601429912180775 -0.0012665659245307294 0.004039184160529092 0.0162265948024508 -0.005169359430910678 -0.017376933597481683 0.01796756713618038 0.016100005805574545 -0.01248584075987691 -0.015185244775965744 0.03412264579053817 -0.011516601653700253 -0.00036227877135447265 0.01896704816426512 -0.008086843523304183 0.031058644096041633 0.017433066725336132 0.029940608468238365 -0.04734331010339473 -0.0021288731346758567 -0.034710026186992225 0.02637995553715617 0.007713390426193923 2.761482445953582e-07 -0.03251232109436387 -0.0058959815783961 -0.013370119627023608 -0.01968914793516968 -0.022071581932807 -0.03285860785961334 0.0566088420401998 -0.034846032702305255 -0.04111032809678081 0.017816762284994108 -0.0076001700348237765 0.016582418300101622 0.047203768798035076 0.03472336389090663 -0.04886375840495503 -0.024615225523839754 0.007095386267439985 0.020658921582672813 -0.005157797154047676 -0.011221545408755485 0.004428493076495744 0.014112109245366647 9.140904631456807e-17 -0.0090845672952703 0.005141591107698016 0.02396774813759931 0.0019078252205115337 -0.0032489151586401225 0.014095597968993366 0.02884825590154404 0.011926061747264015 2.4720421024487004e-17
142 -6.938893903907228e-17 -4.163336342344337e-17 4.163336342344337e-17 -4.163336342344337e-17 -1.3877787807814457e-17 -6.938893903907228e-17 -1.734723475976807e-17 2.0816681711721685e-17 -2.7755575615628914e-17 -1.3850682753502319e-17 -5.551115123125783e-17 -3.6531355119396935e-17 2.0816681711721685e-17 0.0 -6.938893903907228e-17 -2.7755575615628914e-17 -6.938893903907228e-17 -6.938893903907228e-17 0.008996595958297842 -0.020490376969830634 0.006004899008419425 0.02979191464660114 0.014363073917217896 0.013334946158359468 -0.07493676634215928 -0.06259957351416295 0.013473019361570077 -0.20002675953055055 0.07389848224113547 -0.0668014035747466 0.11250330652781378 0.13585907493251095 0.0005369661235579124 -0.014279613099379333 0.04860309964531293 0.05428319446030169 0.12670064070257 -0.03539155673192792 -0.31390169248410976 -0.05026932638861638 -0.12374182194533288 -0.04810291195905825 -0.12223144670992524 0.006668183998796185 -0.0220113777217851 0.06595336155553108 0.019660464864172014 0.15195501778635148 0.07258813005113986 0.15654791371721702 0.03914372079530425 0.02672905556121013 -0.05405874323003869 -0.02404371648471473 0.006327579232602723 -0.02846947786160263 0.03796111479041142 -0.01166811661001064 0.004272897638186187 0.004614535610114244 0.0219836442186564 -0.005231001606446099 -0.011089946887446635 0.08012366323042301 -0.045266070340999415 -0.03080247416058228 0.007203611150713436 0.04190405300089903 -0.005559456224033797 0.01089427761043924 -0.03398800575939086 0.016928596576388674 0.033799911284984795 0.006627504782609272 -0.03139124099881537 -0.03623480411774481 -0.0024445782191943274 0.02579975980457416 -0.008640234816376529 0.028581381126841218 -0.01719429377633244 -0.06026200317013192 -0.022068348766460934 -0.15178979551296728 -0.06404526340529765 0.05429559990997104 -0.06290511492106068 0.14255938837352697 1.2250035329981626e-15 -0.09776603251544796 0.2593694348943706 0.1677802476428607 -0.01380853277879474 -0.0029983615648180363 0.018738287159670484 0.03811074357947247 0.009525045476275777 -3.199434285165958e-16
141 0.02542549500321735 0.07928264901894749 0.1818288088640275 0.06214450865671124 -0.10915591996453752 -0.06903862744296194 -0.15490591813391918 0.05731493016775312 0.35327000517870116 -0.12855523922048367 -0.15253775364518807 0.013929283196791698 0.1324335130124426 -0.1881742106287886 0.07135516645089601 0.15978801928510153 0.11360526333987105 0.048800667685264025 0.03601277629798801 0.004898909080486329 -0.015541659579766429 0.0008399161208186992 -0.029125678395940244 -0.04121139348615601 0.031152053929111596 0.016321624926927472 0.02320882183230665 0.003215766317557698 -0.010112005815700334 -0.015564596386451796 -0.026370650496122316 -0.024171955823064244 -0.019512402072485384 0.007377616820401433 -0.009277240523095823 -0.03138926998309514 0.05776835073875234 -0.009840313403710065 0.008147463987747329 0.04703418779169821 0.002514649361350159 0.007406114514494542 0.00546014299121803 -0.0012665659245307277 0.004039184160529118 0.01622659480245084 -0.005169359430910639 -0.01737693359748171 0.017967567136180397 0.016100005805574524 -0.012485840759877003 -0.015185244775965754 0.034122645790538135 -0.011516601653700241 -0.00036227877135448593 0.018967048164265067 -0.00808684352330422 0.0310586440960416 0.017433066725336142 0.02994060846823836 -0.04734331010339469 -0.002128873134675832 -0.03471002618699219 0.026379955537156247 0.007713390426193927 2.7614824458625763e-07 -0.032512321094363854 -0.005895981578396143 -0.013370119627023542 -0.019689147935169682 -0.02207158193280702 -0.03285860785961337 0.056608842040199815 -0.034846032702305275 -0.04111032809678081 0.017816762284994094 -0.007600170034823802 0.01658241830010171 0.047203768798035055 0.03472336389090664 -0.04886375840495504 -0.024615225523839723 0.007095386267439997 0.020658921582672834 -0.005157797154047599 -0.011221545408755437 0.004428493076495846 0.01411210924536663 5.7746697767375155e-18 -0.009084567295270258 0.005141591107698046 0.02396774813759926 0.001907825220511547 -0.0032489151586401607 0.014095597968993371 0.028848255901544013 0.011926061747263976 1.7362569427514393e-17
139 -0.07109773330778135 -0.09148113610452001 -0.1401007457814546 -0.0405964592340712 0.09213632417753459 -0.02794209560877103 0.04217884111832374 0.10953964373721846 0.007718752518332143 -0.0035905966821067857 0.08596529904173408 -0.15690206204773158 0.0013824269021892703 -0.007805595170111606 0.11168674659127395 0.051534697360835546 -0.19672897216052826 0.06305210913082199 0.00016067747353155047 0.10453410219093183 0.05531250008928912 -0.018536551444001237 0.0027247020302419117 -0.10671860803788502 0.02427050565130792 -0.0022392652975551258 -0.021082216590140243 -0.006827488030671632 -0.0378621895748701 -0.034145278903223435 -0.00925575564193411 -0.04090671965687555 0.023783619535428527 0.030914362942475467 -0.004198662037776551 -0.09155478972483475 -0.04586918357840141 0.0680836191985549 0.0027684303921635955 0.05383714379063025 0.029434992925287368 0.04621810685465259 -0.07860034493820657 0.020123377487986385 0.09723985839143894 -0.02809356700294622 0.002600723084444331 -0.017910486997545893 -0.04389242826499148 0.04460320973613674 0.005886914402288814 -0.014215320663130375 -0.011159934119081701 -0.019399288647574463 -0.0029176293030763628 -0.013503058289630034 -0.019734793276702772 -0.020156161156505953 -0.027699976992416973 0.008042623560424568 -0.015649872333270642 -0.02926965107485172 -0.027252128637946 0.05530244368052963 0.015114574335994646 0.000516512383194359 -0.01676125964605164 -0.01409909272801755 0.012888126612042508 -0.0009045458948216195 -0.048797093436604405 -0.007248447250347017 0.035861269484674295 -0.012179841181619218 -0.059482983323300875 -0.0028749654256511477 0.014614519483628097 0.021635251547153202 0.03894153798590939 0.031672209941839904 -0.0387196420275655 -0.03683688246875419 0.005537655159610396 0.02233293682739855 -0.024144810753712456 -0.020421433705428347 -0.0018121538094276462 0.006746719322894038 -3.567405014603837e-16 -0.047195230669742814 -0.0155063855964595 0.01337833167147107 0.0035203379079545506 0.00044745472095928795 0.01432952596337823 0.0233884022673211 0.008781599642920043 3.9898429224774455e-18
138 0.0 -1.8214596497756474e-17 -5.551115123125783e-17 -3.382710778154774e-17 -2.0816681711721685e-17 6.938893903907228e-18 6.938893903907228e-18 4.7704895589362195e-17 4.163336342344337e-17 3.382710778154774e-17 0.0 1.5351731763798431e-16 -6.938893903907228e-17 0.0 -4.163336342344337e-17 -2.7755575615628914e-17 6.591949208711867e-17 -3.469446951953614e-18 -0.004238812335115874 -0.037017030709954074 0.0044893196185833125 -0.00767186671292026 0.025429970364512576 0.011336570787288362 -0.03542879333515329 0.07470980674885463 0.012280155606918756 -0.04476155351458491 0.019873413480552077 -0.07980283558824186 0.07484660148490885 -0.1701706650438421 0.0005375319175710134 -0.06232692822866211 0.1040754379662956 0.08642172748608314 -0.029047046532145626 -0.006112277739537271 0.003955767430925009 -0.061054751043692 0.272407380014872 0.1899542542016498 -0.12862136033062366 -0.1051477325853761 -0.21541914495241596 -0.17842573867792946 -0.06853462115884336 0.17335195320779215 0.1233922978042235 -0.13991159157591704 0.07772385734660674 0.19784668870204317 0.0018694744497947998 0.00045588987615764623 -0.08502019778950523 -0.05998107152780195 -0.07832838350122247 0.04138309799172065 -0.1074328440124733 0.05430603668602885 0.037403326550072016 0.09711554173126344 -0.051773319724708285 0.0494935387206701 0.08440532269679206 0.04244758986158664 0.0012942389641565906 -0.03334083924052296 -0.08441505191492728 -0.03176520998081273 0.010522118940622561 0.041601603288664794 0.0061050114121883135 0.006569718086265778 -0.08788266369294208 0.022529702992493444 -0.023505502159095915 -0.09083533056006594 0.08711390086058986 0.03942976825211379 -0.046549801200700305 -0.0769827462425412 0.024932931780712923 -0.006322039423964947 0.06244858024681824 -0.008402665939604096 0.01442277838482521 0.012821314480019394 4.478012134368309e-16 0.00510018546706607 0.009125089366419354 0.011938565752678211 -0.010914957014114119 0.04030291524162348 0.009597003453405577 0.01562665986514442 0.005556020793023024 -1.356640474186097e-16
136 0.04281719522639712 0.04025374740515632 0.013553937482823207 0.16765360713865193 -0.12110795782277553 -0.036407651813584206 0.2536794512969043 0.12112059909777485 0.0462869228040259 0.028745666953929234 0.040038161173286124 -0.019400059277618533 -0.09952688410952143 -0.1923202035693832 -0.18246781338979579 -0.21106334439017072 -0.1546849662674535 -0.18211648642179024 0.03601277629798999 0.00489890908048724 -0.015541659579766793 0.0008399161208187525 -0.02912567839594011 -0.04121139348615611 0.031152053929111467 0.01632162492692746 0.02320882183230665 0.003215766317557765 -0.010112005815700322 -0.015564596386451883 -0.026370650496122396 -0.024171955823064233 -0.019512402072485346 0.007377616820401513 -0.009277240523095804 -0.031389269983095165 0.05776835073875231 -0.009840313403710037 0.008147463987747341 0.04703418779169815 0.0025146493613501584 0.00740611451449453 0.00546014299121805 -0.0012665659245307043 0.004039184160529077 0.01622659480245079 -0.005169359430910675 -0.0173769335974817 0.017967567136180338 0.016100005805574507 -0.012485840759876955 -0.015185244775965766 0.03412264579053815 -0.011516601653700206 -0.0003622787713544752 0.018967048164265105 -0.008086843523304198 0.03105864409604164 0.017433066725336135 0.029940608468238327 -0.04734331010339473 -0.002128873134675863 -0.03471002618699215 0.026379955537156198 0.007713390426193918 2.7614824454556093e-07 -0.032512321094363854 -0.005895981578396117 -0.01337011962702368 -0.0196891479351697 -0.02207158193280698 -0.03285860785961328 0.05660884204019986 -0.03484603270230517 -0.041110328096780786 0.017816762284994098 -0.007600170034823795 0.016582418300101636 0.04720376879803503 0.034723363890906606 -0.048863758404955035 -0.02461522552383973 0.007095386267440011 0.020658921582672834 -0.005157797154047679 -0.011221545408755513 0.004428493076495701 0.014112109245366626 7.751347060886414e-17 -0.009084567295270296 0.005141591107698018 0.023967748137599294 0.00190782522051152 -0.003248915158640169 0.014095597968993376 0.028848255901544075 0.011926061747264037 1.0763779714822723e-17
132 9.020562075079397e-17 3.9898639947466563e-17 3.469446951953614e-17 0.0 -1.734723475976807e-17 3.469446951953614e-17 2.7755575615628914e-17 -2.7755575615628914e-17 -1.3877787807814457e-17 1.5959455978986625e-16 -8.326672684688674e-17 -7.954801492894804e-17 8.326672684688674e-17 -2.7755575615628914e-17 0.0 4.336808689942018e-18 -5.898059818321144e-17 1.3877787807814457e-16 0.01102066238997817 -0.0003071930710371011 0.06550263367913911 -0.049250035006805644 0.06418527857604 0.23290958887068744 -0.3047891238044113 -0.13411080127711478 -0.026844734323966935 0.21461830365065787 -0.012478423426792888 0.11933247776923649 0.015707022728268915 -0.03939224405623358 -0.07072060891526315 -0.04451159086424467 -0.19319457400099377 0.08878864073538288 -0.06548762699891432 0.20644037423963704 -0.057135466266200564 -0.022437425093164643 -0.02497464126405601 -0.011767877999470513 -0.0967417915664768 0.13332504498040124 0.09267683442420804 -0.16725996687671094 -0.034288405590751365 -0.08134660266859818 0.13205975120947616 0.056699389990448275 -0.034547065310568004 0.04833870969482736 0.09188402776349686 0.04353551018064608 0.02691567284158046 0.014925204375043181 -0.01005510487491567 0.016064574491335058 -0.04912174123490295 0.012666084742401839 -0.0034892927546063142 -0.038490567699910744 0.05005404088084797 0.04729472239903178 -0.005152376995716334 -0.003523243233735531 -0.0003140100430985584 0.03563236365314991 0.03817000691860788 -0.062209688420195614 -0.11650660332932249 -0.0913791880707345 -0.03830118752540406 -0.0285182339489148 -0.07353988263103997 0.03205669248006013 -0.022008191257182345 0.024370220502458195 0.08000063914477813 0.029331845309520793 -0.02514412808693969 -0.013133184249069976 -0.042908477127223545 0.023033440473576576 0.007175662231255279 0.015953720643839393 -0.07023746132603201 0.003029650181380122 -8.282313604063884e-16 -0.031084549441681805 -0.012759252901437102 0.003050639605750957 0.004762090007396192 -0.00010430795977788906 0.009222667235389325 0.018134562663865695 0.007094748530754676 4.605083744565019e-19
131 1.3877787807814457e-17 1.0408340855860843e-17 3.098997092471946e-17 0.0 0.0 1.3877787807814457e-17 3.469446951953614e-17 2.7755575615628914e-17 -8.239936510889834e-18 -4.163336342344337e-17 -1.3877787807814457e-17 2.0159740731898555e-17 4.163336342344337e-17 1.3877787807814457e-17 2.0816681711721685e-17 0.0 2.7755575615628914e-17 1.3877787807814457e-17 0.0003269155934388688 4.856524398435543e-05 0.00353805632004305 0.009580626056712562 0.0041482598818239555 0.004483608506940198 -0.004814911200097218 -0.013360031608083833 -0.01827096805345967 0.012342041858885724 0.017591469019236926 0.01940780802197029 -0.039774231985585384 -0.017049148808585834 0.014783753722422485 -0.03466354720962336 -0.038645573748126404 0.023915105492701632 0.029637853148155903 -0.08578089309044708 -0.009458281748136971 -0.02483454678470304 0.05011932061352054 -0.022634935310263574 0.02381394401237347 -0.0791584817225621 -0.10138468187460525 0.08175710639561103 0.07053206808524132 -0.03740089091000715 -0.10941747174425644 0.09890089060417498 0.01077731038564573 0.02957392353212736 -0.11797595055125254 0.45614727254629633 0.1645704776218588 0.03151542150052094 -0.05138970521327214 0.006011300900188491 -0.1738426571166527 0.07553732619417215 0.09008070758608093 -0.025566754660982353 0.10227338783038195 0.10151891951447008 0.0525777614137019 0.1308628043067117 -0.059784923837254415 -0.010152566158522091 0.14587763476512614 -0.05903997895876504 0.057035147309554154 -0.003979589911554637 0.07203250509652143 0.08507395156412767 -0.0170648339060945 -0.04193467514539773 0.006228370945580694 0.04508724549311579 0.03055934332236287 0.10660449203849379 -0.11056970512882437 0.08507305238501292 0.042198784842206384 0.029829579770276504 -0.045181872885752115 -0.048606866696233104 -0.02563479638420356 0.009782900349804759 -2.0907496716439237e-16 -0.03714058826030122 -0.02027233710400285 0.006888194631671506 0.008005138938963962 0.003636526210457474 0.011417827255141276 0.016843661087716687 0.005816935572766041 -3.6482694527792397e-17
126 -2.2551405187698492e-17 0.0 -3.469446951953614e-18 1.734723475976807e-18 2.7755575615628914e-17 5.7462715141731735e-18 6.938893903907228e-18 1.3877787807814457e-17 -1.3877787807814457e-17 4.336808689942018e-18 -2.0816681711721685e-17 -1.332845130443812e-17 -2.7755575615628914e-17 1.3877787807814457e-17 1.3877787807814457e-17 -6.938893903907228e-18 -2.0816681711721685e-17 1.214306433183765e-17 -0.0011281748949129602 0.0008271044213925479 -0.007954700836673873 -0.0010873860054961752 0.005248001985997722 -0.0012864447868165213 -0.0016506210167529405 0.011196104643283931 -0.011237686076811788 -0.019692849594745404 0.015984396192197308 0.009252454942292213 -0.017066965514923604 -0.023592208457629795 -0.004210826619816251 -0.009755271853506641 0.0025566000524030142 -0.00042888549649744764 -0.003984911202355237 0.0165069921832611 -0.006868265981415377 -0.018222494841480714 -0.04871206389979439 0.013966033778179766 0.0014525703430429326 0.00878969228522908 -0.014046505299198387 -0.013481999148876619 0.0026073862366951315 -0.024022180225003416 -0.0049510375896282335 -0.02843650582287974 -0.027826637533562876 -0.008034730114228198 -0.04615682705359571 -0.01094470198318016 0.02560069917177644 -0.017037196995849126 -0.018956303393390262 -0.028538401279173606 0.004467426174674742 0.01142806836266884 0.0036433806685692055 -0.02845271244500778 0.0065907320538838 -0.011959071694287483 -0.039049415204148764 0.024154035267515132 0.031166643930778205 0.002256309349833444 -0.032359667473048345 -0.047314966108438355 0.08986954929847508 0.05271710876718502 -0.03496809186483157 0.07914349176921956 0.03738593166633518 -0.03447303598647034 -0.04853107083443428 0.038939761155399454 0.10839503491224375 -0.08377868252926941 0.07758742505669265 -0.04639986229525793 -0.024187319257846698 0.03124085965777289 -0.0026699140638342055 0.02857125691845386 -0.05474279607228165 0.029300520660900355 1.3615042864600298e-15 0.09928333666017368 -0.3308847097055944 0.5449077432761052 0.014094279678033039 -0.013231413522994246 0.038811459283543834 0.0586642078641964 0.01623755213967962 1.9909638100715013e-17
116 0.06802348958101977 0.07061117163711805 -0.018922010470226062 -0.028701896836337743 -0.039262667994518274 -0.025739447590232417 -0.1996197317438975 0.07054264259147569 -0.008500456260776713 -0.06611417039672829 -0.03531102619841057 -0.0070302088993414134 -0.03780564720425618 -0.049989207240943266 -0.04354691566549139 -0.047915215496746155 -0.024067600096680825 0.012578722052119878 0.025984060426354896 0.03253607806216415 -0.008735205619539136 -0.0016130687677379841 0.012290355431424255 0.011570347116367103 0.002751443379642459 0.01851974815189511 -0.06195864816455176 0.015579518052303573 0.026843100922544386 -0.029152509494955813 0.04665033960350921 0.052622325180460845 -0.02096446194907535 0.08071356525370936 -0.059056354532906266 0.010326318933958932 0.0540463395890003 -0.09949238399409027 0.03241663310502114 -0.021819877033451708 0.021975783479129894 0.0674200516726671 0.003964211702679896 0.025276655502842253 -1.2693764675007783e-05 -0.011063515522456803 -0.013809646067616192 0.016893568963536647 -0.04512767538609152 -0.03563037421045025 -0.02087418722046754 -0.04689977176672887 0.04630056104391448 0.007040243348522938 -0.040239746387086744 0.056220338169626835 0.027654760147828642 -0.015383561002907616 -0.04383240691977195 -0.04601671466002421 0.0015524248464874157 -0.05723501739431843 -0.06299917147831267 -0.03926636832178711 -0.09629621223593539 -0.016531027218946212 0.03201151145469232 -0.014438713281159346 -0.0032047167133860957 -0.0070235763695353235 0.0031256863358014426 -0.04669523303409952 0.07640443300543752 -0.004350070981749069 -0.04485822898971754 0.028348422492018594 -0.016080161934374615 -0.00730917741845786 0.0312809478323454 0.041874348873329456 -0.07855976866480716 -0.02954932499306741 0.008779111072418244 0.011266420811852149 0.00599727419712681 0.0036364888918729373 -0.029549857158568657 0.006629884993014092 -3.0893144881355947e-16 -0.007462638551868584 -0.0010009181959845467 0.0145668333998443 0.0029175652142466634 0.0014759685455246598 0.011420655634511003 0.021785615665377584 0.008150352118046458 2.5969869042069743e-17
113 -2.0816681711721685e-17 1.0408340855860843e-17 0.0 1.214306433183765e-17 0.0 -1.3877787807814457e-17 -1.3877787807814457e-17 1.3877787807814457e-17 0.0 1.3877787807814457e-17 0.0 6.955330555813234e-17 -1.8648277366750676e-17 0.0 0.0 -1.3877787807814457e-17 0.0 -3.469446951953614e-18 -4.8586306148732315e-06 -4.256637803792879e-06 2.4684288084587916e-05 -2.610870681840143e-06 0.00015653904723377792 0.000280276171919673 -0.0002695976558513571 -0.00020322186757772723 -0.00032300299454288904 -5.2322716833609986e-05 0.00020586260753375024 0.00034472593585773044 0.000737812565913888 0.0006941949210348947 0.0005996669772860293 -0.00027098962273595814 0.0003506378665248505 0.0013428014346736886 -0.0028724149448857124 0.0005239467676591385 -0.00047449958008099254 -0.0029129859708801127 -0.00015918029807485143 -0.000513997508215894 -0.0004147813510835778 0.00010138586596290871 -0.0003445516368374129 -0.001452427051042518 0.0005064493879172319 0.001872160488883531 -0.002139396212013457 -0.0020515647245124605 0.0016227191879032666 0.0020628901393985794 -0.00486372187698369 0.0017340580187593477 6.160740536808676e-05 -0.0034904473361112723 0.0015405229831949377 -0.006347799525484222 -0.0036875800813590486 -0.006767876643644695 0.011301851772694382 0.0005374309378463376 0.00956920925111191 -0.007629344677387472 -0.0022945617930286706 -8.872763839034543e-08 0.010787715383448769 0.0022118461342234973 0.005347939226482588 0.00795573474269868 0.00942977327923766 0.015261604816841055 -0.027537050282683946 0.01738638158400485 0.02479896700698765 -0.011378024839702813 0.005424706128887083 -0.012147392489203719 -0.03525810021634243 -0.02765896111723962 0.043062133933631216 0.022413586994578558 -0.007032783407094309 -0.02293730738190216 0.006155219203890847 0.013968879415805243 -0.006501406103525545 -0.022391393807634385 -1.3554513327696442e-15 0.021853072079612772 -0.013689807087832505 -0.07490103296805217 -0.013005177670524953 0.03976748348011635 -0.24458496783555211 0.6482507180028931 0.05672373084800747 -3.7582053048190844e-16
108 9.020562075079397e-16 4.440892098500626e-16 7.563394355258879e-16 3.5041414214731503e-16 2.706168622523819e-16 -5.759281940243e-16 5.759281940243e-16 3.231464575093046e-16 -8.673617379884035e-16 4.926614671774132e-16 -9.62771529167128e-16 1.0128935931522708e-16 8.786374405822528e-16 -5.30825383648903e-16 -8.743006318923108e-16 8.604228440844963e-16 3.191891195797325e-16 -1.0130785099704553e-15 -0.163415579679046 0.11539519629910308 -0.06340886285291238 0.08190983123803644 0.020193893742209285 0.06874854443410446 -0.09230206187240075 -0.0520509862669364 0.12549896793686333 -0.23073184205619743 -0.0355077573525767 0.0977913394494749 0.11006460666033958 0.10397877343174708 0.06792415451501586 0.05896123647787639 -0.002280444176442267 0.09849621914706073 0.17587372972949833 -0.15504476465909586 0.04887584555252168 0.056796025122720015 -0.03409240046540338 -0.10104934410468605 0.1768797637156087 -0.06125166195649848 0.11571009067057315 -0.2107864907917876 -0.04851425361055925 -0.08775545324801529 -0.034971199161322825 -0.15766095283711173 0.003855634109495546 0.08263496237345927 -0.01904796680287454 -0.04564146740525629 -0.014698618058707327 0.004178287065425606 0.0024502475322629013 -0.03326062763569687 0.012004992855378782 0.051965811321207776 0.04720006433881217 0.03644399552246061 0.021120676614414954 0.11308437875725857 0.05969343277000271 -0.012758333781372254 -0.05001211534176443 -0.0228552925572564 0.018816838699814424 -0.017919477853336443 -0.0019439300339559398 0.033755528179857115 0.07607461697723983 -0.03330732981219994 -0.013680843766303949 -0.03831446487474679 -0.012813246659576996 0.03958703253195225 0.011344968597367586 -0.00298269141130796 -0.022019016356465353 0.019688177282550963 -0.07055918516746194 0.017587958852142514 -0.020124008066286475 -0.044584945375170874 -0.05383905442648964 0.03630309967512988 -3.3596724628780573e-16 -0.010402085475352204 -0.02046828594867542 -0.012940488906069816 0.0013017972148783952 -0.004593818500425343 0.004670822015594343 0.008017796450477723 0.009779165503676563 -1.8832196630190467e-17
106 0.07198136801388696 0.028810322366403365 0.028096953725379167 0.0011520487605359495 0.045726944194472194 -0.0967499352120089 0.0057313275475394925 -0.0850747428388467 0.024365638155370243 -0.05031998181690389 -0.06941501138206498 -0.04568071854361627 -0.15406830370635877 0.061258856338213645 -0.020236623942126483 0.019593838788817628 0.0013672018165443688 -0.021936574221529663 -0.12220046303343801 -0.08330747390963925 0.2860662567574318 -0.02765967886578533 -0.1724343711275101 0.06033830200840447 0.19285991498224309 -0.05147107716633143 0.027890181020181027 0.02652148778165279 0.10079665283489662 -0.020075322783301906 0.03809470963403463 0.01781701245829996 0.11650769781725777 -0.08143396610045822 -0.032440115036852187 0.12137345535072394 -0.030930020807817454 -0.019328802321315196 -0.027317628038651537 0.07224383847896138 -0.11990972084249618 0.03591021767624292 0.02915718664063554 0.047839814757587105 -0.00984094162315878 -0.026247979093721643 -0.026988094524686382 0.021918161254550754 0.025429052537197818 -0.12870832866526666 -0.07875374885398505 -0.007329493380231316 -0.07887303600927506 -0.06066365148315991 0.013698085164238689 0.08745626932933244 -0.029541798789164773 -0.10212072579695894 -0.020562245535818178 0.08118381483228992 -0.04016375228040772 -0.048395219428493244 -0.022410139070069633 -0.019244594757836787 -0.06478375165873185 0.07127023172095899 0.0792991214631792 -0.006077745666260865 0.02075409034860396 -0.041891168056104176 0.07930847091556405 -0.002991459214280682 0.02682121356898104 0.004265138681518613 -0.04880434411088519 -0.014904824477438355 -0.03659983744020075 0.025398407676041724 0.03102736691382845 0.015659521951053173 -0.07704627599987107 0.0006370692809452513 -0.010650387866729567 0.007148620609567622 -0.01510822604653902 -0.049617204772779464 -0.025929925421296882 0.04780485873999927 -6.689723405575443e-16 -0.006625928445052882 -0.0010205997892930023 -0.03291871492348886 0.0031334059455560307 -0.0027034879554312446 0.005918847400901977 0.009541739001862328 0.010593469910235367 1.879974363980293e-17
100 -3.469446951953614e-18 2.0816681711721685e-17 -4.336808689942018e-19 -1.3877787807814457e-17 1.3877787807814457e-17 6.938893903907228e-18 -4.163336342344337e-17 -1.9949319973733282e-17 -2.0816681711721685e-17 3.122502256758253e-17 4.163336342344337e-17 6.876658139739555e-17 -5.898059818321144e-17 -3.122502256758253e-17 -1.3877787807814457e-17 4.163336342344337e-17 4.163336342344337e-17 3.8163916471489756e-17 -0.0020378399043942436 -0.00012787674515400295 -0.007226131159908246 0.018651538193727116 0.004486710886786184 -0.004912416182402661 0.027411494139357635 0.017109356272090412 0.009797633412925647 0.008631665005182155 0.05036689653748491 -0.03618948724037126 0.0418030852170317 0.02804501555264218 -0.027346432240069753 -0.03431631986348737 -0.01689684470907284 0.03386930039654923 -0.07286424325535733 0.03446118733540204 -0.020509375925321 -0.07221211127102171 0.0013201112689418617 -0.01760434995576502 0.12256574360709524 0.03371010551357244 0.04308202886704795 -0.08674034765955835 0.013499611310431703 -0.1261820808644863 -0.017680623443154502 0.20488073011511249 -0.09788707547097442 0.08267450510048541 -0.06795599958937233 0.0026517725077127496 -0.15131545536331262 0.03814951097013226 -0.09760154566814933 0.11400716133742372 -0.12421130196965259 0.04086000477953979 0.042568179104996086 0.15191232345503863 -0.20835807223938965 -0.09364547158194132 -0.08317284110419962 0.0659472148049202 -0.055651008480187815 0.1029237339428851 -0.026570950459524796 0.042061664965105404 -0.1140505674584529 0.031634516092350067 -0.039330853766848466 0.04843971893717837 0.2718322788524245 0.016015453815973774 0.0044864081131701485 0.00033610495191269927 0.007608241085300684 -0.021708261740534335 -0.16760308000854404 -0.09899667642235319 -0.09502426217601802 -0.023647180040829236 0.031151136045078492 -0.20317850104700325 0.09071036707046728 0.054412173734036694 6.503777577924076e-16 0.005741353472975943 0.0017831378727703364 0.013049984150735537 -0.0325347306498099 0.055971151204944135 0.060684003846653733 0.02830914446258851 0.007876375088702592 -5.244412257273454e-17
99 0.09202218082612863 -0.007598928821972467 0.13975495378827738 -0.010207941588123312 -0.052576140528874736 0.15968208941839201 -0.10018011427647794 -0.09543507560608504 -0.040297820903936896 0.11172176158485612 -0.03007404957316826 -0.08257517922214033 -0.11299755070055797 0.004406104679526802 -0.04192046525641607 0.08654141056878066 0.008180395036961358 0.02602155683547038 -0.10459553603805176 -0.0039297414457111065 -0.0439687135042129 0.086465370940324 0.01831046332127678 0.14531775059146965 0.11914584246234496 -0.041598276512602506 -0.1237933278933784 -0.05672977297864871 -0.19328917969618764 0.047305035595978324 0.1521857448295501 -0.05921366392333992 0.06932086385048063 -0.011589110700489616 -0.029988343419089222 0.012713555114327188 0.03127687453178372 0.05151846435134982 0.10011305743545333 0.002577650799980179 -0.002477474151849392 -0.005007951257904916 -0.09377050539890086 0.005335481100809238 -0.003022809922944361 0.07151819352526628 0.05044780974762528 -0.015412700045812603 -0.008435268846826879 0.039754585191732604 0.0014664386398869661 0.015553592005079374 -0.03458727745638661 -0.03436737731894782 0.0005741431780707907 0.016493637240029745 0.015563885807384293 0.0076619070365093475 -0.01513774966862629 -0.0058001631666591905 0.009273186650341275 -0.009458712381068142 -0.06187774887553751 0.1132382298454472 -0.03298737062719444 0.05571926021470208 0.014421597013976219 0.02686851705072112 0.002145353254507194 -0.012362472710432068 0.020458980842430856 -0.12334348881965188 0.07897602053947417 -0.15148832134800785 0.13584346274009904 -0.08428510153473008 0.03538047297300039 -0.09430112978449504 0.13035203077951063 0.04432525377624794 0.05352750273399488 0.01657697220602615 0.04901005361989161 -0.005158864052039189 0.025645767947217662 0.039085077149636986 0.013576684719600055 0.006588740240836857 2.9621546928136466e-16 0.025740652467431676 0.013954532770722365 0.008840907807407108 -0.000550378502496314 -0.006303660645784548 -0.0052458861316665465 0.006183433161682245 0.0037604373560944605 -9.596034223667913e-17
95 7.355227538141662e-16 4.371503159461554e-16 5.967448757360216e-16 -1.734723475976807e-17 2.0122792321330962e-16 -1.734723475976807e-16 1.3530843112619095e-16 2.498001805406602e-16 -8.604228440844963e-16 5.204170427930421e-16 -4.926614671774132e-16 7.712864386561969e-16 1.0464719368830089e-15 -4.996003610813204e-16 -1.3183898417423734e-15 6.730727086790012e-16 3.5041414214731503e-16 -1.3877787807814457e-15 0.012285994188431482 -0.19759853756581824 -0.19945956949527166 -0.16796477175025978 0.0389594552198068 -0.011397643751631065 0.03597531441740427 -0.23746881254493488 -0.2992337790535425 0.009791018584682672 0.0214007598004007 -0.10658816097336266 -0.04093448067004514 0.17422748922747797 0.10034329629957806 -0.17502310603520752 0.0405858366183279 0.04157242215334693 -0.11006151892507487 -0.039619583625548224 0.1258876557569255 0.11032259458032723 -0.0297366176117323 -0.02362625180687365 0.0033973307505527728 0.012070556962790859 -0.012791585278261698 0.06759586168772677 -0.04475420938051014 -0.06328441046174856 -0.04574578315327362 0.04456764389327953 0.15577760510047733 0.10668219455153904 0.02006746124789617 -0.08743854166436747 -0.06111536049785545 0.011685386845073658 -0.11354888330616429 -0.04070139359838949 -0.04461683207087455 0.05106118251385316 0.05115315197404289 -0.03586881915037827 0.012323853854987491 0.0004890584449360796 0.03694458336163145 -0.0727198204281113 -0.024704093702016393 0.019725748695803746 -0.01705437324482953 -0.06240936557600512 0.012991302439524958 -0.014534270298254453 0.03059751969057021 -0.03424366550686867 -0.030353298373681798 0.030361382576789997 -0.03385403301259131 0.02392082418918048 -0.003208528397385643 0.016628108345872618 -0.015519366952143761 -0.034094862753997174 -0.027647127775326196 0.052336398855449655 -0.10454452665785251 -0.008004910011963498 -0.025575456448237312 0.004146012669636582 -6.238570439100105e-16 -0.04771378998460674 -0.011819212749663676 0.00423446376185417 0.0009147096407934464 -0.0007160515239266935 0.007568295947412711 0.014393941919215654 0.005270909703058322 7.722651079032357e-18
93 -0.08823464126562275 0.08227275665263739 0.02395461849327429 0.044637736314698286 0.06151449919005374 -0.015049875199826916 -0.1325669759550602 -0.0022569252353377527 -0.16465747424069277 0.16917340288415317 0.02257441404003163 -0.00700216157152049 0.15346246356317683 0.08519892843143344 -0.19049101479307476 0.20785151572286506 -0.024037423403015158 0.07791236656377029 0.03601277629798862 0.0048989090804869 -0.015541659579766505 0.0008399161208185855 -0.029125678395940154 -0.041211393486156024 0.03115205392911148 0.016321624926927524 0.023208821832306596 0.0032157663175577077 -0.010112005815700353 -0.01556459638645185 -0.0263706504961223 -0.024171955823064206 -0.01951240207248537 0.007377616820401473 -0.009277240523095835 -0.03138926998309512 0.057768350738752354 -0.00984031340371004 0.008147463987747348 0.047034187791698226 0.0025146493613501745 0.007406114514494634 0.005460142991217951 -0.0012665659245307377 0.004039184160529062 0.016226594802450846 -0.00516935943091063 -0.017376933597481655 0.017967567136180362 0.016100005805574476 -0.012485840759876923 -0.01518524477596571 0.03412264579053815 -0.01151660165370022 -0.00036227877135446544 0.018967048164265057 -0.008086843523304214 0.0310586440960416 0.017433066725336156 0.029940608468238386 -0.047343310103394716 -0.002128873134675851 -0.03471002618699216 0.026379955537156264 0.0077133904261939435 2.7614824453546223e-07 -0.032512321094363875 -0.005895981578396108 -0.013370119627023579 -0.01968914793516962 -0.02207158193280698 -0.03285860785961332 0.05660884204019985 -0.034846032702305234 -0.04111032809678078 0.0178167622849941 -0.007600170034823792 0.01658241830010166 0.0472037687980351 0.03472336389090661 -0.048863758404955056 -0.024615225523839726 0.007095386267440007 0.020658921582672855 -0.005157797154047594 -0.011221545408755465 0.004428493076495828 0.014112109245366718 4.831846067762865e-17 -0.009084567295270232 0.005141591107698032 0.023967748137599304 0.001907825220511558 -0.0032489151586401594 0.01409559796899338 0.028848255901544065 0.011926061747264 -3.7106535585486286e-17
92 -1.3877787807814457e-17 -1.3877787807814457e-17 5.377642775528102e-17 1.3877787807814457e-17 0.0 4.163336342344337e-17 3.8163916471489756e-17 -2.949029909160572e-17 -2.7755575615628914e-17 1.3877787807814457e-17 -5.551115123125783e-17 -6.810416442340253e-17 1.734723475976807e-17 2.7755575615628914e-17 4.466912950640278e-17 2.0816681711721685e-17 1.3877787807814457e-17 -1.3877787807814457e-17 -0.00033077576072259495 0.016662411066522276 -0.013119769838822293 -0.00016881717610296143 -0.032849298047192645 -0.02893306411101347 -0.014929629339944035 -0.047244245841228334 0.03480197153016182 -0.01814936764573874 -0.005572894248048357 -0.013764900478074577 0.05245440992600321 0.018487517367389936 -0.10387842646550335 -0.15989590392099545 -0.12758300746271797 -0.06489818024845836 -0.04607812547953463 -0.011241447471312473 0.0695738137986605 -0.15086213523664835 -0.0682181794131595 0.07234396177221163 0.1263592925256109 -0.07082277076955104 -0.010927546171615607 -0.0342670290944891 0.05809812268813568 0.03801624767889142 -0.11080932477516471 0.1693855833144776 -0.05536824221014122 -0.16540668934327016 0.012859137373143608 -0.05240582437176427 -0.1307598280447035 0.061288532250053936 0.16673611794542512 -0.18334199718539004 0.03597930000713322 0.0735540791181446 -0.07617312810797051 0.04704230012478954 0.20296542863369407 0.04068699976398765 0.07110272326426045 -0.04351576225945796 -0.009900097546890503 0.010937218226798993 -0.018758513697753654 -0.018872148414972135 0.04717779951135585 -0.08385543883937051 0.02093615065320552 0.022133869000497866 -0.05134695475058713 -0.006828032856056479 0.041818596907610396 -0.019364473856417996 -0.009914073957329874 0.03097636003087565 0.020280668559405746 -0.005041509317111589 -0.01269869216712253 0.024733323453745935 0.0028249255926361674 0.009349905328977934 0.0038793306253699098 0.007774857322975066 6.351363574094036e-16 -0.009751337598213106 0.004667358616416715 -0.0008750858397886435 0.10073848029552182 -0.36360531319723133 -0.01062930544244171 0.021414351572114666 0.018542960620356142 -1.9117060564075883e-16
90 0.0 -9.020562075079397e-17 -4.163336342344337e-17 -1.3877787807814457e-17 -7.632783294297951e-17 -2.1510571102112408e-16 2.7755575615628914e-17 -3.0531133177191805e-16 2.220446049250313e-16 -1.3530843112619095e-16 -1.942890293094024e-16 -8.069395004122767e-17 -7.355227538141662e-16 2.914335439641036e-16 2.0469737016526324e-16 2.0816681711721685e-17 -1.3877787807814457e-17 4.579669976578771e-16 -0.05835589847619344 -0.33720250815629854 0.011003148433795474 0.07894652275055837 -0.015876939654577184 -0.024169969951980567 -0.009069464427672872 -0.08560222913946243 0.08987123740181895 -0.0514739586983149 0.03327057531346496 0.0022971169813488525 0.04215552217042165 -0.06975779207436672 0.08463002184098742 -0.05636588896068039 0.05983057637762778 0.00019944589680753343 -0.17659653276378084 0.16417178245482086 0.046907459191293896 0.004850768752394405 0.054962314955290775 0.06066892106267339 -0.10178491309282897 0.1482329622818204 -0.05302673488829052 0.25889952129631605 0.011562474011946114 0.04163039970465225 -0.018490648331784224 0.1207696730304632 -0.006550830814607619 -0.13938979704076723 0.037977694284876275 0.047275478461790095 0.02532686467697308 0.02162868975383406 -0.022144280990886164 0.08307143858953281 -0.039820411993401354 -0.03737469540877136 -0.09486509941277188 -0.06920673594221143 0.002670335087262278 -0.12815810433604793 -0.06933920975244053 -0.012940660672029168 0.05776207034305118 -0.030833570967505546 -0.02593439748585675 -0.01241776274856332 0.0497743693965999 -0.05059068668027845 -0.019200936116169166 0.03793429937560602 -0.06057071372936744 0.09102366921595795 -0.04905505236084784 -0.07313847176206058 -0.014879005453932802 0.02694836116677095 -0.08846777763975538 -0.05046551402334469 0.035049491989264346 -0.00763106665031433 0.05971448809704658 0.008860943370702784 0.018820704845724647 -0.0076914532282784664 7.5277356150286695e-16 0.019806004802934547 0.010112517784556442 0.01825092775347302 0.0021197123920569045 -4.593921964288766e-05 0.006188634078377994 0.012885233041706138 0.003011391047295105 -6.939348631576814e-17
85 -2.498001805406602e-16 -3.642919299551295e-17 6.938893903907228e-17 5.551115123125783e-17 2.7755575615628914e-17 -5.551115123125783e-17 -2.0816681711721685e-17 -6.938893903907228e-18 1.9081958235744878e-17 9.71445146547012e-17 -1.249000902703301e-16 8.748903274060165e-17 -2.1217836515541322e-16 3.2959746043559335e-17 2.7755575615628914e-17 0.0 1.1102230246251565e-16 1.3877787807814457e-17 -0.028607351557933054 0.04686378264422971 -0.10211409203768891 0.05636987439536792 0.039475232020226625 0.08815586835635005 0.06617232978465919 -0.06164223441260656 0.07999348775201727 -0.05086857649036174 0.03621388653241983 0.0749866528798631 -0.05792598418382455 -0.08825589386992472 0.03132089923835873 -0.06354583635977909 0.013832050050218241 0.006937598981077222 -0.07196317455357823 0.01041098430216621 -0.057197340317106375 0.07787896016249077 -0.062231507174325996 0.04414289274674203 0.009190540444112475 0.03652840736951707 -0.024657053524633668 0.09973237098977873 0.09919260835354733 0.11068954881275556 0.02599525808338251 -0.09321118005199015 0.07094645206149311 0.0487632215132769 0.10777837542903947 0.04073882348093163 -0.028269017507537436 0.12984047506347132 -0.06690943419584439 -0.05062634080569268 -0.02232490644940097 0.010250525405963058 -0.0770499252048612 0.1428722018736157 0.07517952918702578 -0.12609469144890206 0.0220938073053609 -0.12722522584363902 0.17551815661158265 -0.21999620271496045 0.09480438055343549 0.10467853575246924 -0.23306806686959636 -0.019788799804018996 0.1127556555368927 0.14149527705964424 0.08853689687217649 -0.0959954650366463 0.060341403870418794 0.09427436529001952 0.18830078012400633 0.004467007219388955 0.03597182463319259 -0.029227542287424236 -0.022356591472193047 0.019242820753723324 -0.05506405363510555 -0.020196675739332218 0.026684564642795772 0.00836306874010809 -5.689935892223912e-16 -0.04133420460487328 -0.008103470610586933 -0.016699664528990382 -0.003209140440841329 -0.0003539086780613462 0.04928847023232882 0.024389387110245103 0.0068836870790373915 -6.46915358443076e-17
84 -5.551115123125783e-17 -1.3877787807814457e-17 3.469446951953614e-18 -4.065758146820642e-18 1.3877787807814457e-17 -3.469446951953614e-17 5.551115123125783e-17 2.7755575615628914e-17 1.3877787807814457e-17 1.734723475976807e-17 1.474514954580286e-17 2.7022693846762053e-17 2.7755575615628914e-17 -6.938893903907228e-18 2.7755575615628914e-17 -5.551115123125783e-17 8.326672684688674e-17 -2.0816681711721685e-17 0.004092029032902466 -0.008643333795499258 -0.009940321496332163 0.0007025028489581665 0.00570359680534146 0.005819997001544695 0.008965078267748306 -0.01093222540248943 -0.009148150915843058 0.0071931544919790645 -0.006872305414151658 0.025144489758475653 -0.04023300748152506 -0.01499301215364638 0.018247146796534056 0.009500325726458406 0.06387205377786319 0.03450984465478621 0.014182853244459778 0.028909093367928827 -0.023149711780874316 -0.030036884548379432 -0.02218241670363492 0.04639306723536389 0.04386513262495521 -0.02446146431886823 0.04940113434826402 -0.03495701265483207 0.060767120823099596 0.06577267772551179 -0.03034008995263999 -0.028686742023397153 -0.10787217743162902 -0.08836284789165239 -0.09603416395632373 -0.007775437620701792 -0.05697245885081038 -0.1996061958311078 0.12807923146618258 0.1914725888482553 -0.05315900251430795 0.01902037934542815 0.0754299029719085 -0.06815186122232611 0.056481169878133876 -0.2184953519363507 0.19475313254247606 -0.02127588809708301 0.18651860073108845 0.038911155431485746 0.012603497946761123 -0.31013860562427104 -0.1400487044516518 0.07870732504374295 0.14940553760448777 -0.17504924495068339 0.007559747956877596 -0.08128831594090669 0.0323484455705194 -0.061391700815699536 -0.0582158774412248 0.0270749723107851 -0.04437982868366937 0.005767986945319021 -0.028653454328190695 0.029290806703408615 -0.12349382460246809 -0.03340475944395548 -0.020535303033925447 -0.01833358325991672 -5.685006613837663e-16 -0.04759650053172423 -0.02510335073194714 0.02122327767212773 -0.0004262669511531028 0.006959506767216999 0.008462522962534077 0.012814341318129764 0.0038363588708260877 -3.285124137476324e-17
80 0.0 0.0 0.0 0.0 2.7755575615628914e-17 2.7755575615628914e-17 -1.3877787807814457e-17 -6.938893903907228e-18 0.0 0.0 -2.7755575615628914e-17 -5.189888035099545e-17 1.3877787807814457e-17 0.0 -1.6479873021779667e-17 0.0 0.0 1.3877787807814457e-17 -0.0005788593408185747 -0.00022310457902933672 -0.0018968017194184417 0.0027285998553890334 0.0006269511308546718 0.0035342534420814914 -8.411622144631744e-05 -0.0021322029105524842 0.001491460719599483 0.005019766180564026 0.011909202769272546 -0.013955399247337888 -0.0026920830192551527 -0.0009246924957723888 0.003098846532715038 0.008863072061695048 -0.00498589566950026 -0.0008862817184743839 -0.005203968530140977 0.001722317736743085 0.0007996757915511677 -0.0018508882419647624 0.005498314968985138 -4.283706692102958e-05 -0.0025725612392440774 -0.005285443221815627 0.009199048636089648 -0.004418619601305111 -0.007489269369098385 0.007773912814464842 -0.0075002752813398835 0.007589406904602306 0.0009604015055303438 0.002780610845154722 -0.010964699871025805 -0.004301036566520748 0.01128138343930759 0.014259377398957312 0.01728418112315565 0.007440721272650555 0.013151305156668935 -0.009463600726196293 0.02525094835028456 -0.01574134871267457 0.0078061498024246815 0.02145710678835988 0.01065600105415175 0.011167609223537062 0.0101305254000701 -0.00661539602911023 -0.010610449478209062 -0.01266053998206424 0.04253456971825711 0.010368260412670078 -0.022098631906788766 -0.011538719761997376 -0.0002641805027222272 0.0035162813998707502 -0.024093387649597866 -0.02224345541962122 -0.03656074102804725 -0.03744010691761021 0.07160289032944106 0.049480443702125926 0.02928743347463394 -0.027208931268043135 0.004106726055291759 0.04918619857976139 -0.03436627972984913 -0.04241110176134046 7.645950000530687e-16 0.04136175463117545 0.0007925276402314786 -0.08836779472885674 -0.11777582197989495 -0.03726974167591063 0.6362161379761536 0.20975450622091832 0.03633107699401252 3.3625416865422457e-16
76 -1.457167719820518e-16 -1.249000902703301e-16 -3.157196726277789e-16 1.3183898417423734e-16 -9.71445146547012e-17 -1.8735013540549517e-16 9.71445146547012e-17 -3.469446951953614e-17 3.3306690738754696e-16 -1.1102230246251565e-16 7.632783294297951e-17 -4.169926663387772e-16 -4.891920202254596e-16 2.636779683484747e-16 4.996003610813204e-16 -5.551115123125783e-17 -2.0816681711721685e-17 5.551115123125783e-16 -0.12771344763736797 -0.07831197330362209 -0.04745887732131623 0.057821252529983484 0.14328226356238977 -0.0029368890474247983 -0.09488852445209978 0.32507582655517436 -0.2793291424772267 -0.10517546968434895 0.03451255078293837 0.12648061713113623 -0.0774027379433094 0.07139831082967173 0.024322149899305152 0.16518400735467723 -0.07277849620943035 0.11263036185397617 -0.09987227854977511 0.029948772732327978 0.055329870501374674 0.08254384299304518 -0.06741791147777361 -0.008958844546951873 -0.010273182166355258 0.03910401325741122 -0.04559221121839876 0.047694614742909314 -0.19093063474491972 0.14995095417134152 0.011254001015519386 -0.035084357022623434 -0.08960833943890964 -0.11524844123566805 -0.09131752674199929 0.013779527892220112 -0.05896439220343748 0.120172072754807 -0.0246476127009549 -0.004639716171992488 0.020867439217445678 0.09063802912138658 -0.02588977440282442 0.04673739527188554 0.07523452841293993 0.07020160523216805 0.05876800095094276 -0.022889595252676115 -0.06997380148718217 0.01243213047501621 -0.043634544648831375 0.01669588994593609 -0.06571180581182648 -0.04785038747012601 -0.01823571104082548 -0.04365883513306683 0.014548395965194414 -0.0017265104289956182 0.05603625466196359 -0.00035039520991599304 -0.025593793919164505 0.027237767635935366 -0.08071859754301605 0.003492102191128361 0.0030879845390256603 -0.0038943114565402 0.004320318618931182 -0.04700401835299284 -0.00880174741184807 -0.005994919856346998 -1.6892848561372604e-16 -0.011688135007139326 -0.007523581698695371 0.029555206615948577 0.009017345293849127 -0.010737638671640466 0.01268595303805513 0.018391212378850535 0.00479908104019115 -1.3897466456825642e-16
65 -0.05743520105063694 -0.13557824457996262 0.03416495095222681 -0.2127899281365725 0.06333188371766191 -0.06344009428153248 0.08125263848197388 0.12728697769558275 0.12150253131640099 -0.10884466028033364 -0.06959289517167734 0.06875018310223598 0.05374764013550078 0.023225799450224363 0.029743705263916093 -0.05845190014658989 -0.050864160919181375 -0.04341336607146389 0.025984060426355416 0.03253607806216474 -0.008735205619539034 -0.0016130687677383786 0.012290355431424446 0.011570347116367237 0.002751443379642263 0.018519748151895138 -0.061958648164551725 0.015579518052303608 0.026843100922544324 -0.0291525094949557 0.046650339603509026 0.052622325180460755 -0.02096446194907545 0.08071356525370942 -0.05905635453290632 0.010326318933958856 0.054046339589000215 -0.09949238399409026 0.03241663310502118 -0.02181987703345179 0.02197578347912984 0.06742005167266707 0.003964211702679918 0.025276655502842322 -1.269376467498456e-05 -0.011063515522456838 -0.013809646067616138 0.016893568963536647 -0.04512767538609141 -0.0356303742104502 -0.02087418722046749 -0.04689977176672885 0.04630056104391456 0.007040243348522981 -0.040239746387086724 0.05622033816962679 0.027654760147828684 -0.015383561002907635 -0.04383240691977183 -0.046016714660024126 0.0015524248464873472 -0.05723501739431848 -0.06299917147831263 -0.039266368321787086 -0.09629621223593542 -0.016531027218946278 0.03201151145469241 -0.014438713281159251 -0.003204716713386109 -0.00702357636953533 0.0031256863358014087 -0.046695233034099566 0.07640443300543748 -0.004350070981749068 -0.044858228989717586 0.028348422492018535 -0.016080161934374605 -0.007309177418457909 0.031280947832345404 0.041874348873329525 -0.0785597686648072 -0.029549324993067432 0.008779111072418496 0.011266420811852236 0.0059972741971268855 0.003636488891872931 -0.029549857158568702 0.006629884993014137 -1.6253412958142296e-16 -0.00746263855186853 -0.0010009181959846492 0.014566833399844418 0.0029175652142467493 0.001475968545524709 0.011420655634511081 0.021785615665377702 0.008150352118046449 6.87194901751434e-18
63 2.0816681711721685e-17 1.3877787807814457e-17 2.7755575615628914e-17 4.336808689942018e-19 -4.163336342344337e-17 2.7755575615628914e-17 -2.2551405187698492e-17 -1.734723475976807e-18 -1.3877787807814457e-17 0.0 2.7755575615628914e-17 -6.992556331719866e-17 8.326672684688674e-17 -8.673617379884035e-18 -1.214306433183765e-17 7.806255641895632e-18 0.0 -2.0816681711721685e-17 0.0011950984995944274 0.007876838721326537 0.017840915609033132 0.01334506927223646 0.0032138060998647936 0.0018537286001647415 0.009387738582391595 -0.016922374310939674 0.007142302023170876 -0.020702036299741967 0.057476040523962074 0.024819915486233027 -0.0195322851547023 -0.06556155317426542 0.04855221001732316 -0.00451907566868536 -0.03486276065216769 0.036655840196698694 -0.060314056845559065 -0.04055869312435453 0.02783114285725355 0.006803218686487583 -0.05509714717994397 0.0795895739774497 -0.04739935194111573 -0.06616138912734723 -0.0737303438854195 -0.007600910287535354 0.014211136756807666 -0.13161754658477356 -0.12178018101828796 -0.037547530640906226 0.014189835376763967 0.03735855856056001 -0.029769255526245493 0.05972869585709448 0.019319851066003216 -0.016754001283991894 0.03362012349850773 0.14857734070666523 -0.025606777967383077 -0.2401743148572399 -0.062494738632816134 0.07117700878856223 0.1340863704870978 0.09605729582129473 -0.11477762189599515 -0.30363248813904936 -0.19441411246376175 0.06561095558514703 -0.18770439086604448 -0.0004577917661916739 -0.13542436982131145 0.035253109652837886 0.10607451882034172 -0.08958198510056174 0.009718535996442205 0.0032295630802659427 -0.009998723735828382 -0.04115931867103826 -0.042947545410905626 -0.1791147967884122 0.063134271601124 -0.18270435862425508 -0.024092499184520028 0.0366231565772361 0.0054749433244808375 0.06515477909313627 -0.013455846218103576 -0.015342797859553163 3.157392592808457e-17 -0.015658143337210283 0.03430393781611649 0.01461038981246972 -0.01803978684079345 -0.00501413096761469 -0.0016766780743426174 0.002847073755862938 -0.0012461292239167598 -8.158813505761762e-17
61 1.249000902703301e-16 -3.469446951953614e-17 1.6653345369377348e-16 2.7755575615628914e-17 -1.249000902703301e-16 1.249000902703301e-16 6.591949208711867e-17 0.0 1.249000902703301e-16 9.71445146547012e-17 -9.71445146547012e-17 -9.610159248734266e-17 1.0408340855860843e-16 -6.938893903907228e-18 1.734723475976807e-16 -4.85722573273506e-17 1.457167719820518e-16 5.551115123125783e-17 -0.0007740962161549332 0.001598543814628021 0.04075108872076847 0.009813602556325789 0.14301974843908555 0.05369132279113357 0.055199926545770356 0.19093479708778566 0.07924484242275216 0.02630346261136974 0.03105405590396627 0.04444517051630028 0.07908837277040114 0.15535448785881825 0.08415740190006832 -0.13049239216509234 -0.04986500304092297 -0.038810295634987356 -0.08917019737054993 0.055718899109177614 -0.07457888253825072 0.060231757101713815 0.02428693693601387 0.08414029463135764 0.10722804349275716 -0.08729471384988353 0.009112546952957178 0.016424804682428698 0.2075089312850657 -0.10433552859781442 -0.0008838115233165452 0.04746675712715104 0.0913225801337582 0.10294181146427407 0.14555624102065062 -0.030175417607172676 0.06582296585026004 -0.175023896108622 0.09733451100545913 -0.0067241303479578145 0.03952736992506309 -0.06807724016539149 -0.020632405023541522 -0.03119826816790395 -0.09331604809376698 -0.0026548359616834316 0.020682737634979916 0.04891404225704069 0.023803316887767146 -0.0009129009154861581 0.10807092924520655 -0.06415493922539454 0.13040269292300546 0.041044138430659405 0.14384681195059992 0.06474756039095282 -0.08318120980756687 0.05865499731890201 -0.1614512960477909 0.047656789078065025 0.07801157283878626 -0.007110122539831799 0.13434162137117248 -0.0634009670337114 0.006015057854208165 0.10365642865331162 -0.018328683667563225 0.11386955939818735 0.0013474416595693523 0.0189337390707925 -2.908368082754552e-16 -0.00018707827926103005 0.04233072284729957 -0.037634670950931155 -0.01241309860654639 -0.018244353700449936 -0.018216953046221562 -0.00217176644069846 0.004455857514468593 -2.5687633243248095e-17
58 2.5673907444456745e-16 8.413408858487514e-17 -6.938893903907228e-18 5.377642775528102e-17 0.0 -2.636779683484747e-16 -1.0484235007934828e-16 -3.131175874138137e-16 1.3183898417423734e-16 -2.1510571102112408e-16 -1.196959198423997e-16 -5.711216718145716e-17 -2.740863092043355e-16 1.6653345369377348e-16 -2.0816681711721685e-17 1.3877787807814457e-17 -1.249000902703301e-16 -1.457167719820518e-16 -0.025120155000578872 -0.037998592417964876 0.1316114734878086 -0.0030371716009647853 -0.0340999373483598 0.21762321836915619 0.19624369932540478 -0.05087851667099998 -0.12321848284812281 -0.047021556967797855 -0.04310722592219349 0.010876291164830477 -0.1469269808814343 0.07805461299402533 -0.06349152746733902 0.19012879247976636 0.19169383589673944 0.007561535447559682 0.04867611401046128 0.10431623127447337 -0.11342938019251629 -0.13642493555486285 -0.031575209824458404 0.06099055207528227 0.03837755189873606 -0.08940257457085701 0.028401577661350506 -0.05359002430904811 0.01708890729279386 -0.13753090885748565 -0.005792366950305122 0.03656550437253063 0.05163000293614034 0.11857496146495529 -0.06496128043231333 -0.08826650692423403 0.05316670445885853 0.04055997478838746 -0.032973658277529364 0.019827895188076015 -0.043925461507127894 0.0259011228356573 -0.09261346674058461 0.049509484638347825 0.12882804026311145 0.02440099578422721 0.045280210246832736 -0.04385422089933001 -0.010800914541674731 -0.07032214627821329 0.03127864630546947 0.16856152570482227 0.10007183213533884 -0.1672086100277224 0.0021177961293787485 0.07385148719036477 -0.05990016580740004 0.05407049346764009 -0.06288702833283631 -0.08953338119324926 0.016382588928335346 0.03535630876549146 -0.05971174204138324 -0.04702575440583478 0.020866432766262516 -0.0026044783969272475 0.0706659561680349 -0.028693575385682506 0.025932149352560992 0.0010160954499487723 5.002148759417762e-16 0.017169151699312834 0.003688293070603107 0.014621602007563026 0.010898897131689194 -0.02496744203289922 0.0068389371113607746 0.013876958668603334 0.005881117982199616 -1.3790687678469123e-16
51 -0.12049772507265344 0.22024303478923823 0.03165365368756421 0.2964872739843739 -0.06741977931244619 0.11133254475206991 -0.02684573396298056 0.08111017265124934 -0.044417736804507224 -0.09515511436901482 0.044755290776816774 -0.008382018564022662 -0.03144755090329014 -0.03521512742772577 0.03950789667344151 -0.16715647085371813 0.29541529203613587 -0.06429707037663099 0.036012776297989844 0.0048989090804871125 -0.015541659579766751 0.0008399161208186872 -0.029125678395940123 -0.0412113934861561 0.03115205392911145 0.01632162492692755 0.023208821832306662 0.003215766317557761 -0.010112005815700329 -0.015564596386451869 -0.026370650496122326 -0.024171955823064223 -0.0195124020724854 0.007377616820401507 -0.009277240523095804 -0.03138926998309511 0.057768350738752354 -0.009840313403710044 0.00814746398774739 0.04703418779169826 0.002514649361350162 0.0074061145144945825 0.005460142991218017 -0.001266565924530675 0.0040391841605290895 0.016226594802450808 -0.005169359430910586 -0.01737693359748168 0.017967567136180404 0.0161000058055745 -0.012485840759876953 -0.015185244775965738 0.03412264579053813 -0.01151660165370021 -0.00036227877135447243 0.01896704816426508 -0.008086843523304185 0.031058644096041633 0.017433066725336146 0.029940608468238386 -0.047343310103394716 -0.0021288731346758532 -0.03471002618699218 0.02637995553715626 0.00771339042619393 2.761482445393997e-07 -0.03251232109436384 -0.005895981578396112 -0.013370119627023605 -0.01968914793516963 -0.022071581932806995 -0.03285860785961332 0.05660884204019985 -0.0348460327023052 -0.041110328096780814 0.01781676228499411 -0.007600170034823798 0.01658241830010167 0.04720376879803508 0.03472336389090659 -0.04886375840495509 -0.024615225523839754 0.0070953862674400184 0.02065892158267284 -0.005157797154047655 -0.011221545408755454 0.004428493076495792 0.014112109245366704 5.142785383467691e-17 -0.009084567295270256 0.00514159110769805 0.023967748137599307 0.0019078252205115274 -0.0032489151586401074 0.014095597968993376 0.02884825590154409 0.011926061747264004 -4.215460497590607e-17
49 3.226585665316861e-16 5.551115123125783e-17 7.632783294297951e-17 -6.938893903907228e-18 -1.3877787807814457e-17 -9.8879238130678e-17 1.1102230246251565e-16 4.163336342344337e-17 -2.42861286636753e-17 1.8041124150158794e-16 -3.0617869350990645e-16 -3.2345837028843656e-17 1.942890293094024e-16 -1.1796119636642288e-16 6.938893903907228e-18 1.6653345369377348e-16 -7.28583859910259e-17 6.245004513516506e-17 0.004016100904523261 -0.03127974913257799 0.026208909743143015 0.005327614867079643 -0.037834928382076534 0.048260206537109586 -0.038013892710892866 0.06413005837867782 0.07506734281083871 0.004901048322992969 -0.1552260908172431 -0.055389292033144966 0.033421966062516725 0.030623868171726007 -0.15932288161283228 0.1800628159777398 0.06937712128616434 0.021633582421924907 -0.03911269278058585 0.04435569777879015 0.18480982896546674 0.004989745624044879 0.02079861871131904 -0.126308571800178 0.19673026253140752 0.0933671735617399 0.10508132052100855 -0.01420481942018879 0.014888060363820056 0.2801120547434053 -0.02364309901448894 0.12361549045354232 0.23772422334947574 0.045935464467121115 0.05473326675284378 0.1658356240596326 -0.07404398282375207 -0.1177329243377462 -0.003041585541168851 -0.056719010771385275 -0.05333537900600291 -0.03374002693906445 -0.049940969807384376 -0.05936892415702691 -0.024250049294435697 0.04520515508395163 -0.07715588735920564 0.006134743235486967 -0.1147654059824371 0.012133098505671468 -0.13036055978184005 -0.14397746940406014 -0.0014474288164974915 0.03954230569838969 -0.028063379876085322 -0.04274983716075601 0.019079988661155557 0.012054400895021751 0.024274026446578306 0.08035285775122569 0.01921873198023757 -0.07754875833297796 0.008191688709532477 -0.041891487941004175 -0.010969454633420318 0.022323695382448508 -0.062440336442511374 0.054571806968821496 -0.012042893890308003 -0.0028989572724231133 -2.002426669899188e-16 -0.023984418854247 0.00785947091960222 0.020655595218935837 -0.010061084603125868 0.0020685276338394507 -0.001657198860811854 0.004518625235411158 -0.001192724228380522 -1.0466150078327563e-16
48 5.551115123125783e-17 -1.3877787807814457e-17 4.85722573273506e-17 0.0 -1.3877787807814457e-17 -1.3877787807814457e-17 1.3877787807814457e-17 -1.3877787807814457e-17 -4.5102810375396984e-17 2.0816681711721685e-17 8.239936510889834e-18 -1.8862147420859633e-17 0.0 -2.0816681711721685e-17 -1.3877787807814457e-17 0.0 -1.734723475976807e-17 -4.85722573273506e-17 -0.00044915794438667834 0.0005718136360054541 -0.0017840367377749441 -0.011154427873656628 0.011048429781443882 0.01730513184497282 -0.008214130910454524 0.019061349008143283 -0.0011210112826754 0.0007041531359758838 -0.014829767475289588 -0.0347865724423419 -0.01832678178369415 0.009361714559251574 0.0005811017419116568 -0.04457386012486662 -0.04960870288505697 0.03819696288384055 0.0272527081065642 -0.0012238648349696074 -0.06729024260527898 -0.020889058657242714 0.06799456996484565 -0.03817635848690834 0.048767289670115684 0.01889226276221817 0.013697685868888717 0.05934373715281024 0.04700525186065646 -0.0670011739576719 -0.06862401557704163 -0.04068058211173149 -0.05397807949263783 0.010752570746866785 -0.07443393484087929 0.12566804547296415 0.023199987813217717 -0.00865623414471018 -0.04947396140962201 -0.1486653531156285 0.17267771032003576 0.19434433562202977 0.06417822259809984 -0.09763834492679928 -0.17512620372058563 -0.03499856183868097 0.08955052268977179 -0.06373142724347076 0.15413602400406165 -0.10441129928361437 -0.07552561541490997 0.1137940328043057 -0.08884863070819526 -0.08903580176446506 -0.05596556093240494 -0.18041455068013484 -0.10049296623777013 0.01954283451599659 0.02094986061346769 -0.0987397525761889 -0.05678949605948583 -0.11756173227387756 0.10090746548930084 -0.3242480475933789 -0.10811037409209885 0.003434831412980717 0.12823608530460742 -0.01790447381560891 -0.013727160044494684 -0.023706904120045363 -3.823389587230724e-16 -0.020339995163651668 0.0025352564579354895 -0.002720168547426522 -0.009524478628892082 -0.007001250970381487 0.0026480193672656837 0.0029916242226096105 0.0001248086758026444 -1.4352702346672065e-16
47 -9.71445146547012e-17 -4.163336342344337e-17 -3.469446951953614e-17 2.7755575615628914e-17 -2.7755575615628914e-17 8.326672684688674e-17 3.122502256758253e-17 -1.734723475976807e-18 1.3877787807814457e-17 -1.214306433183765e-17 0.0 9.316728837470036e-18 3.122502256758253e-17 -1.1275702593849246e-17 -6.938893903907228e-18 -6.938893903907228e-18 -6.938893903907228e-18 1.205632815803881e-16 -0.00204493793925651 -0.005193084017588341 -0.003011562954776679 0.00026961937712974087 -0.03649131472584803 -0.03423614759711517 0.004970369829450266 0.024840916106780814 0.014224670424841723 -0.0557076643092014 -0.1236393782030886 -0.0776410666124983 -0.18752964599173128 0.03171285447693337 0.12818071924742203 -0.028542724717203025 -0.21445746657754705 0.14012134979595547 -0.03479001318279071 0.024153064411330673 -0.11955911094753717 -0.2740672148256571 0.15458768222637673 -0.12950403954852185 -0.01565730155429962 0.2331320700955822 0.03387129350969382 -0.040186474813295237 0.14262003053232963 0.03659217790102328 -0.10208998290701403 -0.1838474765204254 0.09616723938439457 -0.057577048964102685 0.023795947272286535 -0.11581565922498813 0.030725706111209818 0.041187071682330996 -0.005036847726216429 0.07805165832129676 0.005816100895153215 -0.02497059193211684 -0.030150681780086452 0.09704271592308356 0.010133450913533864 0.04045280281114946 -0.0003326974805043589 0.01150357687828942 -0.09213483651491006 0.05875613951808908 0.016353737293305227 -0.06207616260783855 0.02103976327724715 0.0028302373327075006 0.030933523410898285 0.04655859777614569 0.014228340707333125 -0.010120259713464978 -0.030497383361853116 0.04413271877742622 0.0022204938822560243 0.058641696028545645 -0.0622153977016782 0.03516740115915624 0.11577407030229692 0.05632398064543816 -0.08118278009833324 0.03386004738944913 0.126891220237658 0.0030688374962014727 6.692198676122951e-16 -0.0028379795709410787 0.026181493153689405 0.035953667521977276 0.0013458374979363685 -0.004044597669610996 0.009355780518581415 0.019587716894945918 0.004017619862568923 -1.3305727975390992e-16
41 6.938893903907228e-17 2.0816681711721685e-17 -2.0816681711721685e-17 -4.5102810375396984e-17 0.0 -9.8879238130678e-17 -5.551115123125783e-17 -5.204170427930421e-18 2.7755575615628914e-17 2.0816681711721685e-17 0.0 1.4632801329318865e-17 2.7755575615628914e-17 -2.2551405187698492e-17 -6.245004513516506e-17 6.938893903907228e-18 0.0 -4.5102810375396984e-17 0.005470769107560059 0.010761139742336263 4.4781391070340625e-05 0.000779439024244894 0.025746163717587138 0.06378782731484797 -0.0053005267619918505 0.03806628985625598 -0.003840459473625357 -0.00329804308340382 -0.02715517398782022 -0.041374144872152865 -0.023764016821721717 -0.011774909395230241 2.0697584895018315e-05 -0.11036247195032287 0.16216079084054047 -0.005950132410693117 -0.2409812922987125 -0.30258103023114624 0.04160130506686963 -0.14220646736811388 -0.06788266591805034 -0.08413324616467091 -0.1106745512620819 0.024590125725571527 0.16647102497825636 0.05371594904912315 -0.10221623059118082 -0.09955174721321075 0.11747804675272841 -0.029322331881069117 -0.008756168245157162 0.03794087803783139 0.007899510109505325 0.05742889295803984 0.0007080961587373901 -0.06259946610982384 0.14430660326810132 -0.022468941045806004 0.0891308626520774 -0.03987233085039138 -0.038988970459519295 -0.007270189817641218 0.08457481216517683 -0.02717400996192448 -0.006042073761369631 0.23952264687775768 -0.02941506595195979 -0.06987230607116655 -0.14595432880756548 0.09828046829111486 -0.1059620044400112 0.005001705046262783 0.06266472720233221 -0.06057439052598689 -0.004892152022343629 0.002805021686332982 -0.07049863203368818 0.028417755937063763 0.029236560692512195 0.0807497152573178 -0.06672659158604104 -0.03507436571749511 0.010177520519209539 0.06286510468154062 -0.0035979151891869943 0.014988272065207796 0.011950925011689364 0.0022015395294963922 3.5400429663769836e-16 -0.010718579008152387 0.013660412243320619 0.028282536866657947 0.0013229207591026334 -0.0012553358456830535 0.01321235097673822 0.0263501923217448 0.00751526742785325 -2.4015446692073313e-17
34 -1.3877787807814457e-17 5.551115123125783e-17 -1.3877787807814457e-17 9.71445146547012e-17 0.0 0.0 1.3877787807814457e-17 -5.551115123125783e-17 -4.163336342344337e-17 3.122502256758253e-17 4.85722573273506e-17 3.954021757348411e-17 -5.551115123125783e-17 1.3877787807814457e-17 -2.7755575615628914e-17 1.3877787807814457e-17 1.3877787807814457e-17 2.7755575615628914e-17 -3.9941474489989396e-05 -0.005672296041852342 -0.0005943248937033636 0.0008128931002095561 -0.01589607057229815 -0.022109651787993418 0.011790602424447521 -0.00510347676802301 0.060517282847945206 -0.011087403003579794 -0.03157662693484754 0.017555667632677657 -0.07065740614830399 -0.07638231831419891 0.00810977038978037 -0.09293514262097499 0.0654947214048197 -0.04299283167639438 -0.018705616021124107 0.13533570215806556 -0.040611734513553197 0.08628602437684289 -0.03195524919948546 -0.10252627811210543 -0.00017730639738054946 -0.04596717971374435 0.005180696070200528 0.04155921315435677 0.0194667258234084 -0.05824474096607109 0.12036069118853777 0.10062006523509708 0.025987976574819834 0.07943697722512756 -0.04965763324764428 -0.03475775600113207 0.09599412981221303 -0.1059297715541118 -0.08366594657175858 0.09611123579876417 0.14636857752534127 0.1793779613789883 -0.09535814414338228 0.15471510894347387 0.11003482057356023 0.16841491435095154 0.29864014896003793 0.04975228673041524 -0.16724004250041544 0.03243910015523861 -0.02012267712005795 -0.022280074892910014 -0.0614873408155416 0.07884379519626007 -0.12380780937104831 -0.06953209369211581 0.05680544313661816 -0.05744964647959763 0.040065376073541104 0.07164595497145412 0.007927343119197466 -0.06638253756596259 0.1721709456978628 0.047814989192429345 -0.015051672258942094 0.01364219265260848 -0.039850527755799295 -0.04813802126136871 0.13935671598874963 0.014433084409800827 1.1123054577539731e-15 0.004695680535864766 0.021155652984132724 0.011009782862540991 -0.007580271619956802 -0.018559193509634454 -0.0071973461012992184 -0.0070716023808124915 0.0015177202349029835 -2.025308146717507e-16
33 5.551115123125783e-17 0.0 5.117434254131581e-17 2.7755575615628914e-17 -5.551115123125783e-17 -1.3877787807814457e-17 0.0 -1.3444106938820255e-17 -1.3877787807814457e-17 7.632783294297951e-17 -2.7755575615628914e-17 -5.745173218617177e-17 -6.938893903907228e-18 2.7755575615628914e-17 1.0234868508263162e-16 -6.245004513516506e-17 8.847089727481716e-17 -3.469446951953614e-17 -0.0003285032482203217 0.0008082944681669638 0.00272554637516016 0.006334661887667052 0.029371241946891884 0.020257205518307616 0.01111066001273188 0.03563255979358548 0.01599937248674441 0.009189464419304398 -0.012152276191195476 0.00022400254484769992 -0.026831690973247755 0.01197294520167855 0.024147431198371247 -0.09965649593871996 0.07366373986092574 -0.061870741842444815 -0.0793554323971211 0.19326921887481133 -0.050120195806476066 -0.015006894017103898 -0.00015242834729123003 -0.4364586724529019 -0.05940850882971086 -0.36113364055957614 -0.08118447524176159 -0.11582828228175074 -0.04154225154763038 0.04098701598176541 -0.09670674068776304 -0.08967444314948703 -0.01496153198393185 -0.09394652497865479 0.07073612984113402 0.007987809004561097 -0.05603810331908377 0.08706284073798395 0.03853973286631286 -0.026259688011841937 -0.060494372658112694 -0.054254964416229734 0.01806083986933867 -0.07394882360985387 -0.06675389839387647 -0.05006429544599665 -0.10961950562101927 -0.01618655548919898 0.021930280228284884 -0.030779095715995325 -0.02331756963230534 -0.015529477390898853 -0.0025558644813390053 -0.04533190210112695 0.06249523230413612 -0.002048397768863624 -0.01571826564228273 0.04390253816133495 0.01921678572669689 -0.009851905098546882 0.025268307724681104 0.025183808767964225 -0.09358514152347035 -0.0299331992255553 0.01665605053259674 0.024755777431474352 0.0056070247966899175 0.029280677636728245 -0.030500814538003608 -0.009005741528352297 -4.331531520652269e-16 -0.00879018668580799 0.005074697539139977 0.01678974897989869 -0.006535645378179194 0.0004418439823909366 0.008041527363924715 0.01735118504128751 0.0033725781629718537 -7.337760401760455e-17
32 -2.7755575615628914e-17 -2.7755575615628914e-17 6.938893903907228e-17 0.0 -6.938893903907228e-18 4.163336342344337e-17 2.7755575615628914e-17 1.3877787807814457e-17 -4.163336342344337e-17 5.551115123125783e-17 -2.7755575615628914e-17 3.2879239524885574e-17 -4.85722573273506e-17 -5.204170427930421e-18 -2.7755575615628914e-17 -1.3877787807814457e-17 0.0 0.0 0.00040185554582032774 0.004694341785892664 -0.01199494177661988 -0.002475107399180767 0.005443629038265236 0.008161598904292727 0.0029024322584176553 -0.02334396444715065 -0.10312957540264903 0.009690239604389092 -0.05685118795347976 -0.05496204920382567 0.04477122228770954 -0.03404226809773801 0.09794476100259634 -0.04195923772679778 0.12354247391446588 0.10013732699465347 0.03155886528210544 0.047547945154076426 0.023889372561649736 0.02681206786368407 0.013050720900446408 0.06932161218449778 0.09880288432583624 -0.04220171058246414 0.12307034487071968 -0.12912850981253646 0.17107118109666689 0.10668874311598182 0.040361393347326704 0.00536459200061229 -0.16617089167813176 -0.1443135229099503 0.023846617108592223 0.09188384105379421 0.058713884406460054 -0.018849895001263238 0.06017239674057636 0.0831403053766012 0.09550079641987311 -0.06313079439805745 -0.07750328547607163 0.0501195285685129 -0.030706332453174515 0.1777730055312303 -0.14583986732348936 0.03004970177553839 -0.017691309345214446 -0.10163374453510719 0.09035463925372013 0.0488951931172731 -0.059983299883398775 0.06397288047415127 -0.06096208021331989 0.03425153655965879 -0.08046824338488938 -0.05905355359966138 0.04306752710322185 0.14534786750077253 -0.0017878888928853874 -0.051042466714697865 -0.06679815616703459 0.008980111343001935 0.06067760338163132 -0.038255773734866605 0.3184891482855896 0.04192805729333113 0.08007175575522057 0.025154687177701016 1.8889421967820832e-15 0.07853558276597457 0.038018353938255804 0.01958498816876641 0.003062321040779735 -0.0032288119985740046 0.003093661473769241 0.004816060999351812 0.0014695992917074091 -1.088096671612338e-16
31 0.016601105223290377 -0.08159909920697389 -0.07088015516288751 0.1265836459012397 0.08616359414663691 0.250344999182917 0.11313473710294036 -0.1528226722416062 -0.042648856221194735 0.08317006562317678 0.030425193321276432 -0.13088386108495584 0.154815637063884 0.049750598612675695 -0.2434889172505843 0.045106092385850664 0.04119898444180444 0.12520784755369954 0.03601277629798828 0.004898909080486374 -0.015541659579766243 0.0008399161208186923 -0.029125678395940158 -0.04121139348615614 0.03115205392911166 0.016321624926927382 0.02320882183230659 0.003215766317557634 -0.010112005815700346 -0.015564596386451834 -0.02637065049612229 -0.024171955823064223 -0.019512402072485373 0.007377616820401402 -0.009277240523095831 -0.03138926998309508 0.057768350738752326 -0.009840313403710069 0.008147463987747355 0.04703418779169823 0.002514649361350162 0.007406114514494571 0.005460142991217993 -0.0012665659245307476 0.004039184160529102 0.016226594802450846 -0.005169359430910669 -0.01737693359748165 0.017967567136180397 0.016100005805574493 -0.012485840759876979 -0.01518524477596575 0.034122645790538135 -0.011516601653700208 -0.0003622787713544733 0.018967048164265077 -0.008086843523304185 0.031058644096041598 0.017433066725336167 0.029940608468238348 -0.04734331010339473 -0.0021288731346758064 -0.03471002618699216 0.02637995553715622 0.007713390426193929 2.7614824453848206e-07 -0.032512321094363875 -0.005895981578396104 -0.013370119627023551 -0.019689147935169668 -0.02207158193280699 -0.03285860785961335 0.05660884204019985 -0.034846032702305296 -0.041110328096780786 0.017816762284994098 -0.007600170034823759 0.01658241830010163 0.04720376879803507 0.034723363890906626 -0.04886375840495507 -0.02461522552383972 0.007095386267439984 0.02065892158267281 -0.0051577971540476535 -0.01122154540875543 0.004428493076495779 0.014112109245366669 7.626813601142993e-17 -0.009084567295270221 0.005141591107698012 0.023967748137599276 0.0019078252205115458 -0.003248915158640183 0.014095597968993361 0.02884825590154411 0.011926061747264047 -4.4829298391217355e-17
30 -5.551115123125783e-17 -2.7755575615628914e-17 -5.551115123125783e-17 -2.0816681711721685e-17 2.0816681711721685e-17 -1.0408340855860843e-17 0.0 0.0 2.7755575615628914e-17 -2.7755575615628914e-17 -5.551115123125783e-17 2.5671865474207648e-17 0.0 3.469446951953614e-17 -2.0816681711721685e-17 0.0 -3.469446951953614e-17 -5.0306980803327406e-17 0.001304144284135963 -0.0004827126747831831 0.0025971679867888924 -0.004828909992960308 0.009188495623672672 -0.008045793323341686 -0.007763380348732455 -0.014199358003929761 0.0019483109144432511 -0.0246579390563932 0.007080712960907872 -0.01581676845313453 0.01952723143446034 0.02472850546076922 -0.015198240199287638 0.027327478156481125 0.002374074254421107 0.05399371724558391 -0.0019941322104384176 -0.020329675847429663 -0.01710112717972367 -0.021945652130761627 -0.02001126849079701 0.011484382095515607 -0.0310518294566498 -0.010640704829304154 0.01676250843481479 -0.010566054687349833 0.03604364486514676 0.02438751621570947 0.01743611704330189 0.00516715431369923 -0.023867858547808433 -0.06212569110200113 -0.04082678018014231 0.010570511764849844 0.0059458740098738486 0.05856058489868477 -0.06600149236526885 -0.11850378706596604 -0.07796353839184979 -0.1525492532973001 0.019976398241024363 0.01563713679417919 -0.06784914329726925 -0.15539552653066857 0.0520138540982621 0.009990103643274394 -0.14130323289038224 -0.11211466093499312 0.040187037769664646 -0.026023740077311064 -0.01374809302572667 -0.006599499603397467 -0.040228026707663504 -0.1221698743840565 -0.09607505439179966 0.07193532301627352 -0.020390035681582805 -0.09204991457209537 0.08900963816536965 -0.13423051906635888 0.13988975698581482 0.22744726896434064 0.0028671522587832075 0.30556267349808713 0.10233416183875076 -0.24616717727439713 0.028787486740552155 0.02444816055295525 2.2586843115643536e-15 -0.07964666260667913 0.18752182924573013 0.12176185605856565 -0.06788905267678198 -0.026064249745124817 -0.0014809410126584157 0.02194605012653882 0.0054373493653592534 -3.614135986479716e-16
29 0.12306317455483516 -0.12809942407395736 -0.04539023428875619 -0.01620418736697525 0.13661208941217615 -0.08536884263413035 0.05014894739859381 -0.08966250674591125 -0.03239041663496313 -0.023014577874299086 0.04356898259970164 0.027581366013130826 0.0534207105671608 -0.05999641704224473 -0.01898286227055984 -0.06484225074467825 0.09328252029832158 0.020572717037506426 0.0220349648554945 0.0038323593291076682 -0.00782927416868403 -0.0006303331823418725 -0.01654040457950613 -0.02217855257108153 0.018358458109903778 0.0069463247695632415 0.01311536343438864 0.0013928336934884893 -0.002213697451071067 -0.008098110401606283 -0.014267566284873892 -0.014100761172755941 -0.010140866257277356 0.0010266615440274855 -0.006817914772411913 -0.021689707330278526 0.04027580859912593 -0.005079370102553192 0.002982524989578633 0.02887362170097194 -0.00021012727543478704 0.009757098841284097 0.004101132028860535 -0.002699690601771442 0.003108106479947925 0.00934553614444722 -0.0024632739942453755 -0.010912923724872181 0.011766884330937252 0.008799452829485355 -0.004810801090914451 -0.007680212193297853 0.01723297218712565 -0.007557179543895555 -0.00036681260412591666 0.010355374471030042 -0.005916574907400621 0.01598932035339266 0.013038417686303915 0.013938638247499153 -0.023867794966773388 -0.002709955198903453 -0.019009913020345326 0.014985658887048375 0.007591645041465255 0.00227242679699042 -0.01724415146304912 -0.005462981012938598 -0.011398880410162855 -0.014706753605498172 -0.012995992809713846 -0.021230035560169468 0.0237466580759172 -0.010399664350688882 -0.009088019571493031 0.013910761922174653 0.006299063720937649 0.009994203963620107 0.017899270878523034 0.021171160981741946 -0.03002564990541747 -0.016083080349315645 0.008784465868004026 0.019600183868010487 0.002562142641535071 0.006327087921285393 -0.0004762166742651288 -0.026884309111465624 1.3019784225745342e-16 -0.01449756312477406 0.013847946689529073 0.01818937705105392 0.0005560959200953229 0.01251280828361475 0.00022366773712047106 -0.013646280920758723 0.28987696750256675 -3.276941552852365e-16
27 2.0122792321330962e-16 7.632783294297951e-17 -1.8431436932253575e-16 1.3357370765021415e-16 2.7755575615628914e-17 -2.949029909160572e-17 -4.85722573273506e-17 1.1102230246251565e-16 1.0928757898653885e-16 -6.245004513516506e-17 1.3877787807814457e-17 1.5167663667948107e-16 1.6653345369377348e-16 -5.551115123125783e-17 -6.938893903907228e-17 -2.7755575615628914e-17 1.0408340855860843e-16 -1.1102230246251565e-16 -0.006326092547268584 0.0014113831386178195 -0.011568624551729821 -0.28248617506049756 0.05255765699680741 0.31507610909138956 -0.31877145643824906 -0.04006295530040019 0.1235235709282748 0.057983476595089185 -0.11058699906719549 -0.049428631671167005 -0.08196357549298919 -0.007126127008843559 0.07899521301257549 -0.01923330224882816 -0.04711402691700634 -0.009701090377110274 0.0064622523842432986 0.030487081633833096 0.005247885481641201 0.08963806580632945 -0.08766505766784637 0.10030036237990742 -0.047062743474345296 -0.08462442784698734 -0.04555376903367979 0.05460478691369246 -0.04728295887001901 -0.041380935218958685 -0.05597717367647167 -0.021326410322705387 -0.03747450704194786 -0.03692466663341324 -0.0388761684568836 -0.07610616185975483 0.016490338513935825 0.00449146486335344 0.044625889116061246 0.060860272008157926 -0.00430812244127329 0.035526996308166046 -0.023605204652532446 0.059521806236601034 0.017349388005617295 0.06817281900399565 -0.044767070677606366 -0.008261721205302261 0.08669753045627783 0.135585795009017 -0.013085989941435495 0.09550584543769063 0.01704028128371182 0.1164087470375789 0.10612794087681457 0.04557839247417753 0.010348958008942335 0.05986386926632167 -0.004953379636762221 -0.0163947128391659 0.05028258007607376 0.02132841593957239 -0.05497236699447148 0.10144434516490052 0.03496453829973 0.05505635511878567 0.0013401497416153413 -0.10053451729241956 0.020742860064640746 0.03821818766833175 2.414723673881636e-16 -0.006074939877048266 0.0171713775483108 0.013773376360956487 -0.003838457033374338 -0.0019330429024837614 0.009810376291470423 0.014512082671284201 0.01015543983122411 -1.1573648243295412e-16
