848 100
636 -0.6522602 0.11322727 -0.29229698 0.20556219 0.3621064 0.3695515 0.0098289745 -0.29239127 -0.38518462 -0.4253757 -0.28082836 -0.5062685 0.14358976 0.09109676 -0.55788654 -0.5887975 0.40383622 0.47946572 -0.7066671 -0.36536562 -0.1484709 -0.078688994 0.051256184 0.22364749 -0.04538305 -0.3280458 -0.7994359 -0.21641393 -0.82352024 -0.1379082 -0.04804427 -1.1880811 0.8679845 -0.71868473 -0.060688872 0.022503577 0.29326427 -0.008354743 0.24354944 -0.46957797 -0.59280914 0.14947115 0.17600015 -1.0088404 -0.37721294 -0.20712501 0.4400803 0.30183357 -0.9038122 -0.4915367 -0.18682095 0.59128594 -0.17484073 0.21513496 0.06445529 0.23512891 0.3604654 0.28210264 -0.7908577 0.2585814 -0.07672107 -0.16267547 0.18375245 -0.18312593 0.623781 -0.2999335 -0.059743337 0.62509555 -0.25205675 0.32988107 -0.9736131 -0.21482702 0.47405177 -0.44218767 -0.44761783 0.20325916 0.06346936 0.8480345 -0.6845835 0.53127545 -0.63638276 -1.0309558 -0.116882205 0.48441046 -0.696984 -0.048409145 0.45197734 0.22031353 -0.308256 0.9625563 -0.2043987 0.5908775 -0.36127537 0.54733473 -0.91257495 -0.22905475 0.5210712 0.93617445 -0.3460256 -0.29914808
65 -0.69752586 0.14800549 -0.31115377 0.2633324 0.30655783 0.41433534 -0.019273756 -0.2425236 -0.36807397 -0.45570657 -0.28434795 -0.48217267 0.15211064 0.114694126 -0.50082195 -0.56770045 0.4577063 0.4488632 -0.7058012 -0.40944013 -0.104663566 -0.021761388 0.081307955 0.24888644 -0.024415396 -0.27647555 -0.8472232 -0.30981696 -0.7932733 -0.15356293 -0.05865037 -1.1733702 0.9040653 -0.7869266 0.007344356 -0.0437731 0.29129502 -0.078967385 0.27378255 -0.45815548 -0.631742 0.17514256 0.18745384 -1.0247117 -0.46284816 -0.19996622 0.46348098 0.32136866 -0.9237328 -0.46124145 -0.19102421 0.6129052 -0.17465976 0.20388119 0.12403942 0.15736267 0.2908996 0.32547224 -0.75363904 0.20275564 -0.12498406 -0.15062164 0.20433609 -0.2047805 0.60983133 -0.29895875 -0.08485215 0.67144406 -0.28308365 0.27324504 -0.94843674 -0.2302944 0.41151896 -0.46288052 -0.5293151 0.28434983 0.091353424 0.8373534 -0.7258727 0.6012019 -0.59979093 -0.98373187 -0.14168464 0.49683592 -0.7492664 -0.07972994 0.47537607 0.26375553 -0.2567485 0.9597025 -0.22244242 0.5592054 -0.29901764 0.4914279 -0.9630041 -0.11608377 0.54607356 0.91936034 -0.32981047 -0.34436408
16 -0.29099682 -0.31037894 -0.1687277 0.26061234 -0.22156873 0.31886333 0.7536445 -0.30840582 0.09403316 -0.7172105 0.48674348 0.39348826 -0.26077074 0.26607162 -0.025394142 -0.029891321 -0.101892985 -0.16866034 0.27096447 -0.30783868 0.59045553 -0.23081432 0.81593454 -0.0050396454 0.88239944 -0.40339693 0.066620976 0.25669378 -0.48667616 -0.25348997 -0.46168303 -0.28853005 -1.0787761 -0.36787778 -0.030438367 -0.30045956 -0.24854115 -0.0011482969 0.3213092 -0.18621197 -0.054394078 0.162579 -0.3156007 -0.14613265 -0.5713356 -0.13571206 0.039940476 -0.24664664 0.47227347 -0.4987694 -0.10614793 -0.0056608743 -0.21709207 0.9902208 -0.39970773 0.5369947 0.12721924 -0.41076046 0.40281942 -0.44053897 -0.22332671 0.0233904 0.25253254 -0.24970607 0.3808304 0.2520754 0.27528882 0.16252635 0.07903516 0.4339587 -0.12787154 -0.048942953 0.5569336 -0.50263894 0.118131965 0.35310385 -0.038626645 0.354049 -0.06726396 0.17254451 0.7127053 -0.12816988 -0.13412188 0.2397058 -0.19035165 -0.07026509 0.27478653 -0.12419114 -0.5245597 -0.3082503 0.48579445 -0.34574446 0.07924972 0.5584845 0.19661221 -0.1673768 -0.19435517 0.8931109 0.17329781 0.15180191
248 -0.29060292 -0.26118484 -0.15807003 0.23485267 -0.17876571 0.31355038 0.75713754 -0.25987276 0.11171568 -0.7947649 0.5133842 0.32870996 -0.24726114 0.25586766 0.01981919 -0.0025251156 -0.14167657 -0.16385628 0.2295235 -0.37491676 0.60459346 -0.25215644 0.8546458 0.006414176 0.87843347 -0.43409562 0.0374378 0.23725268 -0.4980342 -0.22986256 -0.4916477 -0.21387282 -1.0458952 -0.3414751 0.017073266 -0.29192966 -0.23122914 -0.0030705426 0.38289163 -0.22380874 -0.08083576 0.15574053 -0.30662608 -0.13614887 -0.54980433 -0.21479008 0.064263634 -0.21377201 0.45527783 -0.41398218 -0.030000446 -0.03969961 -0.19748834 0.9795113 -0.44552365 0.5591277 0.28774536 -0.44019717 0.3806753 -0.45437014 -0.23872346 -0.055995166 0.1503387 -0.3239965 0.33403167 0.21450165 0.2521401 0.1263848 0.052699685 0.35916027 -0.08371678 -0.045599956 0.5107332 -0.5018441 0.06959609 0.31145585 0.015006564 0.30691397 -0.042366095 0.14430332 0.7397879 -0.14299145 -0.073858075 0.29394364 -0.18565188 -0.038633417 0.2987168 -0.0047044256 -0.5686233 -0.3330736 0.5565261 -0.33688158 0.076567285 0.53925276 0.16698486 -0.20518556 -0.1802129 0.8929971 0.22066124 0.2257001
242 -0.4663745 -0.087079495 -0.5623185 0.25940123 0.15764944 0.32350466 0.33628443 -0.09954109 0.3093632 0.6028757 -0.16419762 0.45476583 0.6199091 -0.57176083 -0.6514405 0.48392993 -0.7349259 -0.21630582 -0.5519142 -1.0832528 0.5157228 0.102382205 -0.16014631 0.31473377 0.73199856 -0.24010509 0.090093106 -0.36259755 -0.12202625 -0.105285786 0.19685613 0.41215503 -0.1541639 -0.7676719 0.1586712 0.14636722 -0.05997349 0.30841544 -0.0056097847 0.38468271 -0.7972163 -0.16521592 -0.39181936 -0.265594 -0.36955342 0.24904531 0.16698454 0.058193382 0.36197808 0.40447667 0.10711869 0.49301174 -0.6329636 0.24248742 -0.25511497 0.32071418 0.44032872 -0.21126561 -0.26115224 -0.023809973 -0.66527736 0.44230893 0.47917196 -0.16912298 0.09278396 0.24094753 -0.012924984 -0.09189769 -0.35533932 -0.056304254 0.1855743 0.3040664 0.16126274 -0.059482314 0.09339713 0.12485742 0.7550202 0.6991629 0.009555241 -0.11165074 -0.83204484 0.14370346 -0.17336223 0.36474296 -0.4534626 -0.65226424 -0.015424206 0.25936717 0.19306375 0.24840236 -0.2870416 0.09765698 -0.115637265 -0.59956187 -0.07685344 0.2392086 0.115430474 -0.6373818 0.04930794 0.630552
247 -0.3276339 -0.3347061 -0.15942198 0.2908142 -0.26257882 0.31573167 0.74112135 -0.34239125 0.14869638 -0.7274533 0.49007243 0.36780104 -0.19403297 0.26433477 0.040690236 -0.04221576 -0.13042465 -0.22412515 0.2413101 -0.38080174 0.5699458 -0.21998309 0.8704924 0.006152787 0.9031608 -0.39801642 0.10899093 0.19445737 -0.5295291 -0.3069578 -0.481205 -0.234973 -1.074912 -0.34001803 0.026970504 -0.26227468 -0.2385863 -0.020006618 0.30733964 -0.23412219 -0.092311405 0.11848657 -0.28593507 -0.14848675 -0.5114005 -0.21115929 0.058749873 -0.21069495 0.40801218 -0.4578574 -0.112862915 -0.04979792 -0.15074472 0.9870057 -0.4290186 0.508271 0.21166748 -0.3769067 0.39613727 -0.44301948 -0.32941183 -0.045054134 0.20419158 -0.3204532 0.37709042 0.2512197 0.23720196 0.14067514 0.038417343 0.42325038 -0.112049244 -0.08730593 0.5802041 -0.47928655 0.05126818 0.31568107 0.027026838 0.29872462 -0.054729916 0.13643645 0.73448616 -0.119377516 -0.0964804 0.25009772 -0.10582509 -0.02875141 0.24241424 -0.12279385 -0.5469624 -0.29054883 0.488872 -0.32422316 0.106500216 0.5683525 0.2064604 -0.15063389 -0.11845169 0.8847556 0.1948756 0.20488647
291 -0.9132479 0.14027779 0.026487563 0.25488287 0.7009216 -0.2763814 0.4281947 -0.73466283 0.30748835 0.6031052 -0.3426653 -0.9910076 0.34316435 0.02817174 -0.14165853 0.2621125 0.18501958 -0.16119474 -0.15519011 -0.27004755 -0.14145878 -0.09414823 0.13241963 0.7089064 0.46132946 -0.19164948 -0.83827823 -0.49569243 0.46104312 0.6437995 0.31742123 0.43961194 -0.00809001 -0.7937514 -0.016137931 0.12460451 -0.15404984 0.45776457 0.50255686 0.16734537 0.13246724 0.33650398 -0.12957826 -0.03257594 -0.47766218 0.16487063 0.8682625 0.083257474 0.37759572 0.2697268 0.58581316 -0.17160453 -0.21279038 0.16875507 0.021240689 0.4352091 -0.19123554 -0.23727757 0.20266552 -0.08156871 -0.592101 0.74931926 -0.22709511 0.18098234 -0.895916 -0.46012402 0.1497358 -0.2041404 -0.117563486 0.33986545 -0.219336 0.40224665 -0.006069299 -0.052793134 0.64239526 -0.038532857 0.7027196 0.21238726 -0.61657256 -0.009722292 -0.4026917 0.047851253 -0.39590383 -0.27083206 -0.044100884 -0.025784096 0.58066744 0.040287577 0.61388075 -0.12685816 0.76781625 -0.19245023 0.19245836 0.83545154 -0.43343768 -0.049483586 -0.0045040417 0.38630098 -0.18210743 -0.46638072
482 -0.13008544 -0.0063916575 0.2892695 0.6411611 -0.29442245 -0.23344898 0.7982156 0.044394787 -0.011538207 -0.44757202 -0.077904634 -0.03176161 0.56028056 0.34369928 0.76638424 0.23544107 -0.12064156 -0.08260417 -0.17537853 -0.567954 0.5739709 -0.35029235 0.23110329 -0.029118208 -0.15472709 0.34374064 -0.28501847 -0.005389694 0.31926233 -0.19103883 -0.021014692 0.005910051 -0.12159182 0.24726671 -0.3971274 0.23451802 -0.91609085 -0.06354285 -0.008208639 -0.13415979 -0.37026685 -0.22193128 0.1684606 -0.2634941 -0.08997265 0.07434854 0.8416326 0.23736027 0.5902609 0.33699974 -0.39342132 -0.1010477 -0.5405985 0.1915805 0.0075746905 0.46931762 -0.16722421 -0.07392465 -0.5157141 0.03092196 -0.091396324 0.45685083 0.4409064 0.008793783 -0.024775669 -0.35838726 -0.030521756 0.24669488 -0.17352904 -0.2200787 -0.57102644 -0.38097835 0.16556904 -0.44775215 -0.3143662 -0.08475092 -0.024104958 0.04462734 -0.27505383 -0.26759917 -0.48424768 -0.7599032 -0.10279293 -0.12583287 -0.095593646 -0.016936738 0.65463346 -0.21737796 0.0052851075 0.059739813 -0.17676969 0.37988156 0.08926843 0.1930264 -0.07212383 0.30975258 -0.05867052 -0.12119004 -0.13410273 -0.10813144
251 -0.7194802 -1.4120291 -0.0360667 -0.35622558 -0.078362085 -0.52017295 1.1257303 0.079940975 -0.21513686 -0.59648436 0.116826266 -0.319241 0.04756707 0.37080154 -0.2774768 0.78644115 -0.2929087 0.86318666 0.67042655 -0.014784953 -0.25497428 0.27376726 0.89999735 -0.13458091 0.5964241 -0.07656693 -0.926686 0.2454464 -0.7359268 -0.0976081 0.26056644 -0.0042469357 -0.7621825 0.5717836 -0.18522188 0.026690224 -0.04268354 0.4452112 -0.31623694 0.08352183 -0.42908406 0.06465017 0.081332326 0.35640132 -0.0042353235 -0.4915787 0.2965113 -0.4344402 0.12265681 -0.10120982 -0.7195301 0.2421315 -0.68588495 0.45577407 0.22953373 0.2420018 0.3373296 -0.44069514 0.43422306 0.2708303 -0.3663492 0.4798386 -0.09451442 -0.55590755 1.025088 -0.42502797 -0.4413687 0.15066001 -0.28304034 0.42164102 -0.6713772 0.72897404 0.011963883 -0.33360916 0.06897861 0.19082437 0.31263128 0.51658326 -0.03277481 -0.3241337 0.5206689 -0.68022126 0.14935747 0.26639688 0.056197204 -0.042873256 0.7401095 -0.07569234 0.19532076 -0.32185367 -0.3863321 0.6316403 -0.41406184 0.6640661 0.33305687 0.6101234 0.3827154 -0.08528638 -0.58308303 0.1822543
230 -0.48756817 -0.6944086 -0.2268801 -0.4197955 0.09732425 1.1822882 0.6594656 0.03442744 -0.24435362 -0.3225048 -0.2687947 -0.74553365 0.35870326 0.17548925 -0.18885623 0.2838114 -0.12848601 -0.110972784 0.053913116 -0.5148668 1.0561908 -0.71769524 0.18941714 0.42441377 0.11328003 -0.16489752 -0.49768934 0.37068698 0.09538688 1.3862566 0.18500702 -0.31064075 -0.25790355 -0.5742415 -0.37109798 0.3991028 -0.15384512 -0.19301161 0.25617558 -0.69462943 -0.30147544 -0.26359344 0.21309455 0.24676833 0.2442265 -0.47236645 -0.17820406 1.1298923 -0.16476248 0.09215105 -0.15428878 0.4751739 -0.9913895 0.22834869 -0.785643 -0.25727844 0.18114644 0.36589962 -0.11181439 0.69431746 0.2708983 0.3542837 -0.44530135 -0.7111756 -0.49318746 -0.4806708 0.05864966 -0.34403032 0.044367533 0.52294624 0.050252233 0.23618872 -0.28834775 -0.059148856 0.54200494 -0.3948014 0.002959339 1.1622673 0.25714073 0.81627 -0.30441862 -0.36961588 -0.7194081 -0.80850023 -0.07436364 -0.5144744 0.16707598 1.0624185 -0.13727121 -0.4516276 -0.67683446 0.5624688 0.29258847 0.14196679 0.3440182 0.08400069 0.03880604 -0.1022211 0.27765134 -0.4473481
544 0.16132739 0.13521488 0.3911391 0.31957182 -0.02915303 0.07092902 0.6675576 0.15045586 0.4001841 -0.62648433 -0.034882095 -0.27824298 0.23242441 0.18658982 0.51398766 0.4812133 -0.063185625 -0.034735728 0.112041295 -0.3458156 0.6742984 -0.52676225 -0.12321911 0.62184674 -0.18115804 0.28909716 -0.52188927 0.15222234 -0.2496067 0.03244382 0.045885738 -0.037199453 -0.03609844 0.30177948 -0.89741564 0.5054358 -0.38445693 -0.15188651 0.27026063 -0.06767768 -0.28022516 -0.21300884 0.018092757 -0.24465942 -0.09860025 -0.059380863 0.61049455 0.35604554 0.5848087 0.12170697 -0.3016294 0.0910737 -0.22289608 0.58282596 -0.0337144 0.072160125 -0.012543917 -0.19203967 -0.16832037 -0.03969434 -0.30413485 0.916288 0.13046679 0.17151359 -0.08786546 -0.11904065 -0.6395871 0.22675112 -0.35751307 -0.008380824 -0.2021193 -0.5321954 0.33737317 -0.6079035 0.049460944 -0.17613815 0.19438368 0.47635394 -0.13345465 0.3633358 -0.3029701 -0.42825356 -0.21643 0.6550025 -0.05619644 -0.04949548 0.2987581 -0.1835886 -0.095419064 0.07343221 0.36310413 0.35403374 0.120051175 0.21990357 0.28491727 0.107820965 -0.06273235 0.102603294 -0.47282237 -0.19920948
235 -0.3442636 -0.30124372 -0.06812444 0.28050497 -0.24008532 0.34370542 0.7882301 -0.28904375 0.09244532 -0.7458384 0.48661625 0.40686256 -0.27593404 0.22531825 0.021439029 -0.020566562 -0.07492069 -0.19923061 0.229946 -0.40310565 0.5659592 -0.22183554 0.81566334 0.035349865 0.8674727 -0.38920242 0.07136544 0.18107787 -0.51731586 -0.22737671 -0.44895592 -0.21007138 -1.0372397 -0.33350676 -0.0570086 -0.18935259 -0.17615908 0.042087812 0.30672225 -0.20838055 -0.13020816 0.14533192 -0.3692375 -0.1241767 -0.51021576 -0.16425082 0.0038567919 -0.17233548 0.41760203 -0.45003745 -0.024521943 -0.060544822 -0.20297946 1.0214682 -0.40535876 0.5104683 0.17949401 -0.3877322 0.39474288 -0.41777372 -0.27166045 -0.103849 0.21268201 -0.25927114 0.38685733 0.24714127 0.23056835 0.18832557 0.10930901 0.42223775 -0.12223304 -0.10719284 0.5728093 -0.47551078 0.107536 0.2981434 -0.021635437 0.25557762 0.014029069 0.1579499 0.7477134 -0.11663987 -0.094696 0.22420776 -0.13849187 0.006951152 0.3412994 -0.06645617 -0.5075802 -0.29522446 0.44500533 -0.3324826 0.11705054 0.5105927 0.1576055 -0.18107232 -0.15698236 0.9213922 0.18909824 0.17464732
498 -0.3536366 -0.29263395 -0.6044057 0.55668324 0.003391422 0.14083157 -0.1709108 0.06395123 -0.43314165 0.0020272322 -0.18229736 0.2312214 0.36335698 -0.7146841 0.09367215 -0.20817448 0.49595308 0.046143252 -0.86554825 0.12383456 -0.21234627 0.4260422 0.7266388 -0.13231829 0.6916838 0.038047865 0.12771584 0.31532758 0.48751158 0.7312263 0.103508025 -0.035564464 -0.47357476 0.19050777 -0.3952631 -0.0797251 -0.26050845 0.2247635 -0.26021326 -0.4017747 -0.6790366 -0.41225535 0.022215452 -0.18667974 -0.25034168 -0.11117231 -0.038618833 0.39092323 0.22366682 -0.22096589 -0.21696816 -0.016138734 -0.4419904 0.70133907 0.14080118 0.25720173 0.25968388 -0.13563433 0.002383959 -0.29484206 -0.6003677 0.44572943 -0.57559156 -0.49215856 -0.4687968 -0.31680924 -0.19296792 0.47040072 -0.29335773 0.2186248 0.07329849 -0.044675864 -0.22709285 -0.31244814 0.24901292 -0.31109497 -0.2988483 -0.06110382 -0.062824085 -0.02354322 -0.51840943 -0.24682117 -0.06528486 -0.009931848 0.26161787 -0.6221734 0.35353288 0.20429291 0.7747008 -0.300641 0.6791116 -0.12155468 -0.13640349 0.64661986 -0.14008987 0.13688205 -0.51046026 -0.20488721 0.28056037 0.24496923
18 -0.6361503 -1.3671995 -0.056036055 -0.40749353 -0.10040111 -0.50023526 1.1361314 0.044956177 -0.33927384 -0.53762794 0.1889646 -0.2888912 0.06419267 0.3632944 -0.24779439 0.7300823 -0.17794208 0.6746244 0.649604 0.025771964 -0.30023354 0.18279135 0.7980249 -0.13531783 0.62369597 -0.04796503 -0.913829 0.33048832 -0.7317766 -0.07791116 0.24540748 0.005646199 -0.8433549 0.59380937 -0.14789015 0.011522057 -0.07408311 0.4168662 -0.33622473 0.06460908 -0.47085184 0.018616159 0.14825562 0.2935673 0.058337532 -0.44281378 0.30367917 -0.41390154 0.042372257 -0.044212744 -0.72036844 0.2897734 -0.6989518 0.5106634 0.23476855 0.3160433 0.30977762 -0.47191224 0.47073695 0.30665356 -0.34841102 0.536453 -0.053796533 -0.49873167 1.0027753 -0.4955876 -0.48593152 0.06347474 -0.35368332 0.38614115 -0.61069185 0.70426583 0.03682755 -0.34125817 0.009627392 0.23741262 0.34459287 0.6361518 -0.105835065 -0.38853946 0.5433243 -0.7003658 0.15840751 0.2043777 -0.017287232 -0.098687865 0.7718327 -0.030761689 0.16853817 -0.25500008 -0.39231148 0.59298664 -0.3333657 0.7591697 0.37223238 0.6791285 0.4629436 -0.09361329 -0.5265075 0.17698888
503 0.055724137 -0.19073264 -0.13889189 -0.0025735027 -0.124094225 0.57921666 0.21169087 -0.36377293 -0.07678285 -0.20332041 0.084269375 0.27542463 -0.585339 -0.016471392 -0.512652 -0.113533325 -0.83483636 0.15955259 -0.42935976 -0.7903551 0.11111898 0.2932579 0.22473244 -0.28995132 0.6001325 -0.01530365 -0.02753098 -0.018156344 0.20538592 -0.11221182 0.65117365 0.4357061 -0.38022178 -0.03445243 -0.02509769 0.4124705 -0.15916362 0.49137565 0.0035493958 0.08173395 -0.4321927 -0.3834972 0.15507434 0.31819397 -0.45568424 -0.45160642 0.31102878 -0.17976753 0.3789628 0.6115706 -0.10632037 0.16733162 -0.6028093 0.74206805 -0.014578732 0.51947814 0.67499715 -0.5448926 0.0024772494 0.3199704 -0.47888243 0.46447307 0.71390414 0.3623958 0.6538068 -0.113432884 0.25719652 -0.2969808 0.31126764 0.41224945 -0.115309745 -0.3852157 -0.5093757 0.24311973 -0.73844504 -0.2557752 0.17113207 0.1876789 -0.45640165 0.64531285 -1.0026988 0.14399089 0.36217737 -0.10811747 -0.20378517 -0.5820728 0.097103775 -0.5446117 -0.16162933 -0.31786597 -0.29456583 0.6670144 -0.07924847 0.5028059 -0.16892081 0.47853157 0.09277111 0.027538458 -0.10600569 0.79518163
234 -0.36749315 -0.32256645 -0.122749425 0.3320754 -0.31991065 0.29381 0.75124544 -0.23475818 0.08775749 -0.7590735 0.48024935 0.352292 -0.25360906 0.22166671 -0.07136413 0.020467747 -0.1372967 -0.15860462 0.29285347 -0.39303514 0.5675259 -0.15331773 0.7973058 0.05336499 0.83961546 -0.4357067 0.029868832 0.25134698 -0.4817468 -0.21492127 -0.49042478 -0.2809681 -1.0624585 -0.32983786 -0.06231036 -0.21881843 -0.29010907 -0.06716426 0.33045033 -0.17855844 -0.06550101 0.16946624 -0.27745113 -0.14675745 -0.5478266 -0.18511611 0.017581746 -0.18309897 0.4319744 -0.44038922 -0.044150192 0.032787338 -0.17426224 1.0225762 -0.41700232 0.55100405 0.14864333 -0.42573687 0.43743387 -0.44108462 -0.22923066 -0.03981958 0.19177529 -0.24671571 0.3635509 0.22812086 0.20394333 0.11426318 0.083327085 0.34927395 -0.13362427 -0.116303556 0.5201419 -0.4562975 0.09032381 0.28079128 0.040023606 0.31974036 -0.06334122 0.08031693 0.7408163 -0.11239166 -0.06365861 0.30673862 -0.1464022 0.012637128 0.27549505 -0.04061082 -0.48506135 -0.2775592 0.45951632 -0.31548363 0.07963639 0.51265496 0.17335339 -0.19577159 -0.212769 0.86851555 0.21324068 0.2185382
490 0.07676223 -0.19261351 -0.16181622 -0.009036943 -0.15729475 0.6303835 0.20471387 -0.38125196 -0.1223345 -0.21894816 0.076501206 0.30417463 -0.5602294 0.030245645 -0.5140915 -0.111699894 -0.85588723 0.2044015 -0.39753726 -0.8431245 0.109075636 0.36703598 0.29716355 -0.22126925 0.6266472 0.025804374 -0.0503818 -0.056869242 0.1655669 -0.09961106 0.6534943 0.5246688 -0.37958637 -0.03716093 -0.05079592 0.41156617 -0.105950534 0.507152 -0.04408164 0.02468805 -0.46494952 -0.36752313 0.11843523 0.34160912 -0.41397804 -0.45516673 0.35894436 -0.18379653 0.32067126 0.6091212 -0.13566086 0.17396261 -0.56410503 0.7138621 -0.03438405 0.469051 0.6768408 -0.5305034 -0.01655248 0.30470386 -0.5507415 0.4430086 0.6547453 0.39030063 0.67445123 -0.050369762 0.27413735 -0.24190083 0.29420468 0.36605838 -0.07183286 -0.32905382 -0.49531552 0.26279858 -0.70876324 -0.23217839 0.23218249 0.13812079 -0.4999174 0.65720636 -1.0198224 0.14507963 0.3048572 -0.14399773 -0.25171202 -0.6051656 0.11575224 -0.51541185 -0.15285403 -0.32510728 -0.27057153 0.6654149 -0.039812174 0.50112647 -0.122384936 0.42456904 0.0732196 0.0052792053 -0.17639998 0.7508919
201 -0.5773264 -0.4909967 -0.06326091 0.17309342 0.71603805 0.80311686 0.20341559 0.14074853 -0.6131983 -0.05917883 0.011107702 0.11614121 -0.77546865 -0.24615362 0.20005786 -0.5093514 0.5312345 0.31640217 -0.27799746 0.3241325 0.026842669 -0.32244083 0.5236292 0.02180346 0.6804728 -0.4233436 -0.29616153 0.49493313 0.11534408 0.4086755 -0.018829938 -0.38580805 -0.4505299 -0.040818617 -0.5480569 0.19834751 0.010684943 -0.042604897 0.36825097 -0.3725752 -0.22778484 0.03713621 0.5072873 -0.1241412 0.00285709 -0.23205496 -0.5070351 0.2304368 0.45490316 -0.30530062 0.3964214 -0.17818323 0.29736966 0.6853672 0.17158368 -0.3966376 -0.10773876 0.22620198 0.17264885 0.098516114 -0.5148767 0.60264134 -0.36369392 -0.17356803 -0.17023993 0.21730661 0.033220384 0.6954165 0.044094734 0.47066417 -0.3402774 -0.16412501 -0.51511544 -0.26987204 -0.09268179 -0.2592368 -0.0070890198 -0.103196084 0.072899714 0.26265785 -0.6460474 -0.21886852 0.2400478 0.48130608 -0.27416757 -0.7879361 -0.11674743 -0.2377155 -0.07148053 0.07861132 0.32671607 0.16046178 0.13354108 0.55927485 0.4435835 0.68178695 -0.40942645 -0.29592872 -0.10091736 -0.24417886
236 -0.5971656 -1.3669181 -0.14689702 -0.4792543 -0.0782329 -0.5320838 1.0910627 0.11312274 -0.26049328 -0.6026776 0.16866498 -0.32601961 0.05256562 0.3871975 -0.19758675 0.76533484 -0.28552064 0.8523789 0.7305294 0.0015677155 -0.29390994 0.27385402 0.89015913 -0.14159511 0.6827418 -0.059925724 -0.9404492 0.30847543 -0.6421456 -0.13240565 0.2930166 -0.015276977 -0.7517719 0.54849595 -0.17534758 0.02394975 -0.06597534 0.40125638 -0.2635592 0.06470573 -0.45774335 0.019391946 0.13724114 0.3520964 0.10550073 -0.499855 0.3061571 -0.43183112 0.11804934 -0.08990019 -0.71520555 0.23877823 -0.71079093 0.44913128 0.15832521 0.21254872 0.2889331 -0.47980145 0.43927005 0.29652599 -0.38536105 0.5152164 -0.006465324 -0.5117036 1.0153987 -0.5132434 -0.44518727 0.14191747 -0.23858961 0.40967032 -0.66588885 0.7589165 0.04097763 -0.3292803 0.011807295 0.16434227 0.35637695 0.55812854 -0.044891115 -0.32036474 0.50923574 -0.6291569 0.15292579 0.3063185 0.023790838 -0.016523203 0.7661035 -0.037216287 0.16891822 -0.38354173 -0.43590927 0.49745739 -0.38483882 0.7966107 0.28124136 0.690883 0.43317807 -0.12744275 -0.52732235 0.2178525
64 -0.13713692 -1.1572398 0.4015686 0.23151551 0.6237267 0.32439703 0.028040392 -1.1936994 -1.2225517 -0.40863642 -0.12475268 0.2953458 0.50747025 0.37275267 -0.2989228 -0.39367795 -0.03370515 0.30250934 0.25748393 0.40312228 0.4345098 -0.16348973 0.798318 0.18330374 0.65327495 -0.5995515 -0.7791484 0.3532889 -0.47609997 -0.73394895 -0.016295042 0.15389343 0.3636977 0.2191226 0.09741224 0.63303703 -0.50660837 0.85967916 0.6160492 -0.54914093 0.09738914 0.61076975 0.34400547 0.43489707 0.13984627 0.41926736 -0.049871083 -0.3989594 0.3778761 0.5229131 -0.298239 -0.25605598 -0.10199373 0.6775601 0.2931837 0.75568986 0.35953492 0.38242814 -0.30872554 -0.14949086 -0.36391777 -0.08013635 0.008595297 -0.3207724 1.0505959 0.70334285 -0.8885395 0.498225 0.5106912 -0.023255313 0.07658215 0.24264672 0.044326212 0.2370728 -0.53117007 0.5891335 -0.2766064 0.9604085 -0.6809804 0.86812794 0.21623525 -0.9918001 0.15324058 -0.59157467 -0.1253418 -0.16019343 -0.097326666 0.0770362 0.2959568 -0.050195698 0.60728943 -0.12362782 -0.24595468 -0.25666675 -0.15154003 0.5560629 0.3437629 0.28811622 0.20502788 0.044510692
233 -0.32699805 -0.2684944 -0.15284199 0.30086547 -0.21471632 0.3812022 0.7318831 -0.31608206 0.14091416 -0.7445171 0.49736392 0.41437197 -0.2637128 0.22229216 0.0036275585 -0.068082735 -0.10452893 -0.1876468 0.2757574 -0.2733601 0.60360026 -0.1863088 0.8154396 0.023326451 0.846298 -0.41093495 0.012451725 0.22091511 -0.47553253 -0.20566088 -0.45292512 -0.27858728 -1.0653777 -0.32867408 -0.05218122 -0.28204992 -0.22749951 -0.028774112 0.32504103 -0.21729833 -0.076125816 0.106637776 -0.31500942 -0.1579551 -0.6018597 -0.1332788 0.074732795 -0.22653128 0.41671503 -0.42788818 -0.024354514 0.006671353 -0.22902031 1.0390735 -0.44009078 0.4439442 0.23604314 -0.3788881 0.41000158 -0.43657097 -0.2594367 -0.030788118 0.17922041 -0.25015774 0.35101438 0.18910769 0.24654058 0.13261269 0.13672154 0.37054396 -0.1664047 -0.08419098 0.5680863 -0.5448682 0.11334748 0.28220376 0.016434245 0.30773845 -0.02630279 0.17433594 0.7555158 -0.1115331 -0.11043715 0.22575955 -0.09761731 0.006991762 0.3206129 -0.0769031 -0.52357316 -0.22968447 0.52481216 -0.35312188 0.053618576 0.62285554 0.2185785 -0.19772413 -0.16544677 0.8961055 0.20024285 0.22987571
91 0.27624545 -0.25430515 0.5813692 0.19979362 0.03229369 -0.14490637 -0.31538653 -0.50440687 -0.94708705 -0.026832735 -0.39039555 -0.069679 -0.8964588 0.58347136 -0.09439339 0.19172195 0.033030953 0.5066872 -0.19268674 0.06789182 0.59304065 0.121167354 0.6278477 0.4010246 0.2260726 0.17881669 -0.5961713 -0.24149576 -0.39567897 -0.5671381 0.18788406 -0.45893645 -0.16894223 0.41339314 0.14843501 0.061406385 -0.49567217 0.088212445 -0.4069037 0.29514602 -0.4185615 0.1264803 -0.24072966 0.30638832 -0.46667486 -0.6406594 0.18567264 0.93557805 0.7079827 0.8664884 -0.08258201 0.0049113454 -0.1909498 0.68457144 -0.9140816 0.602644 -0.78997 -0.13317874 0.13264519 0.09200291 -0.58469343 1.1085241 -0.14917588 -0.87507564 -0.40847823 0.08712381 0.62991136 -0.2827831 0.11206146 0.39214683 -0.44600475 -0.2585654 0.229544 -0.3594261 -0.4386735 0.4534493 0.48613843 0.24003896 -0.68550044 0.4154156 -0.69970435 -0.32760566 -0.085175335 -0.3419637 -0.36468688 0.03215325 0.15261537 0.009269684 -0.016992267 0.20901044 0.14981073 -0.079897754 -0.044417236 0.05587846 -0.22729462 -0.16146022 0.35319227 0.7163811 0.09693957 1.0080575
539 0.105018444 0.10942158 0.41373056 0.29889357 -0.012284846 0.06314993 0.7382121 0.12810515 0.4382713 -0.63616467 -0.032217458 -0.28927934 0.24655461 0.28086317 0.5450105 0.3694552 -0.10810668 0.023154207 0.066406965 -0.36236024 0.6010852 -0.45841908 -0.10227428 0.5636502 -0.14476275 0.37933388 -0.44730476 0.1004572 -0.18613097 0.037634585 0.04821988 -0.12378411 0.027146865 0.25454757 -0.7956359 0.43873855 -0.48753217 -0.06373193 0.15649629 -0.01838885 -0.3115297 -0.22688355 -0.03337481 -0.24304248 -0.13111752 -0.097060524 0.6783639 0.31082046 0.51126695 0.14590093 -0.26252627 0.17870036 -0.2265041 0.57350785 -0.024897361 0.04485931 0.031444114 -0.18113722 -0.17309013 -0.085457034 -0.3219733 0.8079352 0.098536134 0.20201607 -0.13567618 -0.10646323 -0.5790788 0.2818502 -0.36543378 -0.059348315 -0.2104378 -0.5111799 0.27875006 -0.665278 0.07252559 -0.2335536 0.17217214 0.40955815 -0.18536903 0.2237174 -0.29925683 -0.40306208 -0.15803933 0.5834162 -0.08131198 -0.08131902 0.34857264 -0.1741222 -0.046137262 0.03639886 0.24124382 0.32058522 0.0950895 0.21355404 0.22258697 0.1061305 -0.068515345 0.044544596 -0.44926488 -0.19186358
149 0.35553488 -0.26312616 0.62573355 0.13671793 0.05286218 -0.12782562 -0.22132854 -0.5161759 -0.9285689 -0.052583333 -0.37883738 -0.10998689 -0.85039765 0.48922458 -0.11159502 0.16635199 0.012004605 0.5511298 -0.107645616 0.054771446 0.5804775 0.16833574 0.62272376 0.46004453 0.31627464 0.18987773 -0.5571511 -0.16066495 -0.41667992 -0.62267566 0.17164935 -0.4246937 -0.19805598 0.4517764 0.0865025 0.009727707 -0.48669326 0.05944089 -0.39939365 0.2602971 -0.37478393 0.02154441 -0.24818347 0.3587076 -0.36649522 -0.60883045 0.18370654 0.97057927 0.724576 0.8425137 -0.035996486 -0.021196732 -0.25493905 0.76724607 -0.8699278 0.5522089 -0.78639555 -0.2265109 0.06367579 0.110919274 -0.55327207 1.1007249 -0.16692495 -0.90755427 -0.42074245 0.16056122 0.62876517 -0.34546548 0.07510591 0.40480426 -0.4603476 -0.29554185 0.23568867 -0.29284647 -0.5066424 0.39382106 0.57135206 0.22995247 -0.63756955 0.38552037 -0.73928285 -0.39179626 -0.107322305 -0.31453416 -0.33025122 0.060257524 0.10490642 0.03708042 -0.01820723 0.21549872 0.119945586 -0.09097264 -0.07522376 0.10725399 -0.3164092 -0.16752803 0.39201474 0.75307214 0.024380637 1.0077082
553 -0.5587548 -0.009762026 -0.36615375 0.30997524 0.8417808 -0.30303973 -0.041602284 -0.8965932 -0.5691664 0.068871215 -0.25807446 -0.7239544 0.23579472 -0.10284068 0.14288364 -0.22678478 -0.036648523 -0.11342133 -0.3244494 -0.004051212 -0.46172577 -0.3165885 0.3141126 0.43218875 0.12506513 -0.93030816 -1.0056276 -0.7211356 0.062314782 -0.27934834 -0.17299633 0.060491096 -0.48351023 0.27528706 0.55621636 0.028126324 -0.6791501 0.33967566 0.16163923 -0.32582042 0.23462798 0.20053719 -0.060254324 -0.40493736 -0.3091064 -0.38652912 0.840747 0.043103434 1.0042361 0.5172898 0.6680427 -0.5134826 -0.070964046 0.3107871 0.3159277 0.86173457 -0.117295265 -0.37604734 0.37476546 -0.10248929 -1.0131662 -0.19061409 -0.57233554 -0.84544784 -0.08816648 -0.10455008 0.085310966 0.36744002 -0.10936166 -0.4223478 -0.2706692 -0.8414098 0.34131226 -0.059671756 0.21724647 -0.12592636 -0.042364612 0.38210988 -0.7303459 0.06561245 0.07526281 -0.5176551 -0.33336014 0.008066282 0.19927028 0.13773036 0.043672916 0.42323294 0.26958668 -0.016935593 0.18433133 -0.16060494 0.521333 0.10798603 -0.3558054 -0.122232154 -0.20489252 0.29067853 -0.22146402 -0.35618994
103 -0.12817815 -1.1694007 0.53084207 0.17843075 0.69023144 0.40708137 0.08986464 -1.1587765 -1.1796693 -0.3971855 -0.22401918 0.3109997 0.5046371 0.3401067 -0.32309544 -0.42872274 -0.0864917 0.32594308 0.30297756 0.42595446 0.40182978 -0.13266574 0.7907717 0.11655709 0.6666471 -0.54710233 -0.7758628 0.39134496 -0.5354314 -0.7263964 -0.03192764 0.18548621 0.42327303 0.14152561 0.15565312 0.59093475 -0.5809459 0.87642777 0.46723512 -0.59392965 0.12073099 0.5515032 0.2836611 0.41574243 0.13583556 0.45938036 -0.13512485 -0.42316225 0.4149199 0.4835898 -0.332129 -0.1755538 -0.118490644 0.6874119 0.30443814 0.7973406 0.37100646 0.48835477 -0.22816797 -0.16347368 -0.38145682 -0.077788346 0.05984626 -0.27066332 1.01402 0.61893857 -0.8168237 0.48908702 0.52036494 -0.0542003 0.08461205 0.19055167 0.09604741 0.30062678 -0.508553 0.5924391 -0.28922385 0.93013376 -0.67825365 0.86288935 0.2173231 -1.0598496 0.12548602 -0.5560085 -0.20075594 -0.15034747 -0.037058976 0.118442655 0.32426313 -0.11679306 0.6445592 -0.108098134 -0.3144356 -0.20873587 -0.028280556 0.59723777 0.31107277 0.32975745 0.18146066 0.043658707
474 -0.28208917 -0.34017032 -0.64632595 0.5573602 0.03493226 0.17462862 -0.1723416 0.09506469 -0.43762225 0.0026516165 -0.24337775 0.16640055 0.34595692 -0.7995783 0.11667005 -0.21698992 0.6130525 0.0150957415 -0.7793843 0.09320208 -0.20706083 0.38133073 0.71029717 -0.19760935 0.7085237 0.15770474 0.07567015 0.13384187 0.31785905 0.64091843 0.0949593 -0.11031373 -0.41991594 0.2778995 -0.49748522 -0.06894653 -0.3017591 0.20570791 -0.24509743 -0.36807525 -0.6400241 -0.37891075 -0.05117432 -0.032870363 -0.32005772 -0.13745846 -0.18058813 0.42369786 0.33919537 -0.23491243 -0.17893933 -0.02926485 -0.3951625 0.8510364 0.24102618 0.19874029 0.3575622 -0.13292469 0.18668556 -0.23671626 -0.71881306 0.36991993 -0.574063 -0.5596376 -0.42053744 -0.35602832 -0.20666942 0.51867855 -0.49673688 0.12014706 0.08242574 -0.053598918 -0.30452767 -0.19426797 0.1947323 -0.20787884 -0.36672717 -0.022667967 -0.0032828536 0.0030046434 -0.52948165 -0.32660803 0.014700782 0.055804107 0.26910937 -0.53054845 0.28625342 0.20918688 0.75797117 -0.16195576 0.67403126 -0.079085216 -0.17796043 0.57907456 -0.101084806 0.19288224 -0.5519447 -0.19646293 0.2375684 0.29383275
555 -0.15262665 -0.023459906 0.38464606 0.6252035 -0.31859258 -0.21394008 0.8561896 0.099555865 0.016870297 -0.42752716 -0.056181204 -0.012492249 0.46840245 0.2656305 0.83736193 0.21953343 -0.12023071 -0.0913739 -0.16250828 -0.5801114 0.59158075 -0.30721328 0.21319635 -0.031179529 -0.13250917 0.30888054 -0.27711043 0.04193192 0.31123662 -0.15645403 -0.0515047 -0.021839928 -0.16871355 0.20681287 -0.3270626 0.22124706 -0.9216891 -0.0046498226 -0.08345379 -0.10069579 -0.36167574 -0.2965032 0.15763906 -0.21724445 -0.045029923 0.08140343 0.8314624 0.22344148 0.5840468 0.352575 -0.42767587 -0.14223194 -0.63992035 0.18333443 0.026717246 0.57013094 -0.15295598 -0.10158408 -0.5135037 -0.04800715 -0.03219927 0.4482996 0.44865248 -0.0032273694 -0.028991356 -0.4316798 -0.045584783 0.15501599 -0.15991561 -0.16622995 -0.6599263 -0.33490005 0.21211801 -0.42639306 -0.25040066 -0.054921184 -0.05988759 -0.007757343 -0.27160692 -0.2956202 -0.5178853 -0.8363055 -0.15550742 -0.17027333 0.059015777 -0.074151754 0.6523081 -0.16404766 0.06498634 -0.003771464 -0.21241818 0.44172016 0.054232545 0.23295802 -0.12886134 0.3371665 0.000847287 -0.145071 -0.13806082 -0.12454009
512 0.11360591 -0.20227937 -0.08219166 -0.016066385 -0.15178803 0.5979594 0.24925922 -0.426057 -0.05668026 -0.15220302 0.11937007 0.3087707 -0.53044015 -0.0013174221 -0.5256597 -0.060678 -0.82615143 0.21490166 -0.3775676 -0.8012296 0.108191565 0.36869735 0.22626154 -0.22551039 0.62400055 -0.0010947816 0.0017174771 -0.002519936 0.16906857 -0.004477308 0.662336 0.5121642 -0.35808936 -0.07189401 -0.007530813 0.38956073 -0.13699342 0.5039746 -0.03334666 0.11387123 -0.46088135 -0.40197444 0.12977248 0.4249121 -0.4288393 -0.4308591 0.3190728 -0.17997453 0.3532719 0.6191372 -0.10040372 0.1924685 -0.62653124 0.7753437 -0.041244097 0.5802572 0.6877537 -0.5259408 -0.026882686 0.33277813 -0.55130386 0.46150705 0.691274 0.33461553 0.6552925 -0.10392591 0.23151527 -0.29076967 0.2853495 0.39801756 -0.1325858 -0.33258197 -0.47773895 0.23715055 -0.7397775 -0.22413756 0.21267152 0.10887474 -0.46448636 0.6184781 -0.9602563 0.098439425 0.3160835 -0.14491805 -0.19390626 -0.6045318 0.059580468 -0.49575773 -0.113011844 -0.2999217 -0.28216666 0.65215445 0.023947984 0.58856976 -0.13975944 0.4635621 0.08247393 0.025157515 -0.15746793 0.7381669
118 -1.7829807 -0.46633223 -0.48112047 0.33799464 -0.48018682 -1.0232337 0.49026746 -0.41551384 0.22266823 -0.09998755 0.18780507 -0.24115458 -0.27037457 0.56542754 -0.29762578 0.46829012 0.169676 0.51350176 0.44488877 0.2313006 0.16885775 -0.68360966 0.944796 -0.28677577 0.49047524 0.31366992 -1.1450182 0.09550614 -0.025547815 -0.5865469 0.013978774 -0.090559304 -0.17100339 0.15326017 -0.34605616 -0.13645655 -0.00023115001 0.30112678 0.28523684 0.47863024 -0.4014934 0.23161861 -0.2276724 -0.10535702 -0.3855346 -0.44660592 0.7352339 -0.82634187 0.17223297 -1.1047035 -0.38094914 -0.3679224 -0.059758756 0.27892098 0.5407764 -0.3781529 0.21528442 1.0104929 0.4132136 0.20498633 -0.7816742 0.35076416 0.22873668 -0.349432 0.7924644 -0.056770775 -0.46958286 0.9902959 -0.20775679 0.21972968 -0.7912761 0.47587517 -0.55958617 -1.1647505 0.19543146 0.32173547 0.6073524 0.69054776 0.20978329 -0.1574928 0.32396668 -0.22283006 0.060775947 0.5240179 0.35254714 -0.5895948 0.12577192 -0.344076 0.1008138 0.2106409 -0.34630123 0.74319077 -0.34464556 0.3587755 0.0145691475 0.14650927 0.011491621 0.13413015 0.015685532 0.16631301
526 -0.34342268 -0.41104895 -0.5903603 0.5731949 0.0860353 0.13387118 -0.063395806 0.04968048 -0.4129466 -0.013424316 -0.07689455 0.25007778 0.37009057 -0.76871765 0.14299303 -0.24765907 0.61322117 0.045629747 -0.7992918 0.07188114 -0.22233 0.3803755 0.7595392 -0.2141003 0.61475843 0.14436017 0.14550094 0.16850908 0.42840075 0.694864 0.14947586 -0.13598444 -0.3431951 0.2318586 -0.42016 -0.09561029 -0.32292426 0.20225912 -0.30812058 -0.43706647 -0.63445276 -0.38394922 0.0077776103 -0.09861397 -0.39420605 -0.09469186 -0.12872261 0.32604882 0.25025645 -0.19564807 -0.21862236 -0.03530803 -0.46770087 0.8285218 0.21956442 0.27780443 0.25730684 -0.112971 0.09129871 -0.29403207 -0.57934517 0.4320392 -0.5045246 -0.57118165 -0.4363629 -0.24169144 -0.14962202 0.46227026 -0.32939243 0.17165692 -0.00038645588 -0.10224264 -0.2748373 -0.1805137 0.24804243 -0.25323507 -0.2085618 -0.109525554 -0.045702063 -0.016150834 -0.48212433 -0.23176911 -0.061557833 -0.008318407 0.21849652 -0.6117871 0.2985788 0.25549328 0.7425977 -0.22726151 0.70051026 -0.03210436 -0.113431394 0.5998738 -0.18830436 0.18757856 -0.4675164 -0.190064 0.17716202 0.23143782
421 -1.7990267 -0.45667735 -0.48972782 0.39941663 -0.4597915 -1.0325575 0.46290863 -0.4057312 0.22123908 -0.012574698 0.19536518 -0.2779748 -0.2285831 0.522788 -0.2761072 0.419939 0.21780264 0.45721906 0.52354175 0.20700134 0.14455186 -0.70733625 0.9334341 -0.30537918 0.519884 0.35987023 -1.1178323 0.097606346 -0.032021306 -0.5923028 0.027982606 -0.045107014 -0.21259256 0.12429923 -0.3382697 -0.18271236 -0.007534404 0.34974715 0.21271367 0.44560787 -0.50088257 0.15577698 -0.19999586 -0.10696497 -0.3609043 -0.41649055 0.79653955 -0.8704448 0.15218271 -1.1347374 -0.46391213 -0.41381228 -0.155484 0.28049216 0.5750442 -0.3601348 0.26273054 0.9935123 0.4382308 0.21605596 -0.7915623 0.37543646 0.20105176 -0.39273998 0.7734393 0.01550732 -0.53625625 0.9079216 -0.2099482 0.2658297 -0.7689289 0.3954467 -0.5775179 -1.1818674 0.23336065 0.32379824 0.5637072 0.7435993 0.22499952 -0.10160362 0.3516039 -0.20849976 0.034074027 0.45252043 0.29019296 -0.6110041 0.040420562 -0.313185 0.14767055 0.20159036 -0.2917091 0.6974173 -0.32050654 0.3558196 -0.042297263 0.12529026 0.029185949 0.13273083 -0.07987231 0.1742736
147 -1.3623031 -1.1413877 -0.3684083 -0.24237524 -0.7420431 -0.8158846 0.06444656 0.027653944 -0.46785083 -0.5157223 -0.21706669 -0.37323764 -0.3838893 0.34464106 0.16289711 0.38748765 0.16974178 0.25855207 0.506477 0.24941851 -0.36921808 0.31882516 0.57942903 -0.35380757 0.7298376 0.0522439 -1.0498995 -0.39051348 0.14670819 -0.33429053 0.24331364 0.039282866 0.38512066 0.46624348 -0.5908482 0.41006446 -0.30697274 -0.15418155 0.69459164 0.12143402 -0.102790855 -0.036841836 0.4575136 -0.0023411477 -0.2252464 -0.3637165 0.63649464 -0.84052706 0.66005874 -0.64793384 -0.6801711 0.003042287 -0.22678478 -0.1150178 0.2016967 0.23931864 0.4280038 -0.1979715 0.24662332 0.44549325 -0.5041839 -0.032573238 -0.18447216 -0.07134422 0.2795807 -0.33150002 0.26793906 0.6416765 -0.49149656 -0.19184656 -0.43857783 0.684017 -0.5597842 -0.6139184 0.49563384 0.13376638 -0.032995194 0.51836365 -0.349443 -0.16320089 0.35420766 0.47184363 0.720006 0.4452368 -0.6643502 0.2631457 0.64166313 -0.02581046 0.507803 -0.10386754 -0.4733319 0.98377246 -0.61927325 0.015765535 -0.31082702 0.18220814 -0.36842042 -0.12575838 0.39630485 -0.015695151
102 -0.65818965 0.59662473 -0.69748336 -0.0010174777 0.26811862 0.33282214 -1.0422463 0.086337246 -0.14386886 -0.07147827 0.8737956 -0.58591384 -0.3685013 -0.18542686 -1.1245407 -0.059284635 0.023989651 0.0832067 0.71849185 -0.0054967566 0.20362268 -0.1827182 1.2842484 -0.8005631 0.98083305 -0.253519 -0.64879185 0.020061335 -0.8522154 0.68241835 0.029583253 -1.1628029 -0.28911793 -0.9962653 -0.7602153 0.6226313 -0.69307786 -0.014751565 0.5283923 0.051944785 -1.1916281 -0.52242154 0.43280095 0.3264706 -1.4276195 -0.6740893 0.4550307 -1.1701664 0.9003223 -0.124001116 -1.0740992 -0.56146115 -0.18927185 0.28500557 -0.64067084 0.024530768 0.17074865 0.15464617 0.3458188 0.83146256 -1.2788037 -0.35324377 -0.18190168 -0.5096224 -0.103490874 0.5588395 0.5674528 0.37343884 0.4704878 -0.45971584 -0.66436267 -0.14515045 -0.3876596 -1.0343645 0.15822457 1.1669441 -0.13035657 0.80176914 -0.18978043 -0.26029372 -0.20648102 0.018989684 0.27475142 -0.57461756 0.11184462 0.124245346 -0.15928933 -0.07438569 0.9037335 0.0961249 0.67481804 0.31510404 0.25788262 -0.44781765 -0.64314693 0.6836989 -0.111591086 -0.15629299 0.7338492 -0.2341064
604 -0.30616367 0.37809786 0.6915166 -0.06995672 0.47780326 0.33255008 -0.3568346 -0.47549632 -0.9062973 -0.4000929 0.11107823 -0.08605654 -0.03927222 -0.11120551 -0.9002957 -0.20909004 0.59149045 0.7035199 0.4377849 -0.52299064 0.13192792 -0.94164217 0.83333594 -0.28650975 -0.08479804 -0.33409482 -0.315271 0.08617899 -0.29270637 -0.115303725 0.2856176 -0.4517516 -0.39492843 -0.057731394 0.5334214 0.3219676 -1.1716336 -0.02785246 0.507503 -0.541543 -0.4705539 0.38299385 0.4399244 0.03184714 -0.36170992 -0.8472256 0.50624245 -0.5741088 0.1884547 0.59171474 -0.239268 -1.0378199 -0.46561542 1.0035475 0.23174123 0.51760143 0.17895223 0.24738814 -0.59778947 -0.08773885 -1.1708378 0.28664795 0.33912134 -0.9531368 0.3202267 0.39639428 0.08103128 -0.22008018 -0.7482681 0.3680338 0.3146267 -0.27097285 -0.9047998 0.40981403 -0.41409367 0.8314908 0.27735078 0.8710813 0.36566362 0.92136353 0.027000202 -0.69401795 -0.16009331 0.13452314 -0.10993274 0.27344608 0.10768574 0.002069658 -0.32148102 -0.84716195 -0.033125527 0.27068797 0.5567585 0.7108 0.22747615 0.09862548 -0.22575715 0.94613105 0.431733 0.22529845
50 -0.63499516 0.64813685 -0.71608394 -0.019130433 0.39591888 0.35560814 -0.9565339 0.12969635 -0.14293392 0.0066802534 1.0371352 -0.58711725 -0.35218352 -0.25913846 -1.1594075 -0.047788177 0.04058289 0.090833455 0.7102875 0.051196534 0.21881224 -0.16385694 1.2914338 -0.780749 0.9699866 -0.3197932 -0.65703124 -0.0017956044 -0.8434356 0.70740724 -0.001308967 -1.1391425 -0.25867018 -1.0382093 -0.73488426 0.57757026 -0.77391326 -0.028586596 0.5476262 0.032782786 -1.1708905 -0.5384504 0.40980458 0.22350472 -1.431603 -0.7299303 0.5021421 -1.2191105 0.9332438 -0.059939146 -1.1263576 -0.52673995 -0.17787068 0.3285217 -0.6508856 0.07948416 0.25517195 0.15355279 0.34026694 0.7988619 -1.241938 -0.31173256 -0.23766483 -0.5715054 -0.12113412 0.5390985 0.63664854 0.2994709 0.48394853 -0.44211537 -0.6473656 -0.1512154 -0.38931072 -1.0722675 0.08864423 1.1717235 -0.0858149 0.80195314 -0.18197201 -0.28811017 -0.18130983 0.093454786 0.3108929 -0.54090303 0.12799603 0.14448097 -0.2027589 -0.017690778 0.8588209 0.1342244 0.7462713 0.38904107 0.24687918 -0.3847703 -0.7252499 0.7510489 -0.17142045 -0.104120225 0.83547103 -0.22572687
19 -0.24445489 -0.41890293 -0.09734419 0.22711323 -0.2061431 0.26911867 0.78816706 -0.35808286 0.13630465 -0.69383997 0.50019747 0.38519225 -0.26248738 0.24249727 0.002589813 -0.10994587 -0.12017952 -0.19221027 0.23026453 -0.3514704 0.59785265 -0.1719768 0.8244642 0.09193848 0.874062 -0.39862055 0.063818656 0.22856233 -0.56740695 -0.25828445 -0.5125164 -0.2547941 -1.0754609 -0.41539997 -0.07135982 -0.2556261 -0.26178133 -0.028719405 0.31699827 -0.25881717 -0.113499805 0.11555071 -0.32745004 -0.085840926 -0.49558958 -0.17235732 0.07145502 -0.1948199 0.4170091 -0.41253623 -0.015972503 -0.010800997 -0.18390095 0.9980996 -0.41960064 0.56228244 0.18438816 -0.40717754 0.41200304 -0.4428332 -0.30487624 -0.040371697 0.14286032 -0.29923493 0.39332908 0.21614975 0.16768897 0.118132554 0.0895771 0.40475577 -0.19113466 -0.073580936 0.57609195 -0.49643564 0.07814511 0.21972506 0.037943393 0.2735717 -0.07515796 0.09219994 0.7496083 -0.115162596 -0.07742858 0.27275544 -0.14001794 0.0031648376 0.24902748 -0.12573196 -0.49412316 -0.27836663 0.46679023 -0.38031295 0.09744604 0.55620104 0.16056165 -0.18481833 -0.15530574 0.83465093 0.22363381 0.20177041
246 0.5146285 0.06466673 0.3166817 0.6553819 -0.26166055 0.04555241 0.43873397 0.3564274 0.41660744 -0.58982307 -0.44655862 -0.24762362 0.32884184 0.20073949 0.31954688 -0.10191618 -0.083033 0.031779315 0.19555551 -0.40744635 1.2339642 -0.6263293 0.13745414 -0.16272368 -0.034549635 0.29258618 -0.26813537 -0.453351 -0.136377 -0.067766696 0.63016087 0.1374855 -0.103753954 0.05840763 -0.58957565 0.3757452 -0.6508271 -0.28967732 0.43011412 0.15305825 -0.1607379 -0.2273217 -0.21868356 0.15001106 -0.08134471 0.08812708 0.8148565 0.45045438 0.642629 0.07335355 -0.04760244 -0.17765884 0.022959495 0.55540127 -0.098689966 -0.13638648 0.57968616 -0.37991497 -0.24467577 0.12045455 -0.30250862 0.048876535 0.17918812 0.21599342 -0.89394116 -0.69062954 0.10682999 0.67263013 -0.5888852 0.25869605 -0.28955403 -0.2781771 0.38132286 -0.80145186 0.7080067 0.1768382 0.047086537 0.68388724 -0.017227914 0.5533508 -0.5482434 -0.5085202 -0.00494654 0.4845112 0.0805039 -0.29423237 0.4838827 0.1816057 -0.061164528 0.64280564 0.719323 0.26914304 -0.17442724 -0.24204646 -0.0071443985 0.28100857 0.058309913 0.21787515 0.058939952 0.6772807
92 0.29579166 -0.19817118 0.64801806 0.09086167 -0.016242335 -0.1929951 -0.21197288 -0.5018485 -0.8789566 -0.051153507 -0.40485275 -0.16160928 -0.8833767 0.4977434 -0.05846335 0.13667794 -0.024750827 0.49591586 -0.117286436 0.029219924 0.49248618 0.13851553 0.56786907 0.4409248 0.30398592 0.121108055 -0.5984498 -0.23420732 -0.34515405 -0.5681452 0.17712569 -0.3806324 -0.21845296 0.45295504 0.10480485 -0.041539174 -0.48155907 -0.013288037 -0.43230572 0.28432807 -0.3686037 0.046241097 -0.19853552 0.30659708 -0.41227785 -0.6330962 0.16623624 0.9299094 0.7617228 0.85931695 -0.08100811 0.010931512 -0.17722179 0.722798 -0.84605104 0.6090683 -0.86832404 -0.13807936 0.05792993 0.112838656 -0.60963947 1.0574465 -0.06961975 -0.94209915 -0.3934713 0.12511055 0.6332208 -0.3203248 0.06911408 0.3903966 -0.5219306 -0.2334952 0.19893526 -0.31543145 -0.45444202 0.43579295 0.4975826 0.27803898 -0.64665234 0.43487614 -0.741806 -0.3437518 -0.037877146 -0.2995481 -0.31405523 0.07454883 0.1788064 0.029346548 0.0073988903 0.2558758 0.15974227 -0.121740155 -0.057966422 -0.01117117 -0.33829018 -0.13357946 0.32115322 0.71783835 -0.01677884 1.0214916
313 0.0057128845 0.25344 0.20423967 -0.1867535 0.2823343 0.18918982 -0.118757956 0.050702777 -0.9970728 0.6327035 0.59409183 -0.17989746 0.77291805 -0.5145899 -0.07938648 0.6546173 0.16856566 0.23265961 0.5231439 -1.0152948 0.39389113 -0.30605736 0.5186773 -0.19856101 0.8531578 0.033153787 -0.72667086 -0.17336215 0.49062154 -0.38570368 0.14119206 -0.51088846 -0.01738989 -0.84718126 -0.33685735 0.703256 -0.2888139 -0.26782706 0.091230765 0.62909436 0.24904367 0.07844675 -0.5391185 -0.43135273 0.1482459 -0.96523464 -0.23853828 0.22885 -0.39853567 -0.07568551 -0.65868485 -0.09757677 -0.30902696 0.94258183 -0.5883824 -0.0039634174 0.7270039 0.7290659 -0.16265714 -0.17164041 0.0706782 0.24901327 -0.039870914 0.113985136 -0.08623253 0.29567027 -0.112251334 0.6035096 0.22147435 -0.037925877 -0.44979322 0.041553445 0.4780316 -0.7263096 -0.6226374 -0.22108002 -0.21798794 0.38689995 0.49196944 0.14185834 -0.23912603 -0.045487713 -0.4438402 0.24572483 -0.5523034 -0.46595934 0.9439568 0.59310526 0.52211696 -0.03156896 -0.06151466 1.2572973 -0.14255264 0.13074684 0.05645584 -0.19708425 -0.5384955 0.41618747 0.09178686 0.24884413
9 0.07983461 0.17795047 0.15139951 -0.24801514 0.44386876 0.1884892 -0.2413148 0.033123948 -0.984307 0.6389432 0.57977116 -0.04465869 0.7865096 -0.49927124 0.05585957 0.6216534 0.22948037 0.23195489 0.67347264 -1.0289023 0.37229 -0.1828013 0.5507677 -0.05065879 0.8452032 0.19708133 -0.8048834 -0.16148525 0.39369756 -0.43552047 0.1382703 -0.45929638 0.04137569 -0.9536537 -0.25046203 0.5710683 -0.42382535 -0.37705162 0.113130964 0.5935383 0.26228333 -0.009671329 -0.56279063 -0.4546253 0.07734 -1.0374465 -0.2657917 0.21625032 -0.38880512 -0.057604883 -0.82045907 -0.0218686 -0.19461751 0.9445139 -0.48666015 0.052749187 0.73779374 0.6594629 -0.14616068 -0.10989172 0.03702063 0.2761763 -0.08458785 0.2816161 -0.055981927 0.43907893 -0.19934401 0.5983956 0.20731337 0.044169478 -0.4962982 0.0603332 0.39387643 -0.84210604 -0.6246583 -0.22147049 -0.1899779 0.4193617 0.558276 0.1506789 -0.3391135 -0.09986286 -0.450066 0.18452917 -0.39664736 -0.43240124 0.9407432 0.7606028 0.4405832 0.014684677 -0.13651337 1.2983463 0.024690488 0.18830389 0.10145759 -0.23014846 -0.53059804 0.50539166 0.0781899 0.31782797
244 0.5163791 0.11365879 0.2994468 0.66198885 -0.30498296 0.0548815 0.43109787 0.3650876 0.40405458 -0.608957 -0.43609154 -0.23728736 0.34233582 0.25688326 0.3552766 -0.09938843 -0.16402756 0.028945277 0.17441882 -0.36434376 1.2425768 -0.631941 0.120295644 -0.20011406 -0.031247405 0.323356 -0.29301813 -0.57254237 -0.08923979 -0.13430203 0.66853845 0.08803196 -0.11243113 0.06915962 -0.5685279 0.42589247 -0.69748825 -0.3114245 0.4346308 0.17122693 -0.15542977 -0.19512409 -0.23039648 0.17821607 -0.06881414 0.124305256 0.7788476 0.47037086 0.69050276 0.12078688 -0.09013661 -0.21707124 -0.022064466 0.5861363 -0.1162447 -0.14286374 0.47945368 -0.4059837 -0.2927957 0.1157855 -0.28069094 0.040803883 0.25567353 0.21176626 -0.9530524 -0.7163784 0.070794344 0.7096654 -0.5681341 0.3371241 -0.24778374 -0.34401184 0.3942358 -0.7895178 0.6630733 0.06946262 -0.008805555 0.6761544 -0.003115805 0.5460391 -0.5952542 -0.53503597 -0.06045871 0.5243811 0.10869926 -0.3240791 0.48923698 0.1942841 -0.08527521 0.58588284 0.6585555 0.25365102 -0.16822235 -0.16433583 -0.011045622 0.272719 0.02790297 0.3051682 0.06862433 0.69145304
463 -0.04890325 0.12762082 0.3293698 0.4863686 0.0839504 -0.124613166 0.71948683 0.110953644 0.30059743 -0.5366507 -0.04402388 -0.33004645 0.45080584 0.14749289 0.63244116 0.44721323 0.15654062 0.06270833 -0.1342619 -0.45950815 0.627542 -0.7591344 0.010572845 0.20286024 0.028537827 0.4494554 -0.33531722 0.06820329 -0.059295468 -0.21339099 0.0031199781 0.031259302 0.038972817 0.10565119 -0.6768502 0.40383083 -0.66356 0.021959022 0.050439417 0.21241863 -0.4463073 -0.14153859 0.011287502 -0.36607817 -0.046129514 -0.021006392 0.83355594 0.13599081 0.63998127 0.013042367 -0.2170081 0.061596442 -0.35447752 0.47070375 0.029658366 0.10673138 -0.20053495 -0.22807138 -0.30419 -0.016867513 -0.30584848 0.7011584 0.043973703 0.2921145 -0.040217604 -0.24242198 -0.32518694 0.4116708 -0.29357865 -0.11241032 -0.29805773 -0.44520396 0.19105639 -0.66889995 0.021860162 -0.18749121 0.08400268 0.24264596 -0.17520827 0.05002535 -0.26421195 -0.54729575 -0.13602199 0.57869214 -0.054806832 -0.0038405107 0.12144492 -0.22599219 0.06024986 0.1930743 0.09137559 0.38286474 0.1540025 0.13182935 0.077517696 0.08006268 -0.14369468 -0.05727786 -0.38048005 -0.19768523
372 -0.47358298 -0.645089 -0.17202502 -0.45614204 0.118275344 1.2105379 0.7048182 0.04085463 -0.20986837 -0.3684188 -0.26265535 -0.73026276 0.34612674 0.11717525 -0.149343 0.22379626 -0.17777164 -0.06990125 0.06372508 -0.47132474 1.058224 -0.7071537 0.17312025 0.42713323 0.118923955 -0.20640525 -0.49122474 0.3823627 0.07582039 1.3761826 0.18810979 -0.29799843 -0.200234 -0.5802454 -0.30737177 0.38295573 -0.16152678 -0.20099932 0.2550759 -0.707557 -0.35768977 -0.31722593 0.21054815 0.3286205 0.25232294 -0.49647602 -0.20328218 1.1093345 -0.13747999 0.10766919 -0.07865039 0.521051 -1.011184 0.26733315 -0.75849116 -0.22191818 0.17483206 0.37703338 -0.10401914 0.6314968 0.2692141 0.40006116 -0.416415 -0.66362923 -0.49142408 -0.49133354 0.05290637 -0.3058577 0.0053967363 0.5833407 0.013977315 0.19375174 -0.29464123 -0.04014634 0.532503 -0.35151076 -0.017692171 1.132733 0.19286971 0.8119231 -0.21373966 -0.39295843 -0.7209129 -0.7817579 -0.10379747 -0.5356587 0.1774218 1.1081641 -0.072416626 -0.45958456 -0.73238 0.5685697 0.31936935 0.19177848 0.42696932 0.117654145 0.02202564 -0.101672016 0.23736069 -0.41299036
556 0.17220506 0.046526477 0.45434976 0.23261352 -0.04093552 0.013253424 0.68925667 0.14587374 0.4295081 -0.62787735 -0.07685003 -0.3205999 0.20917416 0.23761332 0.49367744 0.33342898 -0.13579702 -0.033509232 0.15616912 -0.30252272 0.7039359 -0.4043612 -0.06611537 0.58580285 -0.17566866 0.30654806 -0.43085405 0.12108546 -0.26024023 0.02790872 0.07538912 -0.05860768 0.017705183 0.29818836 -0.8488938 0.45668972 -0.44638443 -0.11382413 0.15268143 -0.052219566 -0.24365498 -0.28296527 0.047453787 -0.24098685 -0.11567373 -0.101891026 0.6440242 0.31293494 0.6269083 0.11998073 -0.2662067 0.17225891 -0.26102856 0.6379527 0.023881232 0.07319667 -0.005275114 -0.14094597 -0.088248335 -0.055628486 -0.3126525 0.9764542 0.17137963 0.12794834 -0.091784336 -0.03130725 -0.5639958 0.21941797 -0.41361213 0.0421337 -0.2277738 -0.44899875 0.40102232 -0.55518883 0.07587503 -0.25382432 0.15424123 0.42035922 -0.11797496 0.30821323 -0.25315833 -0.41482162 -0.16544041 0.68215346 -0.07996036 -0.028148955 0.44041824 -0.19438696 -0.018520227 -0.023748133 0.32351935 0.332938 0.10303397 0.12807573 0.33767983 0.0981366 -0.08198033 0.08800819 -0.49160114 -0.21409982
139 -0.5041211 -0.74438316 -0.16130336 -0.4877998 0.07382795 1.1966555 0.66938215 -0.0047908537 -0.20351325 -0.33175543 -0.23574436 -0.74563575 0.3498695 0.09770533 -0.22707728 0.20446163 -0.12566137 -0.09139535 0.087681636 -0.51896477 0.9617064 -0.65741515 0.20237914 0.45705938 0.09763793 -0.16379862 -0.42054614 0.41120678 0.094865814 1.4164786 0.22277883 -0.29044223 -0.23756355 -0.55705374 -0.3717637 0.4174394 -0.18149823 -0.21210322 0.18021668 -0.7093113 -0.2945335 -0.3600876 0.13445708 0.270284 0.24923925 -0.54430896 -0.2195757 1.1433302 -0.119081415 0.14938198 -0.12763362 0.5159941 -1.0006487 0.2147411 -0.7800432 -0.23117831 0.18975228 0.37591088 -0.09879099 0.65472656 0.23067704 0.3996664 -0.4377685 -0.7397048 -0.45047346 -0.49995428 0.003251771 -0.32675022 0.02274562 0.5549549 -0.028422108 0.22289693 -0.2641332 -0.0029094105 0.57104576 -0.42439795 -0.05674748 1.1192431 0.22293763 0.85026187 -0.2954202 -0.43793842 -0.72674435 -0.77946126 -0.10328765 -0.505016 0.24405433 1.0330971 -0.05230369 -0.41596833 -0.706383 0.5317154 0.3628316 0.116746716 0.43201703 0.07726002 0.0020063824 -0.07567438 0.25150928 -0.4392447
57 -0.9057112 0.10421724 0.0753606 0.18686472 0.67212874 -0.27851814 0.49784485 -0.64872724 0.30398077 0.64592886 -0.3119186 -1.0609705 0.31671792 -0.032665726 -0.08001394 0.21139494 0.08875114 -0.20507568 -0.17204542 -0.31931403 -0.17343967 -0.1088899 0.142467 0.6743324 0.4965691 -0.2591784 -0.85856915 -0.41436803 0.3759549 0.57853234 0.2969803 0.45849153 -0.04018027 -0.79340696 -0.033673637 0.14638437 -0.032352775 0.39133006 0.47779498 0.14357318 0.10670255 0.35358745 -0.10297236 -0.06145642 -0.3965677 0.17807692 0.8425551 -0.029868074 0.3855276 0.25580084 0.5654134 -0.08738052 -0.1425849 0.16119015 0.06637141 0.48888347 -0.20829946 -0.3466894 0.18020833 -0.06112177 -0.5659745 0.7419564 -0.23808214 0.14679997 -0.88401747 -0.43350554 0.1785384 -0.22211859 -0.16252182 0.18989289 -0.17498788 0.28015655 0.007997115 -0.10515399 0.6246096 0.016888015 0.7451538 0.17224336 -0.5977622 0.07298923 -0.3795317 0.005918408 -0.47597322 -0.20924813 0.035073165 -0.0008539931 0.6180754 0.076559305 0.6977984 -0.13310581 0.7311916 -0.26114148 0.14619641 0.8693071 -0.4752214 -0.1443262 -0.044555288 0.44169775 -0.13522781 -0.44407338
0 -0.055717174 -0.020175401 0.18857372 0.2561657 -0.40029112 0.14311743 -0.11450673 -0.32172152 -0.57204795 -0.09587652 -0.11554187 -0.20700881 -1.1278389 0.16049838 -0.18571325 -0.20939569 -0.272545 -0.6151735 -0.76424295 0.32612315 0.06419234 -0.29135403 0.40137616 0.1778602 0.68467873 0.09227254 -0.34055024 -0.4733009 -0.7463783 0.1804309 0.63509023 0.0005527971 0.22827297 -0.1455957 -0.8444011 -0.15715334 -0.22261359 0.23307335 -0.13927333 -0.2993939 -0.45935383 -0.46708736 0.3561079 -0.03491594 -0.039920405 -0.314788 0.66300863 1.1309901 0.7009063 -0.057294797 0.2026023 0.4225006 -0.6346793 -0.1236958 -0.7247895 0.29887515 -0.4357076 0.3484776 -0.0689629 0.22332177 -0.88236415 0.763478 0.21811241 -0.60082424 -0.75892043 0.054019015 0.44693038 0.10519567 -0.06337596 0.10853214 -0.22954763 -0.31801248 -0.15210812 -0.5563007 -0.13298525 -0.29730368 -0.012719098 1.0666238 -0.7567003 0.8493899 -0.83428 0.28360462 -0.20601428 -0.46618527 -0.1206611 0.29189032 -0.22748543 0.080785215 -0.54585403 0.5127699 0.12483271 0.30747032 -0.07660339 -0.33989796 -0.45881298 -0.4019251 -0.16451032 0.8061005 0.35480824 0.7395687
232 -0.16929616 -0.011213823 0.1805649 0.27657992 -0.35843658 0.24561061 -0.16745743 -0.37790358 -0.5680971 -0.15037014 -0.11717945 -0.24929455 -1.0372206 0.18457676 -0.2274768 -0.19180101 -0.23391502 -0.66716415 -0.81960046 0.34571654 0.1117302 -0.24930821 0.40554583 0.15148473 0.65237874 0.15973358 -0.3132595 -0.4591036 -0.7083093 0.19991529 0.69482535 0.018234622 0.14512323 -0.16570446 -0.8699455 -0.1853612 -0.22104697 0.26234895 -0.16783679 -0.34480894 -0.46571553 -0.47879568 0.43376127 -0.04233009 -0.07097755 -0.35608515 0.6394094 1.1738093 0.7299735 -0.035807457 0.17869678 0.3771426 -0.54275066 -0.14783241 -0.6942935 0.26585916 -0.411652 0.36325267 0.043381568 0.24340753 -0.8881436 0.83078426 0.21250354 -0.66862595 -0.81220657 0.12989447 0.54987496 0.12596706 -0.026782133 0.058991127 -0.2243932 -0.32677728 -0.19043633 -0.54728204 -0.1311724 -0.31009313 0.039437722 1.0726814 -0.83449185 0.78380024 -0.8256311 0.20827796 -0.19906428 -0.49664208 -0.13916036 0.25272486 -0.24513906 0.05506232 -0.56621075 0.520541 0.06047004 0.3231487 -0.02871477 -0.32455733 -0.42972368 -0.36856025 -0.16018687 0.82446456 0.3347623 0.743446
132 -0.5992451 -0.45139632 -0.15257081 0.1542089 0.65002435 0.778413 0.20940648 0.14965375 -0.5532365 -0.024986811 0.012839525 0.11828305 -0.72383076 -0.2780868 0.23619346 -0.52337515 0.5076032 0.28149223 -0.25904107 0.25791672 0.013885157 -0.2673738 0.51360923 0.028769469 0.6647636 -0.36006913 -0.21190377 0.48493746 0.053756546 0.4151239 -0.09671694 -0.41313097 -0.49132743 -0.05711605 -0.529706 0.13652126 0.024672303 0.0024217481 0.36626083 -0.3904619 -0.23197572 0.049959928 0.5712759 -0.14937608 0.011685978 -0.24240558 -0.52564114 0.24650283 0.54095334 -0.25456864 0.3920154 -0.19801946 0.32703525 0.6227921 0.1674984 -0.325297 -0.03349449 0.1787025 0.19851725 0.09546408 -0.5115565 0.60291064 -0.34541872 -0.23050621 -0.08569281 0.14001207 0.01022006 0.6925838 0.009590508 0.37835893 -0.33025986 -0.074720174 -0.47177374 -0.24280065 -0.13207759 -0.2053806 0.017958675 -0.090088 0.08221109 0.32285798 -0.59497327 -0.23286267 0.19618586 0.42231962 -0.21201065 -0.81904614 -0.11456959 -0.2859813 -0.059926182 0.06608844 0.33117616 0.13108617 0.07838773 0.57433933 0.4240126 0.7613732 -0.44541577 -0.28107285 -0.14183079 -0.23976225
252 -1.0895247 -0.4972281 -0.49150017 -0.08443374 0.24761035 1.532281 -0.3307938 -0.24595965 0.29651746 0.23196182 0.08931806 -0.25373143 -0.373405 0.45818168 0.114170246 0.047416043 -0.574693 0.81169975 -0.9092765 0.4949103 -0.27690017 -0.12555754 -0.012460422 0.11431353 0.36728474 -0.31080544 -0.02180491 -0.64216006 -0.5005533 -0.037729856 0.18013032 0.4783971 0.22277342 0.19407243 -0.12943521 -0.035948996 -0.32626766 0.4444332 0.1562238 -0.72816634 -0.4451925 -0.28701618 0.824294 -1.1968209 0.29922748 -0.047875956 0.13672192 1.2917006 0.6389402 -0.62227535 0.2897421 0.28993702 -0.4864954 0.11812703 0.43662953 -0.27883667 -0.31832948 0.1144638 -0.48072746 -0.33372396 -0.4566914 -0.34929562 -0.20292275 -0.22238234 -0.0035398712 0.54009145 -0.42470694 -0.12168891 0.838941 -0.6954878 -0.51097465 0.082582325 0.22083785 -0.8039216 0.15686263 0.06438243 -1.0294272 0.22017838 -0.71345425 0.8081904 -0.47150332 -1.0723846 -0.087420866 1.2019421 -0.7963715 -0.34542844 1.07527 0.6186682 0.10063488 0.5882243 0.40036058 0.29047427 0.5328193 0.5995095 -0.9149565 0.55869424 0.76656944 0.39641902 0.7518247 0.24609695
151 -0.22855614 -0.83298063 -0.009027096 -0.15501 0.708298 0.21139222 0.32772484 0.025864843 -0.58100677 -0.03313467 -0.14834625 -0.042765733 -0.20684008 0.37457845 -0.009017831 -0.009546947 -0.07684095 -0.50171906 -0.49544427 -0.10261425 -0.316238 0.53445417 -0.6003148 -0.02293853 0.15535127 0.37833476 0.023733366 -0.12227203 0.0056038084 -0.47545642 -0.28349322 -0.50187016 -0.33051124 -0.30671224 0.054544058 1.5787365 0.3600554 -0.25841522 1.0116978 0.7326259 0.083970845 -0.5135263 -0.65784174 -0.45094112 0.32106718 0.18367137 0.008948802 1.0815971 0.28632697 -0.25841835 -0.09809594 -0.5431896 0.015270977 0.8059341 -0.12326413 -0.01455272 -0.66925025 -0.65405554 -0.29191807 -0.54961026 -1.0286244 -0.18865415 0.048029248 -0.09595386 -0.539202 -0.29908574 0.32869905 0.33202174 -0.30428997 -0.37410045 -0.9556779 0.00242497 0.81361943 -0.8923725 1.0068045 0.021505324 0.08188311 0.49178278 0.3358858 0.41274858 -0.3823382 -0.28677928 -0.03780677 0.80391353 -0.50903445 -0.35874188 0.09376423 0.63096285 -0.2041144 0.80840296 -0.32126573 0.71085644 0.53458846 0.1599992 0.08504762 0.1881486 0.6028038 0.30259648 0.2818439 0.8247951
386 -0.22090353 -0.8565442 0.0069865864 -0.1456306 0.6107038 0.34140575 0.0897196 0.030932412 -0.533207 0.098003015 -0.24826358 0.003254881 -0.16776498 0.61170673 0.0600278 -0.029524917 0.035464283 -0.3987326 -0.52969843 -0.16467673 -0.34605345 0.62955064 -0.6451172 -0.05410666 0.25373778 0.37776294 0.04018142 -0.23694308 -0.07135108 -0.37522784 -0.3905329 -0.497526 -0.33494484 -0.30809462 0.013468387 1.5244985 0.31736445 -0.113516726 0.92632246 0.7054491 0.14296131 -0.6161935 -0.64968234 -0.3176741 0.23721477 0.1950421 0.16274822 1.1517333 0.34661987 -0.31899902 -0.074751355 -0.61306036 -0.06447534 0.911833 -0.0844166 0.10645809 -0.6712447 -0.66589266 -0.32037684 -0.5908898 -0.9842906 -0.20921144 0.12483622 -0.04387422 -0.54015887 -0.18170121 0.5533142 0.4032886 -0.24239205 -0.34783393 -1.0042897 0.016848102 0.91079605 -0.8939974 1.0422634 -0.08299491 0.12784433 0.5507624 0.38544622 0.35838217 -0.41315266 -0.3067292 -0.08464571 0.89018893 -0.4692976 -0.27059317 0.15883254 0.7213861 -0.13572893 0.7900264 -0.314626 0.6570127 0.5849925 0.15277363 0.15881348 0.17614567 0.60360813 0.2575781 0.28239745 0.8567371
222 -1.1063915 -0.51930577 -0.47104922 -0.11202765 0.21405886 1.612053 -0.2877753 -0.2201453 0.28836888 0.26505163 0.10814473 -0.2513067 -0.36350006 0.47244674 0.12171047 0.097972505 -0.6173447 0.7639211 -0.89676964 0.47726253 -0.3183017 -0.15095498 -0.037417855 0.18767238 0.4705833 -0.34008923 0.007383694 -0.5826504 -0.60789824 -0.06607946 0.1847878 0.42873827 0.21404848 0.20390445 -0.20640542 -0.043391854 -0.22679241 0.4298442 0.10232945 -0.7195012 -0.39262035 -0.2828078 0.7811034 -1.264636 0.38628787 -0.07871422 0.15514329 1.3849517 0.65859646 -0.58552486 0.16445269 0.28218967 -0.51337886 0.09660894 0.45420238 -0.2954424 -0.32549313 0.09087014 -0.4832756 -0.31333178 -0.4598418 -0.4059796 -0.2868606 -0.22415298 0.06372352 0.51329374 -0.454685 -0.10355006 0.7968698 -0.70408905 -0.53929865 0.05085175 0.23209706 -0.80811274 0.21953738 0.012893243 -1.0236689 0.17688408 -0.7031103 0.8354069 -0.5203828 -1.0001018 -0.05409405 1.1447853 -0.78356725 -0.35013157 1.0789759 0.61476874 0.17630258 0.5563464 0.43988082 0.28188238 0.6095829 0.6784277 -0.8784156 0.55088705 0.7634774 0.43279833 0.75150186 0.27927798
479 -0.13263872 -0.001318771 0.35314113 0.595408 -0.2181691 -0.21464801 0.8345815 0.030070273 0.1289121 -0.4866178 0.054242466 -0.07975297 0.52824545 0.24805868 0.7564151 0.22659308 -0.06887164 -0.0153922215 -0.08364311 -0.5943575 0.5712349 -0.43858552 0.14631234 0.039069425 -0.13822576 0.32034886 -0.30226174 0.05423464 0.2543069 -0.0913011 0.057365682 0.018119447 -0.1020705 0.18815584 -0.4712602 0.30443293 -0.9375568 -0.06767825 -0.006599682 -0.058827724 -0.38170618 -0.2445985 0.11396391 -0.25144142 -0.039306697 0.018472701 0.8631096 0.30845574 0.6249624 0.27429366 -0.34072682 -0.058197334 -0.5233545 0.2472569 -0.068456955 0.4141707 -0.08464284 -0.095235474 -0.4607779 0.040881246 -0.054628804 0.5569937 0.35393503 0.048445646 0.030886093 -0.35138 -0.1747033 0.21279584 -0.18987991 -0.2442962 -0.5547203 -0.42138875 0.16101941 -0.44674802 -0.24458078 -0.08684586 0.022074267 -0.03884157 -0.26255092 -0.23429036 -0.3840297 -0.72338504 -0.08407496 -0.018619563 -0.04537008 -0.02183265 0.5149402 -0.16102996 0.016970346 0.061258785 -0.11061753 0.42683512 0.07893553 0.16984928 -0.07430978 0.30714256 -0.055737395 -0.18324304 -0.1701761 -0.111138396
467 -0.46444243 0.025507418 -0.3794586 0.3078542 0.8213391 -0.32255837 -0.113387115 -0.97965944 -0.482847 0.070945926 -0.2631369 -0.7204265 0.23936367 -0.08153533 0.11891097 -0.23573701 -0.022961948 -0.07775561 -0.2940355 -0.007531794 -0.347523 -0.36688977 0.42396158 0.39805177 0.08511052 -0.89808273 -1.0611669 -0.6264786 0.09426841 -0.2962511 -0.091864236 0.044700943 -0.5283049 0.31202227 0.5490401 0.062702395 -0.61093575 0.3411762 0.12201553 -0.33783057 0.20557834 0.19092643 -0.086359575 -0.444745 -0.34294054 -0.35703576 0.8297713 0.03201263 0.9990768 0.5137734 0.68489975 -0.61565626 -0.093970925 0.29592308 0.3034144 0.79404086 -0.12241528 -0.4078908 0.46817327 -0.07696057 -0.99868965 -0.13729097 -0.5553355 -0.766174 -0.043447267 -0.08742455 0.07729882 0.36103275 -0.13484061 -0.45726663 -0.17407809 -0.8732399 0.35658437 -0.043054093 0.23222975 -0.085286625 0.052953452 0.4242804 -0.79729724 0.25926372 0.055404108 -0.45141137 -0.3587909 0.05408545 0.12872916 0.13577333 0.067548 0.39703426 0.29360074 -0.014157913 0.14715742 -0.17682889 0.50510097 0.09896665 -0.36228424 -0.090769984 -0.23652016 0.35789305 -0.14311004 -0.37251255
480 -0.23757707 -0.40360653 -0.6320075 0.66157675 -0.02811584 0.14369015 -0.17897777 0.07689927 -0.38362187 -0.06061515 -0.1746426 0.15664929 0.33463582 -0.8006386 0.16952449 -0.14764734 0.6180975 0.057400554 -0.8308985 0.11808295 -0.19198743 0.33532333 0.71477145 -0.27592418 0.6917364 0.18457007 0.12703001 0.18630451 0.3442273 0.668331 0.14650655 -0.07727106 -0.41091093 0.2608836 -0.39886454 -0.091725804 -0.3692018 0.2407394 -0.20874386 -0.35528275 -0.652206 -0.38503337 -0.0606603 -0.015870055 -0.41531858 -0.13412258 -0.11422042 0.440979 0.25479043 -0.24969867 -0.14879112 0.010277287 -0.43820786 0.9073478 0.2524809 0.22269404 0.2925291 -0.13889948 0.11636281 -0.2373255 -0.6333157 0.343864 -0.511756 -0.61746114 -0.3852446 -0.26979673 -0.16934852 0.47884357 -0.40900496 0.11635368 0.016157972 -0.12449907 -0.37783167 -0.1821754 0.1816847 -0.2038257 -0.2965779 -0.037711095 -0.047043595 0.0019672571 -0.5070673 -0.27956372 -0.057057355 0.0076284544 0.22009492 -0.5527722 0.35878083 0.16704375 0.7381685 -0.20331301 0.7348702 -0.044840373 -0.2098384 0.55646724 -0.17985867 0.15199026 -0.5174837 -0.13653292 0.29891604 0.25873083
478 0.33413124 -0.40063223 0.016094737 -0.3040898 0.23203479 0.9144138 0.14458941 -0.34885165 -1.3484349 0.9100103 0.22840697 -0.24463382 0.70144 -0.41489413 0.073032565 0.08841302 -0.11362032 -0.2843218 -0.24809867 -0.74208766 -0.23212585 0.33464393 0.013996658 -0.040453613 0.3383844 0.1455536 -0.47337544 -0.32087922 0.48407042 -0.06464167 -0.13457663 -0.59046006 -0.14743762 -0.9264839 -0.10606302 0.58607954 -0.36211872 0.053481165 -0.083021246 -0.033150602 -0.18622288 0.7205203 -0.48852342 -0.25588274 0.43451282 0.18377325 -0.08421041 -0.111826636 0.3503044 0.15822397 -0.4083963 -0.1558913 -0.26259232 0.07993834 -0.5930766 0.44566408 0.46595746 0.4411489 -0.6236462 0.109911375 -0.42425317 0.04964247 -0.087258205 -0.26619965 -0.54728335 -0.36777452 0.30616516 -0.72336996 0.48625717 -0.36621884 -0.5124417 0.30793253 0.10200822 -0.8392064 -0.45738283 -0.39392313 -0.3908635 0.30162764 0.089055486 -0.2792632 -0.603223 0.44558546 0.16463375 0.38608626 -0.5354008 -0.6869986 0.9843553 0.43021533 0.25801075 0.32678333 0.34152725 0.71461946 -0.18133397 0.03834617 0.015175714 -0.21405819 -0.7166054 0.17543717 -0.22629097 0.058980275
14 -0.4601769 -0.054092508 -0.55058855 0.28218368 0.13343048 0.26304647 0.39384973 -0.13892125 0.37740824 0.56736255 -0.15142158 0.5071415 0.5553925 -0.5601433 -0.59740055 0.52707875 -0.79348254 -0.15542759 -0.58365446 -1.1177809 0.5198642 0.16252781 -0.18773377 0.3132131 0.73462754 -0.17797874 0.10255874 -0.3613791 -0.15280119 -0.1424468 0.16637501 0.4532234 -0.18089981 -0.821808 0.19747302 0.24840303 0.03844948 0.34116298 -0.067733645 0.29617468 -0.74329966 -0.1434967 -0.2843562 -0.22197333 -0.3694643 0.19911589 0.18628265 0.12368737 0.34609592 0.48278007 0.120960526 0.45362362 -0.5653532 0.22707678 -0.2513219 0.3485731 0.43324944 -0.19273314 -0.21185163 0.013364501 -0.68617433 0.5512028 0.515701 -0.20012185 0.0460463 0.27120346 -0.022301108 -0.033818524 -0.36009783 -0.076308064 0.20036216 0.26639667 0.19961764 -0.0019975975 0.008998346 0.04386318 0.8582122 0.6788844 0.027278492 -0.2059445 -0.72511506 0.088465914 -0.22911522 0.32095683 -0.47162434 -0.6606773 -0.011944564 0.20818016 0.27484342 0.22838674 -0.3360777 0.13012564 -0.14103124 -0.5611314 -0.108141564 0.2457502 0.108119406 -0.59883183 0.092454076 0.5408097
562 0.33517668 -0.42069754 0.03125616 -0.31219795 0.21597317 1.0299758 0.17447807 -0.42923117 -1.4014813 0.9298631 0.23574902 -0.20245618 0.74034095 -0.42091513 0.04518163 0.10227744 -0.13238382 -0.27360803 -0.21554512 -0.7490379 -0.20610037 0.32965273 0.037042983 -0.054805685 0.3342169 0.16253974 -0.5290725 -0.329874 0.44129336 -0.015383471 -0.10537973 -0.57928187 -0.17688869 -0.8754908 -0.13120686 0.5886134 -0.37800977 0.009635821 -0.056165244 -0.042851225 -0.14116785 0.80345374 -0.49900848 -0.23900793 0.42688563 0.19212925 -0.06549205 -0.16422723 0.29485294 0.0834481 -0.3752461 -0.19557843 -0.24478365 0.107651435 -0.6715953 0.45561752 0.43175912 0.4190277 -0.67068595 0.15768845 -0.48755816 0.066121124 -0.059786875 -0.2970751 -0.562329 -0.32194248 0.26204368 -0.7646018 0.4506308 -0.3502632 -0.49479562 0.32688874 0.03207257 -0.79742527 -0.44357756 -0.38768882 -0.41166696 0.32186723 0.10535478 -0.28578633 -0.58326375 0.488417 0.112923525 0.41567087 -0.5029041 -0.7074339 0.96907336 0.40669316 0.23831996 0.3570121 0.34351146 0.715276 -0.20937885 0.010662802 -0.002350143 -0.20645201 -0.75910926 0.14017497 -0.26495358 0.050787278
477 -0.29793873 -1.0674571 0.47714537 -0.5386211 0.43884128 -0.27901533 -0.23469205 -0.33377978 -0.4971539 -0.019898342 -0.118676744 -0.25758383 -0.28132167 0.59206223 -0.07608745 0.35902405 0.04140084 -0.40909472 0.008216691 -0.33595154 -0.49751952 0.41432396 -0.0545872 0.3579512 0.25376064 0.84376824 -0.45688713 0.52956885 -0.072363846 0.09617485 -0.35139662 -0.3199218 -0.06798876 -0.146876 -0.38389283 1.2952614 0.1657067 0.19966438 0.5793609 -0.0047947713 -0.31117353 -0.5049055 -0.07548213 0.5078901 0.5888495 0.26590312 -0.07764922 0.105582245 0.6568656 -0.3647422 -0.5164894 -0.06586163 -0.37182 0.97686934 -0.6031354 0.73167336 -0.7274719 -1.0570109 -0.82433206 -0.598677 -0.7209952 0.28643563 0.07438909 -0.22684869 -0.05546735 -0.38786685 0.35121268 -1.4497094 0.18884853 -0.3261465 -0.03312431 0.16384517 0.7864508 -0.6774985 0.10947715 0.41177002 -0.24211964 -0.029980589 -0.15632464 0.45165393 -0.35552108 -0.012582285 0.14104922 0.42929214 -0.5780052 -0.27391455 0.2215555 -0.115545206 -0.19499208 -0.19694005 0.15011472 0.46893743 0.1579978 0.28318268 0.09436355 0.11875794 -0.16378984 -0.28374666 0.2692863 0.7654474
326 0.27632853 -0.2615113 0.635856 0.13362703 0.022365939 -0.20451488 -0.22883314 -0.52235454 -0.9401045 -0.064597696 -0.38129425 -0.118667245 -0.8327105 0.48987055 -0.10864586 0.18649969 0.033214264 0.5214214 -0.11900679 0.019469311 0.51940924 0.03996429 0.5615214 0.39654243 0.2596389 0.19723788 -0.6317408 -0.18052398 -0.38076836 -0.6100547 0.25851524 -0.413265 -0.24192944 0.37596694 0.056496546 0.07427449 -0.47863942 0.021645369 -0.48662302 0.36054134 -0.37123492 0.03457904 -0.29947263 0.320966 -0.44475272 -0.65708965 0.10979121 0.9571941 0.76694715 0.8347402 -0.022024306 -0.043284006 -0.11278989 0.6601631 -0.8885208 0.5709724 -0.89552003 -0.22486411 0.06309806 0.0977416 -0.62429047 1.0562874 -0.07161807 -0.88444364 -0.3888676 0.2215419 0.5860138 -0.24765024 0.014547824 0.40995032 -0.44753796 -0.2906836 0.17452858 -0.2438346 -0.48164734 0.38785377 0.49007267 0.36799428 -0.6560734 0.49132684 -0.7677993 -0.3670523 -0.10210074 -0.32479402 -0.29223382 0.13052338 0.15339744 0.093077056 -0.0024051408 0.23566326 0.14194794 -0.11998512 -0.10955534 0.008653319 -0.33366358 -0.08968595 0.34510893 0.75295514 0.025745474 1.0073388
564 -0.2955162 -0.30591568 -0.5508101 0.56792253 -0.006512229 0.1603409 -0.17295323 0.053794235 -0.37576464 -0.07722851 -0.2011308 0.16423325 0.3565282 -0.8126813 0.056180384 -0.20726913 0.48392928 0.024344739 -0.78986275 0.12117965 -0.14728121 0.42031664 0.7576445 -0.08353349 0.6974014 0.07617379 0.1426882 0.35150123 0.43831658 0.7793533 0.16280945 -0.016749946 -0.42828447 0.25045893 -0.4472786 -0.07021045 -0.2458279 0.22382054 -0.33373895 -0.4278503 -0.5529531 -0.4518896 0.010395253 -0.23344277 -0.24825878 -0.19037224 -0.01581541 0.4826977 0.23703748 -0.23275132 -0.21537803 -0.0018648678 -0.4391349 0.8093449 0.14065784 0.23574379 0.28953955 -0.13847893 0.02558077 -0.26644075 -0.675643 0.43769118 -0.59584165 -0.43364066 -0.36036214 -0.19620018 -0.20041265 0.46045822 -0.35476506 0.18915504 0.040458657 -0.023811752 -0.23289838 -0.24285994 0.21351565 -0.28141612 -0.35979933 -0.084723756 -0.026369339 -0.04537188 -0.4678543 -0.26894012 -0.060322247 -0.025811164 0.24499047 -0.5605156 0.35214576 0.23577821 0.8227468 -0.32141957 0.7370392 -0.045202054 -0.13456176 0.7011058 -0.13003068 0.13910565 -0.41222894 -0.19533648 0.28997383 0.33209136
191 -0.35312667 -0.7670396 0.04446472 -0.658523 0.3960761 0.7343789 0.24649264 0.07081633 -0.014799403 -1.0287175 0.007425103 -0.7054129 -0.03937704 0.11655471 -0.047897685 0.020939184 0.2478318 1.3488309 -0.64622575 -0.28611875 -0.22577678 -0.088702716 0.11802345 0.19338638 0.2719352 0.8499253 -0.40800506 0.4604097 0.345555 -0.45408225 0.053188603 -1.0980221 0.69037575 -0.34992388 -0.2784941 0.66945374 -0.4242532 -0.026732253 0.019900162 0.12479067 -0.49905553 0.026418606 0.73272806 0.12876718 0.053597745 -0.21128279 -0.3126532 -0.45996326 0.023791062 0.25401172 0.14098048 0.20358768 -0.76690286 0.34224138 0.0116589945 0.57314396 -0.25476208 -0.18620229 0.16106905 0.59989446 0.8275972 -0.06074321 0.52177805 -0.23142423 0.36970726 -0.23368634 -0.34002203 -0.32336837 -0.29038718 0.87059146 -0.49877053 -0.0020652434 -0.18934272 -0.1547233 -0.4015995 0.9634666 -0.025360111 0.25429332 -0.20683913 0.20949318 -0.80062884 -0.62212205 0.6641085 0.10247221 0.021402495 -0.008959375 1.0581671 0.26950884 0.5532685 0.32765132 -0.5550123 0.72876304 -0.40734053 0.6651992 -0.8846236 0.11392988 -0.24897592 0.88905746 -0.33993062 0.2342044
297 -1.2378802 -1.1735964 -0.41620907 -0.27923074 -0.7292669 -0.75242096 0.045112852 0.051090106 -0.38486725 -0.5581077 -0.27375838 -0.4645385 -0.29710478 0.348434 0.070128135 0.5032 0.10404662 0.3568971 0.48302335 0.22608915 -0.30107492 0.23270835 0.6466426 -0.43930975 0.7848765 0.037918307 -1.0209942 -0.39668038 0.14540441 -0.37596327 0.28842315 -0.013407896 0.41406935 0.4296481 -0.54056156 0.3753286 -0.23965333 -0.10436379 0.68879426 0.14895602 -0.11097767 -0.06766001 0.30277672 0.07517299 -0.15567157 -0.44163334 0.6407024 -0.8401335 0.5969087 -0.67518795 -0.57096493 -0.07667382 -0.20981641 0.010886587 0.21062659 0.20947243 0.42694986 -0.18370296 0.21881597 0.5055011 -0.5306475 -0.05300372 -0.22177431 0.00236556 0.311434 -0.32709455 0.24679665 0.71895224 -0.5225302 -0.14764448 -0.41096365 0.53757656 -0.5948388 -0.5938294 0.5348605 0.18759808 0.027391726 0.5215851 -0.28853643 -0.22215973 0.41409925 0.39912888 0.74627435 0.36148527 -0.6874039 0.26705265 0.5522961 -0.06684258 0.48906222 -0.18270054 -0.53243303 0.95439595 -0.68205196 -0.019581228 -0.27038208 0.20438284 -0.3792546 -0.105694674 0.37340015 0.12996365
206 -0.6034863 -1.0342476 0.28495985 -0.3379218 0.40006387 0.41559574 -0.12323425 -0.49757197 0.16637804 0.40382755 0.42723855 -0.53824323 -0.1056289 0.37091845 0.1756479 0.38645503 -0.32543108 -0.5348938 -0.26463884 0.09780562 -0.9554117 0.3240748 0.5250509 0.7286796 1.1784748 0.4838484 -0.5879856 0.005637022 0.35742003 0.1753077 -0.44529408 -0.4377818 0.1813576 -0.2632019 -0.7799868 1.3167542 -0.023172744 -0.61453146 -0.65776044 0.032420576 0.51834375 -0.84473276 -0.41757202 -0.21661998 0.29625502 -0.31044972 0.19239049 0.20950986 -0.21822916 -0.3168215 -0.29193932 0.28332502 -0.9307288 0.6691453 0.083038405 0.20410147 -0.4887754 -0.35640663 -0.42049283 -0.41225025 -0.30575368 0.42479792 0.20098135 -0.14549631 0.45294794 -0.6560918 -0.021406312 -0.8018689 0.063423336 -0.3123145 -0.2671665 0.33946648 0.5784827 -1.1239538 0.037939005 0.73441666 0.06005165 -0.620667 0.18613051 0.28841388 -0.36528522 0.35938123 0.005817669 0.31403232 -0.09323932 0.11273735 0.4380232 -0.41507933 -0.20751865 0.040875763 -0.6037824 0.5945924 -0.115895316 -0.14619717 0.10563639 0.6318735 -0.41702944 -0.2703061 0.06276926 1.0839058
275 0.23573154 -1.1908333 -0.18378456 0.15646428 0.08643506 0.6775602 -0.05721316 -0.6545948 -0.04293489 -0.32397813 -0.5123226 -0.20505755 0.102631845 0.32410553 -0.25346693 -0.9719143 0.11518162 0.008335592 -0.1677098 0.3953874 0.6973297 -0.5962753 0.24732417 0.21753688 1.0750467 -0.5317883 -1.1583947 -0.15922797 0.05818326 -0.527481 0.42072394 0.010077697 0.64933306 -0.24772711 0.33526644 1.4964586 -0.50087357 0.4175843 0.6953229 -0.5733257 0.12683006 0.5564965 0.38721102 0.59725416 -0.15609404 0.6612409 -0.43054754 0.6716074 0.57225066 -0.062371243 -0.11106713 -0.07942476 0.18117863 0.58944446 -0.37216136 0.5581011 0.45064384 0.05872999 -0.18897827 0.3414259 -0.39091983 0.100141846 -0.32782784 0.004341418 -0.19117047 0.25907424 -0.8327399 0.7735209 0.59182376 0.3262994 0.35047784 1.1088042 0.07292132 0.014448572 0.36474475 0.47508773 -0.45610562 0.8507766 -0.17732833 0.83016187 -0.07592066 -0.033791665 0.6711514 -0.08871601 -0.3664048 -0.20024015 -0.33254492 0.7124072 0.8114498 0.77835274 0.5327255 -0.33970279 -0.28137848 -0.708332 -0.34615773 0.6454949 0.3828649 -0.020368095 -0.04418956 -0.23373142
514 0.13374424 -0.91644 0.11253993 0.20185311 0.3295163 0.7073055 0.7036629 -0.52909935 0.8762817 0.58796483 -0.74472606 -0.35192162 0.023863198 0.058292136 -0.026633492 -0.23016998 0.23922186 0.29484347 0.41080034 -0.10641258 -0.16678007 -0.2006811 0.2153096 0.6766846 0.7432079 -0.19647045 -1.2842087 0.14160733 0.9588755 -0.10872461 -0.352056 0.016103538 -0.13400508 -0.55774325 -0.97447276 0.26063925 0.5605634 -0.5916158 0.39826587 -0.38765758 -0.59074056 -0.1782599 0.26429287 -0.29192457 0.1331576 -0.57763654 0.022375032 -0.32469293 0.67153674 -0.6247782 -0.21336666 -0.18122032 -0.5805415 0.09239135 0.8025806 0.4576039 0.15854754 -0.42390305 -0.5972153 0.40819195 -0.2675702 -0.31861308 0.6862844 -0.886769 -0.63433415 -0.21389009 -0.62424475 0.5612802 0.77378994 0.3571558 -0.2978874 0.31892073 0.13919573 0.6084087 0.5712039 0.48269504 0.06677295 -0.13819176 -0.45515758 0.05683942 0.9356907 0.65011 0.4096877 0.0042856876 -0.05799127 -0.3669611 0.0087788375 0.002322186 0.078719504 -0.22308896 -0.29421514 0.09713621 -0.48415205 0.46479678 0.24965103 0.46026978 0.35451 0.14690265 0.18625301 0.084304355
310 -0.2835557 0.3922618 0.4560876 -0.06833745 0.6662346 0.5334077 -0.8298594 -0.2657032 -0.19256295 -0.0011416918 -0.31185177 -0.44625196 -0.72470564 0.5152656 -0.35544962 0.7237234 -0.21234024 0.17421214 0.5626575 -0.10751233 -0.4225949 -0.08982728 -0.49482405 0.28003016 0.31346864 0.3600256 -0.27846384 -0.278777 0.78093845 -0.06279109 -0.018952904 0.13216396 -0.9989834 -0.42360348 0.1407449 0.69739956 -0.3033489 -0.091283925 -0.27350837 -0.38890228 -0.7408442 0.08932006 0.04214614 -0.25291157 -0.21672255 -0.54453564 -0.54638344 -0.16197428 0.28906694 0.42200845 0.035526186 -0.80716324 -0.26983327 1.2994188 -0.07385321 1.1589528 -0.026831849 -0.0027421797 -1.0844452 0.25310856 -0.8151479 -0.08309533 0.11087386 -1.2810438 -0.2231946 0.16076674 -0.40422484 0.06777253 -0.286907 -0.12952648 -0.046846148 0.37212306 -0.6215849 -0.19274819 -0.057339996 1.2895678 0.6374469 0.2529876 -0.11349816 0.37391305 0.7419116 -0.097045735 0.71761495 0.4029619 -0.19194992 0.43169218 0.5293845 0.27301976 -0.24469355 0.28384313 0.12772933 0.22546759 0.7354024 0.81875646 0.32260132 -0.04695953 0.58124214 -0.25408915 0.09111185 -0.26905105
311 -0.30847952 0.45966932 0.38834056 -0.069606505 0.49062487 0.52020067 -0.87534046 -0.29513365 -0.20856911 0.0768937 -0.28983063 -0.4357678 -0.7946717 0.56278497 -0.35514525 0.735599 -0.24006386 0.14910927 0.6143107 -0.08949194 -0.48754266 -0.16919662 -0.5411127 0.2954125 0.3409143 0.34371507 -0.32412624 -0.24708915 0.910459 -0.03516549 -0.13142489 0.17963687 -1.0034639 -0.3894681 0.1391525 0.6352573 -0.29558843 -0.027280333 -0.23104905 -0.40254682 -0.69071096 0.09433296 0.08328796 -0.14887525 -0.24406461 -0.4854093 -0.60443234 -0.14439487 0.25895545 0.40171432 0.060932633 -0.7891787 -0.26938793 1.2301387 -0.07597582 1.118774 -0.06042429 -0.053783536 -1.1392224 0.28601888 -0.778376 -0.111598276 0.13337237 -1.3604671 -0.16906159 0.12578489 -0.42426708 0.03443439 -0.322546 -0.061492704 -0.028557653 0.420155 -0.574289 -0.26245442 0.02018623 1.3460963 0.45763037 0.23763725 -0.16666779 0.39069766 0.7077406 -0.0748941 0.71152973 0.3238467 -0.24780911 0.3198054 0.5274669 0.25564817 -0.2673935 0.29620197 0.11069576 0.2923335 0.7506235 0.790928 0.30968687 -0.012376056 0.54815525 -0.3095759 0.10887222 -0.2532948
568 -1.1281312 -1.1425908 -1.0121024 0.3687911 0.797656 0.008116684 0.09835022 -0.9501436 0.519967 -0.3563184 0.5259211 -0.40060267 0.19647735 0.24826702 0.37931412 0.25939512 0.18608335 0.21164493 0.5949158 1.3561783 0.18964525 0.6269275 -0.2883562 0.38383302 0.236773 -1.3202423 -0.15996179 1.1591284 0.54084873 0.395315 0.20724481 1.2415011 -1.0405326 -0.92514336 0.21041611 0.36625293 -0.248959 -0.03775167 -0.45916927 -0.053831436 -0.42778027 -0.50166476 -0.4175014 -0.020157622 -0.34085414 -0.4766099 0.59138936 0.2982868 0.4821162 -0.6171831 -0.0573227 1.0051373 -0.973252 1.0067704 -0.51941496 1.368243 -0.018265545 -0.50126827 0.27935457 0.11015087 -0.71317494 0.17311186 0.41775727 0.26561487 0.22051346 0.5582289 -0.58740777 1.1094812 0.109475285 0.4255714 0.5254551 -0.08876886 0.45998356 0.5342525 -0.20394498 0.23713426 0.85971004 -0.21935435 -0.26960552 0.50504154 0.009057188 -0.80034584 -0.53538656 1.3762772 -0.40172437 -0.15615031 0.29180977 0.07714989 -0.031662166 1.0072281 -0.34839362 -0.03471202 0.7119469 0.29980245 -0.91836137 1.229981 0.17106414 0.85316956 -0.5820237 0.3056543
277 -1.1604514 -1.1781918 -1.0738618 0.33412778 0.8670422 -0.086848214 0.07027555 -0.9326557 0.5355557 -0.35626233 0.5183024 -0.36468527 0.1392267 0.2618478 0.44261616 0.39140394 0.1786766 0.26141307 0.551802 1.3299648 0.23888119 0.5316202 -0.33835903 0.3526277 0.2303267 -1.294997 -0.20280641 1.119398 0.55997974 0.3921861 0.085245214 1.162766 -1.1279796 -0.9368385 0.22588347 0.5062657 -0.28720385 -0.095118895 -0.51465887 -0.120163746 -0.3858437 -0.50328034 -0.46576712 0.017279014 -0.30684167 -0.490255 0.5499677 0.34737787 0.46244803 -0.60825676 -0.06905863 1.063522 -1.0226582 0.99911433 -0.52712697 1.316328 -0.09956464 -0.3845669 0.29535142 0.11998879 -0.68185663 0.20249179 0.43333155 0.21380532 0.21562608 0.58043486 -0.6469586 1.1779948 0.12086297 0.46236625 0.56351364 -0.07565868 0.40638003 0.4412163 -0.21971662 0.22571963 0.79765534 -0.28962997 -0.337593 0.4685169 0.06073075 -0.80030024 -0.5143217 1.3865231 -0.3988615 -0.17967674 0.23246892 0.04530132 0.062804736 1.0139437 -0.43325055 -0.032452274 0.7274248 0.291395 -0.88644415 1.1068178 0.17433965 0.7821677 -0.50960726 0.4029363
159 -0.6429073 -0.8566128 -0.5636538 0.73546845 1.0562412 0.020029075 0.22547056 -0.8254383 0.56861025 -0.057170715 0.640227 -0.15472044 -0.20384109 -0.4967461 0.34616846 -0.044447996 0.44873902 0.6174007 -0.3613123 1.0587916 0.80140054 0.015317024 0.04889376 0.38610092 0.72123003 -1.0802141 -0.5465405 0.6954297 0.27425027 -0.16740257 -0.16885087 0.8591957 -0.65917546 -0.5444339 0.96023095 0.17232107 -0.35167548 -0.15247494 -0.3847708 -0.1429605 -0.27357194 -0.7051712 -0.41119725 0.03420079 -0.7999568 -0.4105629 1.3321193 -0.4197103 0.45358756 -0.7622026 -0.4499562 0.7199867 -0.8703392 0.74160916 -0.6556704 1.0238903 -0.17036603 -0.71083444 0.04887602 0.20622127 -0.7744872 -0.35063794 0.15517081 0.2765748 0.5165845 0.59875035 -0.5839854 1.4329202 0.20520921 0.42556232 0.553284 0.004501061 0.793163 0.2558685 -0.32661003 0.1671471 0.478061 -0.33517382 -0.28682068 0.4711641 0.026879223 -0.50310874 -0.59993637 1.2074001 0.11825446 -0.26534277 0.46256384 0.18442601 -0.33643827 1.1179618 -0.6509496 -0.06665053 0.19973522 0.22941422 -0.9207405 0.9391557 -0.022866894 0.3941193 -0.05014079 -0.015714407
428 -1.0077406 0.19411169 -0.14815356 0.39227208 0.1182567 1.0535008 1.1347362 0.17201729 0.06492625 -0.27378404 0.40856358 -0.25754616 -0.20093088 -0.32588086 -0.19876103 0.42815575 -0.36421138 -0.041896947 0.021459011 -0.32181516 0.06591051 -0.65831655 0.12811689 0.5521528 0.68248683 -0.40150645 0.011069458 -0.27254167 -0.36073297 0.37062865 -0.73425317 0.17276499 -0.74797916 -0.64260036 -0.083673425 0.604317 -0.4823117 -0.35152113 -0.8079495 0.060430545 -0.1062044 0.10105819 -0.40761384 -0.46056575 -0.40553194 -0.14719345 0.32330498 -0.31313604 0.8721088 -0.17683268 0.13630277 0.36839536 -0.36503223 0.91359425 -0.4843539 0.7416383 -0.14031316 -0.4339455 0.42872334 -0.45537618 0.22727853 -0.54650044 0.053760726 -0.7723135 0.39858538 -0.39684576 0.23197143 0.32323796 0.51044333 0.097168244 0.097491704 0.47307077 0.8534553 -0.7125778 0.1259284 -0.110528536 0.23660684 0.118399784 0.108463086 -0.11332448 0.71971846 0.07365771 -0.0213197 1.1827374 -0.05106753 0.4271351 0.17946081 0.9737545 -0.79458326 0.3431196 0.43481827 -0.6566407 -0.17082603 0.68787664 -0.3992598 0.24069749 -0.109370895 0.6785919 -0.017235806 0.6749362
543 0.10653527 -0.9295529 0.071705416 0.23691875 0.24985173 0.75367427 0.63634264 -0.51779485 0.8002489 0.6219369 -0.66286945 -0.31542754 0.010210748 0.11432331 -0.03039334 -0.28238288 0.15649351 0.28439447 0.45239085 -0.16742682 -0.21282849 -0.17251956 0.19620806 0.7651427 0.6702328 -0.21411343 -1.2843901 0.114971355 0.9851015 -0.12044141 -0.32314426 0.09361528 -0.12949888 -0.47312355 -1.0077972 0.32221806 0.50190705 -0.603923 0.45813325 -0.42419025 -0.6937166 -0.094674714 0.2957478 -0.34916052 0.09276192 -0.5944305 0.037925027 -0.2777734 0.724711 -0.5948241 -0.20141555 -0.17365605 -0.5421509 0.010081619 0.7952208 0.4480304 0.2139622 -0.4393262 -0.6179967 0.38858148 -0.20143475 -0.3201109 0.7144078 -0.86868405 -0.6686964 -0.1858271 -0.55515504 0.54070276 0.72570205 0.38352957 -0.35219818 0.3619933 0.104717515 0.5179976 0.60597426 0.4857178 -0.017868392 -0.17492478 -0.5412848 0.0058458154 0.8853907 0.7104057 0.4855702 -0.027276251 -0.018165015 -0.31902808 0.07074029 0.04506524 0.058889188 -0.2017061 -0.21217889 0.1187824 -0.49880335 0.3782259 0.2904984 0.38868985 0.358296 0.13646533 0.25339654 0.046289593
117 -1.6050396 -0.5278663 -0.5228831 0.41145948 -0.45575058 -0.9940356 0.39856672 -0.3278715 0.14639875 -0.02984408 0.17332256 -0.24279673 -0.25129578 0.46782053 -0.2395283 0.48484382 0.16702268 0.5351556 0.48304114 0.19507492 0.106337875 -0.65108436 0.85932195 -0.35891786 0.45660642 0.28925064 -1.1484716 0.048682634 0.017402768 -0.53236943 0.09241105 -0.046328228 -0.12314551 0.23862727 -0.28770632 -0.18975663 0.02117123 0.42264673 0.2620345 0.4376087 -0.39345124 0.19376367 -0.17521632 -0.039057314 -0.4003401 -0.3553748 0.7802251 -0.86749417 0.14092682 -1.0135962 -0.4244483 -0.34399825 -0.10914997 0.25690076 0.50362444 -0.3679246 0.17803937 0.9063988 0.35587707 0.25617406 -0.8004477 0.28586453 0.24860373 -0.35854223 0.6992654 -0.04404207 -0.45856827 0.85418195 -0.22486068 0.2852117 -0.63796395 0.46354628 -0.60264665 -1.1216841 0.17752467 0.37672976 0.4429514 0.7300336 0.15732928 -0.112783924 0.30519336 -0.13513961 0.04835334 0.43669534 0.26655918 -0.50400996 0.19848585 -0.28785175 0.05433856 0.19453332 -0.2720129 0.74403393 -0.33186814 0.3699535 -0.02693588 0.11157189 0.02896604 0.11106426 -0.11542187 0.21848224
238 -0.010345103 -0.40232036 0.9968875 -0.21253674 0.49869308 -0.5091319 -0.1309867 -0.048260774 -0.6259882 0.1326014 -0.4465028 0.112626255 -0.844823 0.4521703 -0.9987605 0.45998073 0.14032227 0.09980815 0.47510478 -1.2001513 0.038667634 -0.61740804 0.82460284 0.72231376 0.8647672 -0.5383134 -0.01831891 -0.07176892 0.32932752 -0.30644238 0.19152619 0.21465462 -0.13495153 -0.73593736 -0.5749326 1.0029252 -0.6794943 0.30584383 -0.024967888 -0.70151883 0.05207615 -0.119802766 -0.20609312 0.47745097 -0.86963904 0.22398771 -0.5330865 0.22462124 -0.1307733 0.026769444 -0.19739982 0.110311694 -0.21869853 0.02791765 0.29643908 -0.073410526 0.33162612 0.10515236 -0.8649831 0.82176805 0.3546795 0.5875364 0.5458567 -0.57495284 -0.10773422 -0.40925032 -0.4704909 0.20012279 -0.5123072 0.21975784 -0.61241126 0.6534174 0.90103376 -0.29392704 0.74081993 0.4417427 -0.237359 0.45290023 -0.25761914 -0.08129552 0.71866745 -1.352786 0.38627282 0.46515512 0.36064124 -0.2974099 -0.23395647 -0.08037755 -0.8061083 0.2068682 0.12772231 -0.04712014 0.14288266 0.18946406 0.29267532 0.5105497 -0.28554595 0.42219004 -0.15189444 -0.3316815
677 -0.5302967 -0.7475201 -0.50111467 0.7012345 1.100855 0.013990652 0.27379015 -0.8530302 0.60761297 -0.07436584 0.6377575 -0.16537978 -0.17473942 -0.47456807 0.43666705 -0.09641521 0.47725308 0.62079674 -0.3410378 0.9626512 0.7730908 0.03523875 -0.09992285 0.28582725 0.7398711 -1.0567536 -0.53543085 0.6527898 0.2778338 -0.15534219 -0.24873415 0.8818223 -0.68351734 -0.52453583 1.0374728 0.2133739 -0.37285826 -0.1592906 -0.4052744 -0.124720976 -0.23414244 -0.7785835 -0.38322234 0.013425761 -0.8025338 -0.3966389 1.2850857 -0.37620994 0.45035815 -0.76994705 -0.4083556 0.7262231 -0.824569 0.7600638 -0.6362235 1.0391755 -0.17950724 -0.70573765 0.045479245 0.13728832 -0.80118537 -0.4110199 0.13182925 0.25238824 0.49057248 0.6676164 -0.6124502 1.4160949 0.23203173 0.34953946 0.565552 0.08364676 0.8182968 0.2689077 -0.3280507 0.15509409 0.48351213 -0.2347213 -0.23735014 0.47850737 0.008821392 -0.37114733 -0.61600995 1.1510407 0.16158187 -0.32076347 0.39380398 0.169883 -0.3233436 1.164646 -0.70499045 -0.010633199 0.1150705 0.2600627 -0.9706685 0.9563057 0.076540485 0.41046983 -0.08511758 0.03256856
464 -0.07315317 0.11762851 0.2665317 0.504255 -0.06695645 -0.15388997 0.71803135 0.01744599 0.32667452 -0.5036177 -0.071407035 -0.2765219 0.5161604 0.17798173 0.58978885 0.35875994 0.3128715 0.07638675 -0.031413313 -0.5071314 0.59922725 -0.60821086 0.013365283 0.094562724 -0.026031721 0.47868282 -0.31592876 0.10750669 -0.03658799 -0.2075014 -0.038193487 0.019421013 -0.030185388 0.113723814 -0.65993977 0.38643363 -0.6710111 0.05302101 0.15536666 0.1364091 -0.39862415 -0.06571396 0.06214315 -0.21474886 -0.08096165 0.085106224 0.88161594 0.29781356 0.62570274 0.09672162 -0.110766515 -0.008019141 -0.3338767 0.49244797 -0.09361632 0.08101244 -0.17363231 -0.26361492 -0.30219075 0.02902403 -0.19885659 0.6228001 0.049043547 0.15920442 -0.046627115 -0.25360504 -0.39914033 0.37093148 -0.4067251 -0.14583798 -0.31977516 -0.29566246 0.25706455 -0.6156614 -0.104740195 -0.18708648 0.070533544 0.23639709 -0.27728978 0.016862677 -0.37288848 -0.487092 -0.20158938 0.5457156 -0.057459265 -0.08588728 0.29014692 -0.17858797 0.017885813 0.14609426 0.077126265 0.41059756 0.19168173 -0.07737203 -0.048788816 0.06792392 -0.04619344 -0.11495324 -0.37071708 -0.20651412
380 -0.93815595 0.16177139 -0.14743635 0.4513016 0.12651359 1.002439 1.1369826 0.075665064 0.061276074 -0.31627327 0.4241223 -0.28038618 -0.1752821 -0.34554666 -0.16049603 0.4574245 -0.44015607 0.018797968 0.055458423 -0.3337637 0.060469378 -0.6450838 0.12288598 0.5200627 0.70553714 -0.44139108 -0.019776307 -0.282139 -0.34300113 0.38301024 -0.7368256 0.21038774 -0.7453537 -0.5391336 -0.12884915 0.56635004 -0.42679998 -0.43335748 -0.8650992 0.10740471 -0.049933568 0.17563947 -0.40346494 -0.42063677 -0.45286998 -0.22562487 0.2776652 -0.34937572 0.9513086 -0.17311397 0.17540208 0.35211673 -0.42641336 0.9340335 -0.53667724 0.73699844 -0.11069364 -0.45075247 0.32907373 -0.43347326 0.19984615 -0.5411979 0.1007429 -0.7776266 0.3581099 -0.39826196 0.22968394 0.32097962 0.4900155 0.15720534 0.14047635 0.4192387 0.8211366 -0.705542 0.15931903 -0.10641155 0.29612455 0.051711358 0.11029539 -0.079808876 0.75281304 0.039950125 -0.057533856 1.1860374 -0.054292124 0.4615217 0.17503831 0.9337074 -0.8111097 0.32314682 0.42073128 -0.6070136 -0.089511104 0.7187505 -0.42575887 0.20489193 -0.041944593 0.75447416 -0.011722828 0.6546568
812 -0.09824948 0.0484056 -0.43969688 0.066339776 0.8327438 0.1305896 1.5192804 0.027906884 -0.14583074 -0.26157424 -0.2636621 0.10209175 0.5578591 -0.47322124 0.12912191 0.46988443 0.2337421 -0.0732602 0.65359694 -0.5472288 -0.3178382 1.084923 -0.56390905 -0.394853 -0.26272702 -0.6674527 -0.05052782 -0.85778224 -0.29110947 0.24070634 -0.114778966 0.7833103 -0.69722676 -0.65590996 -0.6067123 -0.007168631 -0.088563435 0.53093827 0.55948484 -0.24229456 -0.103119634 -0.7669101 0.30328888 -0.7993283 -0.9057672 0.24690725 -0.25087872 -0.6689105 -0.019585881 -0.36320457 0.40736797 -0.89480686 -0.08304537 1.3385087 -0.2714252 0.58337027 -0.9340487 -0.14136055 -0.98952997 0.96035045 -0.43339884 0.8704359 -0.3244449 -0.7879514 -0.17637284 0.40212044 0.16813 0.3738969 0.27057654 -0.12672083 0.18435434 1.2150644 0.8803489 -0.7465899 -0.009988588 -0.088099636 1.524965 0.15254852 -0.77736205 -0.16182593 0.48776552 -0.85749686 0.5455105 -0.33869326 0.5646352 -0.71764755 0.16994758 0.16633032 0.3257249 -0.13899899 -0.6198371 0.7524894 0.41704518 0.9448672 0.1253204 1.5358566 -0.8191353 -0.6068077 0.7606559 0.049716447
744 -0.11812714 -0.065328285 -0.38369465 0.20808533 0.8462077 0.090382524 1.6219273 0.04375107 -0.016843274 -0.18396209 -0.37349224 0.04756839 0.44629097 -0.58033836 0.12639369 0.38397878 0.19080172 -0.105381474 0.65365887 -0.4990733 -0.3032685 1.0975784 -0.48046827 -0.39729917 -0.22285384 -0.64765406 -0.06579232 -0.7919102 -0.24416462 0.19743997 -0.056335956 0.72881 -0.76960003 -0.57075447 -0.699844 -0.012695719 -0.061706934 0.5084829 0.5771366 -0.22639094 -0.0692522 -0.78007525 0.2690652 -0.8190544 -0.8801479 0.31422305 -0.31082916 -0.6806888 -0.081583984 -0.32390124 0.47716302 -0.9343438 -0.10068295 1.3218849 -0.2972057 0.6769951 -0.91802996 -0.15889798 -0.9554513 0.9218132 -0.4399978 0.78716266 -0.20993443 -0.7822841 -0.14421633 0.38830394 0.22611265 0.34499043 0.25835323 -0.105873466 0.2763415 1.2545962 0.86633915 -0.80908644 0.0027003447 -0.12277207 1.4880348 0.20752642 -0.7775214 -0.18111035 0.53643984 -0.91320825 0.4463023 -0.31909397 0.5258348 -0.7611724 0.16885264 0.16414751 0.37149778 -0.18332143 -0.60549474 0.7858313 0.42042598 1.060359 0.1663612 1.6015193 -0.7355483 -0.6229825 0.82522047 0.08985047
515 -0.15771125 0.070960924 0.41460273 0.58133495 -0.35050768 -0.18643199 0.7607549 0.15151246 0.053121664 -0.38199848 -0.14717358 -0.049267825 0.45635718 0.36849368 0.79669094 0.22511713 -0.2514461 -0.004337572 -0.11072092 -0.55931693 0.63015175 -0.32380143 0.24721624 0.112397075 -0.13054161 0.33173627 -0.316651 0.03761243 0.3823351 -0.098674774 -0.0032637594 -0.059041977 -0.14618792 0.26108432 -0.29723784 0.21331568 -0.9555799 -0.0655819 0.012612204 -0.13523208 -0.22356018 -0.18920478 0.13616641 -0.17629933 0.016790608 0.077779524 0.90561235 0.25551805 0.59105414 0.27705222 -0.40722093 -0.16864415 -0.46991974 0.24665806 0.015633374 0.506753 -0.10163384 -0.08187272 -0.48688385 -0.016699325 -0.10787119 0.4624533 0.45870802 0.033987142 -0.035775695 -0.3710622 0.018369034 0.2123725 -0.112729244 -0.1671173 -0.62235403 -0.28953823 0.20206542 -0.4677528 -0.21517266 0.0038489413 -0.022546872 -0.081650466 -0.30370757 -0.24484114 -0.4985872 -0.657968 -0.08784975 -0.2863164 0.0012156818 -0.12904109 0.65333694 -0.23698482 0.034105387 0.043573573 -0.16368303 0.40400594 0.10021045 0.14950694 -0.14353544 0.43275625 0.020951414 -0.11167459 -0.069820695 -0.12790981
530 -0.19965059 -1.2358464 -0.6571152 0.2974646 -0.21544854 0.5766288 0.07353066 -0.10045366 -0.24838012 0.412077 -0.2052197 0.25025535 0.5567422 -0.25604576 1.0092444 -0.82715243 -1.5265203 0.5987556 -0.32191128 -0.4875755 -0.18408298 0.1595071 0.3490995 -0.2162698 -0.08775151 -0.50500554 -0.32181373 -0.3617392 -0.17798394 -0.282356 -0.06366549 -0.19450597 -0.53436047 -0.14918818 0.22600353 0.20471586 0.3820716 -0.5486629 0.112911955 0.12529089 0.44580662 -0.66504586 0.4840533 -0.098972626 -0.38799328 0.22350438 0.02942161 0.70410347 0.13160287 -0.2528866 -0.102376275 0.5288202 -1.2481227 0.7246437 -0.31855914 0.5600081 -0.8459072 -0.17258334 -0.28167713 0.3410968 -0.53094244 -0.7414077 -0.040836997 -0.9432241 -0.3078837 0.15076232 -0.23425396 0.16747786 -0.38737637 0.23717785 0.046114236 -0.3042336 0.84457684 -0.5008991 0.28141603 0.60775334 0.117663264 -0.30631664 -0.5006744 -0.6648876 -0.0094647445 -0.4407453 -0.04083918 -0.28858754 0.0102352435 -0.35591236 0.56406146 0.51173717 0.072680466 0.6680553 -0.5157149 -0.08532633 0.5786501 0.15538257 0.27752316 -0.3849517 -0.30365866 -0.20481949 -0.4567246 -0.4520561
465 -0.35529432 -0.3582049 -0.62013257 0.531204 0.06685027 0.21992695 -0.2245429 0.15970844 -0.3245845 -0.069966085 -0.030422926 0.18279412 0.28103727 -0.83266944 0.035514433 -0.20797078 0.6790303 0.032596163 -0.79420996 0.05003514 -0.12436822 0.37176204 0.8495736 -0.21566588 0.58983517 0.07500501 0.1346665 0.2911122 0.44319785 0.6641249 0.10196636 -0.07877413 -0.2766051 0.14217396 -0.34510255 0.023395693 -0.2768648 0.22215258 -0.3098183 -0.37258038 -0.5826149 -0.27146783 -0.039263405 -0.24809213 -0.32663292 -0.113332845 -0.043248508 0.2795913 0.27019042 -0.27524418 -0.15895364 -0.12333619 -0.47753382 0.76894355 0.20038146 0.22868142 0.19967514 -0.13490121 0.033664335 -0.25765166 -0.49745622 0.5045989 -0.58808446 -0.43037423 -0.28558296 -0.30513254 -0.27791682 0.45035064 -0.24671365 0.26162606 0.015549277 -0.042397384 -0.21956882 -0.3675662 0.29589888 -0.20672508 -0.37162665 -0.12214705 -0.09943673 -0.06854424 -0.5563178 -0.24924187 -0.11895466 0.12562323 0.21575078 -0.5070363 0.24393058 0.21814132 0.7408727 -0.23567832 0.63739955 -0.16492006 -0.06530276 0.6472251 -0.10248555 0.14230488 -0.52713954 -0.19745149 0.2235709 0.33028248
435 -0.6865208 -0.4688137 -0.64411694 0.51623684 0.5443637 0.0071902587 -0.011054265 -0.28993222 -0.407713 0.38678902 -0.45119 -0.18643297 0.04541346 0.03393477 0.40685087 -0.3953146 -0.33232614 0.45551917 -0.27952254 -0.38379243 0.24012032 0.10001833 0.15964581 -0.5103667 0.014743289 -0.25725532 -0.55401707 -0.2593542 -0.44930092 0.14614674 0.51762307 -0.14358333 0.32548225 -0.36676973 -0.39396283 0.23762828 -0.2637037 0.13212714 0.21024725 -0.059729367 -0.44268057 -0.48869488 -0.071392454 -0.31322542 -0.58581334 0.068361044 0.3627964 0.8163873 0.8257749 0.25489587 -0.53365326 0.08924634 -0.48299772 0.8242579 -0.28397366 -0.07515672 0.12236077 0.4467699 -0.26575163 0.20446652 -0.18332858 0.09109421 0.21839479 -0.25316665 -0.103007086 0.19563812 -0.06844453 -0.10814258 0.25190455 -0.32512307 0.47014973 -0.4933652 0.3386668 0.02192431 -0.1010743 0.22743328 0.4551056 0.2552758 0.17726788 -0.079216056 0.4420889 0.09052962 -0.19056596 -0.1592575 0.521011 -0.3652439 -0.33955643 0.18339998 -0.29127404 0.4853596 -0.2679404 0.049780548 0.07061329 -0.39306784 -0.41714537 -0.099263996 -0.13709332 0.51209164 0.19810334 -0.05199842
701 -0.8400983 -0.56066096 -0.62729615 -0.050303914 -0.12080077 -0.84971577 1.0774581 -0.53348583 -1.5894908 0.056176763 -0.35780782 -0.62938327 0.7216178 -0.3860776 -0.06177993 0.09299915 -0.012123023 0.6211885 0.9899606 -0.117922485 0.31773618 0.6635408 -0.69541556 0.59720176 0.7586765 -0.15258366 -0.103938416 -0.1730614 0.24334876 0.08743125 -0.11116673 0.080447294 -0.4775596 -1.3155634 0.33863798 0.3307541 -0.45984447 0.68299264 0.08104142 -0.04151315 -0.18023866 -0.49287778 0.37280056 -0.48580152 0.12420196 1.5228202 -0.71520483 -0.68186504 1.1185155 -0.32179812 1.3238716 -0.047719482 -1.0967355 1.0470012 -0.58315337 0.027072107 0.11585318 0.3565557 -0.9096841 0.2714191 -0.8316556 -0.3514824 -0.053874042 -0.8878693 0.2172859 0.46214595 -0.001768284 -0.5250118 -0.38001752 0.07142488 -0.6058792 -0.17151637 0.76563346 -0.25917765 0.6612635 -0.44232276 1.383216 0.041549787 -0.18298364 0.15580888 0.17234749 0.40893918 0.023147669 0.008064466 0.48822352 0.29655865 0.9362999 0.043049954 0.9805234 -0.2789243 -0.6331069 0.14246574 0.5342193 1.4555609 0.98487943 0.7256054 0.4728527 -0.014039174 1.1475412 -0.20376971
567 -0.8008427 -0.53972036 -0.6635265 -0.0068537127 -0.15634209 -0.8917347 1.0032387 -0.63030195 -1.5897973 0.023978151 -0.41069034 -0.58038783 0.7045725 -0.34350052 0.0058763954 0.038811367 -0.026150074 0.64383924 0.9752221 -0.0567648 0.2845577 0.67990446 -0.73163396 0.626496 0.66375995 -0.19538711 -0.07896811 -0.14730133 0.20079915 0.08746287 -0.20274062 0.027467746 -0.47177118 -1.2584453 0.24825512 0.3773973 -0.46621758 0.6687927 -0.02281231 -0.08473779 -0.18856221 -0.37713793 0.30993962 -0.49615496 0.07971798 1.4292269 -0.722032 -0.71963733 1.1679484 -0.33598545 1.2506307 -0.0807536 -1.1245545 1.0109587 -0.5704373 -0.0004413199 0.18342537 0.331984 -0.8724357 0.27873653 -0.80449784 -0.3467173 -0.032610603 -0.8822742 0.17650811 0.47509605 -0.046069197 -0.52174973 -0.26383746 0.0675643 -0.58928376 -0.17200908 0.7707669 -0.3063415 0.69790226 -0.5102119 1.4114788 -0.06536185 -0.17240037 0.1934261 0.19992113 0.30566096 -0.027293764 -0.0228463 0.46709266 0.25212643 0.9818553 -0.027752874 1.0235084 -0.33827874 -0.6819117 0.1876937 0.48685586 1.5060188 0.98021036 0.71161836 0.5086636 -0.092952736 1.1487259 -0.24361086
