34 33
1 -0.3167860862924938 -0.05798575177003008 0.06129434449351864 -0.18109826918961158 -0.18154607127330252 -0.026269838426272656 0.05102236539292221 -0.012905905067335039 -0.16239383522660247 -0.16744150496269217 0.3117719004645295 0.0 8.326672684688674e-17 9.71445146547012e-17 5.551115123125783e-17 1.1102230246251565e-16 2.7755575615628914e-17 -7.383522896015127e-16 0.0 3.382383994130343e-16 -0.04638531606944368 0.1829770503157222 -0.06629836761321928 0.4658452359911338 -0.0431650195600962 0.1800937196830686 0.04221255128021169 0.02615589550121236 0.06810119672785137 0.0003937187843416672 0.45744800110153583 0.056040299156505616 -0.2230491191073343
32 0.08565465940291676 -0.05215814584201307 -0.21891069077048164 0.10623323276247144 -0.1890399611984423 -0.0693972318206967 -0.19485013720687558 0.17789608916148894 -0.5378150405699637 -0.005241219537552264 -0.13722911158630444 0.0 4.163336342344337e-17 -6.938893903907228e-17 -1.1796119636642288e-16 2.220446049250313e-16 5.551115123125783e-17 -7.446510612539756e-16 1.1102230246251565e-16 2.56445941651897e-16 -0.2850964144459239 0.08406990579249254 -0.2866798510029052 -0.08300977151936566 0.09140321883801036 0.043792813578948576 -0.3539154730605171 -0.05142544227914012 -0.019765582661466278 0.20654084595234812 -0.01181685448892574 -0.2239993041857294 0.25262815791430043
22 -0.11793172133694821 -0.11478913058735407 0.07770703937945686 -0.12394267021422567 -0.04850858105007913 -0.1832742324318766 0.16285593986357044 -0.08235933741753845 -0.06374982120216682 -0.051504849149694935 -0.1528691018106826 -0.05215432027811607 0.10771321510989598 -0.49146821406379837 0.10406466852852994 -0.010728089123715145 -0.1064461087394063 -0.4316590017538765 -0.3223946257143322 -0.35416190249739166 0.050795649325712414 0.0031978442621790454 0.021124169338066094 0.09850082339142081 0.13110539132022914 0.04597938316887967 0.10447852158435766 -0.0038223721822686373 -0.1112129051471811 -0.02979255077476888 -0.27268519582509687 -0.012272538267520249 0.10833328903718745
20 -0.03804057951394002 -0.058220598867860476 0.11827961456198408 -0.12723564210771823 -0.04275673842612813 -0.2214453761463947 -0.01511586202837053 -0.051485633896187065 0.01232462319120923 0.027050044323689883 -0.0688616384889389 -0.11285852103251744 0.12211604345488383 0.23467483002809048 0.1970093979546563 0.44078057198247034 0.1820802792976335 -0.0994432221536159 -0.19896223534748717 0.6114865381396671 0.04825416991554404 0.01630874311892852 -0.023550256480013878 0.048971738725686206 -0.008329853624325433 0.07638036598883255 0.11946424899210005 0.07517498188469111 -0.08619455883085117 -0.0473612042719132 -0.17436185819083108 0.004332457034331283 0.19486138950213
18 -0.11793172133694829 -0.114789130587354 0.07770703937945685 -0.12394267021422603 -0.048508581050079116 -0.18327423243187663 0.16285593986357047 -0.08235933741753856 -0.06374982120216717 -0.05150484914969465 -0.15286910181068222 0.03834010398071279 -0.00787375468748941 0.07802887781235654 -0.6036924409333768 -0.38514075635731543 0.06544416987412394 0.385205322138989 -0.04715623230749485 0.13619382329859592 0.050795649325711255 0.0031978442621792753 0.0211241693380654 0.098500823391421 0.13110539132022905 0.04597938316887969 0.10447852158435773 -0.0038223721822685367 -0.11121290514718153 -0.029792550774768774 -0.27268519582509704 -0.012272538267520054 0.10833328903718706
14 -0.03773402830379447 -0.10928095595124214 0.0744006470724771 0.024263493137589066 -0.08224357926848672 -0.17344533544462623 0.05644855506808242 0.08412353288907201 0.23979177073492414 0.23141569816048854 0.14471385161760222 0.19336497051308563 -0.28586691886346066 0.25069162376808696 0.4068297157642307 -0.29756682438253196 -0.1860955034585281 0.09617801272316427 -0.03663650193959814 -0.10865145989975053 -0.35921201197255154 0.03717036542087353 -0.14790833364222325 -0.033677713403713866 0.062233223588149894 -0.025645815854744368 0.1968010804688859 0.10211458084183272 -0.05046175424774572 -0.17535191055399385 -0.10428308955235148 -0.03967307313541005 0.15413514862043412
12 -0.09505267052070857 -0.021093309590646453 0.024355334732472297 -0.09957541845014425 -0.10423597324367305 -0.0175304793330729 0.03870935178204171 -0.011724931339131337 -0.17858556615047685 -0.31552120088699886 0.6912886312345772 1.1102230246251565e-16 2.7755575615628914e-17 3.469446951953614e-17 0.0 -2.7755575615628914e-16 -5.551115123125783e-17 -9.57861356539477e-17 -9.540979117872439e-17 1.9313293417880616e-16 0.12122223190213359 -0.25875612647759577 0.08569099605633593 -0.4500921896455162 0.0289635689577252 -0.11145737781010764 -0.025745872588594215 -0.014278631524875334 -0.033017550674526074 -0.0001778755480521725 -0.19186621859741063 -0.021014268659770064 0.07675982704306829
11 -0.23394468984271072 0.19473020336914668 -0.029226280092668044 -0.21048180351607476 -0.3099136391898159 0.3925073542102318 -0.1150456471573941 0.015476623851357492 0.1426149864784911 0.10106600632967035 -0.17800467475238976 -8.326672684688674e-17 0.0 -5.551115123125783e-17 -4.163336342344337e-17 -2.7755575615628914e-17 -1.9081958235744878e-17 2.707105912787958e-17 -2.7755575615628914e-17 -9.851740752199495e-17 0.02162462401941536 -0.29179797609285346 -0.09334195048039588 -0.032682968057088604 -0.05273413874327575 -0.19444016656538604 -0.040264254574601324 -0.022238784451899425 -0.6039507701701832 0.0002814254200330398 0.09847393937010271 0.0021964734242167125 0.002101702520057752
8 -0.14291710509040959 -0.20359223042861316 0.1087299740995162 -0.05213206404939784 0.1842009408513094 0.04107163282413157 -0.03459966866101471 -0.06893846989407294 -0.0850915409215337 -0.053475586138390686 -0.10244145853849446 -0.037681565071305045 0.003174103267612069 0.05457756197827132 0.06258228503675782 0.30175819550286664 0.029300068569872693 0.07304452571545476 0.6832958948135709 -0.25043632658241616 -0.002971082384112412 0.006640090966049474 -0.01189667731055683 0.0500656178240458 0.1790623888140063 -0.06740975330347705 0.23581073871602812 0.14834502325085816 -0.06718892968765765 0.21110990932413332 -0.17488478487378084 0.022750435614892425 0.07293958115381993
7 -0.2653799286269412 0.3593924081703858 -0.09635559469811206 0.18102961787954652 0.21820200791531583 -0.16775842573467156 0.037855274736001865 -0.004194417722428464 -0.03639963353590716 -0.02969892770367363 0.05565619926629839 5.551115123125783e-17 0.0 4.85722573273506e-17 1.1102230246251565e-16 -4.163336342344337e-17 -5.204170427930421e-18 -2.4045125364099078e-17 2.0816681711721685e-17 2.970349425016876e-17 -0.01791140358598098 0.41058798719647593 0.1496216142439398 0.10311261762198584 -0.2957704119607688 -0.5596572279866795 -0.10467199543856869 -0.026575016085078212 -0.0979997868899011 -0.00014781982683686787 -0.1579891727862759 -0.015792952844380065 0.05422005166090508
6 -0.3058187279785616 0.3946697115033665 -0.10012819027342938 0.09197775777259123 0.08593761355362681 0.010290518562666318 -0.01782264797090175 0.004021254923747064 0.04665177855104839 0.04326869948838488 -0.07963944278741264 -1.3877787807814457e-17 1.0408340855860843e-17 2.7755575615628914e-17 -5.551115123125783e-17 0.0 -6.938893903907228e-18 2.582685104754327e-16 -2.7755575615628914e-17 -7.249142164121775e-17 0.0179935585107436 -0.5394278575676418 -0.24401522370745182 0.16418926659221225 -0.009569018495043748 0.04610964643985274 0.011251430225434065 0.011787323691999396 0.5173543649197182 -0.0003346281952094783 -0.180791825708141 -0.012584244813827564 0.038373287664083
5 -0.17443831475924337 0.0932892334988625 -0.0005174431050584858 -0.24719357163284336 -0.3455124728261888 0.3877077910069041 -0.1059540615325107 0.013186856767611074 0.11328979945504025 0.06780300307229127 -0.11408090228784686 -2.7755575615628914e-17 -5.551115123125783e-17 -1.3877787807814457e-17 -1.1102230246251565e-16 -5.551115123125783e-17 6.938893903907228e-17 3.1276511134052666e-16 -2.7755575615628914e-17 -1.6430145905897743e-16 -0.0006083604761070761 0.44735701242200626 0.24488092334202385 -0.2700274156176918 0.07453091913884434 0.10500429067293712 0.019307251503463525 0.008448038442544244 0.4239336449627667 -0.0003199915868275168 -0.19876076995411732 -0.016117469584736442 0.05317257019205304
4 -0.16084736406316777 -0.31262709842759023 0.11796081232209252 0.0923699360316967 0.4034841771334092 0.2958208269886307 -0.22862574228371096 -0.0019281934055020785 -0.031098914238769565 -0.0062742287974478905 0.010445630076381404 -4.163336342344337e-17 0.0 -5.551115123125783e-17 -8.326672684688674e-17 -2.7755575615628914e-17 5.551115123125783e-17 1.9016422151507033e-16 1.249000902703301e-16 -7.129361037729617e-17 0.017603872049010028 -0.0029491139238296132 0.023340260903457737 0.03252543386875883 -0.1110928637763111 0.17553393734786718 -0.2554257898897014 -0.287196874776898 -0.050419477558847334 -0.5394153566188249 -0.11787047043464728 -0.09045996709856445 0.04666345949870669
3 -0.02413465045223794 -0.24463073953628353 -0.10665940693096686 0.369694469885404 -0.11905955353960566 0.041532119524463916 0.13857529867368124 0.214193428657438 0.31498799181956083 0.16687347704944358 0.1393357954446392 4.163336342344337e-17 -6.678685382510707e-17 5.551115123125783e-17 1.0755285551056204e-16 -1.942890293094024e-16 -4.163336342344337e-17 6.855545387676039e-16 -2.0816681711721685e-16 -1.362330417395619e-16 0.23198240648047483 -0.024639020092216336 0.14915362251217948 0.11906115183549071 -0.1564749712655329 0.22423892688947264 -0.2313780128386359 -0.1025005989841554 -0.07541636181423982 0.44954478034225515 -0.16840113849228086 0.17508053827061704 0.0642270367207067
2 -0.18070546477325697 -0.2935111364318888 0.16273145926931656 -0.10408145611176003 0.046915962561313064 -0.2737452098059367 0.19091041346539486 -0.08715815469879068 0.06078582740888797 0.09735398438399226 -0.30938177491039315 -5.551115123125783e-17 0.0 7.28583859910259e-17 1.6653345369377348e-16 2.3527187142935446e-16 0.0 3.5638644955743735e-16 2.220446049250313e-16 -1.3215624587468835e-16 0.014285190107788882 -0.1407351086074906 0.03264482952027065 -0.46113322896049824 -0.1762500872931722 -0.21556152634860493 -0.21503862769436005 -0.012286651264747483 0.19374324870412224 0.07019984893924701 0.3492273356466726 -0.0073746925032581725 -0.16792121162887907
25 0.10518513710745475 -0.11450854612542885 -0.5685631897230349 -0.14340912448324786 0.03050379026540852 -0.09541528512862224 -0.17451620948267177 -0.1020237623285946 0.04979580589058604 -0.2326588028257222 -0.1022069148893806 -2.7755575615628914e-17 -6.938893903907228e-18 2.0816681711721685e-17 0.0 9.71445146547012e-17 4.163336342344337e-17 -8.171149961381791e-16 5.551115123125783e-17 3.557906534254001e-16 -0.230782080699487 -0.03686926826164164 0.01980388678376539 -0.07767208357148624 -0.11929875877140837 0.008756385970464936 0.14019024860596452 -0.1443214410586293 -0.00018203626862598938 -0.0796073189591722 -0.07016212627201432 0.5964771698974022 -0.08572026406105682
29 0.02363580703187652 -0.10569088130733523 -0.1425651106712918 0.2592583608032688 -0.1923685442009477 -0.02886986179914615 -0.0765687898723022 0.3732537495983138 -0.37577748624644997 0.2824559257590852 -0.07103081528760295 -2.7755575615628914e-17 2.7755575615628914e-17 -1.6653345369377348e-16 -1.1102230246251565e-16 -2.42861286636753e-16 -5.551115123125783e-17 7.932563884859333e-16 -5.551115123125783e-17 -3.3394542248438624e-16 0.3144699278597352 -0.10807627854617753 0.25809230048955606 -0.012708240033024247 0.025644932879350078 -0.16188350938295082 0.38741064106548956 0.08555854756919795 0.04554135925635012 -0.3003875416627422 0.07193461989663945 0.037973489596119125 -0.12354322159549029
34 0.3362484792140231 0.16905131769654777 0.2390130813060671 -0.08201846852730553 -0.009501493089338148 -0.1863650027162459 -0.3380825695397856 0.030047498515580983 0.10139317086486972 0.06351784157191427 0.04370998495584522 -1.3877787807814457e-17 0.0 0.0 -5.551115123125783e-17 -2.7755575615628914e-17 0.0 -2.8858024500514204e-16 -6.938893903907228e-17 1.111797356189072e-16 -0.004493337983758219 -0.016777015636458035 0.05467236674909834 0.056386427040247065 0.297823920120667 -0.10869541416232127 -0.09700311729058587 -0.24841788120542252 -0.016470581563480285 0.08831443756136895 -0.19939447927747705 -0.06629606309972279 -0.5355498723852298
33 0.2781371137690237 0.08055845223525826 0.06187650666502746 0.2696096107969401 -0.0862980521888019 0.22193884990143267 0.24708202930331613 -0.2927846191302537 -0.12331903497322334 -0.12424060329759311 -0.07196585530209676 0.0 1.3877787807814457e-17 0.0 1.1102230246251565e-16 5.551115123125783e-17 -5.551115123125783e-17 -2.8391076890236954e-16 0.0 2.886496496709635e-17 -0.032664196862123566 0.05616644140537558 -0.1842771901139106 -0.10877640898295028 -0.31219301638455144 0.15192774976796605 0.02069459997399844 0.4380500537608823 -0.06809276101414037 -0.12190903326996914 -0.19760436322838906 -0.03636123937846523 -0.3134091357540065
13 -0.08075904753853332 -0.19029574183897602 0.07843149046372225 0.08498602153670202 0.3876468815689539 0.3303270599398882 -0.29024146291400416 -0.0029312404886474 -0.057227010427458314 -0.01978357596074024 0.03875574605832667 0.02175546173740439 -0.0018325693759915218 -0.03151037009986854 -0.03613189911247407 -0.17422017540375587 -0.016916402476090553 -0.04217227658464649 -0.39450106880678154 0.1445894805672192 -0.07698196182872485 0.006978540194145972 -0.05047973631489411 -0.05258500656149078 0.12473413264521167 -0.18178178491428523 0.2606812382252208 0.2623467679010746 0.04090415884486092 0.40778611829402456 0.08272576932207451 0.05676090044198741 -0.02687134617166514
9 0.06305026537936473 -0.058723313259159166 -0.019073273981248678 0.31417367212696445 -0.10539925801440547 0.149838876283131 0.2551792900093877 -0.04052024813540741 0.21055881333253607 0.0982672715539045 0.15548909969800567 -0.13672968189373974 0.20213843684525776 -0.17726574715308097 -0.28767205080508323 0.21041151937703506 0.13158939244385 -0.06800812499759687 0.02590591896044401 0.0768281840809321 -0.4956810669985534 -0.0338610341228386 0.01894414831562015 -0.019674052382206927 0.2734768602418524 -0.20848280868823266 0.12144533259650021 -0.14773193182514194 0.06182368960513395 -0.14389938721331205 0.13541318495754734 -0.05000456222351241 0.06956350379920508
17 -0.24302347324264784 0.38962365343080246 -0.11111616864674755 0.21894839373914954 0.25664471070755707 -0.16192079889034572 0.025982876580562714 -0.0009879491638575023 0.0067226640003523385 0.022373553072203067 -0.045092647303059584 2.7755575615628914e-17 -5.551115123125783e-17 -5.551115123125783e-17 -5.551115123125783e-17 -3.903127820947816e-17 -1.3877787807814457e-17 2.809449306664728e-17 -2.7755575615628914e-17 -5.471090208422443e-17 0.00929546281950313 0.12219978456803272 0.12181993389963257 -0.3620379263904971 0.3116478531540921 0.49132893355725393 0.08843997386663384 0.013648083275139881 -0.2592381724737779 0.0003020035462283531 0.20153383173886585 0.015288708200453825 -0.04597196547871066
28 0.04143645889940189 -0.14686944342245936 -0.3847406655164138 0.06969601143661533 -0.037190859547576505 -0.07133655370074476 -0.10390239604681753 0.04044225748296094 0.40767071998809146 -0.37554740567285816 -0.05717711547850426 5.551115123125783e-17 -4.163336342344337e-17 8.326672684688674e-17 2.220446049250313e-16 -2.498001805406602e-16 -1.249000902703301e-16 1.0967907071529094e-15 -1.1102230246251565e-16 -2.8119575144962943e-16 0.35417970456195874 0.11223566055783005 -0.21943041372562586 0.007028561067693442 0.22048992320084954 -0.1380930862923757 0.0013967988744837698 0.17268892135000413 0.034337461076201496 -0.13504182741767098 0.11102211790828098 -0.40307386081878716 0.024386001513617892
31 0.10089242328120893 0.06149531000343096 0.09497195293873217 -0.04509719149052437 -0.005455350107489942 -0.12436573744807793 -0.25649451990141736 0.027297958195857952 0.11150273529428033 0.11969090731109944 0.09691770049317848 -0.12916518171976096 0.5067549530557858 -0.041793479779946026 0.09177298445010931 -0.1506895030707659 0.5152623004880733 0.2278804014496185 -0.04985150226934381 -0.32302613773700406 0.011742777784812147 0.023725136963642965 -0.07066432752642152 -0.05447966073718731 -0.1998387522022435 0.06727000732638512 0.05916320674108693 0.13561253866295667 0.007985443539037127 -0.039898982743234356 0.08363150490557664 0.024860025767741115 0.18430342043828213
10 0.1008924232812089 0.06149531000343098 0.09497195293873205 -0.045097191490523984 -0.005455350107489996 -0.12436573744807809 -0.2564945199014172 0.027297958195858226 0.11150273529428067 0.11969090731109919 0.09691770049317772 -0.03534071015721303 -0.025664184162275394 -0.312689996030428 -0.19796576718167108 -0.30779024232626945 -0.13868837451328916 -0.41920236716032316 0.42060772698103027 0.3537406172961221 0.011742777784813852 0.02372513696364282 -0.07066432752642068 -0.054479660737187234 -0.19983875220224345 0.06727000732638509 0.059163206741086966 0.13561253866295686 0.007985443539037445 -0.0398989827432343 0.08363150490557647 0.024860025767740837 0.18430342043828263
16 0.14116595197758544 0.06800166759802019 0.0877259851499912 0.09214018101617731 -0.045312883954389815 0.0359736769737926 -0.024533110999648722 -0.20324308397373425 -0.034619101693552555 -0.11124029206829343 -0.06497396726207122 0.10445618163137493 0.39752587388742056 -0.19667261782947099 0.2421841291012537 -0.017768658870876614 -0.5595443217983868 0.404274524778484 0.025716639403225716 0.14707671184325508 0.07972387702928109 -0.04967761429407977 0.1493078387146832 0.049408374966445096 0.03395650908139395 -0.031100608217539356 0.031274506458809234 -0.10418103774497539 0.03326760425072374 0.017867429585038917 0.1284793571826923 0.028986483199768175 0.22056117199455075
19 0.14116595197758547 0.06800166759802019 0.08772598514999103 0.09214018101617741 -0.04531288395438983 0.035973676973792494 -0.02453311099964865 -0.20324308397373422 -0.03461910169355253 -0.11124029206829351 -0.06497396726207123 -0.3143105836027625 -0.600698209583215 -0.3224593587889 0.20333329740481393 -0.05558861365012134 0.31746059817541566 0.231031880225297 -0.015458668058237979 0.05447549308367906 0.07972387702928148 -0.0496776142940798 0.14930783871468317 0.04940837496644502 0.03395650908139396 -0.031100608217539415 0.031274506458809255 -0.10418103774497521 0.03326760425072399 0.017867429585038872 0.12847935718269235 0.02898648319976815 0.22056117199455078
21 0.14116595197758544 0.06800166759802008 0.0877259851499912 0.0921401810161776 -0.04531288395438979 0.03597367697379251 -0.024533110999648722 -0.20324308397373436 -0.03461910169355239 -0.11124029206829367 -0.06497396726207173 -0.4333717496715353 0.04464284462293826 0.5863014008301091 -0.09690353997544279 -0.1715566181175936 -0.1750298016344859 -0.33725838482406745 -0.036709786642853265 -0.2174992822006455 0.07972387702928262 -0.04967761429407974 0.14930783871468334 0.04940837496644492 0.033956509081393804 -0.031100608217539374 0.03127450645880926 -0.10418103774497514 0.033267604250723934 0.01786742958503874 0.12847935718269232 0.028986483199768005 0.22056117199455108
23 0.1411659519775854 0.06800166759802015 0.08772598514999118 0.09214018101617753 -0.045312883954389815 0.0359736769737925 -0.02453311099964869 -0.2032430839737343 -0.03461910169355247 -0.11124029206829367 -0.0649739672620717 0.7799558335366623 -0.04360894577240145 0.11009632294134275 -0.060941835725541474 0.03450237126155654 0.2855241328136068 -0.2300398951821155 0.0005458963374218029 -0.06088110680722132 0.07972387702928255 -0.04967761429407983 0.14930783871468353 0.04940837496644504 0.03395650908139395 -0.031100608217539415 0.03127450645880925 -0.10418103774497514 0.033267604250724093 0.01786742958503875 0.12847935718269238 0.028986483199768032 0.22056117199455105
24 0.21583605153741614 0.0777401312793528 -0.1302135395596782 -0.2573383898267547 0.2169443733649491 0.13467067524056492 0.2777848270600292 -0.07063266947049857 -0.08353987051356718 0.38820980470176897 0.15681285008653745 2.7755575615628914e-17 0.0 -8.326672684688674e-17 5.551115123125783e-17 -1.942890293094024e-16 -1.1102230246251565e-16 2.5676359224142617e-17 -5.551115123125783e-17 -4.515855702446846e-17 0.30005433680371985 0.12186687497377703 -0.25137764705968946 0.01293637372276558 0.32015305651973314 -0.13363925102235572 -0.2510710589142233 0.12108106107112858 0.03387373936619615 -0.10847528090150878 0.07027015264159571 0.3123275977334806 0.14532198050669665
30 0.22401112369127665 0.12423079813865558 0.06761501295784575 -0.19195822767276563 0.19273018225832367 0.1444105743173963 0.3076148890260344 0.40627574550586787 -0.0038387566839614327 -0.1566176879640648 -0.06316898410211048 5.551115123125783e-17 8.673617379884035e-18 -4.163336342344337e-17 4.163336342344337e-17 -5.551115123125783e-17 -2.7755575615628914e-17 -1.0921984302090214e-16 -2.7755575615628914e-17 9.843412358458393e-17 0.06444856168968088 0.09109960224337213 -0.2573095692656173 -0.11439068679296825 -0.24285113870520428 0.04983267608410803 0.37706391570535086 -0.42791245917074705 0.007712430555010935 0.11720060082358273 0.04401861500542928 -0.1296911309321559 0.06288257366175022
15 0.10089242328120897 0.061495310003430934 0.0949719529387319 -0.04509719149052428 -0.0054553501074899625 -0.124365737448078 -0.25649451990141725 0.027297958195858195 0.11150273529428043 0.11969090731109924 0.09691770049317834 0.036299818862355254 -0.26572758059109886 -0.031697724246460654 -0.414380361974676 0.5015617878919307 -0.2956025207828668 0.15255752406701378 -0.21924882263564713 -0.27510493706013633 0.011742777784812525 0.023725136963642944 -0.07066432752642123 -0.054479660737187234 -0.19983875220224345 0.06727000732638498 0.059163206741086924 0.13561253866295664 0.007985443539037374 -0.03989898274323436 0.0836315049055766 0.024860025767741212 0.18430342043828218
27 0.1602591326843417 0.10326592889605536 0.10269682053193672 -0.17151366179353086 0.14252847930940202 0.039543770116115 0.12736301431652203 0.5075745059840165 0.07325981284482702 -0.30577963763916 -0.1167560123429391 -1.1102230246251565e-16 1.3877787807814457e-17 1.1102230246251565e-16 -8.326672684688674e-17 1.5265566588595902e-16 1.1102230246251565e-16 2.1561833386127376e-16 4.163336342344337e-17 1.5520139571245498e-17 -0.21450625891377198 -0.15364731198573767 0.3899868225742428 0.1076845149621617 0.07425818614789106 0.006768644901543192 -0.2623938764984622 0.4049156484362031 0.0007000340922839783 -0.09825813778292096 0.034712663551328335 0.0819130753277393 0.10169473897180904
26 0.13388288860600753 -0.02621821149589465 -0.4135428434126205 -0.3076298122436576 0.19153063442708138 0.02162348361495939 0.07654785263509695 -0.2264711858561228 -0.037883253626022274 0.2980335299957874 0.11379188628156509 -2.7755575615628914e-17 1.3877787807814457e-17 5.551115123125783e-17 -1.1102230246251565e-16 6.245004513516506e-17 2.7755575615628914e-17 -2.2456351392648244e-16 2.7755575615628914e-17 -5.3338519321497373e-17 -0.11605770645811775 -0.14833815828384356 0.39071200733094474 0.09809941340780193 -0.161905250741049 0.10113362110651769 0.0719643301996908 0.0329068496777403 -0.021590810367972738 0.11976841310153465 0.005962472300771671 -0.496594254960689 -0.021096747990622916
